~o
<STREAMINFO> 1 39
<VECSIZE> 39<NULLD><MFCC_D_A_0><DIAGC>
~h "#"
<BEGINHMM>
<NUMSTATES> 5
<STATE> 2
<MEAN> 39
 -1.525186e-01 -1.870405e+00 -8.038893e-01 -1.579976e+01 -8.434961e+00 -6.675206e+00 -6.422787e+00 -9.545851e+00 3.789592e+00 -3.214836e-01 -7.676696e+00 -2.488283e+00 8.215102e+01 8.937584e-01 -8.159783e-01 -6.356095e-01 -7.205111e-01 -1.687477e+00 -1.163677e+00 4.220282e-01 1.136201e+00 1.932199e+00 1.162662e+00 -4.471812e-01 -4.084751e-01 1.087438e+00 -6.402180e-01 -1.894242e-01 2.735921e-01 4.590375e-01 3.017303e-01 1.943326e-01 3.962222e-01 1.091825e-01 -3.891948e-01 -2.177014e-01 1.462578e-01 -5.616767e-03 -4.385824e-01
<VARIANCE> 39
 1.238836e+01 2.115964e+01 3.266214e+01 2.113393e+01 4.212938e+01 6.062106e+01 5.832866e+01 5.750599e+01 5.130321e+01 4.140187e+01 2.882705e+01 2.358737e+01 1.609356e+01 2.752437e+00 1.958449e+00 2.221184e+00 2.651648e+00 2.291181e+00 3.218292e+00 3.089843e+00 4.668448e+00 4.073523e+00 2.430476e+00 2.338477e+00 2.451707e+00 1.730212e+00 4.056295e-01 4.840230e-01 3.952463e-01 3.932294e-01 3.456072e-01 5.620414e-01 4.655024e-01 7.028970e-01 6.714809e-01 5.558467e-01 4.722189e-01 4.504348e-01 1.679200e-01
<GCONST> 1.188569e+02
<STATE> 3
<MEAN> 39
 -7.322193e-01 -4.173512e+00 1.368088e+00 -1.598092e+01 -1.374245e+01 -9.293803e+00 -1.372164e-01 -4.771663e+00 6.437098e+00 2.577870e+00 -9.243652e+00 -3.302083e+00 8.228505e+01 -1.666684e-01 2.740398e-03 2.930924e-01 -5.670784e-02 5.691837e-03 3.188518e-01 4.330812e-01 -2.508934e-02 -1.577606e-01 1.445189e-01 -6.379034e-02 -3.390833e-02 -1.551099e-01 -3.869224e-02 1.439025e-01 2.571749e-02 4.447551e-02 2.188804e-01 1.440110e-01 -1.586400e-01 -1.021161e-01 -1.237322e-01 -1.222971e-01 4.460816e-02 1.033823e-02 -1.010874e-01
<VARIANCE> 39
 4.304239e+00 2.291708e+01 3.871058e+01 1.730197e+01 3.047329e+01 3.835977e+01 6.132472e+01 3.777700e+01 2.307228e+01 2.799670e+01 2.445658e+01 2.031762e+01 1.524411e+01 2.233185e-01 8.635719e-01 1.165559e+00 7.774187e-01 1.244151e+00 1.556624e+00 1.846417e+00 1.426638e+00 1.319728e+00 1.340870e+00 1.232666e+00 1.077132e+00 2.779845e-01 4.372944e-02 1.306846e-01 1.712651e-01 1.931900e-01 1.881789e-01 2.109044e-01 2.209244e-01 2.607043e-01 2.573167e-01 2.297571e-01 2.126548e-01 2.049381e-01 4.762009e-02
<GCONST> 8.878970e+01
<STATE> 4
<MEAN> 39
 -4.104899e+00 -1.901640e+00 4.166856e+00 -1.346003e+01 -7.115721e+00 -3.397710e+00 -1.851955e+00 -7.499593e+00 3.133262e+00 6.158134e-01 -7.558070e+00 -2.862642e+00 7.850965e+01 -1.750449e+00 6.734262e-01 1.205375e+00 2.175442e+00 2.225687e+00 9.469029e-01 -2.184940e-01 2.652108e-02 -1.414271e+00 -1.445269e+00 7.108683e-01 1.551502e-01 -1.620374e+00 -5.140268e-01 -1.348315e-01 1.252046e-01 4.323739e-01 1.922758e-01 -9.399403e-03 2.207930e-01 8.157172e-02 -1.994619e-01 -1.734591e-01 1.336854e-01 -6.053049e-02 -1.927316e-01
<VARIANCE> 39
 1.727163e+01 2.609827e+01 3.744689e+01 3.749533e+01 4.538031e+01 3.539906e+01 4.468102e+01 5.216904e+01 3.765199e+01 3.841993e+01 2.574884e+01 2.690187e+01 3.083958e+01 2.597992e+00 2.790639e+00 2.407872e+00 4.942302e+00 2.654674e+00 2.394558e+00 3.229435e+00 3.313734e+00 2.403994e+00 2.330678e+00 3.206680e+00 2.412110e+00 1.779265e+00 2.533597e-01 4.488038e-01 4.267276e-01 8.698089e-01 5.095920e-01 4.251423e-01 4.398682e-01 6.302775e-01 4.858018e-01 4.911301e-01 5.000331e-01 4.093165e-01 3.299864e-01
<GCONST> 1.203346e+02
<TRANSP> 5
 0.000000e+00 1.000000e+00 0.000000e+00 0.000000e+00 0.000000e+00
 0.000000e+00 7.246993e-01 2.753007e-01 0.000000e+00 0.000000e+00
 0.000000e+00 0.000000e+00 9.050238e-01 9.497620e-02 0.000000e+00
 0.000000e+00 0.000000e+00 0.000000e+00 7.644768e-01 2.355232e-01
 0.000000e+00 0.000000e+00 0.000000e+00 0.000000e+00 0.000000e+00
<ENDHMM>
~h "$"
<BEGINHMM>
<NUMSTATES> 5
<STATE> 2
<MEAN> 39
 -1.159414e+00 6.041153e+00 1.091033e+01 -9.016134e+00 -5.315845e+00 -9.768531e+00 -1.735221e+01 -1.298453e+01 -5.176018e-01 -5.605012e+00 -8.051844e+00 -3.858200e+00 7.783633e+01 2.250701e+00 6.771374e-01 7.791278e-01 1.401099e-01 -1.373605e+00 -1.773428e+00 -3.313454e+00 -3.319177e-01 1.229714e+00 6.454361e-01 -6.202270e-01 2.066274e-01 7.644284e-01 -8.900427e-01 -5.090558e-01 -3.768592e-01 9.758954e-02 1.714997e-01 2.519140e-01 4.592450e-01 2.837723e-01 -1.658284e-01 -1.212782e-01 3.676735e-01 1.739027e-01 -2.979991e-01
<VARIANCE> 39
 1.133620e+01 2.708297e+01 2.072252e+01 2.560733e+01 2.247171e+01 6.176762e+01 6.917564e+01 3.495779e+01 4.127154e+01 2.863115e+01 3.527699e+01 2.309565e+01 2.234356e+01 4.909135e+00 2.226853e+00 2.425596e+00 2.076202e+00 2.132663e+00 3.442757e+00 4.301587e+00 3.259756e+00 3.947955e+00 3.118351e+00 2.398015e+00 1.617297e+00 2.192987e+00 4.587652e-01 3.457731e-01 4.469314e-01 3.560925e-01 3.419015e-01 6.971189e-01 9.001399e-01 5.663434e-01 6.777253e-01 6.108723e-01 4.410501e-01 3.026896e-01 1.658845e-01
<GCONST> 1.184036e+02
<STATE> 3
<MEAN> 39
 7.551600e-01 6.621024e+00 1.124551e+01 -5.939966e+00 -9.033158e+00 -1.596903e+01 -2.479777e+01 -1.215089e+01 -3.310854e-01 -5.935883e+00 -6.942428e+00 -1.617045e+00 7.683740e+01 -7.691157e-03 -9.911150e-02 -2.095989e-01 6.544781e-02 -3.012977e-01 -3.522520e-01 -1.120936e-01 3.440141e-01 -1.126638e-01 -2.151810e-01 1.987138e-01 9.927636e-02 -1.277798e-01 -6.644332e-02 -1.918468e-02 -1.035729e-01 -9.092586e-02 9.073857e-02 2.184336e-01 2.995666e-01 1.264867e-02 -9.981770e-03 -3.221940e-02 -2.563149e-02 -9.609336e-02 -2.428396e-02
<VARIANCE> 39
 3.172060e+00 1.381928e+01 2.723101e+01 2.919961e+01 2.191177e+01 3.761473e+01 3.755106e+01 3.367278e+01 2.934535e+01 2.870850e+01 2.289454e+01 2.215248e+01 8.283216e+00 1.667488e-01 5.491453e-01 8.278090e-01 1.228569e+00 1.044377e+00 1.586260e+00 1.965910e+00 1.501149e+00 1.434686e+00 1.505586e+00 1.158412e+00 1.169440e+00 2.531362e-01 4.712724e-02 8.228531e-02 1.188280e-01 1.927839e-01 2.055309e-01 2.511386e-01 2.739126e-01 2.796158e-01 2.582108e-01 2.573835e-01 2.187089e-01 2.034108e-01 3.123966e-02
<GCONST> 8.583376e+01
<STATE> 4
<MEAN> 39
 -1.745551e+00 4.306026e+00 6.115056e+00 -9.233082e+00 -6.959047e+00 -9.054422e+00 -1.557684e+01 -8.633733e+00 8.550267e-01 -6.590512e+00 -6.274133e+00 -3.088870e+00 7.559675e+01 -1.390977e+00 -2.462773e-01 -3.228944e-01 5.467239e-01 1.669248e+00 2.320822e+00 2.698145e+00 4.004341e-01 -3.880112e-01 -4.641380e-01 -3.089450e-01 -2.819215e-02 -8.368770e-01 -4.515211e-01 -4.780475e-02 2.021120e-01 4.518533e-01 3.127425e-01 4.541834e-02 1.704129e-01 9.083692e-02 -2.190892e-01 -9.739207e-03 1.179179e-01 1.954534e-01 -2.345285e-01
<VARIANCE> 39
 2.015411e+01 2.169205e+01 3.271218e+01 4.827599e+01 3.795591e+01 7.701443e+01 6.832804e+01 6.816277e+01 3.520195e+01 3.724405e+01 3.232249e+01 3.008156e+01 3.356044e+01 3.041538e+00 1.462376e+00 2.167426e+00 5.106470e+00 2.980046e+00 2.979672e+00 3.347793e+00 3.797189e+00 2.957234e+00 2.469228e+00 2.608425e+00 2.512310e+00 1.626346e+00 3.385616e-01 2.704639e-01 3.559408e-01 6.388795e-01 4.880794e-01 5.829888e-01 6.690635e-01 7.902467e-01 5.317039e-01 5.188518e-01 5.672696e-01 4.072551e-01 1.873202e-01
<GCONST> 1.219039e+02
<TRANSP> 5
 0.000000e+00 1.000000e+00 0.000000e+00 0.000000e+00 0.000000e+00
 0.000000e+00 6.883527e-01 3.116473e-01 0.000000e+00 0.000000e+00
 0.000000e+00 0.000000e+00 9.077281e-01 9.227188e-02 0.000000e+00
 0.000000e+00 0.000000e+00 0.000000e+00 7.908797e-01 2.091203e-01
 0.000000e+00 0.000000e+00 0.000000e+00 0.000000e+00 0.000000e+00
<ENDHMM>
~h "@"
<BEGINHMM>
<NUMSTATES> 5
<STATE> 2
<MEAN> 39
 -3.856969e+00 -9.398565e-01 2.483430e+00 -1.339647e+01 2.834143e-02 4.639420e-01 -6.155749e+00 -1.792641e+01 -6.904116e+00 -6.485607e+00 -8.539864e+00 -9.855440e-01 7.869575e+01 2.391348e+00 2.394404e-01 -8.722799e-01 -8.624395e-01 -4.309105e-01 -2.820548e-01 -1.229396e+00 -1.010657e+00 -3.892783e-01 -4.384727e-01 -1.207219e+00 3.567470e-01 1.216632e+00 -9.312714e-01 -1.815909e-01 5.730942e-02 5.503109e-01 7.315413e-02 -1.891178e-01 1.932136e-01 5.993346e-01 2.521081e-01 -9.182731e-03 3.336911e-01 -1.082810e-03 -5.305090e-01
<VARIANCE> 39
 2.979141e+01 2.173383e+01 4.386620e+01 4.218457e+01 5.717579e+01 4.885543e+01 4.959312e+01 5.594208e+01 9.045954e+01 6.443511e+01 2.953223e+01 2.994958e+01 2.328800e+01 5.161095e+00 3.127111e+00 3.065382e+00 3.509651e+00 2.647325e+00 3.219331e+00 3.521418e+00 4.165381e+00 3.668631e+00 3.008393e+00 3.568740e+00 2.355798e+00 3.280751e+00 8.346354e-01 4.979553e-01 4.885143e-01 5.804803e-01 4.696214e-01 5.494605e-01 6.493443e-01 6.675478e-01 8.648881e-01 5.703813e-01 4.682203e-01 3.718282e-01 3.195545e-01
<GCONST> 1.279194e+02
<STATE> 3
<MEAN> 39
 -2.125835e+00 -2.703504e+00 1.894400e+00 -1.287333e+01 -7.900091e-01 -2.814040e+00 -7.965235e+00 -1.795441e+01 -9.074618e+00 -9.143106e+00 -9.898248e+00 5.313594e-01 7.978400e+01 -3.125950e-01 2.902600e-01 2.627129e-01 5.070845e-01 5.818790e-02 -1.310156e-01 2.718221e-01 4.959475e-01 2.813261e-02 -1.506227e-01 -1.158510e-01 2.532220e-01 -5.708756e-01 -4.011999e-01 2.117327e-01 3.679666e-01 4.867539e-01 1.702823e-01 1.598026e-01 2.643937e-01 3.479831e-01 9.404840e-02 2.728331e-02 1.209516e-01 -1.766046e-01 -3.793647e-01
<VARIANCE> 39
 7.833453e+00 1.829002e+01 2.819233e+01 3.747152e+01 5.094526e+01 5.102527e+01 3.925013e+01 5.174485e+01 5.663495e+01 4.332851e+01 2.590912e+01 3.304797e+01 8.088503e+00 5.840546e-01 1.344911e+00 1.691143e+00 2.494942e+00 1.823527e+00 2.185956e+00 1.605824e+00 2.432641e+00 2.513476e+00 2.127561e+00 1.925262e+00 2.018459e+00 6.425302e-01 3.557959e-01 2.249874e-01 2.421613e-01 3.609781e-01 2.815836e-01 3.311366e-01 3.837390e-01 5.182983e-01 4.173298e-01 3.435154e-01 4.084534e-01 2.821499e-01 1.655808e-01
<GCONST> 1.074166e+02
<STATE> 4
<MEAN> 39
 -5.414976e+00 8.485582e-01 4.776087e+00 -8.076494e+00 8.302493e-01 -6.065270e-01 -5.812729e+00 -1.415205e+01 -7.674166e+00 -8.429658e+00 -8.853130e+00 -7.273276e-02 7.455292e+01 -1.594762e+00 6.606405e-01 1.351183e+00 2.513577e+00 3.837529e-01 1.558907e-01 9.626714e-01 2.077752e+00 5.513350e-01 1.102530e-01 5.746464e-01 -2.850421e-01 -1.935838e+00 -4.416786e-01 -2.006190e-01 9.879047e-02 1.000645e-01 -1.781795e-03 3.139373e-02 2.484631e-01 2.284871e-01 2.688165e-01 2.547393e-01 3.163679e-01 1.223142e-02 -1.014130e-01
<VARIANCE> 39
 1.964837e+01 2.102406e+01 4.107417e+01 5.862598e+01 4.963049e+01 4.725268e+01 4.120809e+01 6.093401e+01 5.519514e+01 5.313683e+01 3.705014e+01 3.507368e+01 2.300764e+01 2.418116e+00 2.621833e+00 3.039066e+00 4.654685e+00 2.428124e+00 2.816686e+00 2.601497e+00 3.643522e+00 3.274433e+00 2.994558e+00 2.781857e+00 2.310358e+00 2.124935e+00 3.307616e-01 3.973751e-01 4.476315e-01 5.750319e-01 3.999608e-01 4.791795e-01 5.601701e-01 7.114489e-01 5.280061e-01 4.721331e-01 5.141199e-01 3.127375e-01 2.410427e-01
<GCONST> 1.223325e+02
<TRANSP> 5
 0.000000e+00 1.000000e+00 0.000000e+00 0.000000e+00 0.000000e+00
 0.000000e+00 4.493131e-01 5.506869e-01 0.000000e+00 0.000000e+00
 0.000000e+00 0.000000e+00 6.977036e-01 3.022964e-01 0.000000e+00
 0.000000e+00 0.000000e+00 0.000000e+00 5.272008e-01 4.727992e-01
 0.000000e+00 0.000000e+00 0.000000e+00 0.000000e+00 0.000000e+00
<ENDHMM>
~h "D"
<BEGINHMM>
<NUMSTATES> 5
<STATE> 2
<MEAN> 39
 -2.072664e+01 4.590153e+00 9.416638e+00 -1.644006e+00 6.215701e+00 5.665479e+00 -4.691018e-02 -1.261075e+01 -2.054171e+00 -7.133016e+00 -4.711109e+00 -4.210856e+00 7.270638e+01 -1.903482e+00 5.862689e-02 -8.368366e-01 -8.389740e-01 1.200310e-01 2.591775e-01 9.253083e-01 1.554519e+00 5.592759e-01 -5.203080e-01 4.207025e-01 1.454448e-01 -3.199919e-01 1.205558e+00 -5.923424e-01 -2.178586e-01 -1.025918e+00 -5.985241e-01 -4.438494e-01 -8.306888e-01 -8.330848e-01 -3.471913e-01 2.609829e-01 -3.955606e-01 1.078802e-02 6.087148e-01
<VARIANCE> 39
 3.632502e+01 2.130655e+01 3.390552e+01 3.395839e+01 4.025866e+01 3.615438e+01 3.264869e+01 4.522603e+01 3.253231e+01 2.476868e+01 3.709474e+01 2.514957e+01 1.839685e+01 6.515144e+00 2.457682e+00 2.160221e+00 5.256026e+00 3.438915e+00 3.197244e+00 4.362741e+00 6.064822e+00 3.194901e+00 2.587726e+00 2.883988e+00 1.705424e+00 1.914933e+00 1.152320e+00 3.301931e-01 4.587032e-01 9.603416e-01 6.231744e-01 5.271341e-01 5.765682e-01 9.723560e-01 5.577966e-01 4.476598e-01 5.199261e-01 3.248944e-01 3.176476e-01
<GCONST> 1.238407e+02
<STATE> 3
<MEAN> 39
 -1.693693e+01 3.606368e+00 6.223171e+00 -1.015856e+01 2.178476e+00 3.812167e+00 -2.520828e+00 -1.426347e+01 -3.157565e+00 -9.011326e+00 -8.041974e+00 -5.297382e+00 7.573082e+01 2.819351e+00 -1.481738e+00 -7.039891e-01 -2.965300e+00 -1.708421e+00 -1.453471e+00 -1.720310e+00 -1.848836e+00 -1.011541e+00 -1.420859e-01 -1.463612e+00 -1.070273e-01 1.407018e+00 6.204335e-01 -4.456867e-01 1.334853e-01 2.799245e-01 -2.462880e-01 -4.816052e-01 -2.505723e-01 -3.597925e-01 -2.340151e-01 2.169497e-01 -6.493894e-02 1.224311e-01 1.772586e-01
<VARIANCE> 39
 8.689520e+01 2.695519e+01 3.467605e+01 2.847889e+01 3.365156e+01 3.558297e+01 3.573924e+01 3.307428e+01 2.540510e+01 2.099720e+01 5.309114e+01 2.926821e+01 1.079772e+01 9.496244e+00 1.750203e+00 1.953391e+00 3.419930e+00 3.012112e+00 2.371212e+00 2.932929e+00 4.726671e+00 3.372611e+00 2.191037e+00 3.324310e+00 1.605162e+00 1.248126e+00 1.101563e+00 3.901536e-01 4.221769e-01 5.249878e-01 5.977289e-01 4.364539e-01 5.944098e-01 7.737797e-01 4.423283e-01 4.216210e-01 6.162544e-01 3.606760e-01 2.145076e-01
<GCONST> 1.205085e+02
<STATE> 4
<MEAN> 39
 -2.334129e+01 -4.749469e+00 8.097916e+00 -1.063680e+01 9.584934e-01 4.251646e-01 -6.079052e-01 -1.174136e+01 -4.466074e+00 -4.586057e+00 -3.263790e+00 -1.703728e+00 7.024583e+01 9.649169e-01 -4.234436e-01 -5.267252e-01 8.878624e-02 -8.326365e-01 -5.244252e-01 -4.246899e-01 2.798446e-01 -3.348031e-01 2.727810e-01 -1.974678e-01 1.047788e-01 -6.441047e-01 4.920018e-02 1.652323e-01 -2.480463e-02 3.597277e-01 1.282228e-01 6.726418e-02 8.871796e-02 1.176886e-01 1.154720e-01 4.583852e-02 1.088074e-01 4.170841e-02 -1.192515e-01
<VARIANCE> 39
 9.264980e+01 2.501517e+01 3.558646e+01 3.642736e+01 3.067747e+01 2.783951e+01 4.281694e+01 5.822264e+01 2.457886e+01 2.707921e+01 4.704900e+01 1.906990e+01 5.715495e+01 3.524864e+00 2.825100e+00 1.935787e+00 2.806941e+00 1.934542e+00 2.498550e+00 2.112353e+00 3.686451e+00 2.400815e+00 1.664933e+00 1.773972e+00 1.145913e+00 2.339965e+00 6.114697e-01 2.635359e-01 3.003447e-01 4.108643e-01 3.431079e-01 3.686019e-01 4.317749e-01 6.400392e-01 4.343531e-01 2.967481e-01 3.941167e-01 2.561362e-01 2.178482e-01
<GCONST> 1.159365e+02
<TRANSP> 5
 0.000000e+00 1.000000e+00 0.000000e+00 0.000000e+00 0.000000e+00
 0.000000e+00 6.657959e-01 3.342041e-01 0.000000e+00 0.000000e+00
 0.000000e+00 0.000000e+00 4.679280e-01 5.320720e-01 0.000000e+00
 0.000000e+00 0.000000e+00 0.000000e+00 7.361142e-01 2.638858e-01
 0.000000e+00 0.000000e+00 0.000000e+00 0.000000e+00 0.000000e+00
<ENDHMM>
~h "E"
<BEGINHMM>
<NUMSTATES> 5
<STATE> 2
<MEAN> 39
 -5.117333e+00 -4.791847e+00 9.385777e-01 -1.074658e+01 3.902602e+00 -1.946704e-01 -1.046929e+01 -2.654536e+01 -4.792491e+00 1.934088e+00 -4.102757e-01 7.185953e-01 8.409832e+01 1.655058e+00 -5.557263e-01 -1.096254e+00 -3.766491e-01 -4.917373e-02 -3.808099e-01 -7.250080e-01 -1.555066e+00 5.571812e-01 1.509248e+00 7.507689e-01 5.509150e-01 1.829102e+00 -8.443280e-01 -1.498039e-01 3.309170e-01 2.719918e-01 -1.346895e-01 -9.132329e-03 5.340262e-01 1.002749e+00 1.294300e-01 -2.772280e-01 -1.123795e-01 -2.080947e-01 -6.118222e-01
<VARIANCE> 39
 2.314825e+01 1.974781e+01 3.891140e+01 4.029290e+01 3.944272e+01 4.038113e+01 4.339495e+01 4.026568e+01 4.989351e+01 4.187336e+01 2.234087e+01 2.464814e+01 2.056269e+01 5.891184e+00 3.313976e+00 3.493806e+00 4.078235e+00 3.131542e+00 3.606652e+00 3.646658e+00 5.984372e+00 4.281896e+00 4.014653e+00 2.616809e+00 1.960801e+00 3.496109e+00 6.430708e-01 6.515962e-01 6.481844e-01 6.224456e-01 4.664782e-01 5.840524e-01 6.819137e-01 7.500160e-01 8.132645e-01 6.440908e-01 4.635651e-01 3.527071e-01 4.167240e-01
<GCONST> 1.267635e+02
<STATE> 3
<MEAN> 39
 -4.467302e+00 -6.490648e+00 -1.785208e-01 -1.165422e+01 3.113670e+00 -2.707378e-01 -9.479127e+00 -2.591299e+01 -3.567057e+00 3.626488e+00 5.331574e-01 9.626570e-01 8.576654e+01 -4.524734e-01 3.430642e-01 1.011809e+00 7.594997e-01 4.695193e-01 2.119910e-02 3.749225e-01 5.699304e-01 -1.119759e-01 -3.065691e-01 -3.802019e-01 -4.869866e-01 -6.741001e-01 -2.078922e-01 3.949368e-01 4.142940e-01 4.504806e-01 1.169833e-01 7.820344e-02 1.414196e-01 3.882681e-01 -1.380862e-01 -4.483129e-01 -3.653523e-01 -2.173956e-01 -5.520198e-01
<VARIANCE> 39
 8.162726e+00 1.738459e+01 2.594456e+01 3.123643e+01 4.334250e+01 3.693221e+01 4.060392e+01 4.201260e+01 2.703134e+01 2.768704e+01 2.536796e+01 3.351712e+01 9.276133e+00 7.335708e-01 1.419763e+00 1.870371e+00 2.646798e+00 2.209450e+00 2.191898e+00 2.439949e+00 2.801660e+00 2.801480e+00 2.972198e+00 2.073837e+00 1.764419e+00 1.065689e+00 1.778845e-01 2.389902e-01 2.962521e-01 3.860503e-01 2.931000e-01 3.556177e-01 3.626709e-01 4.825151e-01 4.312036e-01 3.731358e-01 3.761349e-01 2.994624e-01 1.345804e-01
<GCONST> 1.070145e+02
<STATE> 4
<MEAN> 39
 -9.553127e+00 -2.342877e+00 8.076691e+00 -1.398309e+00 7.742366e+00 -1.975107e-01 -8.520005e+00 -2.156687e+01 -4.347826e+00 1.300325e+00 -2.949383e+00 -2.694808e+00 7.749540e+01 -1.882126e+00 1.076881e+00 1.805956e+00 2.835111e+00 4.951576e-02 2.715456e-01 1.640579e+00 3.378340e+00 3.388543e-01 -9.849848e-01 -8.033193e-01 -7.726554e-01 -2.820057e+00 -2.036773e-01 -1.471082e-01 -4.639679e-01 -4.245885e-01 -4.277357e-01 5.877988e-02 3.179683e-01 3.695827e-01 1.255411e-01 -4.641873e-02 1.251740e-01 1.549794e-01 -9.215437e-04
<VARIANCE> 39
 2.814791e+01 2.021027e+01 4.162122e+01 8.114200e+01 6.366013e+01 3.924702e+01 6.017485e+01 7.083788e+01 4.614794e+01 3.738864e+01 3.749913e+01 4.858621e+01 4.651012e+01 2.794492e+00 2.685267e+00 3.155689e+00 4.366263e+00 3.418829e+00 2.439572e+00 3.371017e+00 4.687285e+00 2.849852e+00 2.752903e+00 3.796697e+00 2.903238e+00 2.307570e+00 3.607831e-01 3.657044e-01 5.844126e-01 9.213532e-01 6.067896e-01 4.130822e-01 6.672375e-01 1.113716e+00 6.309616e-01 5.581084e-01 5.258290e-01 5.489602e-01 4.009959e-01
<GCONST> 1.284180e+02
<TRANSP> 5
 0.000000e+00 1.000000e+00 0.000000e+00 0.000000e+00 0.000000e+00
 0.000000e+00 5.766728e-01 4.233272e-01 0.000000e+00 0.000000e+00
 0.000000e+00 0.000000e+00 7.816886e-01 2.183114e-01 0.000000e+00
 0.000000e+00 0.000000e+00 0.000000e+00 6.124454e-01 3.875546e-01
 0.000000e+00 0.000000e+00 0.000000e+00 0.000000e+00 0.000000e+00
<ENDHMM>
~h "H"
<BEGINHMM>
<NUMSTATES> 5
<STATE> 2
<MEAN> 39
 -3.016042e+00 -1.995643e+00 4.266277e+00 -9.893064e+00 3.488164e+00 -2.290781e+00 -5.988833e+00 -1.530342e+01 -1.345407e+01 -1.039370e+01 -1.121221e+01 -3.879716e+00 7.843988e+01 4.403280e-01 1.150545e+00 -6.422994e-01 1.242858e+00 3.736556e-01 1.948464e-01 1.103910e-01 1.023946e+00 7.500758e-01 2.958424e-01 -3.388997e-01 -1.825351e-01 -1.109500e+00 -8.202050e-01 5.885344e-02 3.847078e-01 6.669426e-01 1.644058e-01 5.028583e-02 2.676477e-01 3.284726e-01 6.702280e-01 2.585573e-01 4.558137e-01 4.960878e-02 -3.685947e-01
<VARIANCE> 39
 6.899656e+00 1.001361e+01 2.620535e+01 2.225537e+01 3.797121e+01 2.670572e+01 3.793505e+01 4.250463e+01 3.506090e+01 2.566026e+01 2.035654e+01 2.506779e+01 9.717793e+00 4.232148e+00 1.361145e+00 3.322690e+00 4.031539e+00 1.591276e+00 1.564731e+00 3.333299e+00 3.510853e+00 4.617271e+00 2.070872e+00 3.548642e+00 2.021264e+00 9.950984e-01 6.612629e-01 3.096868e-01 3.891272e-01 3.110243e-01 3.355929e-01 3.128805e-01 6.216183e-01 7.052734e-01 8.438511e-01 4.018998e-01 5.126670e-01 3.496152e-01 7.331876e-02
<GCONST> 1.116513e+02
<STATE> 3
<MEAN> 39
 -6.252442e+00 6.938010e+00 7.054120e+00 3.790882e+00 8.707865e+00 1.390557e+00 -6.535845e+00 -1.082966e+01 -5.227869e+00 -6.647024e+00 -9.298043e+00 -4.954225e+00 6.850365e+01 -4.157449e-01 9.816310e-01 5.615709e-01 9.206730e-01 3.685250e-01 3.560372e-01 -4.597642e-01 -6.886627e-02 5.255328e-01 4.442066e-01 1.811947e-01 -2.305044e-01 -9.244303e-01 -1.080175e-02 -1.364326e-01 -9.638948e-03 -3.514976e-01 -1.590480e-01 -7.408748e-02 -8.785427e-03 -9.374793e-02 -2.299605e-01 -7.011126e-02 5.721443e-03 5.110314e-02 1.363204e-01
<VARIANCE> 39
 4.751702e+00 1.236051e+01 1.402490e+01 1.402733e+01 1.537987e+01 1.617788e+01 2.362672e+01 1.889243e+01 1.594004e+01 2.065229e+01 1.628689e+01 1.550412e+01 6.295622e+00 2.176299e-01 8.481034e-01 1.081287e+00 2.600221e+00 1.566105e+00 9.785913e-01 1.285494e+00 1.485389e+00 1.431928e+00 9.175654e-01 9.790287e-01 9.491565e-01 4.720633e-01 3.935913e-02 1.131904e-01 1.700951e-01 3.535341e-01 2.084614e-01 1.563894e-01 2.567201e-01 3.374784e-01 2.187968e-01 1.571305e-01 1.914169e-01 1.616054e-01 6.466568e-02
<GCONST> 8.200563e+01
<STATE> 4
<MEAN> 39
 -1.218000e+01 8.825124e+00 8.055971e+00 4.831216e+00 7.183728e+00 3.467251e+00 -5.143328e+00 -8.108166e+00 -4.715796e+00 -4.691033e+00 -6.645598e+00 -4.311982e+00 6.199120e+01 -8.179116e-01 -5.500631e-01 -5.200128e-01 -2.089724e-01 -6.118211e-01 -1.506714e-01 3.958499e-01 8.700325e-01 -1.877293e-02 3.340674e-02 7.102286e-01 2.505645e-01 -6.521400e-01 -1.055676e-01 -3.996892e-01 -1.270789e-01 -1.558594e-01 -1.100842e-01 -5.018247e-02 1.979162e-01 9.742375e-02 4.382778e-02 1.840922e-02 1.005822e-01 1.400454e-01 1.268859e-01
<VARIANCE> 39
 1.372820e+01 1.970056e+01 2.874802e+01 1.335075e+01 1.434545e+01 2.151056e+01 3.001044e+01 2.855172e+01 1.241521e+01 1.401699e+01 1.830562e+01 1.473596e+01 1.288302e+01 5.900115e-01 1.576415e+00 1.974660e+00 1.356462e+00 1.539103e+00 2.160259e+00 2.477441e+00 1.792506e+00 1.431299e+00 1.234117e+00 1.215998e+00 1.064059e+00 5.293141e-01 1.535331e-01 4.738804e-01 3.879335e-01 3.153251e-01 2.640949e-01 4.402291e-01 5.993992e-01 3.820664e-01 2.890516e-01 2.723273e-01 2.493088e-01 2.119829e-01 1.382665e-01
<GCONST> 9.701241e+01
<TRANSP> 5
 0.000000e+00 1.000000e+00 0.000000e+00 0.000000e+00 0.000000e+00
 0.000000e+00 8.178205e-01 1.821795e-01 0.000000e+00 0.000000e+00
 0.000000e+00 0.000000e+00 8.704332e-01 1.295669e-01 0.000000e+00
 0.000000e+00 0.000000e+00 0.000000e+00 8.509614e-01 1.490386e-01
 0.000000e+00 0.000000e+00 0.000000e+00 0.000000e+00 0.000000e+00
<ENDHMM>
~h "I"
<BEGINHMM>
<NUMSTATES> 5
<STATE> 2
<MEAN> 39
 -5.940507e+00 -3.722045e+00 6.866250e+00 -4.436007e+00 1.000883e+01 7.010455e-01 -1.253806e+01 -2.620485e+01 -1.153650e+01 -5.150688e+00 -5.477279e+00 -3.761039e+00 7.943530e+01 1.932151e+00 -6.309697e-02 -5.127947e-01 6.958914e-01 1.235763e+00 -3.493429e-01 -2.083330e+00 -2.241232e+00 -5.847273e-01 4.577622e-01 -6.417849e-01 -3.552638e-01 1.079412e+00 -9.388468e-01 -1.652918e-01 2.185382e-03 1.503251e-01 -4.893082e-01 -2.648946e-01 6.048727e-01 1.125594e+00 6.224319e-01 -1.074442e-02 9.866973e-02 6.726176e-02 -5.227071e-01
<VARIANCE> 39
 2.995515e+01 1.827086e+01 4.556059e+01 4.076852e+01 4.224043e+01 3.017920e+01 4.360734e+01 5.199697e+01 4.928292e+01 5.531244e+01 2.425829e+01 2.745522e+01 2.490231e+01 6.537514e+00 3.097973e+00 4.571451e+00 3.653883e+00 3.208950e+00 3.251631e+00 3.729235e+00 7.600608e+00 3.294729e+00 3.564370e+00 3.794960e+00 2.321906e+00 3.142796e+00 8.489179e-01 5.074072e-01 7.365198e-01 5.799505e-01 4.594184e-01 4.456718e-01 6.412370e-01 1.032544e+00 6.445394e-01 5.372399e-01 6.062950e-01 3.971555e-01 3.469334e-01
<GCONST> 1.280768e+02
<STATE> 3
<MEAN> 39
 -5.304883e+00 -5.246969e+00 5.063470e+00 -1.334844e+00 1.174592e+01 -3.294182e+00 -1.531372e+01 -2.678690e+01 -1.006290e+01 -4.459419e+00 -7.146987e+00 -3.063936e+00 7.930297e+01 -7.696270e-01 3.617305e-01 8.564569e-01 1.098204e+00 8.207111e-02 -2.702283e-01 3.365007e-01 9.210436e-01 7.396305e-01 4.068584e-01 -1.487581e-01 -1.253267e-01 -8.309550e-01 -3.185900e-01 2.737768e-01 2.916201e-01 1.270469e-01 -2.154072e-01 2.265128e-01 4.533892e-01 6.651697e-01 1.991796e-01 -8.426931e-02 2.472730e-02 -4.760956e-02 -3.788486e-01
<VARIANCE> 39
 9.440757e+00 1.852151e+01 3.160668e+01 5.473114e+01 4.791356e+01 3.730841e+01 4.760989e+01 5.638074e+01 4.418110e+01 4.931695e+01 2.890587e+01 4.548128e+01 1.551808e+01 9.158986e-01 1.306240e+00 2.084788e+00 2.950459e+00 1.648537e+00 1.951264e+00 2.159069e+00 3.552251e+00 2.208739e+00 2.129244e+00 1.814887e+00 2.116854e+00 1.083129e+00 2.403011e-01 2.425299e-01 3.143946e-01 3.898759e-01 3.133412e-01 3.044251e-01 3.989345e-01 5.338309e-01 4.375148e-01 3.851300e-01 4.224966e-01 3.524992e-01 1.425224e-01
<GCONST> 1.109949e+02
<STATE> 4
<MEAN> 39
 -1.188251e+01 -2.759427e-01 1.136356e+01 5.074456e+00 1.138122e+01 -1.499779e+00 -1.371666e+01 -1.884007e+01 -4.628093e+00 -1.021232e+00 -8.079708e+00 -6.226202e+00 7.071352e+01 -1.391251e+00 6.078472e-01 2.437398e-01 5.590093e-01 -1.047908e+00 4.173671e-01 1.757259e+00 2.788434e+00 8.144412e-01 -3.716985e-02 4.744890e-01 6.300925e-02 -1.641631e+00 -1.145207e-01 -1.980900e-01 -3.530804e-01 -3.792047e-01 -1.964649e-01 6.963713e-02 2.821284e-01 1.155946e-01 2.626955e-02 -1.475770e-01 1.371842e-01 1.197515e-01 6.791338e-02
<VARIANCE> 39
 2.249129e+01 1.739597e+01 3.914789e+01 4.973306e+01 4.512422e+01 3.020054e+01 5.509789e+01 6.539503e+01 3.842192e+01 4.307414e+01 2.997887e+01 3.534813e+01 5.067356e+01 2.636630e+00 2.241146e+00 4.156972e+00 4.228771e+00 2.387983e+00 2.042223e+00 3.220617e+00 4.688186e+00 2.930323e+00 2.580896e+00 2.592589e+00 2.124366e+00 1.836450e+00 2.036651e-01 3.022292e-01 4.542549e-01 4.236110e-01 3.462812e-01 3.830752e-01 4.428570e-01 5.576622e-01 4.154676e-01 4.311305e-01 3.578317e-01 3.043025e-01 1.336571e-01
<GCONST> 1.184056e+02
<TRANSP> 5
 0.000000e+00 1.000000e+00 0.000000e+00 0.000000e+00 0.000000e+00
 0.000000e+00 5.841478e-01 4.158522e-01 0.000000e+00 0.000000e+00
 0.000000e+00 0.000000e+00 7.578279e-01 2.421721e-01 0.000000e+00
 0.000000e+00 0.000000e+00 0.000000e+00 6.430447e-01 3.569553e-01
 0.000000e+00 0.000000e+00 0.000000e+00 0.000000e+00 0.000000e+00
<ENDHMM>
~h "J"
<BEGINHMM>
<NUMSTATES> 5
<STATE> 2
<MEAN> 39
 -2.008547e+01 -7.940383e+00 6.198824e+00 -5.197094e-01 2.600136e+00 1.553620e+00 -4.420111e+00 -8.436299e+00 -1.606163e+00 -4.112781e+00 -5.162597e+00 -1.764424e+00 6.533191e+01 -2.062286e+00 -3.391508e+00 1.379191e+00 -1.215498e+00 3.971408e-01 -4.686644e-01 5.097811e-02 -4.757351e-01 1.025061e+00 -1.099330e-01 1.064103e-01 2.760315e-01 2.071941e+00 -2.368718e-01 -1.594351e-01 2.728858e-01 -1.445019e-01 1.587672e-01 -3.801078e-01 -6.685767e-02 -2.933632e-01 3.788722e-02 1.194661e-01 1.558469e-01 6.435134e-03 4.978962e-01
<VARIANCE> 39
 2.554043e+01 9.118568e+01 7.012460e+01 5.455753e+01 3.934976e+01 3.460135e+01 3.260636e+01 3.858033e+01 2.288938e+01 2.048685e+01 1.752395e+01 1.528673e+01 4.940649e+01 3.730517e+00 7.573947e+00 8.530863e+00 5.141923e+00 4.030679e+00 3.726680e+00 3.859853e+00 6.773992e+00 2.873751e+00 2.853971e+00 2.302233e+00 1.889959e+00 7.226692e+00 7.276384e-01 1.517015e+00 1.434235e+00 1.446575e+00 6.988000e-01 6.115521e-01 8.389989e-01 1.116181e+00 5.558414e-01 5.496632e-01 4.824719e-01 3.259260e-01 1.026263e+00
<GCONST> 1.332258e+02
<STATE> 3
<MEAN> 39
 -3.006173e+01 -2.296242e+01 1.112440e+01 -4.261440e+00 6.227535e+00 -4.983158e+00 -5.515346e+00 -1.437384e+01 1.932977e+00 -2.487886e+00 -3.413690e+00 -9.693796e-01 7.830336e+01 4.246226e-02 -3.518847e-01 -5.337802e-01 -8.463196e-02 2.992527e-01 -5.986793e-01 -5.397577e-01 -7.872720e-01 -3.887872e-01 1.158510e-01 3.688866e-02 2.141952e-02 6.312009e-01 6.576444e-01 6.170608e-01 -2.709139e-01 1.083747e-01 -8.693988e-02 2.323017e-01 -9.538679e-02 7.932505e-02 -3.818688e-01 -1.284755e-01 -8.657832e-02 2.440694e-02 -4.593762e-01
<VARIANCE> 39
 6.042481e+00 8.201034e+00 2.244224e+01 1.707817e+01 2.114082e+01 2.547637e+01 2.774168e+01 3.508710e+01 1.883121e+01 1.397313e+01 1.101253e+01 1.478555e+01 1.219635e+01 2.396678e+00 1.412887e+00 2.753140e+00 1.131880e+00 1.187972e+00 1.428893e+00 1.775468e+00 2.361857e+00 2.078590e+00 1.309406e+00 1.112107e+00 8.896838e-01 1.800451e+00 3.641798e-01 3.137567e-01 9.273931e-01 2.614729e-01 2.562889e-01 2.232101e-01 3.180631e-01 3.494838e-01 3.222501e-01 2.317026e-01 1.956853e-01 1.856115e-01 7.699933e-02
<GCONST> 9.664494e+01
<STATE> 4
<MEAN> 39
 -2.091672e+01 -1.591352e+01 7.839522e+00 -3.241917e+00 6.441986e+00 -2.771780e+00 -8.353407e+00 -1.712276e+01 -5.899899e+00 -3.884504e+00 -3.736833e+00 1.945654e-01 7.479791e+01 3.116014e+00 3.145564e+00 1.037364e-01 7.362117e-01 -2.563598e-01 1.152484e+00 2.585269e-01 4.201614e-01 -1.590924e+00 -2.353859e-01 -1.700214e-01 4.081165e-01 -1.061266e+00 2.380995e-01 2.476406e-01 -2.210338e-01 -1.352400e-01 -2.455761e-01 1.207674e-01 6.327020e-02 6.912673e-02 1.843821e-01 7.446244e-02 -5.134190e-02 -5.073159e-02 8.293132e-02
<VARIANCE> 39
 5.124287e+01 4.703455e+01 3.295864e+01 3.361332e+01 3.099722e+01 2.546799e+01 3.178923e+01 6.984654e+01 4.195287e+01 1.756891e+01 1.621853e+01 1.482165e+01 6.445388e+01 6.905162e+00 2.415777e+00 2.506556e+00 2.593288e+00 3.707314e+00 2.110402e+00 3.391656e+00 7.107459e+00 5.904097e+00 2.236052e+00 1.749004e+00 1.599242e+00 1.960320e+00 7.262983e-01 7.286264e-01 5.874428e-01 4.789978e-01 3.911790e-01 5.058103e-01 5.165536e-01 8.163586e-01 7.130982e-01 3.285069e-01 2.633148e-01 2.775822e-01 1.870618e-01
<GCONST> 1.211785e+02
<TRANSP> 5
 0.000000e+00 1.000000e+00 0.000000e+00 0.000000e+00 0.000000e+00
 0.000000e+00 7.925973e-01 2.074028e-01 0.000000e+00 0.000000e+00
 0.000000e+00 0.000000e+00 8.652522e-01 1.347478e-01 0.000000e+00
 0.000000e+00 0.000000e+00 0.000000e+00 7.523242e-01 2.476758e-01
 0.000000e+00 0.000000e+00 0.000000e+00 0.000000e+00 0.000000e+00
<ENDHMM>
~h "N"
<BEGINHMM>
<NUMSTATES> 5
<STATE> 2
<MEAN> 39
 -8.758727e+00 -2.241055e+00 9.939555e+00 5.049332e+00 1.077400e+01 -4.173015e+00 -1.325570e+01 -1.731686e+01 3.771135e+00 3.622852e+00 -1.124974e+01 -1.131335e+01 7.436031e+01 2.516397e-01 2.114288e+00 5.635003e-02 -4.203973e-01 -1.180331e+00 1.620364e+00 1.941310e+00 2.195530e+00 -7.755879e-01 -1.908235e+00 -1.240481e+00 -9.065449e-02 -1.593324e+00 2.935085e-01 2.699989e-01 -6.715004e-01 -4.318342e-01 -1.353879e-01 3.545333e-01 2.294418e-01 -3.918572e-01 -8.491614e-01 -5.495520e-01 5.115401e-01 7.244231e-01 -5.186661e-02
<VARIANCE> 39
 6.876324e+00 2.487098e+01 2.033810e+01 2.280405e+01 2.593849e+01 3.335793e+01 3.840736e+01 3.496827e+01 2.228922e+01 2.455331e+01 2.133416e+01 1.954391e+01 1.702794e+01 5.190935e-01 8.624401e-01 2.391871e+00 1.383438e+00 1.486200e+00 1.609513e+00 1.820963e+00 2.419516e+00 3.948392e+00 2.437974e+00 2.183760e+00 3.143563e+00 2.527490e-01 5.853500e-02 1.533567e-01 2.081943e-01 2.431535e-01 2.388385e-01 3.096468e-01 3.407191e-01 3.665165e-01 5.100183e-01 5.006139e-01 4.345090e-01 3.197721e-01 4.472860e-02
<GCONST> 9.883331e+01
<STATE> 3
<MEAN> 39
 -6.895583e+00 7.988588e+00 5.285290e+00 2.213967e+00 6.550176e+00 3.569783e+00 -6.404696e+00 -1.236024e+01 -3.959414e+00 -5.680653e+00 -9.063210e+00 -6.709436e+00 6.678112e+01 -3.632406e-01 8.208784e-01 -1.616270e-01 7.968287e-02 -3.305093e-02 5.826234e-01 3.736025e-01 5.536270e-01 -4.612215e-01 -5.211755e-01 5.709553e-01 3.230440e-01 -9.627120e-01 -3.037364e-01 -3.430134e-01 1.832774e-01 7.503719e-02 2.046027e-01 -2.003371e-01 -1.245957e-01 3.406908e-02 2.213072e-01 3.094884e-01 6.129956e-02 -1.254290e-01 1.010915e-01
<VARIANCE> 39
 1.178080e+01 1.625698e+01 1.942651e+01 1.298243e+01 1.378738e+01 1.561386e+01 1.519087e+01 1.633583e+01 1.299100e+01 1.517434e+01 1.145916e+01 1.600165e+01 1.926178e+01 8.220103e-01 1.361744e+00 1.907382e+00 1.149649e+00 1.146229e+00 1.491232e+00 1.476515e+00 1.117359e+00 1.361066e+00 1.589974e+00 9.363263e-01 1.275294e+00 3.275088e-01 9.982638e-02 1.387397e-01 3.110635e-01 2.481047e-01 2.489780e-01 2.733220e-01 3.689825e-01 2.662416e-01 2.449030e-01 2.286704e-01 2.087819e-01 2.265360e-01 5.600420e-02
<GCONST> 8.790469e+01
<STATE> 4
<MEAN> 39
 -1.810172e+01 4.354658e+00 6.025386e+00 -1.446789e+00 8.842010e+00 3.727674e+00 -2.944501e+00 -5.913212e+00 -5.225780e+00 -4.886857e+00 -2.697753e+00 -3.945802e+00 6.206856e+01 -1.182298e+00 -9.604486e-01 -5.397452e-01 -5.036651e-01 -4.249815e-01 -3.550111e-01 4.406986e-01 7.732627e-01 6.741080e-02 3.829806e-01 7.598044e-01 5.094147e-01 -5.638026e-01 1.274810e-01 -2.888815e-02 -1.665094e-01 2.083823e-02 -2.373255e-01 -8.710187e-02 -1.923466e-02 -5.683609e-03 1.057241e-01 2.580654e-02 -7.237660e-02 5.535091e-02 -2.058155e-02
<VARIANCE> 39
 3.774634e+01 3.014351e+01 3.897686e+01 3.946506e+01 3.931172e+01 2.678392e+01 2.346243e+01 3.323790e+01 1.723598e+01 1.886804e+01 2.372016e+01 2.157034e+01 2.227387e+01 3.440506e+00 2.101859e+00 4.207037e+00 4.527001e+00 5.228314e+00 2.702488e+00 2.319686e+00 3.813349e+00 2.276426e+00 1.962057e+00 2.407568e+00 1.615035e+00 2.017921e+00 6.089456e-01 4.976475e-01 8.210704e-01 9.434203e-01 8.445464e-01 5.944317e-01 4.253761e-01 7.493767e-01 4.424959e-01 3.861396e-01 4.659623e-01 3.224179e-01 3.901508e-01
<GCONST> 1.202212e+02
<TRANSP> 5
 0.000000e+00 1.000000e+00 0.000000e+00 0.000000e+00 0.000000e+00
 0.000000e+00 7.204381e-01 2.795619e-01 0.000000e+00 0.000000e+00
 0.000000e+00 0.000000e+00 8.727175e-01 1.272825e-01 0.000000e+00
 0.000000e+00 0.000000e+00 0.000000e+00 8.480042e-01 1.519958e-01
 0.000000e+00 0.000000e+00 0.000000e+00 0.000000e+00 0.000000e+00
<ENDHMM>
~h "P"
<BEGINHMM>
<NUMSTATES> 5
<STATE> 2
<MEAN> 39
 -1.134977e+00 3.735015e+00 9.998763e+00 -7.061259e+00 -9.021738e+00 -1.605983e+01 -1.819348e+01 -8.958621e+00 -3.237497e+00 -1.018988e+01 -8.985300e+00 -5.018325e+00 7.642232e+01 5.086386e-01 5.686876e-01 3.456973e-01 1.148455e+00 -7.964103e-01 -1.911545e+00 -2.314265e+00 7.887879e-01 -2.767451e-01 5.038843e-02 4.495429e-01 5.960671e-01 -6.594066e-01 -5.299985e-01 -3.231268e-02 -4.214671e-02 1.378234e-01 3.330752e-01 3.820207e-01 5.444812e-01 3.348229e-02 -2.775901e-01 4.291410e-02 4.088981e-01 2.024129e-01 -2.078823e-01
<VARIANCE> 39
 5.143995e+00 1.521752e+01 2.165948e+01 3.078866e+01 2.173847e+01 4.413050e+01 5.898913e+01 3.317141e+01 2.293148e+01 2.418278e+01 3.008582e+01 2.522260e+01 9.116549e+00 2.332843e+00 1.155430e+00 1.335213e+00 1.585621e+00 1.651222e+00 2.287159e+00 3.479553e+00 1.835036e+00 2.074777e+00 2.277637e+00 2.921527e+00 1.675603e+00 4.925937e-01 3.660588e-01 2.433822e-01 2.370198e-01 3.585099e-01 2.437114e-01 3.597293e-01 4.929130e-01 3.574366e-01 2.794055e-01 3.854279e-01 5.131555e-01 3.105025e-01 6.471398e-02
<GCONST> 1.036461e+02
<STATE> 3
<MEAN> 39
 -3.326262e+00 9.614872e+00 1.254480e+01 7.575370e-01 -9.772346e+00 -2.032996e+01 -2.090314e+01 -6.598052e+00 -9.785959e+00 -1.003820e+01 -3.357049e+00 -3.114417e-01 6.942363e+01 -3.856609e-01 5.800743e-01 1.794142e-01 5.741773e-01 1.230401e-01 3.412205e-01 6.029318e-01 -3.849431e-02 -4.770693e-01 1.456244e-01 3.380365e-01 1.735394e-01 -7.177343e-01 -1.128059e-01 -1.412588e-01 -5.249571e-02 -9.262245e-02 1.339510e-01 2.604130e-01 2.270087e-01 -1.954482e-02 2.107916e-01 8.116617e-02 -6.718744e-02 -1.009341e-01 2.739329e-02
<VARIANCE> 39
 3.656244e+00 1.506542e+01 1.840932e+01 2.076890e+01 1.665373e+01 2.285116e+01 2.363898e+01 2.879906e+01 2.274178e+01 3.358419e+01 1.462844e+01 1.803428e+01 7.660430e+00 2.524552e-01 7.543057e-01 7.963965e-01 8.129725e-01 9.116025e-01 1.212564e+00 1.081285e+00 1.199030e+00 1.210421e+00 1.083105e+00 8.402976e-01 8.761076e-01 2.424851e-01 7.957537e-02 1.620384e-01 1.455756e-01 1.466582e-01 2.155247e-01 2.112808e-01 2.124575e-01 2.445373e-01 1.809944e-01 2.001558e-01 1.685598e-01 1.484167e-01 3.780664e-02
<GCONST> 8.063545e+01
<STATE> 4
<MEAN> 39
 -1.169150e+01 7.986963e+00 8.309287e+00 2.230537e+00 -4.887507e+00 -1.028174e+01 -1.143710e+01 -5.041319e+00 -5.477715e+00 -4.508956e+00 -1.517000e+00 -7.497944e-01 6.203566e+01 -1.759097e+00 -1.314512e+00 -1.001071e+00 -2.123004e-01 1.122407e+00 1.788910e+00 2.098802e+00 6.924418e-01 9.973519e-01 7.822872e-01 2.181184e-01 -8.133524e-02 -8.348679e-01 -1.489873e-01 -2.203142e-01 -1.051345e-01 -1.317636e-01 7.549760e-02 4.672227e-02 1.337050e-01 1.205000e-02 4.855870e-02 -6.727716e-03 -1.220075e-02 4.856811e-02 5.836434e-02
<VARIANCE> 39
 2.336537e+01 2.240889e+01 3.501585e+01 1.505823e+01 1.982348e+01 3.362621e+01 3.116232e+01 2.481124e+01 3.139855e+01 2.811233e+01 1.331143e+01 1.175985e+01 1.810692e+01 1.112349e+00 1.611915e+00 1.682238e+00 1.165371e+00 3.020883e+00 2.822797e+00 2.642445e+00 2.530553e+00 2.571386e+00 2.169033e+00 1.288561e+00 1.023986e+00 5.740822e-01 3.162183e-01 4.444734e-01 3.385867e-01 2.430624e-01 4.547736e-01 5.537642e-01 5.518419e-01 4.821415e-01 5.267040e-01 3.897241e-01 2.206379e-01 1.847820e-01 8.164730e-02
<GCONST> 1.043812e+02
<TRANSP> 5
 0.000000e+00 1.000000e+00 0.000000e+00 0.000000e+00 0.000000e+00
 0.000000e+00 8.272619e-01 1.727381e-01 0.000000e+00 0.000000e+00
 0.000000e+00 0.000000e+00 8.943099e-01 1.056901e-01 0.000000e+00
 0.000000e+00 0.000000e+00 0.000000e+00 8.145221e-01 1.854779e-01
 0.000000e+00 0.000000e+00 0.000000e+00 0.000000e+00 0.000000e+00
<ENDHMM>
~h "Q"
<BEGINHMM>
<NUMSTATES> 5
<STATE> 2
<MEAN> 39
 -9.314756e-01 5.377252e-01 7.179275e+00 -1.175708e+01 -9.356848e+00 -1.218946e+01 -1.210888e+01 -9.829565e+00 1.183896e+00 -4.051981e+00 -7.601403e+00 -2.113327e+00 8.076627e+01 2.362821e+00 3.020464e-02 1.325004e-01 -7.076914e-01 -2.342783e+00 -2.578216e+00 -2.316556e+00 7.462456e-01 1.904111e+00 1.301324e+00 -5.244677e-01 1.568489e-01 1.221137e+00 -9.232693e-01 -3.433983e-01 -8.624041e-02 4.569817e-01 4.647640e-01 4.478762e-01 5.311193e-01 1.867432e-01 -2.104026e-01 3.851436e-02 3.989995e-01 2.144494e-02 -4.679434e-01
<VARIANCE> 39
 1.522812e+01 2.098667e+01 2.585073e+01 3.321184e+01 3.976217e+01 6.518575e+01 5.995421e+01 5.208098e+01 4.456402e+01 4.973816e+01 3.363290e+01 2.622418e+01 1.993266e+01 5.434053e+00 2.687060e+00 2.505052e+00 2.986619e+00 4.069269e+00 4.884661e+00 4.734141e+00 4.607467e+00 5.156939e+00 3.261178e+00 3.039200e+00 2.363795e+00 3.152924e+00 6.248481e-01 4.427242e-01 4.091691e-01 4.514540e-01 6.311977e-01 9.203221e-01 9.256140e-01 7.654223e-01 8.972115e-01 8.268810e-01 6.798130e-01 5.032555e-01 2.949706e-01
<GCONST> 1.278387e+02
<STATE> 3
<MEAN> 39
 3.796216e-01 -1.576674e-01 8.406535e+00 -1.085722e+01 -1.384490e+01 -1.614899e+01 -1.646041e+01 -7.466454e+00 4.325942e+00 -6.300219e-01 -5.226623e+00 -2.055795e+00 8.085212e+01 -4.075524e-01 1.106943e-01 3.744493e-01 6.244057e-01 1.709098e-01 2.379013e-01 5.832819e-01 4.312690e-01 -2.498652e-01 -1.010619e-01 2.134122e-01 -5.861844e-02 -4.658312e-01 -4.378789e-01 1.772055e-01 2.175482e-02 3.051472e-01 6.112441e-01 5.706504e-01 5.593451e-01 2.692994e-02 -3.045551e-01 -3.381537e-01 -4.195448e-04 -8.714528e-02 -3.506315e-01
<VARIANCE> 39
 3.974698e+00 1.274266e+01 2.820791e+01 2.953508e+01 3.135545e+01 5.281731e+01 4.655538e+01 4.855604e+01 2.684162e+01 2.877924e+01 2.204904e+01 2.694286e+01 9.325458e+00 9.051276e-01 1.232375e+00 1.327640e+00 2.155334e+00 2.818908e+00 3.524642e+00 3.069489e+00 2.458015e+00 2.485513e+00 2.481291e+00 1.970641e+00 1.709364e+00 1.101822e+00 2.871061e-01 1.586547e-01 2.516630e-01 3.500064e-01 4.288965e-01 4.123408e-01 4.899120e-01 5.028075e-01 5.172986e-01 4.031614e-01 4.211976e-01 3.450611e-01 1.364966e-01
<GCONST> 1.072009e+02
<STATE> 4
<MEAN> 39
 -7.964750e+00 2.309405e+00 9.830451e+00 -4.409709e+00 -5.538063e+00 -8.833760e+00 -7.194849e+00 -4.795111e+00 1.427954e+00 -3.281539e+00 -3.934996e+00 -2.268241e+00 7.425190e+01 -2.998014e+00 9.645851e-02 -7.036036e-02 2.044822e+00 3.037859e+00 2.832686e+00 2.749213e+00 8.786742e-01 -8.971397e-01 -8.545203e-01 3.045152e-01 -7.202046e-03 -1.935112e+00 -1.316972e-01 -3.476400e-01 -3.719444e-01 -4.001038e-01 -4.940346e-02 1.234417e-01 -9.084979e-02 -2.033414e-01 -1.077544e-01 4.656701e-02 -4.211896e-02 4.589223e-02 9.119523e-02
<VARIANCE> 39
 5.026823e+01 2.689910e+01 2.864728e+01 4.706857e+01 7.015682e+01 6.255714e+01 5.518206e+01 4.430147e+01 5.051474e+01 3.689671e+01 2.701568e+01 2.287288e+01 5.645354e+01 3.738801e+00 2.125326e+00 2.972124e+00 3.954865e+00 3.711595e+00 3.304203e+00 3.872863e+00 4.271840e+00 3.916039e+00 2.898258e+00 3.378314e+00 2.323836e+00 2.405976e+00 4.938032e-01 3.340543e-01 4.726056e-01 8.113587e-01 8.491668e-01 6.998981e-01 7.857785e-01 8.314528e-01 8.890401e-01 5.295625e-01 4.985481e-01 3.301368e-01 3.349080e-01
<GCONST> 1.281312e+02
<TRANSP> 5
 0.000000e+00 1.000000e+00 0.000000e+00 0.000000e+00 0.000000e+00
 0.000000e+00 5.715137e-01 4.284863e-01 0.000000e+00 0.000000e+00
 0.000000e+00 0.000000e+00 8.173029e-01 1.826970e-01 0.000000e+00
 0.000000e+00 0.000000e+00 0.000000e+00 6.742744e-01 3.257256e-01
 0.000000e+00 0.000000e+00 0.000000e+00 0.000000e+00 0.000000e+00
<ENDHMM>
~h "R"
<BEGINHMM>
<NUMSTATES> 5
<STATE> 2
<MEAN> 39
 -2.830096e+00 -1.943468e+00 -1.480499e+00 -1.368041e+01 -3.325749e+00 -6.696424e+00 -5.283011e+00 -1.514693e+01 -4.027288e+00 -3.789362e+00 -8.597703e+00 7.772514e+00 7.752725e+01 -5.822670e-01 7.032484e-01 5.442100e-01 7.580294e-02 2.478887e-02 6.756941e-01 3.864855e-01 4.955069e-01 5.476725e-01 7.284091e-01 1.537271e-01 4.073405e-01 -8.874648e-01 -1.711834e-01 8.626866e-02 1.589092e-01 1.447456e-01 1.579657e-01 3.530034e-01 -1.189599e-01 5.492692e-02 -9.240147e-03 7.163367e-03 1.335826e-01 -2.175431e-01 -2.286144e-01
<VARIANCE> 39
 5.194938e+00 1.692380e+01 2.031208e+01 1.920317e+01 4.494966e+01 2.821383e+01 3.141740e+01 3.441395e+01 4.553049e+01 2.681748e+01 1.962741e+01 2.883904e+01 6.982605e+00 3.429809e-01 9.750849e-01 1.253371e+00 9.423144e-01 1.163153e+00 1.582349e+00 1.239111e+00 1.558439e+00 1.247858e+00 1.200941e+00 1.035585e+00 1.308205e+00 4.483735e-01 5.882188e-02 2.132299e-01 2.191396e-01 1.848163e-01 1.982708e-01 2.037490e-01 2.172647e-01 2.979052e-01 1.989315e-01 2.108293e-01 2.163700e-01 1.792140e-01 5.824279e-02
<GCONST> 8.908960e+01
<STATE> 3
<MEAN> 39
 -8.183857e+00 1.392309e+00 1.697743e+00 -1.149351e+01 -1.132021e+00 1.245415e+00 -4.619260e+00 -1.088620e+01 -9.418547e-01 3.255279e-01 -4.795014e+00 7.939786e+00 7.006738e+01 -1.169416e+00 -4.335318e-01 -7.052726e-01 1.356005e+00 3.329654e-01 9.006720e-01 4.998568e-01 2.759823e+00 5.922700e-01 3.468551e-02 1.597646e+00 -4.255686e-02 -1.781951e+00 3.492623e-02 -3.559375e-01 -5.010507e-01 3.190550e-01 -1.252700e-01 -5.283766e-01 4.525724e-02 3.493910e-01 -3.071737e-01 -4.481204e-01 2.807781e-01 -1.047702e-01 8.723305e-03
<VARIANCE> 39
 5.243516e+00 1.081831e+01 1.518299e+01 1.859764e+01 2.440204e+01 2.673422e+01 2.648831e+01 4.872456e+01 3.113699e+01 2.193494e+01 2.084145e+01 1.907463e+01 9.297268e+00 4.428128e-01 1.151520e+00 1.877036e+00 1.344510e+00 1.619554e+00 3.038239e+00 2.168650e+00 2.208705e+00 1.891576e+00 2.185649e+00 1.708001e+00 1.230868e+00 3.763096e-01 5.996745e-02 1.444828e-01 2.446065e-01 2.121915e-01 2.270755e-01 4.144857e-01 2.887124e-01 4.659111e-01 3.490723e-01 2.845897e-01 2.512021e-01 2.224694e-01 4.730156e-02
<GCONST> 9.401974e+01
<STATE> 4
<MEAN> 39
 -1.417828e+01 -1.508027e+00 -3.361346e+00 -2.610005e+00 -1.176213e+00 -5.986161e-01 -1.956843e+00 4.830994e-01 -2.877472e+00 -3.896572e+00 2.336533e+00 5.428992e+00 6.177806e+01 -1.731054e+00 2.293074e-01 -2.088951e-02 1.512771e+00 9.040720e-02 -2.480074e-01 6.268464e-01 9.107372e-01 -2.539378e-01 -2.839970e-01 3.468406e-01 -9.544399e-01 -1.863137e+00 -7.655593e-02 2.177278e-01 3.217518e-01 -2.766249e-01 3.458223e-02 1.040220e-01 -2.926271e-02 -4.829277e-01 2.078353e-01 3.488471e-01 -4.372449e-01 -8.651544e-02 6.082717e-02
<VARIANCE> 39
 1.429697e+01 1.198283e+01 1.101043e+01 1.835755e+01 1.236356e+01 2.045515e+01 1.920694e+01 1.711602e+01 1.689252e+01 1.746283e+01 1.398073e+01 1.436964e+01 1.601134e+01 3.646760e-01 1.047114e+00 1.224155e+00 1.330117e+00 1.089277e+00 1.565380e+00 1.668736e+00 2.196802e+00 2.337517e+00 2.637735e+00 2.203155e+00 1.133269e+00 2.449161e-01 1.071796e-01 1.746669e-01 1.818704e-01 2.239107e-01 2.038558e-01 3.147518e-01 3.627550e-01 3.210436e-01 3.977608e-01 3.710687e-01 3.008824e-01 2.308581e-01 8.005861e-02
<GCONST> 9.072477e+01
<TRANSP> 5
 0.000000e+00 1.000000e+00 0.000000e+00 0.000000e+00 0.000000e+00
 0.000000e+00 8.042858e-01 1.957142e-01 0.000000e+00 0.000000e+00
 0.000000e+00 0.000000e+00 7.545278e-01 2.454722e-01 0.000000e+00
 0.000000e+00 0.000000e+00 0.000000e+00 8.189477e-01 1.810523e-01
 0.000000e+00 0.000000e+00 0.000000e+00 0.000000e+00 0.000000e+00
<ENDHMM>
~h "S"
<BEGINHMM>
<NUMSTATES> 5
<STATE> 2
<MEAN> 39
 -2.226768e+01 -1.683895e+01 7.580818e+00 -1.895990e+00 1.097181e+01 2.194577e+00 -3.923870e+00 -1.557595e+01 -9.045956e-01 -3.316308e+00 -2.862281e+00 -1.476372e+00 7.715739e+01 -2.959227e+00 -3.248676e+00 7.931173e-01 -6.721891e-01 -2.086988e-01 -1.561460e+00 2.544168e-01 -5.743328e-02 1.064266e+00 4.622798e-02 2.482988e-01 -8.952700e-02 1.643217e+00 2.751414e-01 6.336620e-01 -1.615196e-01 -1.535910e-01 -4.548652e-01 -4.614197e-01 -2.912124e-01 -3.798793e-02 -1.630332e-02 1.182280e-01 -9.323099e-02 -4.430307e-02 -2.025488e-01
<VARIANCE> 39
 2.423587e+01 2.626764e+01 4.556498e+01 3.456390e+01 4.789703e+01 5.034684e+01 5.899452e+01 4.282932e+01 3.063297e+01 2.138308e+01 1.710671e+01 1.435417e+01 5.735554e+01 2.350614e+00 2.509629e+00 4.170587e+00 2.030197e+00 2.769174e+00 2.509377e+00 4.292670e+00 5.292283e+00 2.731345e+00 2.355964e+00 2.043375e+00 1.509835e+00 1.868430e+00 5.154813e-01 4.327123e-01 5.216526e-01 4.327396e-01 3.603446e-01 6.071969e-01 1.131231e+00 1.159559e+00 6.409424e-01 4.012807e-01 3.909253e-01 2.570843e-01 1.875401e-01
<GCONST> 1.201754e+02
<STATE> 3
<MEAN> 39
 -2.889734e+01 -2.271518e+01 7.985603e+00 -4.514971e+00 7.348171e+00 -5.747145e+00 -6.499119e+00 -1.737547e+01 -2.016413e-01 -2.796437e+00 -2.692402e+00 -1.947813e+00 8.058829e+01 4.912676e-02 -2.360010e-02 -1.677290e-01 -1.985500e-01 -2.296724e-01 -3.876008e-01 -3.243716e-01 -3.166615e-01 -4.183677e-01 -1.943202e-01 -1.794724e-02 1.202140e-01 -1.459731e-02 4.776335e-01 3.756148e-01 2.296812e-02 1.067180e-01 1.279351e-01 2.631967e-01 3.560232e-02 2.642748e-02 -2.533467e-01 -9.148014e-02 -4.305161e-02 4.936440e-02 -1.802574e-01
<VARIANCE> 39
 5.334390e+00 6.403759e+00 1.659126e+01 1.757912e+01 2.066877e+01 2.408843e+01 2.670089e+01 3.078934e+01 1.917131e+01 1.482139e+01 1.216037e+01 1.627719e+01 9.953701e+00 8.989531e-01 6.962597e-01 9.435128e-01 9.712769e-01 9.812049e-01 1.421345e+00 1.351744e+00 1.704795e+00 1.398997e+00 1.318669e+00 9.210660e-01 8.707464e-01 7.395747e-01 2.776718e-01 2.085909e-01 2.089385e-01 1.706118e-01 1.741336e-01 2.134247e-01 2.428380e-01 3.201511e-01 2.967220e-01 2.580669e-01 1.908540e-01 1.840630e-01 3.839066e-02
<GCONST> 8.653548e+01
<STATE> 4
<MEAN> 39
 -1.779898e+01 -1.373621e+01 7.562700e+00 -4.263886e+00 8.121304e+00 -2.001945e+00 -7.065159e+00 -1.801687e+01 -8.430765e+00 -6.673745e+00 -3.645775e+00 5.542368e-01 7.689439e+01 4.215317e+00 3.308005e+00 3.714980e-02 1.880210e-01 -2.371009e-01 1.341056e+00 -1.759458e-01 3.299013e-01 -2.102470e+00 -6.916044e-01 -9.787309e-01 3.247307e-01 -7.315691e-01 7.710913e-02 5.833457e-02 -4.161388e-01 -2.006567e-01 -2.685625e-01 3.779516e-03 -1.548289e-01 9.090146e-02 3.297909e-01 1.733645e-01 -1.619491e-01 -1.693073e-01 9.486962e-02
<VARIANCE> 39
 8.873624e+01 5.120382e+01 3.632808e+01 2.742161e+01 2.658048e+01 3.218949e+01 3.183995e+01 5.407674e+01 5.309179e+01 2.582645e+01 1.963360e+01 1.587880e+01 4.865005e+01 7.573393e+00 2.364363e+00 3.671974e+00 2.778666e+00 2.949399e+00 2.549691e+00 3.617993e+00 6.403034e+00 7.185134e+00 2.765980e+00 2.587791e+00 1.627912e+00 1.511366e+00 1.502981e+00 8.188642e-01 6.365892e-01 4.201306e-01 4.098893e-01 5.778874e-01 5.050080e-01 7.014577e-01 1.298981e+00 4.021882e-01 3.972001e-01 2.690362e-01 1.298001e-01
<GCONST> 1.247480e+02
<TRANSP> 5
 0.000000e+00 1.000000e+00 0.000000e+00 0.000000e+00 0.000000e+00
 0.000000e+00 7.331001e-01 2.668999e-01 0.000000e+00 0.000000e+00
 0.000000e+00 0.000000e+00 8.936468e-01 1.063532e-01 0.000000e+00
 0.000000e+00 0.000000e+00 0.000000e+00 7.586095e-01 2.413905e-01
 0.000000e+00 0.000000e+00 0.000000e+00 0.000000e+00 0.000000e+00
<ENDHMM>
~h "T"
<BEGINHMM>
<NUMSTATES> 5
<STATE> 2
<MEAN> 39
 -2.667717e+01 -2.188663e+00 3.366692e+00 -9.006519e+00 3.620137e+00 2.724215e+00 -2.804501e+00 -1.024111e+01 -8.908332e-01 -5.763516e+00 -6.560354e-01 -1.836858e+00 7.143037e+01 -2.137008e+00 -3.668588e-01 -5.294151e-01 -1.104528e+00 -1.101164e-01 3.231719e-02 1.024482e-01 -7.108199e-02 1.512301e-02 -3.020954e-01 2.362530e-01 -1.178643e-01 8.476682e-01 3.443651e-01 2.207868e-02 -4.896519e-03 7.031815e-02 -2.216751e-01 -2.468938e-01 -2.617958e-01 -8.722292e-02 -1.261926e-01 1.397894e-01 -1.467873e-01 -2.037245e-02 -1.034747e-01
<VARIANCE> 39
 3.262492e+01 1.329109e+01 5.090697e+01 3.682078e+01 3.676912e+01 3.501193e+01 4.254669e+01 5.130804e+01 2.678069e+01 1.897273e+01 1.615170e+01 1.575967e+01 4.910357e+01 3.805073e+00 1.634060e+00 2.961499e+00 3.447104e+00 3.099280e+00 2.883780e+00 3.528321e+00 5.005442e+00 2.508140e+00 2.152390e+00 1.823554e+00 1.498562e+00 2.476731e+00 5.452251e-01 2.935408e-01 5.352822e-01 6.636026e-01 5.149013e-01 5.513484e-01 7.359986e-01 9.630130e-01 4.448113e-01 4.070264e-01 3.663521e-01 2.457309e-01 2.962051e-01
<GCONST> 1.188049e+02
<STATE> 3
<MEAN> 39
 -3.183290e+01 -4.603319e+00 2.473490e+00 -1.387489e+01 1.809527e+00 3.115560e-01 -3.704915e+00 -1.114379e+01 -2.075692e+00 -6.549685e+00 -1.019024e+00 -1.384538e+00 7.408214e+01 7.413716e-02 -3.904245e-01 5.950992e-03 -3.353687e-01 -2.784463e-01 -4.451751e-01 -2.639832e-01 -1.525581e-01 -2.776235e-01 -5.723336e-02 -1.087164e-01 4.418319e-02 -3.742542e-02 4.753625e-01 6.550763e-02 1.885716e-01 2.182889e-01 1.037949e-01 5.725974e-02 8.119252e-02 9.264746e-03 -1.898762e-02 3.539389e-02 -2.889428e-02 -1.069849e-02 -1.276434e-01
<VARIANCE> 39
 8.824219e+00 1.424348e+01 3.021017e+01 2.118175e+01 1.740057e+01 2.309560e+01 2.574246e+01 3.074706e+01 2.170662e+01 1.786278e+01 1.105381e+01 1.174075e+01 1.876759e+01 1.358655e+00 7.128125e-01 1.112094e+00 1.398962e+00 1.277503e+00 1.452675e+00 1.557840e+00 1.889656e+00 1.414305e+00 1.157579e+00 1.020949e+00 8.517856e-01 1.137580e+00 2.925598e-01 1.726516e-01 2.205274e-01 2.812375e-01 2.726973e-01 2.823631e-01 3.044314e-01 3.711032e-01 2.899008e-01 2.674778e-01 2.171125e-01 1.789854e-01 1.302056e-01
<GCONST> 9.363708e+01
<STATE> 4
<MEAN> 39
 -2.532812e+01 -4.696716e+00 4.248597e+00 -1.129469e+01 1.567498e+00 -9.885998e-01 -4.240341e+00 -1.129036e+01 -4.234567e+00 -6.114686e+00 -1.976750e+00 -1.472184e+00 7.163726e+01 3.592535e+00 1.236486e+00 8.459899e-01 1.083197e+00 2.225424e-01 3.283514e-01 3.368009e-02 -1.243769e-01 -3.971048e-01 2.766719e-01 -7.379816e-01 -4.030770e-01 -3.720700e-01 6.946861e-01 3.517072e-01 -9.710245e-02 5.358442e-02 -5.865751e-02 1.949743e-01 -1.039784e-01 -1.102727e-01 7.571766e-02 5.562532e-02 -2.581013e-01 -1.734159e-01 2.086321e-01
<VARIANCE> 39
 3.135036e+01 2.068966e+01 3.595681e+01 2.510081e+01 1.896177e+01 1.886658e+01 2.461555e+01 3.157881e+01 2.067610e+01 1.706866e+01 1.340359e+01 1.545101e+01 5.274759e+01 7.683635e+00 2.675464e+00 3.305526e+00 2.933186e+00 3.155798e+00 2.131832e+00 2.848030e+00 5.884163e+00 3.418179e+00 2.488316e+00 2.253492e+00 1.478419e+00 2.668204e+00 9.636413e-01 5.321267e-01 5.451526e-01 5.231194e-01 5.523680e-01 3.915395e-01 5.707539e-01 6.730104e-01 6.108429e-01 4.727893e-01 4.731843e-01 2.918845e-01 1.977064e-01
<GCONST> 1.177503e+02
<TRANSP> 5
 0.000000e+00 1.000000e+00 0.000000e+00 0.000000e+00 0.000000e+00
 0.000000e+00 7.957813e-01 2.042187e-01 0.000000e+00 0.000000e+00
 0.000000e+00 0.000000e+00 8.449706e-01 1.550294e-01 0.000000e+00
 0.000000e+00 0.000000e+00 0.000000e+00 6.969411e-01 3.030589e-01
 0.000000e+00 0.000000e+00 0.000000e+00 0.000000e+00 0.000000e+00
<ENDHMM>
~h "U"
<BEGINHMM>
<NUMSTATES> 5
<STATE> 2
<MEAN> 39
 -1.011670e+00 2.213192e+00 6.557779e+00 -1.145855e+01 5.906107e-01 -1.324594e+00 -1.299766e+01 -1.550534e+01 -5.018544e+00 -1.082798e+01 -1.188174e+01 -6.185854e+00 7.932538e+01 1.735753e+00 4.932005e-01 3.781398e-02 -4.885482e-01 -1.444391e+00 -5.499127e-01 -1.985417e+00 4.249184e-01 1.277308e+00 -8.501196e-04 -1.562742e+00 -1.609802e-01 5.896653e-02 -8.895473e-01 -3.980117e-01 -2.465422e-01 2.141500e-01 1.702413e-01 1.185654e-01 3.433882e-01 2.160851e-01 -1.352877e-01 -1.332206e-02 4.897576e-01 3.320372e-01 -2.748363e-01
<VARIANCE> 39
 6.951445e+00 2.857496e+01 2.284152e+01 3.895502e+01 5.332571e+01 5.724175e+01 3.989447e+01 4.600994e+01 7.933994e+01 3.488012e+01 2.638055e+01 2.982580e+01 1.731534e+01 3.972446e+00 2.197596e+00 2.092492e+00 2.148328e+00 2.387863e+00 2.936622e+00 4.238322e+00 4.399051e+00 3.308491e+00 2.584759e+00 3.283330e+00 2.083463e+00 1.431352e+00 5.527219e-01 4.134924e-01 3.702940e-01 3.623394e-01 4.392272e-01 5.705739e-01 7.360308e-01 7.872608e-01 8.351946e-01 5.333725e-01 4.332958e-01 4.876888e-01 2.569499e-01
<GCONST> 1.205783e+02
<STATE> 3
<MEAN> 39
 -2.446063e-01 2.042453e+00 5.860106e+00 -1.363682e+01 -2.567809e+00 -1.074171e+00 -1.545124e+01 -1.598674e+01 -1.856792e+00 -1.166504e+01 -1.410356e+01 -3.724534e+00 7.925034e+01 -3.733068e-01 4.141121e-02 -3.165360e-01 4.082958e-01 2.914907e-01 2.468965e-01 4.030221e-01 2.952814e-01 -5.721729e-01 -4.087131e-01 2.312991e-01 6.222249e-01 -6.570409e-01 -4.554908e-01 8.204463e-02 8.148356e-02 4.655434e-01 3.781508e-01 1.688113e-01 4.777830e-01 7.944506e-02 -2.303625e-01 1.848736e-01 4.501512e-01 8.468451e-02 -3.318256e-01
<VARIANCE> 39
 5.010271e+00 2.038130e+01 3.903120e+01 4.237140e+01 5.249495e+01 6.041979e+01 4.261340e+01 4.749874e+01 6.090137e+01 4.018410e+01 3.236196e+01 3.225438e+01 1.494724e+01 7.218903e-01 1.496779e+00 1.880402e+00 2.555938e+00 3.080184e+00 3.023006e+00 2.648064e+00 4.310808e+00 2.978800e+00 2.270686e+00 2.378227e+00 2.522328e+00 1.489631e+00 2.291207e-01 2.453205e-01 2.831696e-01 5.265765e-01 3.182731e-01 4.278461e-01 5.730478e-01 5.567124e-01 4.862590e-01 4.471947e-01 5.054871e-01 3.381833e-01 1.913293e-01
<GCONST> 1.143981e+02
<STATE> 4
<MEAN> 39
 -5.787724e+00 3.153204e+00 7.704775e+00 -5.625595e+00 2.163706e+00 1.511307e+00 -1.043987e+01 -1.332245e+01 -6.132615e+00 -1.064097e+01 -1.078262e+01 -1.651345e+00 7.268552e+01 -2.203203e+00 3.114654e-01 4.990560e-01 3.037696e+00 8.646753e-01 6.109583e-01 1.741982e+00 1.639128e+00 1.936162e-01 9.297601e-01 1.213336e+00 3.737610e-01 -2.351285e+00 -2.836736e-01 -4.070155e-01 -2.194650e-01 -1.837031e-01 -8.080778e-03 -1.985027e-01 1.982679e-01 8.426260e-03 2.676133e-01 2.305979e-01 2.613146e-01 -1.941673e-01 2.095708e-01
<VARIANCE> 39
 2.697532e+01 2.786681e+01 4.743882e+01 7.421443e+01 6.126822e+01 8.697132e+01 6.006220e+01 5.591895e+01 5.136082e+01 4.966738e+01 5.007639e+01 3.196401e+01 3.870189e+01 2.841569e+00 2.636402e+00 2.578809e+00 4.610802e+00 3.754095e+00 3.730151e+00 4.130160e+00 5.855482e+00 3.568409e+00 2.945187e+00 4.685282e+00 2.593266e+00 3.590941e+00 3.034905e-01 3.940079e-01 6.656936e-01 1.092293e+00 5.065350e-01 9.029142e-01 6.780848e-01 8.571448e-01 7.396263e-01 5.765997e-01 6.482893e-01 4.428316e-01 4.222477e-01
<GCONST> 1.317572e+02
<TRANSP> 5
 0.000000e+00 1.000000e+00 0.000000e+00 0.000000e+00 0.000000e+00
 0.000000e+00 5.299845e-01 4.700155e-01 0.000000e+00 0.000000e+00
 0.000000e+00 0.000000e+00 6.842347e-01 3.157653e-01 0.000000e+00
 0.000000e+00 0.000000e+00 0.000000e+00 5.066237e-01 4.933763e-01
 0.000000e+00 0.000000e+00 0.000000e+00 0.000000e+00 0.000000e+00
<ENDHMM>
~h "V"
<BEGINHMM>
<NUMSTATES> 5
<STATE> 2
<MEAN> 39
 -2.206343e+00 -2.207828e+00 1.339005e+00 -1.643530e+01 -8.326410e+00 -2.440655e+00 -3.393979e+00 -1.177567e+01 1.534566e+00 -1.749295e+00 -8.242893e+00 -2.135377e+00 8.170792e+01 2.120014e+00 -7.896464e-01 -6.584935e-01 -1.491172e+00 -2.256256e+00 -1.012259e+00 7.708775e-02 9.962949e-01 2.016186e+00 9.311667e-01 -8.808644e-01 -3.439756e-01 2.163321e+00 -8.455029e-01 -2.218113e-01 1.760553e-01 5.708038e-01 4.663810e-01 7.815271e-02 1.324285e-01 4.793905e-01 -2.413177e-01 -2.251351e-01 3.213951e-01 -8.391923e-02 -5.720891e-01
<VARIANCE> 39
 2.661792e+01 1.912342e+01 3.215670e+01 3.322003e+01 4.214786e+01 3.951935e+01 5.359254e+01 4.551228e+01 6.408430e+01 3.863186e+01 3.220930e+01 2.191792e+01 3.389200e+01 5.155382e+00 2.735802e+00 2.502905e+00 3.378319e+00 3.094585e+00 3.235127e+00 3.464599e+00 5.639483e+00 3.890321e+00 2.779393e+00 2.815766e+00 2.513399e+00 4.242388e+00 6.499057e-01 4.978831e-01 4.741642e-01 4.171050e-01 5.384770e-01 5.493540e-01 7.013702e-01 7.021922e-01 8.219560e-01 6.270668e-01 5.267472e-01 4.251258e-01 4.097113e-01
<GCONST> 1.261113e+02
<STATE> 3
<MEAN> 39
 -3.884877e-01 -4.713406e+00 1.892722e+00 -1.718678e+01 -1.209914e+01 -5.061126e+00 -2.868510e+00 -7.326783e+00 5.660232e+00 -7.933848e-01 -8.356559e+00 -3.730513e+00 8.453309e+01 -2.985141e-01 2.937340e-01 8.965941e-01 7.461066e-01 3.535183e-01 -2.005507e-01 3.728322e-02 4.547877e-01 -2.876018e-01 -2.997887e-01 2.195137e-02 -8.476113e-02 -5.050303e-01 -3.407498e-01 4.541616e-01 3.367771e-01 6.499150e-01 7.028393e-01 2.034267e-01 -6.798990e-02 -2.389094e-01 -5.332139e-01 -3.320272e-01 3.562891e-02 5.697018e-02 -5.901108e-01
<VARIANCE> 39
 4.422265e+00 1.677976e+01 3.574525e+01 2.554235e+01 3.627357e+01 4.858475e+01 3.601173e+01 4.380712e+01 2.698986e+01 2.887681e+01 1.929722e+01 2.059260e+01 8.558393e+00 5.623145e-01 1.604677e+00 1.518341e+00 2.468296e+00 2.822671e+00 2.453152e+00 2.328439e+00 3.159852e+00 2.943179e+00 2.279346e+00 1.602053e+00 1.585026e+00 1.188672e+00 2.005942e-01 1.961844e-01 2.635801e-01 4.286135e-01 3.549713e-01 4.075714e-01 4.045444e-01 5.266158e-01 4.236823e-01 4.046710e-01 3.307777e-01 3.311108e-01 1.460608e-01
<GCONST> 1.057923e+02
<STATE> 4
<MEAN> 39
 -5.200871e+00 -4.604810e-01 7.607514e+00 -8.823692e+00 -5.029270e+00 -4.018046e+00 -2.927166e+00 -6.776225e+00 1.441508e+00 -3.643902e+00 -7.787285e+00 -3.256070e+00 7.753796e+01 -2.249005e+00 1.118058e+00 1.600801e+00 3.540204e+00 2.796580e+00 8.620876e-01 6.077210e-01 5.951158e-01 -1.168380e+00 -9.642353e-01 3.106964e-01 -4.566108e-02 -2.450015e+00 -2.832831e-01 -2.010392e-01 -3.679282e-01 -1.640208e-01 3.143957e-02 2.753563e-01 1.489465e-01 -5.620301e-02 -8.143559e-04 3.207096e-02 9.196159e-02 -2.721301e-02 5.447283e-02
<VARIANCE> 39
 2.645446e+01 2.461589e+01 3.600103e+01 5.070495e+01 5.249443e+01 4.165252e+01 3.853651e+01 4.733708e+01 4.061607e+01 4.058947e+01 2.515612e+01 3.009954e+01 3.317668e+01 3.111467e+00 2.495621e+00 2.609311e+00 4.194355e+00 2.815448e+00 2.850857e+00 3.512049e+00 3.392941e+00 2.505408e+00 2.598436e+00 2.886161e+00 1.827870e+00 2.042815e+00 3.485858e-01 2.719861e-01 4.504005e-01 9.395710e-01 6.626272e-01 4.915035e-01 5.497524e-01 6.687245e-01 5.463824e-01 5.176286e-01 4.283609e-01 3.639019e-01 2.566072e-01
<GCONST> 1.218374e+02
<TRANSP> 5
 0.000000e+00 1.000000e+00 0.000000e+00 0.000000e+00 0.000000e+00
 0.000000e+00 5.847648e-01 4.152353e-01 0.000000e+00 0.000000e+00
 0.000000e+00 0.000000e+00 7.841553e-01 2.158447e-01 0.000000e+00
 0.000000e+00 0.000000e+00 0.000000e+00 6.286226e-01 3.713774e-01
 0.000000e+00 0.000000e+00 0.000000e+00 0.000000e+00 0.000000e+00
<ENDHMM>
~h "_"
<BEGINHMM>
<NUMSTATES> 5
<STATE> 2
<MEAN> 39
 -1.515454e+01 -2.259290e+00 1.054482e+01 5.607687e+00 5.761004e+00 1.602157e+00 -4.939106e+00 -8.350101e+00 -2.653287e+00 -5.089450e+00 -4.750253e+00 -6.243035e-01 6.654955e+01 -2.611442e+00 -3.625979e+00 7.614643e-01 -1.377450e+00 -2.432322e-01 4.768151e-02 1.207403e+00 1.693405e-01 1.259621e+00 -4.243106e-01 -1.241660e-01 8.548975e-02 1.428040e+00 -4.659575e-01 -7.700964e-01 3.720865e-02 -5.868314e-01 1.995014e-01 -2.622339e-01 -6.371494e-02 -4.492755e-01 1.313229e-01 1.161770e-01 8.745369e-02 -2.618955e-02 7.368076e-01
<VARIANCE> 39
 2.803500e+01 1.094485e+02 5.254828e+01 5.632748e+01 2.864591e+01 3.168783e+01 4.609522e+01 4.232071e+01 2.261221e+01 2.040590e+01 1.888253e+01 1.674892e+01 3.561665e+01 3.584357e+00 1.036003e+01 5.890246e+00 6.097616e+00 3.195026e+00 3.931032e+00 4.973797e+00 6.451304e+00 2.660581e+00 2.874231e+00 2.085472e+00 1.867665e+00 6.317649e+00 4.358715e-01 1.885001e+00 1.246841e+00 1.293205e+00 6.128267e-01 8.306167e-01 9.218341e-01 8.487939e-01 4.940325e-01 5.342689e-01 4.268953e-01 3.204553e-01 7.004356e-01
<GCONST> 1.316651e+02
<STATE> 3
<MEAN> 39
 -2.911497e+01 -2.130290e+01 1.353859e+01 -2.500702e+00 6.321332e+00 -3.935707e+00 -3.776628e+00 -1.271476e+01 2.010673e+00 -3.584590e+00 -3.880134e+00 3.100689e-01 7.687101e+01 2.249303e-01 -3.008525e-01 1.219464e-01 1.494185e-01 5.761865e-01 -6.051803e-01 -6.819646e-01 -1.047052e+00 -6.878033e-01 1.536646e-01 -1.654665e-02 -1.180714e-02 7.126130e-01 1.183564e+00 1.104668e+00 -2.864037e-01 4.132416e-01 8.046033e-02 3.530262e-01 -2.746402e-01 -1.233232e-01 -6.683527e-01 -1.440220e-01 -1.366238e-01 -4.865457e-02 -4.784790e-01
<VARIANCE> 39
 1.173066e+01 1.413869e+01 2.719021e+01 2.513949e+01 2.665834e+01 2.500825e+01 3.067089e+01 4.027299e+01 1.931714e+01 1.643390e+01 1.326797e+01 1.782748e+01 1.036105e+01 8.247166e+00 5.173765e+00 3.069331e+00 2.242303e+00 2.478321e+00 2.379946e+00 2.167716e+00 3.345178e+00 3.701091e+00 1.425826e+00 1.312265e+00 1.026673e+00 2.371476e+00 8.707737e-01 5.324384e-01 5.718679e-01 3.889233e-01 3.938945e-01 4.164645e-01 4.836621e-01 5.747728e-01 5.407357e-01 3.438874e-01 3.015600e-01 2.390667e-01 1.091748e-01
<GCONST> 1.108781e+02
<STATE> 4
<MEAN> 39
 -1.365465e+01 -9.909910e+00 1.088835e+01 1.091251e+00 9.655945e+00 8.352248e-02 -9.008208e+00 -1.991819e+01 -1.022802e+01 -6.205289e+00 -5.476426e+00 -3.420417e-01 7.589098e+01 3.514347e+00 2.866134e+00 -1.551898e+00 -2.851472e-01 -6.847911e-01 9.658542e-01 -7.977080e-01 -6.462566e-01 -1.926521e+00 -4.146627e-01 -2.178022e-01 2.508390e-01 -5.026650e-01 -5.836456e-01 -3.572470e-01 -5.554766e-01 -5.666409e-01 -6.508683e-01 -2.602506e-01 1.673883e-01 5.470287e-01 8.757854e-01 2.175505e-01 1.709466e-01 7.751171e-02 -4.227086e-02
<VARIANCE> 39
 7.474486e+01 3.063374e+01 4.809201e+01 2.322278e+01 4.602861e+01 1.911638e+01 3.687971e+01 7.346526e+01 5.085592e+01 2.047290e+01 1.323699e+01 2.042518e+01 6.859762e+01 7.615003e+00 2.483638e+00 4.251250e+00 3.635446e+00 5.012128e+00 2.081258e+00 4.962956e+00 9.525174e+00 8.464652e+00 2.726735e+00 2.432630e+00 2.116900e+00 2.025992e+00 7.363958e-01 5.029007e-01 6.563138e-01 3.880650e-01 6.535692e-01 4.099322e-01 6.249921e-01 8.735983e-01 1.138226e+00 2.987656e-01 2.934065e-01 3.397225e-01 1.077545e-01
<GCONST> 1.253590e+02
<TRANSP> 5
 0.000000e+00 1.000000e+00 0.000000e+00 0.000000e+00 0.000000e+00
 0.000000e+00 7.757846e-01 2.242154e-01 0.000000e+00 0.000000e+00
 0.000000e+00 0.000000e+00 8.413019e-01 1.586981e-01 0.000000e+00
 0.000000e+00 0.000000e+00 0.000000e+00 7.190882e-01 2.809118e-01
 0.000000e+00 0.000000e+00 0.000000e+00 0.000000e+00 0.000000e+00
<ENDHMM>
~h "b"
<BEGINHMM>
<NUMSTATES> 5
<STATE> 2
<MEAN> 39
 -1.164676e+01 9.210740e+00 8.398458e+00 4.987585e+00 7.567215e-01 3.723037e-01 -1.209208e+00 -3.258042e+00 -2.693320e+00 -3.261947e+00 -4.152582e+00 -3.278103e+00 6.143988e+01 -8.858795e-02 -1.940710e-01 -2.961660e-01 -1.072949e+00 3.670680e-01 3.052427e-01 -1.573008e-01 -1.148257e+00 -1.903150e-01 -5.962124e-01 2.974865e-01 -1.305920e-02 9.518106e-01 3.792833e-01 -6.579639e-01 -5.062240e-01 -1.010365e+00 4.124160e-02 -1.391857e-01 -5.079454e-01 -8.415431e-01 -1.457087e-01 -2.487721e-01 -1.064179e-01 -1.663801e-02 1.057873e+00
<VARIANCE> 39
 3.577241e+01 3.264194e+01 2.339356e+01 2.718343e+01 2.601126e+01 2.085448e+01 1.946916e+01 3.005294e+01 2.172484e+01 1.458840e+01 2.031082e+01 1.522393e+01 1.938074e+01 4.451200e+00 3.984851e+00 3.128559e+00 6.371556e+00 3.171681e+00 3.293203e+00 3.582355e+00 6.598471e+00 2.497522e+00 2.243876e+00 2.230135e+00 1.789917e+00 6.870099e+00 7.520435e-01 4.570803e-01 5.150988e-01 8.160524e-01 7.178388e-01 7.353871e-01 6.481487e-01 9.920268e-01 5.015985e-01 3.978538e-01 4.461702e-01 3.309038e-01 8.512177e-01
<GCONST> 1.220312e+02
<STATE> 3
<MEAN> 39
 -1.304063e+01 1.783793e+00 3.654449e+00 -6.690315e+00 3.890100e+00 3.082028e+00 -3.322137e+00 -1.322859e+01 -4.488869e+00 -7.476388e+00 -2.375466e+00 -3.684729e+00 7.134630e+01 3.030227e+00 -1.181114e+00 -8.716879e-01 -3.451180e+00 4.802961e-02 -8.282508e-01 -2.521124e+00 -3.646907e+00 -9.638246e-01 -1.547102e+00 -1.077905e+00 -1.729362e-01 4.836322e+00 8.092875e-01 2.027660e-01 1.369203e-01 4.260464e-01 -6.582788e-01 -7.329320e-01 -5.390664e-01 5.020821e-01 1.602996e-01 1.736745e-01 -6.236020e-01 7.104529e-02 -4.973640e-02
<VARIANCE> 39
 2.400661e+01 2.060216e+01 2.046485e+01 2.954532e+01 3.063891e+01 3.831654e+01 3.932534e+01 3.759179e+01 2.463984e+01 2.083606e+01 2.159607e+01 2.087132e+01 2.626710e+01 4.582784e+00 4.296300e+00 4.423250e+00 4.476611e+00 4.955821e+00 5.288844e+00 3.862406e+00 6.665268e+00 3.906537e+00 2.775599e+00 3.343935e+00 2.658553e+00 3.758057e+00 4.552617e-01 6.542020e-01 5.355250e-01 6.350083e-01 6.179430e-01 7.678502e-01 9.648534e-01 9.559435e-01 6.447419e-01 5.713159e-01 5.347050e-01 4.664205e-01 5.866832e-01
<GCONST> 1.266082e+02
<STATE> 4
<MEAN> 39
 -4.616562e+00 1.186331e+00 2.494225e+00 -8.510858e+00 1.828383e+00 -2.403045e+00 -1.116832e+01 -1.660462e+01 -4.661781e+00 -7.242746e+00 -6.799365e+00 -4.394255e+00 7.752784e+01 2.495439e+00 -7.472317e-01 -4.136883e-01 -1.185970e+00 -1.064671e+00 -1.719863e+00 -2.253555e+00 -1.253858e+00 1.030871e-01 -3.304520e-01 -1.348453e+00 8.583576e-02 2.590045e+00 -5.540416e-01 1.022675e-01 2.734064e-01 8.301274e-01 -2.384403e-01 -4.379810e-02 4.115816e-01 8.673934e-01 3.288431e-01 3.720300e-01 1.176590e-01 1.080599e-01 -9.460645e-01
<VARIANCE> 39
 3.126720e+01 2.800202e+01 4.372561e+01 4.692749e+01 7.665099e+01 6.065166e+01 7.792426e+01 8.309901e+01 4.505362e+01 2.560771e+01 3.150723e+01 3.297747e+01 2.935741e+01 4.977035e+00 3.905327e+00 3.669523e+00 4.785908e+00 5.278423e+00 5.884075e+00 5.586085e+00 7.240142e+00 4.128092e+00 3.836468e+00 3.698703e+00 2.919900e+00 5.404595e+00 5.005096e-01 3.413177e-01 4.986170e-01 5.539559e-01 5.315256e-01 5.842172e-01 6.768391e-01 8.730512e-01 5.183167e-01 3.991754e-01 4.306485e-01 3.477050e-01 4.076077e-01
<GCONST> 1.313520e+02
<TRANSP> 5
 0.000000e+00 1.000000e+00 0.000000e+00 0.000000e+00 0.000000e+00
 0.000000e+00 7.069907e-01 2.930093e-01 0.000000e+00 0.000000e+00
 0.000000e+00 0.000000e+00 3.024468e-01 6.975533e-01 0.000000e+00
 0.000000e+00 0.000000e+00 0.000000e+00 3.895165e-01 6.104835e-01
 0.000000e+00 0.000000e+00 0.000000e+00 0.000000e+00 0.000000e+00
<ENDHMM>
~h "d"
<BEGINHMM>
<NUMSTATES> 5
<STATE> 2
<MEAN> 39
 -1.438036e+01 4.538770e+00 1.032828e+01 7.455199e+00 5.181090e+00 1.967128e-02 -3.089622e+00 -3.839975e+00 -4.972901e+00 -4.621873e+00 -4.388839e+00 -1.649191e+00 6.237349e+01 -1.263287e+00 -1.889094e+00 -1.014192e+00 -7.720940e-01 -4.169847e-01 3.991584e-01 1.284739e+00 7.433135e-01 6.308662e-01 3.059688e-01 8.970347e-01 -1.435458e-01 8.149521e-02 3.297651e-01 -1.118430e+00 -5.820147e-01 -1.414498e+00 -2.904403e-01 -5.567104e-01 -4.985984e-01 -1.125081e+00 -5.923293e-01 -5.041117e-01 -7.111923e-02 -1.115165e-02 1.313327e+00
<VARIANCE> 39
 3.203565e+01 3.806071e+01 2.852194e+01 3.550161e+01 3.127145e+01 2.708625e+01 3.305637e+01 4.051535e+01 2.526419e+01 2.156910e+01 2.064434e+01 1.770342e+01 2.252689e+01 3.177573e+00 7.486419e+00 5.333102e+00 9.450500e+00 4.356768e+00 4.769130e+00 4.861100e+00 8.243312e+00 4.995413e+00 3.485348e+00 2.665151e+00 1.998096e+00 7.199752e+00 4.098003e-01 6.416980e-01 8.551491e-01 1.184003e+00 8.760039e-01 7.774585e-01 7.878605e-01 1.061581e+00 8.429112e-01 5.389466e-01 3.814678e-01 3.287419e-01 5.973925e-01
<GCONST> 1.300125e+02
<STATE> 3
<MEAN> 39
 -1.577032e+01 -8.586372e+00 2.938590e+00 -4.521413e+00 2.312846e+00 -2.650911e+00 -3.355261e+00 -9.253901e+00 -7.287980e+00 -6.992550e+00 -1.972007e+00 -2.303808e+00 7.150964e+01 7.546194e-02 -2.938724e+00 5.941455e-02 -2.262428e+00 -9.149973e-01 -1.461684e+00 -7.199717e-01 -2.095611e+00 -1.751829e+00 -1.622888e+00 2.102730e-03 1.356376e-01 2.932559e+00 1.818355e-01 8.778346e-01 5.900872e-01 7.213866e-01 -8.074719e-02 3.201333e-02 -2.079264e-01 1.971254e-01 -9.598726e-02 3.103635e-02 -2.343842e-01 2.055803e-01 -6.208152e-01
<VARIANCE> 39
 2.796778e+01 2.826658e+01 3.942349e+01 4.152472e+01 4.279043e+01 5.014060e+01 3.978180e+01 5.753434e+01 3.171000e+01 3.176468e+01 1.968489e+01 1.688025e+01 4.137668e+01 4.382960e+00 5.236452e+00 5.240024e+00 5.094170e+00 5.315652e+00 3.486620e+00 4.032069e+00 5.777071e+00 3.239649e+00 2.507968e+00 2.311555e+00 2.008999e+00 4.025947e+00 6.003581e-01 8.520922e-01 8.754355e-01 1.146327e+00 8.434056e-01 1.036762e+00 1.065083e+00 1.536810e+00 7.989883e-01 7.309501e-01 5.144140e-01 4.058440e-01 1.079272e+00
<GCONST> 1.327738e+02
<STATE> 4
<MEAN> 39
 -1.803041e+01 -7.098423e+00 3.501355e+00 -1.453876e+00 -3.437309e+00 -4.131087e+00 -3.205184e+00 -6.491874e+00 -1.056730e+01 -8.026147e+00 -8.096071e-01 8.799699e-01 6.463618e+01 -1.180859e-01 1.302453e+00 -6.655464e-01 4.541986e-01 -2.634186e-01 3.187361e-01 6.033257e-02 4.014886e-01 2.671425e-01 4.842817e-01 1.472069e-01 2.062516e-01 -1.480791e+00 5.503492e-03 3.670346e-01 -1.127651e-01 8.071864e-02 2.788482e-01 2.003571e-01 2.853500e-02 1.699565e-01 4.397461e-01 2.946928e-01 -6.306255e-02 -1.466191e-01 -2.139705e-01
<VARIANCE> 39
 1.922545e+01 3.080989e+01 2.906851e+01 1.836389e+01 2.897957e+01 1.738465e+01 2.210505e+01 3.242793e+01 2.109933e+01 1.928502e+01 1.557076e+01 1.441788e+01 3.812854e+01 1.838072e+00 2.011400e+00 2.614084e+00 2.178166e+00 2.540876e+00 1.896028e+00 2.557727e+00 3.540193e+00 3.385042e+00 2.023413e+00 1.647102e+00 1.701707e+00 1.728272e+00 2.786505e-01 6.894870e-01 5.241439e-01 4.744749e-01 3.301499e-01 3.820470e-01 4.824675e-01 5.923603e-01 4.651824e-01 3.550095e-01 2.883316e-01 2.920812e-01 4.317937e-01
<GCONST> 1.110470e+02
<TRANSP> 5
 0.000000e+00 1.000000e+00 0.000000e+00 0.000000e+00 0.000000e+00
 0.000000e+00 6.032522e-01 3.967478e-01 0.000000e+00 0.000000e+00
 0.000000e+00 0.000000e+00 5.673912e-01 4.326088e-01 0.000000e+00
 0.000000e+00 0.000000e+00 0.000000e+00 7.959676e-01 2.040324e-01
 0.000000e+00 0.000000e+00 0.000000e+00 0.000000e+00 0.000000e+00
<ENDHMM>
~h "f"
<BEGINHMM>
<NUMSTATES> 5
<STATE> 2
<MEAN> 39
 -2.951408e+01 -4.168454e+00 6.674337e-01 -1.194082e+01 7.258354e+00 -1.003668e-01 -3.261385e+00 -8.370626e+00 -3.271197e+00 -4.738194e+00 -7.101212e-01 -1.394461e+00 7.074899e+01 -1.547387e+00 -5.054354e-01 -1.643579e-01 -8.597715e-01 1.200593e-01 -4.028298e-02 9.691009e-03 -1.149153e-01 9.703515e-02 -1.286189e-01 7.449318e-02 -1.049724e-01 1.033485e+00 3.821158e-01 6.769741e-02 -3.096228e-02 1.758378e-01 -2.904207e-01 -7.264145e-02 -1.377928e-01 -8.140291e-02 -4.375109e-02 3.160384e-02 -6.770730e-02 1.598936e-02 -7.939886e-02
<VARIANCE> 39
 2.355325e+01 1.688644e+01 2.287497e+01 2.837170e+01 3.011280e+01 3.162210e+01 2.511851e+01 3.475085e+01 2.199696e+01 1.732515e+01 1.241994e+01 1.219588e+01 3.419154e+01 2.447529e+00 1.271706e+00 1.810648e+00 2.813928e+00 2.458334e+00 2.100070e+00 2.059304e+00 3.554278e+00 2.312773e+00 1.772501e+00 1.259739e+00 1.242551e+00 2.004098e+00 4.507051e-01 2.227748e-01 2.719287e-01 5.153880e-01 4.318972e-01 4.838364e-01 5.465442e-01 7.574340e-01 4.812797e-01 3.777077e-01 2.607577e-01 2.386193e-01 2.213062e-01
<GCONST> 1.085129e+02
<STATE> 3
<MEAN> 39
 -3.214399e+01 -6.282135e+00 -1.111717e+00 -1.448902e+01 4.957771e+00 -1.538342e+00 -4.614957e+00 -1.121695e+01 -4.908871e+00 -6.750504e+00 -1.488783e+00 -1.658309e+00 7.769984e+01 7.398223e-01 -2.238445e-01 6.965516e-03 -2.127896e-01 -3.995501e-01 -7.290767e-01 -3.197544e-01 -5.599336e-01 -4.755680e-01 -3.768373e-01 -2.476151e-01 -7.586219e-02 4.734054e-01 8.653311e-01 3.062796e-01 4.015182e-01 2.370072e-01 8.357663e-02 -2.425743e-02 9.791937e-02 7.040095e-02 1.154861e-01 7.791320e-02 -9.815748e-02 -4.465610e-02 -1.471942e-01
<VARIANCE> 39
 6.700206e+00 8.916590e+00 1.573018e+01 1.933582e+01 2.082567e+01 2.595504e+01 1.811490e+01 3.013136e+01 1.812403e+01 1.731819e+01 1.183194e+01 9.958429e+00 9.672072e+00 2.096958e+00 1.039248e+00 1.206101e+00 1.379286e+00 1.350164e+00 1.628214e+00 1.575036e+00 2.071918e+00 1.522799e+00 1.222199e+00 9.985307e-01 8.614983e-01 1.206198e+00 5.501658e-01 2.862374e-01 2.558769e-01 2.708090e-01 2.579190e-01 3.426258e-01 3.200127e-01 4.381715e-01 3.504715e-01 2.833042e-01 2.326537e-01 1.862878e-01 1.056591e-01
<GCONST> 9.417908e+01
<STATE> 4
<MEAN> 39
 -1.991177e+01 -2.947330e+00 2.407570e+00 -1.393409e+01 4.139891e+00 -5.087040e+00 -4.696217e+00 -1.157158e+01 -4.931381e+00 -6.108860e+00 -2.948264e+00 -2.481174e+00 7.776740e+01 6.227519e+00 1.899429e+00 1.530509e+00 1.933468e-01 -1.062187e+00 -4.995366e-01 -6.966898e-01 -3.431085e-01 4.469167e-01 7.274440e-01 -1.334676e+00 -4.308948e-01 3.525624e-01 3.893948e-01 -2.831938e-02 -1.586319e-01 -1.895138e-03 -3.661154e-01 2.651325e-01 -2.904969e-01 -2.107923e-02 1.791485e-01 2.130860e-01 -2.904382e-01 -3.463912e-03 3.010857e-02
<VARIANCE> 39
 9.848990e+01 3.431441e+01 3.002020e+01 3.082938e+01 2.785423e+01 2.632115e+01 2.049975e+01 3.289321e+01 2.265758e+01 2.426932e+01 1.693970e+01 1.155884e+01 2.073274e+01 5.183604e+00 3.124936e+00 3.774967e+00 3.513670e+00 3.140028e+00 3.804983e+00 3.596028e+00 5.043325e+00 3.562593e+00 3.290183e+00 2.382209e+00 1.495357e+00 1.842638e+00 1.861583e+00 7.760065e-01 5.525609e-01 4.726605e-01 3.725351e-01 5.436946e-01 6.787416e-01 4.751444e-01 4.963343e-01 5.202430e-01 3.944923e-01 2.839415e-01 1.759386e-01
<GCONST> 1.204701e+02
<TRANSP> 5
 0.000000e+00 1.000000e+00 0.000000e+00 0.000000e+00 0.000000e+00
 0.000000e+00 8.422947e-01 1.577053e-01 0.000000e+00 0.000000e+00
 0.000000e+00 0.000000e+00 7.870738e-01 2.129262e-01 0.000000e+00
 0.000000e+00 0.000000e+00 0.000000e+00 6.146877e-01 3.853123e-01
 0.000000e+00 0.000000e+00 0.000000e+00 0.000000e+00 0.000000e+00
<ENDHMM>
~h "g"
<BEGINHMM>
<NUMSTATES> 5
<STATE> 2
<MEAN> 39
 -1.103697e+01 8.950287e+00 9.445632e+00 5.640611e+00 5.115375e+00 7.029289e-01 -5.202615e+00 -8.611341e+00 -6.879768e+00 -5.396019e+00 -2.905033e+00 -1.924745e+00 6.337456e+01 -2.090850e-01 -5.226071e-01 -1.216533e+00 -1.508079e+00 4.101792e-01 1.303051e-01 5.895387e-01 -4.024720e-01 -6.118101e-01 -9.660155e-01 4.333299e-01 -1.193448e-01 9.217365e-01 -2.631354e-02 -8.577033e-01 -5.594134e-01 -9.499905e-01 2.048170e-01 -8.490039e-02 -1.541368e-01 -5.088148e-01 -4.967230e-02 -1.186459e-01 1.092184e-01 -2.253416e-01 9.001931e-01
<VARIANCE> 39
 3.019339e+01 3.908764e+01 3.440118e+01 2.827543e+01 2.625769e+01 2.223087e+01 3.262143e+01 4.354930e+01 2.952648e+01 3.510579e+01 1.997578e+01 1.925471e+01 2.214022e+01 3.229514e+00 6.717529e+00 5.084226e+00 7.929345e+00 4.731475e+00 3.389913e+00 5.280664e+00 5.980162e+00 3.928463e+00 3.471838e+00 2.332498e+00 2.607869e+00 5.674494e+00 5.358350e-01 5.688692e-01 7.982332e-01 9.554374e-01 8.226469e-01 5.897724e-01 8.971215e-01 9.576038e-01 6.387230e-01 5.852696e-01 4.338016e-01 3.715670e-01 6.889178e-01
<GCONST> 1.288922e+02
<STATE> 3
<MEAN> 39
 -1.454506e+01 -1.693936e+00 -7.252033e-01 -9.182037e+00 6.766088e+00 -1.079501e+00 -2.637999e+00 -1.148481e+01 -8.090091e+00 -9.639951e+00 -2.135925e-01 -5.612513e+00 7.372366e+01 1.175112e+00 -1.041726e+00 2.116617e-01 -1.834833e+00 6.582826e-01 5.897053e-02 -9.725379e-01 -2.567443e+00 -1.405881e+00 -1.290348e+00 7.840393e-02 -1.409523e-01 2.984755e+00 7.508139e-01 6.017035e-01 8.831756e-01 9.878250e-01 -3.437411e-01 2.740714e-01 -5.856911e-01 -2.157679e-01 1.142319e-02 3.842815e-01 -4.818957e-01 4.873679e-01 -5.126352e-01
<VARIANCE> 39
 1.879835e+01 5.090091e+01 4.741510e+01 7.896326e+01 4.966267e+01 5.646090e+01 7.716314e+01 7.064602e+01 4.334222e+01 3.967977e+01 2.399424e+01 2.660947e+01 2.247057e+01 3.515044e+00 5.607728e+00 6.467907e+00 8.503873e+00 3.292925e+00 4.344746e+00 5.445189e+00 6.388645e+00 3.343142e+00 3.973635e+00 2.314382e+00 2.783427e+00 4.354731e+00 4.516401e-01 7.438795e-01 9.989336e-01 1.036045e+00 9.079713e-01 9.311809e-01 1.359174e+00 1.302637e+00 8.862798e-01 7.585039e-01 4.990920e-01 6.256732e-01 6.281816e-01
<GCONST> 1.367727e+02
<STATE> 4
<MEAN> 39
 -6.275872e+00 -4.341634e-01 4.266971e+00 -7.169311e+00 7.243961e+00 3.297033e+00 -9.195020e+00 -2.149374e+01 -1.285193e+01 -9.999153e+00 -2.181508e+00 -2.012769e+00 7.734109e+01 1.972389e+00 -1.765828e-01 -2.869850e-01 -9.056174e-01 -1.423431e+00 -1.904457e-01 -1.354167e+00 -7.418653e-01 2.634175e-01 1.792061e-01 -1.217488e+00 9.558315e-01 9.221005e-01 -2.827686e-01 6.761076e-02 -2.893670e-01 -5.487743e-02 -5.315333e-01 -5.407599e-01 2.253376e-01 9.943088e-01 8.622877e-01 4.347663e-01 -4.934180e-02 -8.148713e-02 -3.583130e-01
<VARIANCE> 39
 3.552882e+01 2.970197e+01 2.946671e+01 6.385277e+01 3.914762e+01 4.452136e+01 6.719124e+01 8.206694e+01 3.454004e+01 3.744088e+01 3.038032e+01 3.129330e+01 3.950272e+01 3.822106e+00 2.716938e+00 4.640694e+00 4.631321e+00 4.860532e+00 4.297831e+00 5.478010e+00 8.672980e+00 5.175149e+00 4.284317e+00 3.628690e+00 3.616862e+00 2.190791e+00 4.551693e-01 3.306234e-01 8.433574e-01 7.731774e-01 5.359510e-01 5.643146e-01 1.033769e+00 1.032719e+00 7.511104e-01 6.206506e-01 5.667318e-01 6.168724e-01 2.286868e-01
<GCONST> 1.319798e+02
<TRANSP> 5
 0.000000e+00 1.000000e+00 0.000000e+00 0.000000e+00 0.000000e+00
 0.000000e+00 6.863018e-01 3.136982e-01 0.000000e+00 0.000000e+00
 0.000000e+00 0.000000e+00 5.817787e-01 4.182213e-01 0.000000e+00
 0.000000e+00 0.000000e+00 0.000000e+00 5.719228e-01 4.280772e-01
 0.000000e+00 0.000000e+00 0.000000e+00 0.000000e+00 0.000000e+00
<ENDHMM>
~h "h"
<BEGINHMM>
<NUMSTATES> 5
<STATE> 2
<MEAN> 39
 -1.444553e+01 -5.468183e+00 -4.938205e+00 -5.664755e+00 -4.962479e+00 -5.578781e+00 -1.046005e+01 -8.479566e+00 -6.987768e-01 -1.379293e+00 -3.458984e+00 -1.617244e+00 6.418125e+01 1.260198e+00 -2.087089e+00 -7.514900e-02 -1.075052e+00 -7.501529e-01 -1.042312e+00 -1.413891e+00 -1.266306e+00 5.716019e-01 -4.439398e-02 -8.730375e-01 -9.844212e-02 2.352006e+00 -2.791126e-01 1.386949e-01 5.017508e-01 -1.041618e-02 3.304868e-01 2.842697e-01 5.487708e-01 2.710069e-01 2.748896e-01 7.038054e-04 -6.038811e-03 1.341749e-02 1.264588e-01
<VARIANCE> 39
 9.249869e+00 2.858500e+01 3.832676e+01 4.578053e+01 4.504593e+01 2.640133e+01 4.997890e+01 4.064392e+01 3.122023e+01 3.641873e+01 3.272742e+01 1.614357e+01 3.164390e+01 1.301809e+00 1.731925e+00 2.925918e+00 2.165740e+00 2.087126e+00 2.503832e+00 3.718395e+00 2.849380e+00 2.498954e+00 2.385836e+00 2.069085e+00 1.571961e+00 1.138800e+00 1.211017e-01 4.593380e-01 3.095607e-01 3.820283e-01 3.323477e-01 3.988203e-01 5.114447e-01 3.656070e-01 3.310091e-01 2.884385e-01 3.584380e-01 2.151493e-01 1.165649e-01
<GCONST> 1.101688e+02
<STATE> 3
<MEAN> 39
 -1.327718e+01 -1.144732e+01 -2.135273e+00 -1.044158e+01 -4.424244e+00 -7.010459e+00 -9.683360e+00 -1.013785e+01 3.898637e+00 -1.555879e+00 -4.137677e+00 -1.232991e+00 7.402609e+01 7.359431e-01 7.345384e-01 1.084250e+00 -1.450937e-01 7.055119e-01 6.896682e-01 9.739429e-01 -8.850116e-04 1.083872e+00 5.454183e-01 -2.255443e-01 1.350594e-01 1.449451e+00 3.649086e-01 9.035056e-01 2.962893e-01 2.309671e-01 6.708184e-02 4.032060e-01 2.494784e-01 -1.409435e-01 -2.082596e-01 1.896778e-01 -2.445839e-02 -8.735207e-02 -4.818013e-02
<VARIANCE> 39
 1.006259e+01 2.491097e+01 4.646696e+01 3.431260e+01 6.401955e+01 5.032873e+01 7.296048e+01 4.556679e+01 5.059356e+01 6.218705e+01 5.381783e+01 3.088626e+01 1.738237e+01 1.519839e+00 3.438321e+00 2.501368e+00 2.167326e+00 1.889236e+00 2.899180e+00 2.406311e+00 2.327487e+00 2.031000e+00 2.605043e+00 1.704747e+00 1.426051e+00 1.358073e+00 2.617724e-01 3.301846e-01 3.017058e-01 4.162654e-01 3.980502e-01 4.640747e-01 5.655432e-01 5.045054e-01 4.904153e-01 5.080685e-01 4.233498e-01 3.364058e-01 1.149858e-01
<GCONST> 1.157478e+02
<STATE> 4
<MEAN> 39
 -7.272658e+00 -2.039321e+00 3.499912e+00 -9.837539e+00 -1.355589e+00 -9.067624e-01 -4.169285e+00 -1.255386e+01 5.114393e+00 2.627901e+00 -4.969608e+00 -4.582832e-01 7.868177e+01 2.245126e+00 1.953026e+00 8.386863e-01 -7.930813e-01 -3.235229e-01 9.520708e-01 3.748613e-01 -1.887648e+00 -5.296937e-01 6.997990e-01 -6.548754e-01 -7.861782e-01 1.784274e+00 -1.536169e-02 -6.662874e-01 -6.423234e-01 -2.350032e-01 -2.794270e-01 -4.307745e-01 -4.223834e-01 -2.454487e-01 -5.700800e-01 -3.474286e-01 1.764132e-02 -2.107143e-01 -6.795587e-02
<VARIANCE> 39
 1.771370e+01 2.927527e+01 4.437463e+01 3.771060e+01 7.598013e+01 4.374747e+01 7.061952e+01 6.466107e+01 3.694917e+01 5.406482e+01 3.521074e+01 2.251769e+01 1.877674e+01 1.520928e+00 2.872467e+00 2.882017e+00 2.755444e+00 3.444402e+00 2.573123e+00 4.241925e+00 2.541504e+00 3.087481e+00 3.340931e+00 2.440246e+00 2.050177e+00 1.288904e+00 2.283978e-01 4.376184e-01 2.600685e-01 4.614414e-01 3.834537e-01 3.662548e-01 3.656207e-01 5.379603e-01 3.661776e-01 3.699715e-01 2.965303e-01 2.896235e-01 1.248436e-01
<GCONST> 1.168511e+02
<TRANSP> 5
 0.000000e+00 1.000000e+00 0.000000e+00 0.000000e+00 0.000000e+00
 0.000000e+00 6.820343e-01 3.179657e-01 0.000000e+00 0.000000e+00
 0.000000e+00 0.000000e+00 7.080444e-01 2.919557e-01 0.000000e+00
 0.000000e+00 0.000000e+00 0.000000e+00 5.641561e-01 4.358439e-01
 0.000000e+00 0.000000e+00 0.000000e+00 0.000000e+00 0.000000e+00
<ENDHMM>
~h "i"
<BEGINHMM>
<NUMSTATES> 5
<STATE> 2
<MEAN> 39
 -6.211139e+00 -4.756589e+00 1.219640e+01 4.241239e+00 1.720669e+01 5.725213e-01 -1.627551e+01 -2.548577e+01 -9.086468e+00 -2.683105e+00 -6.043797e+00 -8.562021e+00 8.017619e+01 9.453207e-01 -5.148824e-01 1.618802e+00 2.781039e+00 7.292925e-01 -1.079112e+00 -1.845427e+00 -4.695304e-01 1.411770e-01 1.055823e+00 -6.253228e-01 -1.381096e+00 4.724149e-01 -5.424743e-01 -3.796761e-03 -1.816360e-01 -3.573926e-01 -8.665352e-01 -1.089598e-01 6.045604e-01 9.371729e-01 3.662950e-01 -3.305289e-01 4.973595e-03 3.515593e-01 -3.913183e-01
<VARIANCE> 39
 1.457463e+01 2.104527e+01 3.749301e+01 3.185663e+01 3.749713e+01 3.342904e+01 3.202729e+01 4.152342e+01 2.504121e+01 2.605907e+01 1.956053e+01 2.548136e+01 9.736011e+00 5.770539e+00 2.517678e+00 3.891586e+00 2.953214e+00 4.515175e+00 4.884530e+00 4.519501e+00 7.933549e+00 3.109839e+00 2.940165e+00 3.075374e+00 1.909844e+00 1.448599e+00 5.522015e-01 4.465685e-01 5.316902e-01 4.648512e-01 4.691013e-01 5.981196e-01 6.089336e-01 7.982002e-01 6.887379e-01 4.376417e-01 5.690153e-01 4.004280e-01 1.643952e-01
<GCONST> 1.206543e+02
<STATE> 3
<MEAN> 39
 -7.371904e+00 -5.960216e+00 1.753880e+01 1.197201e+01 1.529148e+01 -4.976144e+00 -1.950274e+01 -1.940905e+01 -5.667963e+00 -1.935692e+00 -7.860396e+00 -9.953037e+00 7.781618e+01 -2.461199e-01 2.171382e-01 2.383617e-01 2.557149e-01 -4.649039e-02 -3.315561e-01 -1.204919e-01 4.554807e-01 2.830577e-01 8.863024e-02 -1.824818e-02 -6.074873e-02 -4.081024e-01 -2.131927e-02 1.492502e-01 -2.411954e-01 -2.960538e-01 1.674480e-02 2.376748e-01 1.823401e-01 -1.085630e-01 -9.893388e-02 -3.854635e-02 7.962433e-02 1.134707e-01 -6.605808e-02
<VARIANCE> 39
 6.193286e+00 1.539221e+01 2.730698e+01 2.622340e+01 2.660001e+01 3.049701e+01 2.868151e+01 4.317920e+01 2.270240e+01 2.044559e+01 2.377269e+01 2.146482e+01 1.072720e+01 3.425902e-01 6.762584e-01 1.556738e+00 1.651879e+00 1.279848e+00 1.465342e+00 1.076525e+00 2.275104e+00 1.221675e+00 1.153593e+00 1.115409e+00 9.733996e-01 2.874663e-01 8.198248e-02 1.125216e-01 2.140729e-01 2.479513e-01 2.438027e-01 2.683774e-01 3.116942e-01 3.249309e-01 2.498246e-01 2.311884e-01 2.139941e-01 2.148685e-01 5.442848e-02
<GCONST> 9.008151e+01
<STATE> 4
<MEAN> 39
 -9.332005e+00 -1.459895e+00 1.410724e+01 8.007757e+00 1.546181e+01 -1.091727e+00 -1.542146e+01 -1.954039e+01 -6.720247e+00 -1.476835e+00 -5.908296e+00 -8.349981e+00 7.410925e+01 -9.775996e-01 8.532340e-01 -9.175537e-01 -8.891644e-01 -1.344354e+00 9.696576e-01 2.513855e+00 1.624714e+00 -3.563553e-02 -5.872079e-01 5.179406e-01 1.009272e+00 -1.146246e+00 -3.239174e-01 -8.016139e-02 -1.241662e-01 -2.304732e-01 -3.993372e-01 5.738962e-02 4.936744e-01 5.119467e-01 2.334564e-01 -1.999805e-01 1.884301e-03 1.679235e-01 -8.241609e-02
<VARIANCE> 39
 2.226808e+01 2.210439e+01 3.862197e+01 4.544008e+01 3.803486e+01 4.040083e+01 4.026901e+01 6.765083e+01 3.367784e+01 2.836424e+01 2.629813e+01 2.707745e+01 3.577691e+01 2.495205e+00 2.270271e+00 2.482859e+00 3.197232e+00 3.152328e+00 3.022523e+00 3.265620e+00 5.653103e+00 3.589190e+00 2.396951e+00 2.270895e+00 1.752871e+00 2.267008e+00 1.954334e-01 3.007056e-01 4.560758e-01 4.878348e-01 4.966355e-01 5.169214e-01 5.907295e-01 7.928951e-01 5.591581e-01 4.145784e-01 3.620837e-01 3.327294e-01 1.934678e-01
<GCONST> 1.192530e+02
<TRANSP> 5
 0.000000e+00 1.000000e+00 0.000000e+00 0.000000e+00 0.000000e+00
 0.000000e+00 6.722124e-01 3.277876e-01 0.000000e+00 0.000000e+00
 0.000000e+00 0.000000e+00 8.688703e-01 1.311297e-01 0.000000e+00
 0.000000e+00 0.000000e+00 0.000000e+00 7.357993e-01 2.642007e-01
 0.000000e+00 0.000000e+00 0.000000e+00 0.000000e+00 0.000000e+00
<ENDHMM>
~h "j"
<BEGINHMM>
<NUMSTATES> 5
<STATE> 2
<MEAN> 39
 -1.918675e+01 -9.199146e+00 1.070475e+01 2.851218e-01 9.947821e+00 -3.329340e+00 -7.679004e+00 -1.310719e+01 -9.248864e-01 -5.063218e+00 -3.997307e+00 -4.914560e+00 7.557482e+01 2.700849e+00 1.100750e+00 1.225486e+00 1.963161e+00 2.387217e+00 6.900315e-01 -1.584045e+00 -1.860282e+00 -1.103317e+00 9.217040e-02 -1.230356e-01 -8.401366e-02 7.995916e-01 6.567181e-01 4.401501e-01 -1.955971e-01 1.460763e-01 4.891147e-02 4.377164e-01 -1.992492e-01 -5.372112e-01 -6.478719e-01 -7.990500e-02 7.545228e-02 1.972650e-01 -7.825787e-02
<VARIANCE> 39
 7.390800e+01 9.927691e+01 5.798018e+01 5.175943e+01 4.513552e+01 4.100642e+01 3.513573e+01 4.085039e+01 4.224324e+01 2.987029e+01 2.011127e+01 2.530181e+01 4.002576e+01 5.604162e+00 5.328235e+00 3.988433e+00 3.408792e+00 2.720397e+00 4.458553e+00 2.677742e+00 4.411632e+00 4.749955e+00 2.151643e+00 1.443716e+00 1.492655e+00 1.551589e+00 7.116485e-01 7.969769e-01 8.520942e-01 7.581295e-01 6.535597e-01 5.611315e-01 5.479977e-01 8.988138e-01 7.138101e-01 4.282447e-01 2.746573e-01 3.290267e-01 2.248283e-01
<GCONST> 1.271449e+02
<STATE> 3
<MEAN> 39
 -6.733069e+00 -3.728992e+00 1.181305e+01 6.134032e+00 1.724595e+01 9.240179e-01 -1.600115e+01 -2.395779e+01 -7.505188e+00 -4.035959e+00 -3.669143e+00 -6.494279e+00 7.868896e+01 1.551271e+00 -1.316073e-02 -8.171586e-01 -3.378589e-01 4.762381e-01 9.259443e-01 -1.011222e+00 -2.257835e+00 -1.364004e+00 -2.643609e-01 -2.067390e-02 2.625423e-01 7.735422e-01 -4.348611e-01 -1.305725e-01 -4.442194e-01 -7.521814e-01 -6.404760e-01 -1.091795e-02 5.188279e-01 4.647637e-01 1.105268e-01 -3.046473e-01 -7.212513e-02 2.084543e-01 -1.501479e-01
<VARIANCE> 39
 8.756251e+00 1.748599e+01 2.873313e+01 3.139328e+01 2.601923e+01 3.400934e+01 2.596649e+01 3.881419e+01 3.338639e+01 2.735756e+01 1.535104e+01 3.349262e+01 1.283788e+01 3.717573e+00 3.020628e+00 2.510018e+00 2.996228e+00 2.019789e+00 3.127932e+00 2.682988e+00 3.686718e+00 3.883363e+00 2.403316e+00 1.483271e+00 1.960597e+00 6.838900e-01 4.297519e-01 3.697452e-01 3.745607e-01 4.003088e-01 4.574939e-01 4.838852e-01 3.659914e-01 7.551404e-01 6.142699e-01 4.809166e-01 2.841220e-01 3.181286e-01 8.305210e-02
<GCONST> 1.116762e+02
<STATE> 4
<MEAN> 39
 -3.527488e+00 -4.525610e+00 5.807692e+00 -1.048143e+00 1.551416e+01 5.816676e+00 -1.416995e+01 -2.865072e+01 -1.324634e+01 -8.732102e+00 -3.881297e+00 -1.833397e+00 8.067479e+01 4.699880e-01 6.160931e-01 -9.618196e-01 -1.770010e+00 -9.899455e-01 3.723367e-01 8.457050e-01 8.805871e-01 -5.257677e-01 -1.390275e+00 -7.440817e-01 8.282838e-01 -1.816894e-01 -2.154411e-01 1.375765e-01 1.848913e-01 1.479892e-01 -2.139906e-01 -2.945345e-01 1.999285e-01 7.663453e-01 5.384968e-01 5.658516e-02 -2.594306e-01 -2.067838e-01 -2.451625e-01
<VARIANCE> 39
 5.244767e+00 1.156344e+01 2.934623e+01 4.057396e+01 2.876309e+01 5.726290e+01 2.972402e+01 3.836956e+01 3.004008e+01 3.750163e+01 2.241097e+01 3.078246e+01 6.554376e+00 4.813977e-01 8.386875e-01 1.028034e+00 1.816131e+00 2.226346e+00 1.872086e+00 2.202523e+00 2.959798e+00 2.887560e+00 2.670517e+00 2.782848e+00 2.002976e+00 3.369072e-01 1.802659e-01 1.674302e-01 1.873787e-01 3.447563e-01 2.912036e-01 3.718330e-01 3.603192e-01 5.665513e-01 6.407126e-01 4.574170e-01 3.299081e-01 3.188097e-01 6.165097e-02
<GCONST> 1.021287e+02
<TRANSP> 5
 0.000000e+00 1.000000e+00 0.000000e+00 0.000000e+00 0.000000e+00
 0.000000e+00 6.267601e-01 3.732399e-01 0.000000e+00 0.000000e+00
 0.000000e+00 0.000000e+00 7.329541e-01 2.670459e-01 0.000000e+00
 0.000000e+00 0.000000e+00 0.000000e+00 7.395725e-01 2.604275e-01
 0.000000e+00 0.000000e+00 0.000000e+00 0.000000e+00 0.000000e+00
<ENDHMM>
~h "k"
<BEGINHMM>
<NUMSTATES> 5
<STATE> 2
<MEAN> 39
 -2.040143e+01 2.593057e-01 4.716382e+00 2.086317e+00 3.141391e+00 1.698033e+00 -1.000547e-01 -3.112181e+00 -1.982898e+00 -2.294067e+00 -2.391623e+00 -2.630312e+00 5.977674e+01 -2.881562e-01 -1.166288e+00 -2.495739e+00 -2.817791e+00 -1.546800e-01 -1.741239e-01 2.454495e-01 -4.497401e-01 -5.737032e-01 -8.165376e-01 5.842645e-01 1.901364e-02 1.011252e+00 5.004086e-01 -4.239982e-01 -2.543944e-01 -1.011500e+00 -3.925664e-02 -4.803031e-01 -7.396913e-01 -1.218099e+00 -4.684553e-01 -4.236713e-01 7.270748e-02 -4.898610e-02 1.286304e+00
<VARIANCE> 39
 1.649561e+01 3.156257e+01 5.216498e+01 5.454020e+01 4.436219e+01 2.447450e+01 3.045346e+01 3.946249e+01 2.407319e+01 2.696225e+01 2.300475e+01 2.084368e+01 2.635737e+01 2.916333e+00 4.047512e+00 4.377936e+00 9.362319e+00 5.348319e+00 4.631243e+00 7.193566e+00 1.136068e+01 4.691913e+00 4.187683e+00 2.605577e+00 2.905900e+00 8.960891e+00 2.729185e-01 5.391542e-01 1.009775e+00 1.275955e+00 8.717024e-01 5.649301e-01 7.678135e-01 9.619511e-01 6.091712e-01 5.928115e-01 4.574366e-01 4.002128e-01 5.093412e-01
<GCONST> 1.308118e+02
<STATE> 3
<MEAN> 39
 -1.769730e+01 -5.478331e+00 -4.611761e+00 -1.531702e+01 9.773204e-01 -3.792050e+00 -3.627977e+00 -1.320059e+01 -8.284114e+00 -9.900035e+00 -8.182722e-01 -3.777553e+00 7.313000e+01 5.866715e-01 -1.284974e+00 1.291027e-02 -1.866759e+00 -1.088253e-01 -1.145008e+00 -1.462017e+00 -2.659540e+00 -1.175947e+00 -1.468378e+00 -1.104858e-01 -8.154819e-04 3.008421e+00 -1.402810e-02 3.246370e-01 9.631255e-01 1.468086e+00 1.289486e-01 4.360697e-01 1.497374e-01 6.060652e-01 4.708716e-01 6.380984e-01 -1.135653e-01 2.669987e-01 -8.259407e-01
<VARIANCE> 39
 1.130039e+01 3.724903e+01 3.161306e+01 6.008984e+01 6.239395e+01 5.445786e+01 6.587619e+01 5.602663e+01 3.965327e+01 3.361235e+01 2.934500e+01 3.144131e+01 2.854528e+01 2.329374e+00 4.068821e+00 4.219228e+00 7.644453e+00 3.981561e+00 3.892509e+00 3.980949e+00 5.206100e+00 3.993224e+00 3.438568e+00 2.815377e+00 2.489593e+00 5.074729e+00 5.247422e-01 6.000790e-01 8.662465e-01 7.866352e-01 9.312115e-01 9.532636e-01 1.045288e+00 1.039753e+00 7.325209e-01 6.870845e-01 6.261868e-01 5.423472e-01 5.724005e-01
<GCONST> 1.327737e+02
<STATE> 4
<MEAN> 39
 -1.638739e+01 -6.608129e+00 -7.897795e-01 -1.025736e+01 2.613392e+00 -2.242951e+00 -6.030388e+00 -1.471148e+01 -8.106802e+00 -8.065705e+00 -6.674623e-01 -1.127806e+00 7.293267e+01 1.410736e+00 8.880339e-01 1.287712e+00 1.128539e+00 9.343167e-02 7.430452e-01 1.589686e-02 4.207486e-01 6.983961e-01 9.851438e-01 -2.479436e-01 3.913143e-01 -7.165530e-02 3.862040e-01 4.701402e-01 6.682796e-02 2.024038e-02 -1.613853e-01 1.125374e-01 1.024843e-01 3.230664e-01 2.377238e-01 2.502490e-01 -1.524489e-01 -1.301956e-01 -1.440177e-01
<VARIANCE> 39
 2.549956e+01 3.624643e+01 4.321433e+01 5.534512e+01 3.615561e+01 4.349232e+01 4.497685e+01 5.358294e+01 4.759996e+01 3.472046e+01 2.338073e+01 2.310326e+01 5.721254e+01 6.017853e+00 4.087983e+00 3.657672e+00 2.782387e+00 3.210724e+00 3.994902e+00 3.989965e+00 4.907234e+00 3.535424e+00 2.690632e+00 2.652839e+00 2.573798e+00 2.025740e+00 6.594573e-01 6.683636e-01 6.212243e-01 6.137583e-01 5.627732e-01 8.303874e-01 7.884715e-01 9.246534e-01 6.548563e-01 5.601959e-01 4.197995e-01 4.330388e-01 3.995148e-01
<GCONST> 1.286256e+02
<TRANSP> 5
 0.000000e+00 1.000000e+00 0.000000e+00 0.000000e+00 0.000000e+00
 0.000000e+00 6.769333e-01 3.230667e-01 0.000000e+00 0.000000e+00
 0.000000e+00 0.000000e+00 6.466272e-01 3.533728e-01 0.000000e+00
 0.000000e+00 0.000000e+00 0.000000e+00 7.120759e-01 2.879241e-01
 0.000000e+00 0.000000e+00 0.000000e+00 0.000000e+00 0.000000e+00
<ENDHMM>
~h "l"
<BEGINHMM>
<NUMSTATES> 5
<STATE> 2
<MEAN> 39
 -2.578651e+00 1.344510e+00 9.413052e+00 -4.077515e+00 -2.918329e+00 -4.466416e+00 -7.484352e+00 -9.213245e+00 -6.929935e+00 -1.157546e+01 -1.346434e+01 -6.734766e+00 7.553923e+01 1.762487e+00 7.349157e-01 2.723945e-01 4.136246e-01 -1.181690e+00 -7.873279e-01 -2.612456e-01 7.282277e-01 -3.488899e-01 -1.052119e+00 -1.455701e+00 -5.187446e-01 4.342603e-01 -6.336187e-01 -4.903696e-01 -5.379853e-01 -4.049597e-01 2.299222e-01 1.883295e-02 -2.476094e-02 -5.101644e-01 9.966365e-02 4.598103e-01 8.377133e-01 4.127502e-01 7.113706e-02
<VARIANCE> 39
 1.965435e+01 3.049544e+01 3.367226e+01 3.460569e+01 5.382059e+01 6.514896e+01 5.290104e+01 4.553903e+01 3.774366e+01 4.059197e+01 3.506105e+01 2.327775e+01 2.608822e+01 4.727241e+00 2.403036e+00 2.702490e+00 2.697165e+00 3.596417e+00 2.906454e+00 3.230382e+00 4.823571e+00 3.593258e+00 3.052081e+00 4.456998e+00 2.228001e+00 2.237886e+00 5.007507e-01 4.238133e-01 5.494391e-01 5.805542e-01 5.013204e-01 4.751759e-01 6.441364e-01 7.936094e-01 5.579070e-01 5.436893e-01 7.721254e-01 4.161987e-01 2.449223e-01
<GCONST> 1.248557e+02
<STATE> 3
<MEAN> 39
 -1.062953e+00 3.397758e-01 7.719388e+00 -5.407910e+00 -4.567582e+00 -6.142286e+00 -8.123392e+00 -9.932239e+00 -6.294059e+00 -1.182104e+01 -1.309988e+01 -5.377097e+00 7.729778e+01 -1.746560e-01 -3.705160e-01 -6.429104e-01 -6.876146e-01 1.900816e-01 -6.682518e-01 -3.368868e-01 -8.728915e-01 1.088434e-01 7.803932e-01 1.340744e+00 7.959265e-01 5.853500e-01 -1.968708e-01 -1.562746e-01 -2.393043e-01 -2.622591e-01 2.638550e-01 1.249743e-01 -1.160144e-01 -4.724616e-01 9.792489e-02 5.112815e-01 4.837425e-01 1.895482e-01 1.395350e-01
<VARIANCE> 39
 6.883857e+00 2.292299e+01 4.103078e+01 4.157532e+01 7.476436e+01 7.023868e+01 6.695685e+01 4.436762e+01 7.124107e+01 5.458907e+01 3.796611e+01 3.099253e+01 1.308653e+01 4.916374e-01 1.281039e+00 2.651743e+00 3.370830e+00 2.842668e+00 3.010619e+00 2.956624e+00 4.597991e+00 3.533999e+00 3.182680e+00 3.745573e+00 2.530359e+00 1.204394e+00 1.609012e-01 1.780156e-01 3.601311e-01 4.579588e-01 3.482937e-01 4.123249e-01 5.075687e-01 5.961261e-01 7.339384e-01 6.163809e-01 6.107451e-01 4.254159e-01 1.160453e-01
<GCONST> 1.172048e+02
<STATE> 4
<MEAN> 39
 -4.376727e+00 6.875565e+00 1.012951e+01 -1.934787e+00 -7.680666e+00 -1.437880e+01 -1.623527e+01 -8.560683e+00 -6.240530e+00 -8.719980e+00 -4.069418e+00 -1.415973e+00 7.099948e+01 -7.663010e-01 -1.102035e-01 -3.480713e-01 7.864200e-02 6.786917e-01 6.020748e-01 6.530133e-01 -1.321801e-01 -1.490806e-01 5.609962e-01 7.037982e-01 2.709437e-01 -4.441938e-01 -1.534107e-01 -1.663101e-01 -3.107285e-02 -2.671992e-02 1.150241e-01 2.623623e-01 2.264280e-01 6.110263e-03 1.241882e-01 8.958396e-02 -1.246062e-01 -1.008483e-01 -1.903368e-02
<VARIANCE> 39
 2.123409e+01 4.094080e+01 4.110638e+01 4.095369e+01 5.188621e+01 6.097180e+01 6.357458e+01 4.366582e+01 4.057119e+01 4.125399e+01 2.692477e+01 2.382624e+01 4.787555e+01 1.141719e+00 1.914164e+00 2.191540e+00 2.631366e+00 2.234067e+00 3.113101e+00 3.890484e+00 3.709086e+00 3.233380e+00 2.915667e+00 2.294024e+00 1.635242e+00 1.381781e+00 1.697665e-01 2.263681e-01 2.752363e-01 2.874639e-01 2.936571e-01 3.601007e-01 4.287170e-01 3.520617e-01 3.609621e-01 3.032424e-01 2.777209e-01 2.516333e-01 7.892189e-02
<GCONST> 1.133031e+02
<TRANSP> 5
 0.000000e+00 1.000000e+00 0.000000e+00 0.000000e+00 0.000000e+00
 0.000000e+00 5.544322e-01 4.455678e-01 0.000000e+00 0.000000e+00
 0.000000e+00 0.000000e+00 6.648791e-01 3.351209e-01 0.000000e+00
 0.000000e+00 0.000000e+00 0.000000e+00 7.664085e-01 2.335915e-01
 0.000000e+00 0.000000e+00 0.000000e+00 0.000000e+00 0.000000e+00
<ENDHMM>
~h "m"
<BEGINHMM>
<NUMSTATES> 5
<STATE> 2
<MEAN> 39
 -7.129946e+00 7.038613e+00 7.268486e+00 1.662333e+00 7.417897e+00 5.161927e+00 -1.036208e+00 -1.023988e+01 -6.736996e+00 -4.662135e+00 -7.297853e+00 -4.602037e+00 6.811438e+01 2.022073e+00 1.294974e+00 -1.382159e-01 2.344336e-01 1.071211e+00 1.159570e+00 -6.306726e-01 -1.679197e+00 -1.036634e+00 -4.123719e-01 -8.198879e-01 -7.277278e-01 7.334951e-01 -2.743267e-01 -5.862600e-01 -5.798134e-01 -5.750661e-01 -3.912123e-01 -3.853450e-01 -2.689439e-01 -1.074519e-01 2.410726e-01 1.180689e-01 1.281583e-01 -2.368373e-02 1.556077e-01
<VARIANCE> 39
 2.870113e+01 2.677172e+01 2.333251e+01 2.103504e+01 1.983641e+01 2.357569e+01 2.388950e+01 4.535618e+01 2.554118e+01 2.001461e+01 2.146539e+01 2.222946e+01 4.232912e+01 4.669348e+00 1.937986e+00 3.198539e+00 2.892680e+00 2.253469e+00 2.231936e+00 2.114637e+00 4.406282e+00 2.586322e+00 1.564660e+00 1.695098e+00 1.528427e+00 3.423583e+00 4.128646e-01 2.697403e-01 3.794331e-01 2.622975e-01 3.168056e-01 2.730036e-01 3.851882e-01 5.906904e-01 4.121584e-01 2.960948e-01 3.050831e-01 2.801225e-01 1.723924e-01
<GCONST> 1.109071e+02
<STATE> 3
<MEAN> 39
 -5.179350e+00 7.662724e+00 5.602097e+00 2.806740e-01 8.160944e+00 5.179464e+00 -2.947232e+00 -1.229558e+01 -6.439407e+00 -4.617678e+00 -8.874689e+00 -6.715818e+00 6.927639e+01 -1.143563e-01 3.550681e-03 -1.444971e-01 -1.448111e-01 2.609056e-02 2.613701e-02 -1.233715e-01 4.526740e-03 5.488275e-02 -3.878423e-02 1.787426e-01 -2.015172e-01 -7.313143e-02 -1.475101e-01 -1.533921e-01 1.189537e-02 -1.340924e-01 -2.370375e-01 -2.194868e-01 3.672446e-02 1.691993e-01 1.502471e-01 6.000365e-02 1.537607e-01 1.150715e-01 4.597250e-02
<VARIANCE> 39
 1.398945e+01 1.696105e+01 1.675429e+01 2.012380e+01 2.506493e+01 3.446503e+01 2.625115e+01 5.476717e+01 2.646633e+01 1.722191e+01 1.754564e+01 2.196985e+01 2.236202e+01 5.091027e-01 8.243133e-01 1.020085e+00 1.074135e+00 9.499624e-01 1.238607e+00 1.167638e+00 1.491514e+00 9.199617e-01 9.300737e-01 8.799909e-01 1.020670e+00 7.536353e-01 1.249053e-01 1.528116e-01 1.852523e-01 2.641477e-01 2.872055e-01 2.641805e-01 2.534822e-01 2.877984e-01 2.497666e-01 2.074100e-01 1.750591e-01 2.178902e-01 1.002351e-01
<GCONST> 9.087789e+01
<STATE> 4
<MEAN> 39
 -4.455380e+00 5.618515e+00 3.596254e+00 -3.085650e+00 6.061704e+00 4.260140e+00 -2.053409e+00 -1.199206e+01 -5.697250e+00 -5.083494e+00 -6.925384e+00 -6.708920e+00 7.193451e+01 -3.309655e-01 -1.101169e+00 -4.364819e-01 -1.321962e+00 -1.482891e+00 -1.359905e+00 -3.101951e-01 5.075814e-02 1.055532e+00 4.915100e-01 6.844960e-01 6.694655e-01 9.490648e-01 -1.935564e-01 -4.538447e-01 1.103343e-01 -3.436954e-02 -2.148553e-01 -2.857212e-01 -1.741343e-01 -3.848325e-02 2.471850e-01 1.938376e-01 7.686861e-02 2.994270e-01 2.235697e-01
<VARIANCE> 39
 2.830562e+01 1.942262e+01 2.777559e+01 4.268399e+01 3.458023e+01 3.928387e+01 3.040160e+01 6.492892e+01 3.162657e+01 1.822209e+01 1.978372e+01 2.409886e+01 4.189332e+01 1.149204e+00 2.243833e+00 2.082454e+00 4.209876e+00 3.804158e+00 2.513883e+00 2.828831e+00 3.989992e+00 2.715745e+00 2.374066e+00 1.621561e+00 2.425140e+00 3.706941e+00 1.207139e-01 2.509883e-01 3.653522e-01 5.446459e-01 5.143542e-01 4.550078e-01 4.448638e-01 4.692986e-01 3.602475e-01 4.153977e-01 2.907210e-01 3.539335e-01 2.300284e-01
<GCONST> 1.146953e+02
<TRANSP> 5
 0.000000e+00 1.000000e+00 0.000000e+00 0.000000e+00 0.000000e+00
 0.000000e+00 5.588623e-01 4.411377e-01 0.000000e+00 0.000000e+00
 0.000000e+00 0.000000e+00 8.049200e-01 1.950800e-01 0.000000e+00
 0.000000e+00 0.000000e+00 0.000000e+00 6.099312e-01 3.900687e-01
 0.000000e+00 0.000000e+00 0.000000e+00 0.000000e+00 0.000000e+00
<ENDHMM>
~h "n"
<BEGINHMM>
<NUMSTATES> 5
<STATE> 2
<MEAN> 39
 -4.629152e+00 4.445759e+00 8.638468e+00 1.597706e+00 7.122989e+00 1.832797e+00 -4.252516e+00 -1.243206e+01 -5.319169e+00 -5.623142e+00 -8.981754e+00 -6.873377e+00 7.305668e+01 2.695512e-01 1.528608e+00 2.912797e-01 1.519272e+00 5.143933e-01 7.212803e-01 -3.022508e-01 -2.081788e-01 2.913333e-02 -7.852060e-01 -9.326667e-01 -5.405667e-01 -1.157241e+00 -1.588916e-01 -3.590568e-01 -3.068289e-01 -6.463823e-01 -1.486240e-01 -1.615988e-01 -2.714276e-01 -3.196457e-01 1.884080e-01 2.933387e-01 3.145092e-01 1.077250e-01 3.156491e-01
<VARIANCE> 39
