~o
<STREAMINFO> 1 39
<VECSIZE> 39<NULLD><MFCC_D_A_0><DIAGC>
~h "proto"
<BEGINHMM>
<NUMSTATES> 5
<STATE> 2
<MEAN> 39
 -1.464670e+01 -2.469388e+00 4.419682e+00 -4.477938e+00 9.678859e-01 -1.575793e+00 -4.768745e+00 -1.023269e+01 -4.102956e+00 -4.578619e+00 -3.534451e+00 -1.646312e+00 6.953901e+01 4.485297e-03 2.545804e-04 -4.047809e-04 -6.149510e-04 -3.212837e-03 -2.161947e-03 -1.184108e-03 -3.764377e-03 -1.045435e-02 -6.107454e-03 -1.043810e-03 1.993026e-03 2.800474e-03 -7.080064e-04 1.236470e-03 -1.484399e-03 -6.869874e-04 3.729546e-04 -4.358051e-04 -2.886957e-04 2.208907e-04 8.986260e-04 5.389827e-04 -2.501568e-04 2.690206e-04 -1.477632e-03
<VARIANCE> 39
 1.096565e+02 6.692387e+01 5.954078e+01 7.161482e+01 6.623351e+01 4.906489e+01 6.941518e+01 9.884533e+01 4.119537e+01 4.269319e+01 3.548152e+01 2.774895e+01 1.219492e+02 3.561417e+00 2.917905e+00 2.700299e+00 3.512878e+00 2.600471e+00 2.524542e+00 3.348315e+00 4.427662e+00 2.809961e+00 2.449659e+00 2.094637e+00 1.651693e+00 2.961509e+00 4.368908e-01 4.217739e-01 4.395452e-01 5.635931e-01 3.991234e-01 4.213555e-01 5.276783e-01 7.061861e-01 4.835362e-01 4.135955e-01 3.569725e-01 2.863723e-01 3.711417e-01
<GCONST> 1.277112e+02
<STATE> 3
<MEAN> 39
 -1.464670e+01 -2.469388e+00 4.419682e+00 -4.477938e+00 9.678859e-01 -1.575793e+00 -4.768745e+00 -1.023269e+01 -4.102956e+00 -4.578619e+00 -3.534451e+00 -1.646312e+00 6.953901e+01 4.485297e-03 2.545804e-04 -4.047809e-04 -6.149510e-04 -3.212837e-03 -2.161947e-03 -1.184108e-03 -3.764377e-03 -1.045435e-02 -6.107454e-03 -1.043810e-03 1.993026e-03 2.800474e-03 -7.080064e-04 1.236470e-03 -1.484399e-03 -6.869874e-04 3.729546e-04 -4.358051e-04 -2.886957e-04 2.208907e-04 8.986260e-04 5.389827e-04 -2.501568e-04 2.690206e-04 -1.477632e-03
<VARIANCE> 39
 1.096565e+02 6.692387e+01 5.954078e+01 7.161482e+01 6.623351e+01 4.906489e+01 6.941518e+01 9.884533e+01 4.119537e+01 4.269319e+01 3.548152e+01 2.774895e+01 1.219492e+02 3.561417e+00 2.917905e+00 2.700299e+00 3.512878e+00 2.600471e+00 2.524542e+00 3.348315e+00 4.427662e+00 2.809961e+00 2.449659e+00 2.094637e+00 1.651693e+00 2.961509e+00 4.368908e-01 4.217739e-01 4.395452e-01 5.635931e-01 3.991234e-01 4.213555e-01 5.276783e-01 7.061861e-01 4.835362e-01 4.135955e-01 3.569725e-01 2.863723e-01 3.711417e-01
<GCONST> 1.277112e+02
<STATE> 4
<MEAN> 39
 -1.464670e+01 -2.469388e+00 4.419682e+00 -4.477938e+00 9.678859e-01 -1.575793e+00 -4.768745e+00 -1.023269e+01 -4.102956e+00 -4.578619e+00 -3.534451e+00 -1.646312e+00 6.953901e+01 4.485297e-03 2.545804e-04 -4.047809e-04 -6.149510e-04 -3.212837e-03 -2.161947e-03 -1.184108e-03 -3.764377e-03 -1.045435e-02 -6.107454e-03 -1.043810e-03 1.993026e-03 2.800474e-03 -7.080064e-04 1.236470e-03 -1.484399e-03 -6.869874e-04 3.729546e-04 -4.358051e-04 -2.886957e-04 2.208907e-04 8.986260e-04 5.389827e-04 -2.501568e-04 2.690206e-04 -1.477632e-03
<VARIANCE> 39
 1.096565e+02 6.692387e+01 5.954078e+01 7.161482e+01 6.623351e+01 4.906489e+01 6.941518e+01 9.884533e+01 4.119537e+01 4.269319e+01 3.548152e+01 2.774895e+01 1.219492e+02 3.561417e+00 2.917905e+00 2.700299e+00 3.512878e+00 2.600471e+00 2.524542e+00 3.348315e+00 4.427662e+00 2.809961e+00 2.449659e+00 2.094637e+00 1.651693e+00 2.961509e+00 4.368908e-01 4.217739e-01 4.395452e-01 5.635931e-01 3.991234e-01 4.213555e-01 5.276783e-01 7.061861e-01 4.835362e-01 4.135955e-01 3.569725e-01 2.863723e-01 3.711417e-01
<GCONST> 1.277112e+02
<TRANSP> 5
 0.000000e+00 1.000000e+00 0.000000e+00 0.000000e+00 0.000000e+00
 0.000000e+00 6.000000e-01 4.000000e-01 0.000000e+00 0.000000e+00
 0.000000e+00 0.000000e+00 6.000000e-01 4.000000e-01 0.000000e+00
 0.000000e+00 0.000000e+00 0.000000e+00 7.000000e-01 3.000000e-01
 0.000000e+00 0.000000e+00 0.000000e+00 0.000000e+00 0.000000e+00
<ENDHMM>
