~o
<STREAMINFO> 1 39
<VECSIZE> 39<NULLD><MFCC_D_A_0><DIAGC>
~h "#"
<BEGINHMM>
<NUMSTATES> 5
<STATE> 2
<MEAN> 39
 -6.863050e-01 -2.097024e+00 -1.132620e+00 -1.551887e+01 -8.614045e+00 -6.954168e+00 -6.077459e+00 -8.342223e+00 4.600185e+00 -2.745892e-01 -7.467899e+00 -2.529186e+00 8.152464e+01 8.544253e-01 -6.686732e-01 -4.815356e-01 -6.269532e-01 -1.591994e+00 -1.102187e+00 5.033260e-01 1.054685e+00 1.834892e+00 1.214343e+00 -4.682416e-01 -3.496358e-01 1.050680e+00 -5.343371e-01 -1.483364e-01 2.716120e-01 3.910348e-01 2.865306e-01 2.039651e-01 3.597757e-01 -6.110400e-03 -4.669391e-01 -2.150188e-01 7.952049e-02 2.087262e-03 -3.740160e-01
<VARIANCE> 39
 1.671452e+01 2.424850e+01 3.205724e+01 2.245842e+01 3.696531e+01 5.697301e+01 5.616735e+01 5.788115e+01 4.178189e+01 3.853760e+01 2.911923e+01 2.243288e+01 2.206618e+01 2.715444e+00 2.421818e+00 2.253830e+00 2.570663e+00 2.293931e+00 3.102459e+00 2.813734e+00 4.355798e+00 3.812488e+00 2.422341e+00 2.395283e+00 2.457948e+00 1.864574e+00 4.074088e-01 5.164915e-01 3.876494e-01 4.457556e-01 3.470653e-01 5.205302e-01 4.567456e-01 6.787794e-01 5.613615e-01 5.135798e-01 4.655635e-01 4.296580e-01 1.760160e-01
<GCONST> 1.189013e+02
<STATE> 3
<MEAN> 39
 -7.556060e-01 -4.139206e+00 1.429519e+00 -1.595363e+01 -1.383516e+01 -9.241281e+00 -3.769542e-02 -4.881058e+00 6.431857e+00 2.698192e+00 -9.320830e+00 -3.289451e+00 8.222126e+01 -1.775176e-01 2.837159e-03 3.020747e-01 -5.374030e-02 1.181113e-02 3.399300e-01 4.337521e-01 -2.204237e-02 -1.647487e-01 1.197179e-01 -4.211551e-02 -3.685546e-02 -1.589835e-01 -4.745351e-02 1.379490e-01 2.671340e-02 5.058111e-02 2.214357e-01 1.359758e-01 -1.607320e-01 -8.438332e-02 -1.164115e-01 -1.285037e-01 5.447290e-02 1.285476e-02 -1.032138e-01
<VARIANCE> 39
 4.490736e+00 2.306351e+01 3.840427e+01 1.689341e+01 2.948062e+01 3.841064e+01 5.954980e+01 3.740306e+01 2.313565e+01 2.772855e+01 2.419225e+01 1.997112e+01 1.555527e+01 2.523404e-01 8.737550e-01 1.174719e+00 7.946169e-01 1.257024e+00 1.561594e+00 1.899495e+00 1.436028e+00 1.309786e+00 1.314909e+00 1.236329e+00 1.065215e+00 2.869178e-01 4.939489e-02 1.359887e-01 1.749067e-01 1.926785e-01 1.862392e-01 2.114766e-01 2.204943e-01 2.572981e-01 2.552975e-01 2.310604e-01 2.128001e-01 2.024114e-01 4.993059e-02
<GCONST> 8.911980e+01
<STATE> 4
<MEAN> 39
 -4.014522e+00 -2.104496e+00 4.163241e+00 -1.390814e+01 -7.338490e+00 -3.345701e+00 -1.561464e+00 -7.268696e+00 3.313700e+00 6.342744e-01 -7.418432e+00 -2.859717e+00 7.883958e+01 -1.746307e+00 6.578637e-01 1.133300e+00 2.072222e+00 2.256733e+00 9.341626e-01 -2.622762e-01 -2.227201e-02 -1.489217e+00 -1.558587e+00 7.284333e-01 2.101156e-01 -1.546728e+00 -5.458870e-01 -1.068514e-01 1.619185e-01 4.875256e-01 2.197447e-01 -1.277351e-02 2.070096e-01 5.207001e-02 -2.307743e-01 -1.956842e-01 1.288636e-01 -7.244651e-02 -2.107131e-01
<VARIANCE> 39
 1.732715e+01 2.598312e+01 3.579633e+01 3.302663e+01 4.032299e+01 3.574625e+01 4.268589e+01 4.774729e+01 3.562460e+01 3.713501e+01 2.508431e+01 2.676456e+01 2.918422e+01 2.604639e+00 2.855306e+00 2.262585e+00 4.591221e+00 2.590504e+00 2.386214e+00 3.329634e+00 3.291395e+00 2.375348e+00 2.211610e+00 3.200764e+00 2.395128e+00 1.681238e+00 2.340502e-01 4.432236e-01 3.959129e-01 8.194234e-01 4.896529e-01 4.256527e-01 4.440913e-01 6.213911e-01 4.610822e-01 4.518750e-01 4.851814e-01 4.003994e-01 3.288613e-01
<GCONST> 1.190374e+02
<TRANSP> 5
 0.000000e+00 1.000000e+00 0.000000e+00 0.000000e+00 0.000000e+00
 0.000000e+00 7.350823e-01 2.649177e-01 0.000000e+00 0.000000e+00
 0.000000e+00 0.000000e+00 9.051532e-01 9.484675e-02 0.000000e+00
 0.000000e+00 0.000000e+00 0.000000e+00 7.463536e-01 2.536464e-01
 0.000000e+00 0.000000e+00 0.000000e+00 0.000000e+00 0.000000e+00
<ENDHMM>
~h "$"
<BEGINHMM>
<NUMSTATES> 5
<STATE> 2
<MEAN> 39
 -2.344472e+00 6.056815e+00 1.076541e+01 -8.758732e+00 -5.061171e+00 -9.163820e+00 -1.593339e+01 -1.261378e+01 -3.689133e-01 -5.424624e+00 -7.518450e+00 -3.901101e+00 7.698230e+01 2.604179e+00 9.481891e-01 1.041537e+00 1.681846e-01 -1.391212e+00 -1.942479e+00 -3.541914e+00 -5.820699e-01 1.187295e+00 7.240499e-01 -6.494249e-01 1.715134e-01 8.976487e-01 -7.480332e-01 -5.289802e-01 -4.312572e-01 7.232494e-02 1.034583e-01 1.465728e-01 2.783780e-01 2.263237e-01 -1.805298e-01 -1.577947e-01 2.807930e-01 1.981402e-01 -2.166733e-01
<VARIANCE> 39
 2.343334e+01 2.760639e+01 2.123806e+01 2.737581e+01 1.997011e+01 5.490452e+01 6.259362e+01 3.528831e+01 3.755781e+01 2.699001e+01 3.831261e+01 2.210364e+01 3.234563e+01 5.719953e+00 2.649223e+00 2.843223e+00 2.272945e+00 2.237613e+00 3.642508e+00 4.305497e+00 3.124746e+00 3.978287e+00 3.336892e+00 2.431203e+00 1.628534e+00 2.581171e+00 6.716949e-01 3.527167e-01 4.690489e-01 3.638622e-01 3.642447e-01 6.586409e-01 9.043619e-01 6.003090e-01 6.132042e-01 5.559112e-01 4.791262e-01 2.844802e-01 2.047465e-01
<GCONST> 1.206446e+02
<STATE> 3
<MEAN> 39
 7.297084e-01 6.737058e+00 1.167383e+01 -6.017581e+00 -8.829006e+00 -1.573599e+01 -2.500989e+01 -1.250598e+01 -2.731432e-01 -5.838665e+00 -7.115678e+00 -1.782325e+00 7.698059e+01 3.505643e-02 -8.530235e-02 -1.600878e-01 1.347521e-01 -3.340283e-01 -4.666212e-01 -2.933670e-01 3.544604e-01 -1.267497e-01 -2.576125e-01 1.940752e-01 1.710485e-01 -1.242877e-01 -1.018486e-01 -2.843943e-02 -1.171913e-01 -7.944363e-02 9.101947e-02 2.133836e-01 3.375784e-01 5.063342e-02 -1.908881e-02 -4.007511e-02 1.028534e-02 -8.731695e-02 -3.807086e-02
<VARIANCE> 39
 3.155658e+00 1.373983e+01 2.415082e+01 2.822338e+01 2.212496e+01 3.686725e+01 3.633662e+01 3.189008e+01 3.041346e+01 2.841105e+01 2.280852e+01 2.133982e+01 8.009630e+00 1.887566e-01 5.424792e-01 8.149129e-01 1.167930e+00 1.043083e+00 1.434288e+00 1.916944e+00 1.446908e+00 1.448700e+00 1.488192e+00 1.160681e+00 1.128321e+00 2.742487e-01 8.494716e-02 8.478811e-02 1.212941e-01 1.942624e-01 2.048781e-01 2.690519e-01 3.122152e-01 2.853169e-01 2.757561e-01 2.610176e-01 2.262604e-01 2.047080e-01 3.977921e-02
<GCONST> 8.667340e+01
<STATE> 4
<MEAN> 39
 -9.935782e-01 4.751312e+00 6.596877e+00 -8.520430e+00 -8.417747e+00 -1.192493e+01 -1.760412e+01 -8.025131e+00 7.759402e-01 -6.389284e+00 -5.497180e+00 -2.591903e+00 7.560319e+01 -1.022360e+00 -2.586657e-01 -5.447775e-01 1.023569e-02 1.253249e+00 2.156931e+00 2.492866e+00 2.668737e-01 -1.284310e-01 -2.834131e-01 -3.303688e-01 -2.190692e-01 -5.484350e-01 -3.951722e-01 -2.017925e-02 1.357499e-01 3.276071e-01 3.839107e-01 2.210363e-01 2.511421e-01 -3.547753e-02 -2.507467e-01 -6.477983e-02 -2.584525e-02 1.611391e-01 -1.961020e-01
<VARIANCE> 39
 1.420836e+01 2.097324e+01 3.111102e+01 4.878447e+01 3.175655e+01 7.003500e+01 6.071288e+01 5.769811e+01 3.402422e+01 3.541950e+01 2.523745e+01 3.220464e+01 2.724741e+01 2.295363e+00 1.182136e+00 1.576723e+00 3.352973e+00 2.910478e+00 2.880828e+00 3.197606e+00 3.248321e+00 2.412501e+00 2.322813e+00 2.341156e+00 2.153269e+00 1.164690e+00 2.921886e-01 2.315368e-01 2.970048e-01 5.668585e-01 4.110247e-01 4.710446e-01 5.534484e-01 6.308831e-01 4.467579e-01 4.235005e-01 4.317994e-01 4.021088e-01 1.429558e-01
<GCONST> 1.157612e+02
<TRANSP> 5
 0.000000e+00 1.000000e+00 0.000000e+00 0.000000e+00 0.000000e+00
 0.000000e+00 6.577546e-01 3.422454e-01 0.000000e+00 0.000000e+00
 0.000000e+00 0.000000e+00 9.060827e-01 9.391723e-02 0.000000e+00
 0.000000e+00 0.000000e+00 0.000000e+00 7.973186e-01 2.026814e-01
 0.000000e+00 0.000000e+00 0.000000e+00 0.000000e+00 0.000000e+00
<ENDHMM>
~h "@"
<BEGINHMM>
<NUMSTATES> 5
<STATE> 2
<MEAN> 39
 -4.352789e+00 -1.162668e+00 2.540426e+00 -1.305119e+01 1.304125e-01 4.922018e-01 -5.807724e+00 -1.790173e+01 -6.827359e+00 -6.195136e+00 -8.333553e+00 -7.777116e-01 7.839052e+01 2.246078e+00 3.223636e-01 -6.854166e-01 -7.934881e-01 -3.660546e-01 -2.479547e-01 -1.145335e+00 -9.563428e-01 -3.941674e-01 -4.769597e-01 -1.220660e+00 3.037902e-01 1.151954e+00 -8.456306e-01 -1.338485e-01 8.536452e-02 5.550431e-01 5.689017e-02 -1.817102e-01 1.589106e-01 5.847980e-01 2.501927e-01 -2.726823e-02 2.973050e-01 -2.862740e-02 -5.124079e-01
<VARIANCE> 39
 3.359890e+01 2.157520e+01 4.107107e+01 3.964293e+01 5.626080e+01 4.468435e+01 4.941210e+01 5.401032e+01 8.809592e+01 6.311409e+01 3.026707e+01 2.890001e+01 2.759191e+01 5.600683e+00 3.044073e+00 3.215081e+00 4.077174e+00 2.827312e+00 3.228789e+00 3.538820e+00 4.638935e+00 3.736578e+00 2.959938e+00 3.503453e+00 2.324411e+00 3.672101e+00 9.100998e-01 4.987806e-01 4.774140e-01 5.881632e-01 4.680992e-01 5.399752e-01 6.499501e-01 6.622751e-01 8.057842e-01 5.456707e-01 4.871929e-01 3.697858e-01 3.446178e-01
<GCONST> 1.284335e+02
<STATE> 3
<MEAN> 39
 -2.175531e+00 -2.069875e+00 1.907194e+00 -1.266134e+01 5.486992e-01 -1.820585e+00 -8.748365e+00 -1.851974e+01 -9.547501e+00 -9.184797e+00 -1.030954e+01 1.154704e-01 7.950198e+01 -3.627957e-01 3.269511e-01 2.937825e-01 7.494865e-01 1.005940e-02 -3.032885e-01 2.083012e-01 7.714912e-01 1.946099e-01 -1.625602e-01 -1.311248e-01 2.373479e-01 -7.046546e-01 -6.124325e-01 1.533370e-01 4.367212e-01 5.807677e-01 1.374348e-01 1.137032e-01 4.130603e-01 5.167344e-01 2.220215e-01 1.260454e-01 2.745196e-01 -1.379081e-01 -4.695848e-01
<VARIANCE> 39
 8.761905e+00 1.782716e+01 2.780800e+01 3.482964e+01 5.104869e+01 4.561935e+01 3.777689e+01 4.632092e+01 6.283482e+01 4.158070e+01 2.791577e+01 3.245254e+01 8.326973e+00 1.487058e+00 1.643489e+00 2.525789e+00 3.756255e+00 2.056950e+00 2.257169e+00 1.998767e+00 3.045371e+00 2.806050e+00 2.420713e+00 2.212797e+00 2.161809e+00 1.260390e+00 4.646637e-01 2.901689e-01 2.887689e-01 4.192120e-01 3.391651e-01 3.964182e-01 4.263462e-01 6.000060e-01 5.304363e-01 4.253149e-01 4.723116e-01 3.293119e-01 2.262872e-01
<GCONST> 1.134978e+02
<STATE> 4
<MEAN> 39
 -4.824726e+00 -2.271680e-01 4.337939e+00 -8.514547e+00 -1.836769e-01 -1.930810e+00 -5.731690e+00 -1.399420e+01 -8.081482e+00 -9.057418e+00 -9.074123e+00 6.805238e-01 7.545554e+01 -1.272611e+00 5.804818e-01 1.109763e+00 1.902457e+00 2.540223e-01 2.386289e-01 8.558368e-01 1.615809e+00 4.286306e-01 4.513448e-02 4.653067e-01 -2.225387e-01 -1.533279e+00 -3.604948e-01 -1.202114e-01 1.241844e-01 1.221578e-01 6.824852e-02 1.018901e-01 1.930570e-01 1.349066e-01 1.590652e-01 1.654565e-01 2.233194e-01 -5.992725e-02 -1.016619e-01
<VARIANCE> 39
 1.804760e+01 2.319735e+01 4.151107e+01 4.744847e+01 4.442155e+01 4.604605e+01 3.893305e+01 5.177396e+01 5.506350e+01 5.379736e+01 3.140355e+01 3.298923e+01 2.035440e+01 2.344677e+00 2.387644e+00 2.721697e+00 4.470013e+00 2.138685e+00 2.479035e+00 2.352070e+00 3.546826e+00 2.925209e+00 2.596493e+00 2.528941e+00 2.103904e+00 1.909900e+00 2.569033e-01 3.804307e-01 3.535382e-01 4.796737e-01 3.473647e-01 4.068651e-01 4.909227e-01 5.547013e-01 4.768752e-01 4.305152e-01 4.614747e-01 2.850571e-01 1.736116e-01
<GCONST> 1.181188e+02
<TRANSP> 5
 0.000000e+00 1.000000e+00 0.000000e+00 0.000000e+00 0.000000e+00
 0.000000e+00 4.579201e-01 5.420799e-01 0.000000e+00 0.000000e+00
 0.000000e+00 0.000000e+00 5.587000e-01 4.413000e-01 0.000000e+00
 0.000000e+00 0.000000e+00 0.000000e+00 5.637749e-01 4.362250e-01
 0.000000e+00 0.000000e+00 0.000000e+00 0.000000e+00 0.000000e+00
<ENDHMM>
~h "D"
<BEGINHMM>
<NUMSTATES> 5
<STATE> 2
<MEAN> 39
 -1.893201e+01 5.007471e+00 9.258710e+00 -2.146810e+00 5.540403e+00 6.072826e+00 -1.088731e+00 -1.362032e+01 -2.862096e+00 -7.772044e+00 -5.816980e+00 -4.969245e+00 7.310688e+01 -1.502806e+00 8.194670e-02 -7.305249e-01 -1.056514e+00 7.666293e-02 2.899653e-01 8.385133e-01 1.164366e+00 4.454262e-01 -5.959891e-01 1.952679e-01 -1.295833e-02 -1.566194e-01 1.045570e+00 -6.376044e-01 -1.995600e-01 -9.512850e-01 -5.465805e-01 -4.692934e-01 -6.987944e-01 -6.781222e-01 -2.154197e-01 3.075947e-01 -3.214135e-01 5.492061e-02 5.974495e-01
<VARIANCE> 39
 3.944073e+01 2.150271e+01 3.345337e+01 3.740012e+01 4.129065e+01 3.515998e+01 3.608156e+01 5.355482e+01 3.405670e+01 2.627249e+01 3.765743e+01 2.675209e+01 1.965777e+01 9.142303e+00 2.806421e+00 2.084831e+00 6.047702e+00 3.499789e+00 2.926207e+00 5.324796e+00 7.335347e+00 3.351525e+00 2.457653e+00 3.489519e+00 1.846812e+00 2.385617e+00 1.328974e+00 3.166098e-01 4.437201e-01 1.014543e+00 6.333503e-01 5.467910e-01 6.584882e-01 1.106623e+00 6.162009e-01 4.554403e-01 5.684814e-01 3.665078e-01 2.919593e-01
<GCONST> 1.265901e+02
<STATE> 3
<MEAN> 39
 -1.524444e+01 2.365734e+00 6.447747e+00 -1.027059e+01 2.048117e+00 3.159286e+00 -2.893079e+00 -1.531642e+01 -3.783163e+00 -9.177868e+00 -8.823106e+00 -5.827299e+00 7.649559e+01 1.888686e+00 -1.574335e+00 -6.944761e-01 -2.271369e+00 -1.458352e+00 -1.496850e+00 -1.082016e+00 -1.195905e+00 -7.495281e-01 -1.038487e-01 -8.322213e-01 2.324866e-01 1.144008e+00 3.802415e-01 -2.637580e-01 9.642787e-02 3.005352e-01 -1.525196e-01 -4.009857e-01 -2.309668e-01 -2.144997e-01 -1.691204e-01 1.620073e-01 5.440385e-02 2.168332e-01 6.819288e-02
<VARIANCE> 39
 1.086755e+02 2.209147e+01 3.232999e+01 3.514643e+01 4.529401e+01 3.508634e+01 4.223703e+01 4.320186e+01 2.975185e+01 2.224340e+01 5.644170e+01 2.930632e+01 1.540049e+01 1.028099e+01 1.889957e+00 1.934147e+00 3.605051e+00 2.738158e+00 2.111494e+00 3.603639e+00 5.277967e+00 3.492273e+00 2.108083e+00 3.705856e+00 1.737013e+00 1.161887e+00 1.698355e+00 4.089160e-01 4.043252e-01 6.657295e-01 6.464353e-01 4.431837e-01 8.016758e-01 1.136243e+00 5.397007e-01 4.250795e-01 7.756963e-01 3.825957e-01 2.615502e-01
<GCONST> 1.245858e+02
<STATE> 4
<MEAN> 39
 -2.077683e+01 -4.901631e+00 7.632627e+00 -1.144460e+01 6.201110e-01 -7.655504e-01 -1.232308e+00 -1.380591e+01 -5.035518e+00 -6.011366e+00 -4.061321e+00 -1.491364e+00 7.296117e+01 6.267666e-01 -4.480017e-01 -3.299293e-01 4.041950e-02 -6.942802e-01 -5.586648e-01 -2.823228e-01 3.891802e-01 -3.832297e-01 2.261937e-01 -2.183039e-02 3.605240e-01 -5.876049e-01 1.431797e-01 2.446343e-01 1.527691e-02 3.218759e-01 1.123515e-01 1.459046e-01 5.155019e-03 7.980898e-02 5.980682e-02 4.936504e-02 -3.972668e-03 -3.015779e-02 -1.714074e-01
<VARIANCE> 39
 1.291943e+02 2.272335e+01 3.265367e+01 2.651032e+01 3.275108e+01 3.539089e+01 4.225144e+01 5.531407e+01 2.907542e+01 2.980857e+01 4.538039e+01 1.836761e+01 5.089267e+01 3.641158e+00 2.198037e+00 1.624655e+00 2.850013e+00 1.992015e+00 2.489380e+00 2.160937e+00 3.388051e+00 2.012861e+00 1.462591e+00 2.093525e+00 1.442612e+00 1.938042e+00 5.007710e-01 2.772816e-01 2.725493e-01 3.207968e-01 3.177442e-01 3.712840e-01 3.764833e-01 6.004979e-01 3.967059e-01 2.823260e-01 3.655497e-01 2.470183e-01 1.721822e-01
<GCONST> 1.143203e+02
<TRANSP> 5
 0.000000e+00 1.000000e+00 0.000000e+00 0.000000e+00 0.000000e+00
 0.000000e+00 6.430929e-01 3.569071e-01 0.000000e+00 0.000000e+00
 0.000000e+00 0.000000e+00 5.178297e-01 4.821703e-01 0.000000e+00
 0.000000e+00 0.000000e+00 0.000000e+00 7.645941e-01 2.354060e-01
 0.000000e+00 0.000000e+00 0.000000e+00 0.000000e+00 0.000000e+00
<ENDHMM>
~h "E"
<BEGINHMM>
<NUMSTATES> 5
<STATE> 2
<MEAN> 39
 -5.072888e+00 -5.651123e+00 1.670786e-01 -1.082259e+01 3.103436e+00 -3.449782e-01 -1.006087e+01 -2.614585e+01 -4.554080e+00 2.223501e+00 1.039391e-01 1.063560e+00 8.421409e+01 1.253416e+00 -5.821512e-01 -8.768470e-01 -2.976678e-01 2.320898e-02 -4.013802e-01 -6.001928e-01 -1.389250e+00 6.416008e-01 1.567951e+00 7.075785e-01 4.991851e-01 1.624109e+00 -7.041022e-01 2.068039e-02 3.941355e-01 2.900923e-01 -4.319324e-02 7.322248e-03 4.517690e-01 8.320808e-01 7.357931e-02 -3.066477e-01 -2.170689e-01 -2.593250e-01 -5.842016e-01
<VARIANCE> 39
 2.506679e+01 1.893134e+01 3.687143e+01 3.324002e+01 3.987918e+01 3.631339e+01 4.331357e+01 4.263841e+01 4.500034e+01 3.820409e+01 2.167223e+01 2.378147e+01 2.745066e+01 5.539798e+00 2.931851e+00 3.465402e+00 3.947838e+00 3.066009e+00 3.411625e+00 3.606992e+00 6.729892e+00 4.008760e+00 3.831940e+00 2.508513e+00 1.832338e+00 3.939869e+00 6.499190e-01 6.421106e-01 6.026125e-01 5.544797e-01 4.551282e-01 5.656561e-01 6.551942e-01 7.876072e-01 7.650961e-01 5.836015e-01 4.701276e-01 3.328677e-01 4.072421e-01
<GCONST> 1.257778e+02
<STATE> 3
<MEAN> 39
 -5.286402e+00 -6.075922e+00 8.010572e-01 -1.058234e+01 4.296475e+00 -4.306263e-01 -9.750087e+00 -2.602700e+01 -3.366518e+00 3.971873e+00 6.064054e-01 6.283261e-01 8.517017e+01 -5.964158e-01 5.280572e-01 1.266172e+00 1.111232e+00 6.421206e-01 1.825884e-01 5.087113e-01 7.758722e-01 -2.079195e-01 -5.346625e-01 -4.568810e-01 -6.239099e-01 -9.394535e-01 -2.611865e-01 3.178632e-01 3.452659e-01 4.319301e-01 2.905574e-02 9.427531e-02 2.312624e-01 4.798366e-01 -1.286332e-01 -4.385514e-01 -3.099315e-01 -1.819332e-01 -5.563957e-01
<VARIANCE> 39
 8.902523e+00 1.756241e+01 2.744171e+01 3.104739e+01 4.094736e+01 3.761818e+01 4.168867e+01 4.572226e+01 3.201651e+01 2.834317e+01 2.408685e+01 3.560541e+01 1.190779e+01 1.193642e+00 1.622426e+00 2.087010e+00 3.196588e+00 2.080021e+00 2.002277e+00 2.479591e+00 3.207714e+00 2.721399e+00 2.655917e+00 2.177837e+00 1.880161e+00 1.479326e+00 2.100072e-01 2.884158e-01 3.288298e-01 4.481486e-01 3.543505e-01 3.689399e-01 3.934059e-01 5.736375e-01 4.818247e-01 4.109361e-01 3.917511e-01 3.293523e-01 1.704555e-01
<GCONST> 1.105712e+02
<STATE> 4
<MEAN> 39
 -1.048911e+01 -1.961976e+00 8.718156e+00 -1.281254e-01 7.804397e+00 9.954417e-02 -7.488483e+00 -1.988527e+01 -4.571183e+00 5.645752e-01 -3.121022e+00 -3.298770e+00 7.652367e+01 -1.911860e+00 1.120250e+00 1.542113e+00 2.514991e+00 -2.296396e-01 3.116408e-01 1.831677e+00 3.482068e+00 3.156819e-01 -1.087674e+00 -8.989671e-01 -6.965056e-01 -2.761558e+00 -8.211427e-02 -1.616398e-01 -5.390546e-01 -6.028680e-01 -4.351442e-01 2.127692e-02 1.558004e-01 1.498081e-01 1.446394e-01 2.333999e-02 1.096722e-01 1.957056e-01 1.238798e-01
<VARIANCE> 39
 3.582600e+01 2.263651e+01 4.358076e+01 7.919543e+01 6.476264e+01 3.563886e+01 6.347012e+01 6.731177e+01 4.186528e+01 3.330951e+01 3.887036e+01 4.464632e+01 4.842623e+01 3.588329e+00 2.838795e+00 3.344709e+00 5.033221e+00 3.391415e+00 2.370210e+00 3.262227e+00 4.738062e+00 2.865583e+00 2.764416e+00 3.531863e+00 2.886768e+00 2.689289e+00 3.814393e-01 3.757861e-01 5.733489e-01 8.695969e-01 6.392183e-01 4.219291e-01 7.081149e-01 1.097045e+00 5.700094e-01 4.986948e-01 5.413026e-01 5.237350e-01 3.518183e-01
<GCONST> 1.287885e+02
<TRANSP> 5
 0.000000e+00 1.000000e+00 0.000000e+00 0.000000e+00 0.000000e+00
 0.000000e+00 6.318792e-01 3.681208e-01 0.000000e+00 0.000000e+00
 0.000000e+00 0.000000e+00 7.727984e-01 2.272017e-01 0.000000e+00
 0.000000e+00 0.000000e+00 0.000000e+00 5.513099e-01 4.486901e-01
 0.000000e+00 0.000000e+00 0.000000e+00 0.000000e+00 0.000000e+00
<ENDHMM>
~h "H"
<BEGINHMM>
<NUMSTATES> 5
<STATE> 2
<MEAN> 39
 -3.183712e+00 -1.544706e+00 4.274503e+00 -9.212008e+00 3.553180e+00 -2.232052e+00 -5.316051e+00 -1.445015e+01 -1.319238e+01 -1.038347e+01 -1.111655e+01 -4.067207e+00 7.794044e+01 2.651795e-01 1.249763e+00 -4.715475e-01 1.554271e+00 4.824368e-01 2.459555e-01 1.725606e-01 1.058069e+00 9.500145e-01 3.588956e-01 -2.621523e-01 -2.602150e-01 -1.237792e+00 -7.113214e-01 6.834902e-02 4.008773e-01 6.237079e-01 1.673698e-01 6.677687e-02 1.907939e-01 2.250086e-01 5.670145e-01 2.422308e-01 4.295425e-01 5.566234e-02 -3.308500e-01
<VARIANCE> 39
 7.108644e+00 1.046269e+01 2.684234e+01 2.632626e+01 3.384010e+01 2.689984e+01 3.642878e+01 4.151751e+01 3.281763e+01 2.518396e+01 1.997132e+01 2.476100e+01 1.130485e+01 3.722639e+00 1.186054e+00 3.227072e+00 3.998255e+00 1.671813e+00 1.520357e+00 3.161190e+00 3.503681e+00 4.433587e+00 2.138499e+00 3.494761e+00 1.893643e+00 9.923156e-01 6.230778e-01 2.594385e-01 3.855186e-01 3.656148e-01 3.303601e-01 2.866958e-01 6.716001e-01 7.480796e-01 7.626164e-01 3.815716e-01 5.355145e-01 3.519339e-01 8.786361e-02
<GCONST> 1.113774e+02
<STATE> 3
<MEAN> 39
 -5.922932e+00 6.222070e+00 6.712991e+00 3.906680e+00 8.819342e+00 1.019119e+00 -6.278076e+00 -1.072792e+01 -5.468778e+00 -6.800514e+00 -9.659319e+00 -4.845444e+00 6.903339e+01 -4.069180e-01 1.065576e+00 5.322978e-01 1.039906e+00 5.281741e-01 4.614717e-01 -5.367117e-01 -2.034507e-01 6.569459e-01 5.148196e-01 1.460734e-01 -2.430570e-01 -9.732114e-01 1.045254e-02 -1.503161e-01 -3.494040e-02 -4.878128e-01 -1.903108e-01 -6.380300e-02 -1.709931e-02 -1.432866e-01 -2.714238e-01 -9.327924e-02 -3.882535e-03 6.754503e-02 1.865397e-01
<VARIANCE> 39
 4.674078e+00 1.005532e+01 1.432318e+01 1.423226e+01 1.561914e+01 1.579907e+01 2.243024e+01 1.869834e+01 1.600554e+01 2.096896e+01 1.643776e+01 1.561474e+01 5.099605e+00 2.067830e-01 8.247777e-01 1.107168e+00 2.668757e+00 1.563879e+00 9.033654e-01 1.376444e+00 1.506850e+00 1.440612e+00 9.462367e-01 1.027149e+00 1.030271e+00 4.709158e-01 3.870836e-02 1.136433e-01 1.753061e-01 3.544289e-01 2.095770e-01 1.550520e-01 2.462863e-01 3.428614e-01 2.265362e-01 1.672569e-01 2.035202e-01 1.729904e-01 6.775815e-02
<GCONST> 8.197347e+01
<STATE> 4
<MEAN> 39
 -1.079188e+01 9.481644e+00 8.617710e+00 4.872833e+00 7.902383e+00 3.450539e+00 -6.078453e+00 -9.251468e+00 -4.619673e+00 -4.961759e+00 -7.221947e+00 -4.821428e+00 6.318188e+01 -7.030722e-01 -3.165581e-01 -2.792095e-01 -1.257519e-01 -5.090787e-01 -1.067429e-01 2.603158e-01 7.438507e-01 -6.647196e-02 1.023580e-02 6.072155e-01 1.547466e-01 -6.098488e-01 -1.077063e-01 -3.711792e-01 -1.123002e-01 -1.260446e-01 -1.355691e-01 -8.178038e-02 1.952216e-01 1.248626e-01 8.069808e-03 -5.648661e-03 1.046612e-01 1.324156e-01 1.011770e-01
<VARIANCE> 39
 1.253186e+01 1.532398e+01 2.212693e+01 1.190040e+01 1.247903e+01 2.033051e+01 2.902900e+01 2.566718e+01 1.222930e+01 1.514150e+01 1.640479e+01 1.405005e+01 1.212966e+01 5.106332e-01 1.694421e+00 2.000906e+00 1.203200e+00 1.398334e+00 1.903803e+00 2.160686e+00 1.573953e+00 1.167459e+00 1.031649e+00 1.116404e+00 1.020335e+00 4.615205e-01 1.324213e-01 4.199269e-01 3.446740e-01 2.787782e-01 2.430483e-01 3.906076e-01 5.265508e-01 3.231857e-01 2.482467e-01 2.268607e-01 2.139304e-01 1.873884e-01 1.236600e-01
<GCONST> 9.275398e+01
<TRANSP> 5
 0.000000e+00 1.000000e+00 0.000000e+00 0.000000e+00 0.000000e+00
 0.000000e+00 8.065062e-01 1.934939e-01 0.000000e+00 0.000000e+00
 0.000000e+00 0.000000e+00 8.268019e-01 1.731981e-01 0.000000e+00
 0.000000e+00 0.000000e+00 0.000000e+00 8.732697e-01 1.267303e-01
 0.000000e+00 0.000000e+00 0.000000e+00 0.000000e+00 0.000000e+00
<ENDHMM>
~h "I"
<BEGINHMM>
<NUMSTATES> 5
<STATE> 2
<MEAN> 39
 -6.189566e+00 -4.138639e+00 6.653367e+00 -4.025649e+00 1.001595e+01 7.285899e-02 -1.267346e+01 -2.641972e+01 -1.137470e+01 -4.607125e+00 -5.311893e+00 -3.819878e+00 7.935172e+01 1.585424e+00 -3.676379e-02 -2.473962e-01 8.163378e-01 1.219316e+00 -3.936554e-01 -1.893762e+00 -2.045598e+00 -4.094140e-01 5.071986e-01 -7.004447e-01 -4.737635e-01 9.087176e-01 -8.518419e-01 -9.143652e-02 3.163617e-02 1.452340e-01 -4.388960e-01 -1.774079e-01 5.897241e-01 1.091456e+00 5.940962e-01 -5.224302e-02 7.865492e-02 7.279325e-02 -5.062482e-01
<VARIANCE> 39
 3.197612e+01 1.847461e+01 4.193457e+01 3.773432e+01 4.151237e+01 3.022129e+01 4.357047e+01 5.543753e+01 4.877759e+01 5.394985e+01 2.406102e+01 2.604433e+01 2.861699e+01 6.760883e+00 2.817790e+00 4.785409e+00 3.599126e+00 3.116232e+00 3.104250e+00 4.005500e+00 7.998151e+00 3.273109e+00 3.322551e+00 3.320631e+00 2.421679e+00 3.359061e+00 8.603725e-01 5.199128e-01 7.035890e-01 5.464983e-01 4.703663e-01 4.630733e-01 6.177498e-01 9.928384e-01 6.096019e-01 5.380390e-01 5.748159e-01 3.662502e-01 3.404380e-01
<GCONST> 1.277079e+02
<STATE> 3
<MEAN> 39
 -6.064858e+00 -4.777194e+00 6.415297e+00 -6.757736e-02 1.245158e+01 -3.056897e+00 -1.550962e+01 -2.678334e+01 -9.959016e+00 -4.197437e+00 -7.397254e+00 -3.718306e+00 7.870934e+01 -9.026846e-01 4.770893e-01 8.776503e-01 1.095715e+00 -5.336186e-02 -1.200491e-01 6.185894e-01 1.341158e+00 7.559863e-01 2.886181e-01 -7.306542e-02 -2.948799e-02 -9.903745e-01 -3.345464e-01 2.181044e-01 1.896185e-01 3.752950e-02 -2.682113e-01 2.258624e-01 4.980710e-01 6.886452e-01 2.011457e-01 -7.846782e-02 1.001175e-01 2.472559e-02 -3.548540e-01
<VARIANCE> 39
 1.213887e+01 1.905526e+01 3.440996e+01 5.125322e+01 4.347549e+01 3.528885e+01 4.730946e+01 5.210160e+01 4.143190e+01 4.653162e+01 2.804437e+01 4.448236e+01 1.757471e+01 1.545853e+00 1.410933e+00 2.230456e+00 3.074579e+00 1.749510e+00 1.860204e+00 2.488531e+00 4.159081e+00 2.167153e+00 1.996573e+00 1.872630e+00 2.023145e+00 1.422780e+00 2.579905e-01 2.878193e-01 3.862279e-01 4.299690e-01 3.174668e-01 3.116583e-01 4.245597e-01 5.554752e-01 4.378521e-01 3.862463e-01 3.799827e-01 3.529701e-01 1.640676e-01
<GCONST> 1.129258e+02
<STATE> 4
<MEAN> 39
 -1.207423e+01 -4.446012e-01 1.130045e+01 4.848202e+00 1.076609e+01 -1.391798e+00 -1.283819e+01 -1.776583e+01 -4.673823e+00 -1.515705e+00 -7.973547e+00 -5.926907e+00 7.072079e+01 -1.360004e+00 4.918442e-01 3.147581e-02 3.211618e-01 -1.139354e+00 4.360738e-01 1.819741e+00 2.725732e+00 8.405924e-01 -1.009611e-01 4.845078e-01 9.797154e-02 -1.512876e+00 -6.969097e-02 -2.039776e-01 -3.445218e-01 -3.852563e-01 -1.563739e-01 4.052075e-02 1.681573e-01 -4.025615e-02 4.661400e-04 -1.213764e-01 1.178100e-01 8.628785e-02 1.067109e-01
<VARIANCE> 39
 2.761710e+01 2.044640e+01 4.136545e+01 5.493451e+01 4.491638e+01 3.069349e+01 5.894825e+01 5.832003e+01 3.939889e+01 4.620918e+01 3.233657e+01 3.734265e+01 5.108692e+01 2.757196e+00 2.614107e+00 3.941075e+00 3.856962e+00 2.378820e+00 1.923976e+00 3.301882e+00 4.480820e+00 2.990726e+00 2.677727e+00 2.536619e+00 1.924374e+00 1.788148e+00 2.120310e-01 3.021029e-01 4.901176e-01 4.993008e-01 3.436629e-01 4.043390e-01 4.388781e-01 5.380701e-01 4.170737e-01 4.154843e-01 3.746245e-01 3.114043e-01 1.568538e-01
<GCONST> 1.194828e+02
<TRANSP> 5
 0.000000e+00 1.000000e+00 0.000000e+00 0.000000e+00 0.000000e+00
 0.000000e+00 6.247038e-01 3.752962e-01 0.000000e+00 0.000000e+00
 0.000000e+00 0.000000e+00 7.262976e-01 2.737025e-01 0.000000e+00
 0.000000e+00 0.000000e+00 0.000000e+00 6.059976e-01 3.940024e-01
 0.000000e+00 0.000000e+00 0.000000e+00 0.000000e+00 0.000000e+00
<ENDHMM>
~h "J"
<BEGINHMM>
<NUMSTATES> 5
<STATE> 2
<MEAN> 39
 -1.980577e+01 -7.553985e+00 5.800848e+00 -4.416816e-01 2.417386e+00 1.645349e+00 -4.413527e+00 -8.211196e+00 -1.659274e+00 -4.113044e+00 -5.126651e+00 -1.680768e+00 6.494983e+01 -1.971987e+00 -3.430292e+00 1.366857e+00 -1.239493e+00 3.517126e-01 -4.265847e-01 -5.547687e-03 -5.508890e-01 9.813395e-01 -1.400176e-01 3.693993e-02 2.587151e-01 2.087631e+00 -2.767716e-01 -2.041469e-01 3.371318e-01 -1.616323e-01 1.691751e-01 -3.869453e-01 -5.913947e-02 -3.040687e-01 5.709355e-02 1.157349e-01 1.461118e-01 3.068879e-03 5.375007e-01
<VARIANCE> 39
 2.469218e+01 9.050651e+01 6.863972e+01 5.400014e+01 3.757719e+01 3.414844e+01 3.245522e+01 3.889162e+01 2.158702e+01 2.032022e+01 1.767716e+01 1.508755e+01 4.806100e+01 3.810616e+00 7.711433e+00 8.476233e+00 5.479071e+00 3.794293e+00 3.699247e+00 3.962225e+00 6.749680e+00 2.979955e+00 2.893526e+00 2.344840e+00 1.926722e+00 7.321930e+00 7.076059e-01 1.495389e+00 1.403641e+00 1.429661e+00 6.766766e-01 6.134598e-01 8.477733e-01 1.118760e+00 5.532385e-01 5.447145e-01 4.820848e-01 3.299029e-01 9.917126e-01
<GCONST> 1.330215e+02
<STATE> 3
<MEAN> 39
 -3.015937e+01 -2.285355e+01 1.139329e+01 -4.422979e+00 6.047793e+00 -4.550494e+00 -5.311607e+00 -1.392973e+01 2.252473e+00 -2.468301e+00 -3.252553e+00 -1.137249e+00 7.849104e+01 -3.321111e-02 -4.952248e-01 -5.852168e-01 -1.230949e-01 4.219616e-01 -7.743325e-01 -6.175474e-01 -1.051807e+00 -4.207519e-01 1.655113e-01 1.048228e-01 -6.694598e-02 9.842972e-01 7.643304e-01 7.058002e-01 -3.449035e-01 1.245038e-01 -5.912270e-02 2.324033e-01 -1.426827e-01 -1.405198e-02 -4.454358e-01 -1.545894e-01 -1.076281e-01 4.854468e-03 -4.632365e-01
<VARIANCE> 39
 5.641990e+00 8.949876e+00 2.266007e+01 1.759875e+01 2.232012e+01 2.567708e+01 2.726267e+01 3.053811e+01 1.770694e+01 1.370740e+01 1.102657e+01 1.380052e+01 1.254982e+01 3.286851e+00 1.821643e+00 3.269905e+00 1.257354e+00 1.324585e+00 1.371559e+00 1.835175e+00 1.731883e+00 2.136026e+00 1.360505e+00 1.182635e+00 8.572468e-01 1.303342e+00 3.563772e-01 3.237288e-01 1.040937e+00 3.056439e-01 2.796724e-01 2.393562e-01 3.175969e-01 3.336247e-01 3.097962e-01 2.418810e-01 2.080759e-01 1.897425e-01 8.700038e-02
<GCONST> 9.749359e+01
<STATE> 4
<MEAN> 39
 -2.254731e+01 -1.805821e+01 8.393826e+00 -3.638158e+00 7.171104e+00 -3.901616e+00 -8.312799e+00 -1.797991e+01 -4.886756e+00 -3.762792e+00 -3.875417e+00 2.177006e-02 7.629700e+01 2.583808e+00 2.422945e+00 1.201178e-01 6.731063e-01 -1.668744e-01 1.008553e+00 1.245785e-01 3.498219e-01 -1.375780e+00 -2.495150e-01 -2.187218e-01 4.780660e-01 -1.017621e+00 1.887283e-01 2.686326e-01 -1.399700e-01 -5.633216e-02 -3.047227e-01 1.395183e-01 1.326309e-01 2.606646e-01 1.774952e-01 8.310547e-02 -2.731403e-02 -8.422582e-03 -7.827791e-02
<VARIANCE> 39
 5.872712e+01 4.150930e+01 3.072342e+01 2.983110e+01 2.280637e+01 2.787838e+01 3.169215e+01 5.705690e+01 4.430120e+01 1.704952e+01 1.432412e+01 1.635565e+01 3.900698e+01 6.801352e+00 3.541911e+00 2.247828e+00 2.154308e+00 2.892189e+00 2.050048e+00 2.852596e+00 6.278810e+00 5.206694e+00 1.922532e+00 1.503199e+00 1.409482e+00 1.814470e+00 6.111927e-01 5.963975e-01 5.134069e-01 3.904707e-01 2.932124e-01 4.474620e-01 4.530158e-01 6.760526e-01 6.277813e-01 2.923676e-01 2.327283e-01 2.700770e-01 1.918592e-01
<GCONST> 1.171299e+02
<TRANSP> 5
 0.000000e+00 1.000000e+00 0.000000e+00 0.000000e+00 0.000000e+00
 0.000000e+00 7.893867e-01 2.106133e-01 0.000000e+00 0.000000e+00
 0.000000e+00 0.000000e+00 8.453771e-01 1.546229e-01 0.000000e+00
 0.000000e+00 0.000000e+00 0.000000e+00 7.913209e-01 2.086791e-01
 0.000000e+00 0.000000e+00 0.000000e+00 0.000000e+00 0.000000e+00
<ENDHMM>
~h "N"
<BEGINHMM>
<NUMSTATES> 5
<STATE> 2
<MEAN> 39
 -8.205651e+00 -2.494035e+00 9.007755e+00 4.586973e+00 1.078000e+01 -4.278814e+00 -1.334920e+01 -1.837318e+01 2.447533e+00 3.467718e+00 -1.020164e+01 -9.822070e+00 7.459962e+01 1.330127e-01 1.853193e+00 9.074822e-02 -1.987305e-01 -9.307656e-01 1.318303e+00 1.466528e+00 1.807714e+00 -3.407819e-01 -1.394766e+00 -8.913963e-01 -5.617264e-02 -1.438725e+00 1.936246e-01 2.104780e-01 -4.667620e-01 -3.054444e-01 -8.036196e-02 2.492897e-01 1.242864e-01 -2.625903e-01 -6.025096e-01 -4.377883e-01 3.499548e-01 4.238826e-01 -3.487813e-02
<VARIANCE> 39
 8.082435e+00 2.762258e+01 2.129957e+01 2.241620e+01 2.616579e+01 3.621840e+01 4.308545e+01 4.295447e+01 2.719792e+01 2.887223e+01 2.456859e+01 2.561724e+01 1.572754e+01 6.135786e-01 1.158767e+00 2.455401e+00 1.594212e+00 1.480312e+00 1.882879e+00 2.217490e+00 2.539231e+00 4.800734e+00 3.354311e+00 2.323183e+00 3.159820e+00 3.181943e-01 8.226484e-02 1.614879e-01 2.926670e-01 2.513252e-01 2.403849e-01 3.379162e-01 3.492824e-01 3.945746e-01 6.029233e-01 5.317653e-01 4.978841e-01 4.892493e-01 4.288273e-02
<GCONST> 1.037795e+02
<STATE> 3
<MEAN> 39
 -6.993568e+00 8.464977e+00 5.224091e+00 2.202525e+00 6.562955e+00 3.725979e+00 -6.470089e+00 -1.225258e+01 -4.000195e+00 -5.909856e+00 -8.847433e+00 -6.616189e+00 6.640797e+01 -5.003393e-01 7.088470e-01 -1.321582e-02 1.466129e-01 4.477589e-02 4.828207e-01 3.239188e-01 5.811486e-01 -3.809514e-01 -3.885099e-01 5.642080e-01 2.388105e-01 -9.320977e-01 -3.228975e-01 -3.691286e-01 1.963049e-01 5.520343e-02 2.033774e-01 -1.839923e-01 -7.260354e-02 8.012106e-02 1.974259e-01 2.969011e-01 2.813235e-02 -1.249282e-01 1.027311e-01
<VARIANCE> 39
 1.120739e+01 1.371603e+01 1.942311e+01 1.289646e+01 1.379144e+01 1.464588e+01 1.489888e+01 1.573027e+01 1.294986e+01 1.472110e+01 1.120319e+01 1.581029e+01 1.684545e+01 8.497445e-01 1.236201e+00 1.902809e+00 1.202439e+00 1.116109e+00 1.438350e+00 1.454749e+00 1.158074e+00 1.245657e+00 1.406064e+00 9.289123e-01 1.116353e+00 3.663613e-01 1.062713e-01 1.520264e-01 3.162672e-01 2.740759e-01 2.627086e-01 2.789162e-01 3.829189e-01 2.612956e-01 2.606113e-01 2.282386e-01 1.959134e-01 2.283857e-01 6.411515e-02
<GCONST> 8.755412e+01
<STATE> 4
<MEAN> 39
 -1.806473e+01 4.677018e+00 6.540380e+00 -1.506981e+00 9.401545e+00 4.089259e+00 -2.944824e+00 -5.958753e+00 -5.513926e+00 -5.146541e+00 -2.799138e+00 -4.114312e+00 6.225291e+01 -1.217170e+00 -1.133126e+00 -6.550111e-01 -6.628076e-01 -3.771678e-01 -3.120474e-01 4.536793e-01 7.163223e-01 1.786872e-02 4.015085e-01 8.362541e-01 5.944474e-01 -4.908910e-01 1.656021e-01 -2.423096e-02 -2.141212e-01 4.201049e-02 -3.070098e-01 -1.149105e-01 -4.958853e-02 -3.180969e-02 1.386662e-01 4.172566e-02 -7.925259e-02 7.167565e-02 -3.881413e-02
<VARIANCE> 39
 3.597367e+01 2.915766e+01 3.912711e+01 4.280577e+01 3.941808e+01 2.717913e+01 2.349233e+01 3.253444e+01 1.683331e+01 1.841631e+01 2.368507e+01 2.122808e+01 1.948191e+01 3.633053e+00 1.908664e+00 4.397516e+00 4.715365e+00 5.533896e+00 2.833652e+00 2.385071e+00 3.884824e+00 2.231529e+00 1.937872e+00 2.437530e+00 1.617681e+00 2.038029e+00 6.279517e-01 5.107799e-01 8.893039e-01 1.048558e+00 8.590589e-01 6.195573e-01 4.291133e-01 7.983853e-01 4.375429e-01 3.969341e-01 4.816583e-01 3.310575e-01 4.321577e-01
<GCONST> 1.207591e+02
<TRANSP> 5
 0.000000e+00 1.000000e+00 0.000000e+00 0.000000e+00 0.000000e+00
 0.000000e+00 8.013384e-01 1.986616e-01 0.000000e+00 0.000000e+00
 0.000000e+00 0.000000e+00 8.662736e-01 1.337264e-01 0.000000e+00
 0.000000e+00 0.000000e+00 0.000000e+00 8.278099e-01 1.721901e-01
 0.000000e+00 0.000000e+00 0.000000e+00 0.000000e+00 0.000000e+00
<ENDHMM>
~h "P"
<BEGINHMM>
<NUMSTATES> 5
<STATE> 2
<MEAN> 39
 -1.347433e+00 4.805086e+00 1.049080e+01 -5.192064e+00 -9.503613e+00 -1.801976e+01 -2.040874e+01 -7.978968e+00 -4.199435e+00 -1.004410e+01 -7.483599e+00 -3.751466e+00 7.498200e+01 7.119673e-02 5.893559e-01 3.022693e-01 1.150018e+00 -4.217318e-01 -1.329798e+00 -1.440483e+00 6.210107e-01 -5.990602e-01 2.488903e-02 6.480707e-01 6.785008e-01 -7.887544e-01 -3.480361e-01 1.813278e-02 -1.564774e-02 3.648948e-02 2.456055e-01 3.783351e-01 5.363551e-01 -5.582759e-02 -1.941701e-01 2.936087e-02 2.046846e-01 7.749039e-02 -1.310501e-01
<VARIANCE> 39
 4.297190e+00 1.552821e+01 2.152412e+01 2.984150e+01 1.882926e+01 3.750018e+01 4.619696e+01 3.206987e+01 2.356371e+01 2.735529e+01 2.987958e+01 2.747195e+01 1.049500e+01 1.048688e+00 8.640450e-01 1.142378e+00 1.240550e+00 1.270671e+00 1.994523e+00 3.704828e+00 1.618663e+00 1.697336e+00 1.915829e+00 1.970708e+00 1.351527e+00 3.490658e-01 2.914362e-01 1.818195e-01 1.891329e-01 2.838557e-01 2.281662e-01 2.916059e-01 3.724045e-01 3.099368e-01 2.474507e-01 3.091727e-01 4.649743e-01 3.003585e-01 5.700501e-02
<GCONST> 9.767590e+01
<STATE> 3
<MEAN> 39
 -3.835336e+00 1.051531e+01 1.288006e+01 1.735763e+00 -9.652962e+00 -1.999027e+01 -1.983291e+01 -6.544865e+00 -1.079234e+01 -1.006198e+01 -2.902743e+00 -6.927900e-02 6.837417e+01 -5.037889e-01 4.146953e-01 1.307883e-01 4.339142e-01 2.791952e-01 6.941006e-01 8.548412e-01 -6.504700e-02 -1.930053e-01 2.491799e-01 2.424604e-01 1.027384e-02 -6.682646e-01 -1.875492e-01 -2.480912e-01 -7.331789e-02 -9.639996e-02 2.037277e-01 2.914766e-01 2.387295e-01 4.785334e-02 2.936179e-01 1.242882e-01 -3.528802e-02 -7.071596e-02 2.994333e-02
<VARIANCE> 39
 3.425598e+00 1.402847e+01 1.697974e+01 1.887697e+01 1.703922e+01 2.200625e+01 2.307924e+01 2.913008e+01 1.988584e+01 3.231327e+01 1.339703e+01 1.619599e+01 6.021748e+00 4.027152e-01 9.116300e-01 7.971424e-01 8.083309e-01 1.143840e+00 1.274194e+00 1.217632e+00 1.280181e+00 1.265174e+00 1.078704e+00 7.495197e-01 7.367153e-01 2.723711e-01 1.283795e-01 1.912145e-01 1.681089e-01 1.564365e-01 2.660727e-01 2.469075e-01 2.474656e-01 2.538505e-01 1.927202e-01 2.129140e-01 1.659776e-01 1.395642e-01 4.688942e-02
<GCONST> 8.233925e+01
<STATE> 4
<MEAN> 39
 -1.184901e+01 7.836065e+00 8.916193e+00 2.488656e+00 -4.260976e+00 -9.855253e+00 -1.114347e+01 -5.199002e+00 -5.218484e+00 -4.343946e+00 -1.620793e+00 -8.000191e-01 6.229608e+01 -1.990642e+00 -1.584980e+00 -1.112661e+00 -2.721490e-01 1.312627e+00 1.985433e+00 2.360551e+00 7.336960e-01 1.174490e+00 9.170814e-01 2.430878e-01 -6.796471e-02 -8.235731e-01 -9.139076e-02 -2.165254e-01 -1.645526e-01 -1.845667e-01 -5.600626e-02 -8.192597e-02 4.249902e-02 -2.880131e-02 -5.897428e-02 -9.568162e-02 -3.020743e-03 5.070968e-02 8.981081e-02
<VARIANCE> 39
 1.674999e+01 2.274425e+01 3.289754e+01 1.456999e+01 2.026770e+01 2.715901e+01 3.076550e+01 2.520458e+01 2.928458e+01 2.626138e+01 1.427518e+01 1.178093e+01 1.652329e+01 1.494012e+00 1.931344e+00 1.943682e+00 1.322536e+00 3.383494e+00 3.129743e+00 3.046656e+00 2.686548e+00 2.819316e+00 2.291430e+00 1.347180e+00 1.091594e+00 7.434532e-01 3.352695e-01 4.736755e-01 3.596261e-01 2.492905e-01 4.499440e-01 5.503781e-01 5.866729e-01 5.132846e-01 5.386481e-01 4.135218e-01 2.352701e-01 1.873216e-01 8.853581e-02
<GCONST> 1.058563e+02
<TRANSP> 5
 0.000000e+00 1.000000e+00 0.000000e+00 0.000000e+00 0.000000e+00
 0.000000e+00 8.650259e-01 1.349741e-01 0.000000e+00 0.000000e+00
 0.000000e+00 0.000000e+00 8.733620e-01 1.266380e-01 0.000000e+00
 0.000000e+00 0.000000e+00 0.000000e+00 7.625130e-01 2.374870e-01
 0.000000e+00 0.000000e+00 0.000000e+00 0.000000e+00 0.000000e+00
<ENDHMM>
~h "Q"
<BEGINHMM>
<NUMSTATES> 5
<STATE> 2
<MEAN> 39
 -1.667718e+00 3.576553e-02 7.200536e+00 -1.136317e+01 -9.853994e+00 -1.260949e+01 -1.225236e+01 -9.180091e+00 2.282892e+00 -3.498322e+00 -7.106379e+00 -2.263359e+00 8.042483e+01 2.148494e+00 7.297469e-02 3.220454e-01 -5.343162e-01 -2.217305e+00 -2.493216e+00 -2.165744e+00 6.950787e-01 1.683051e+00 1.309751e+00 -4.043558e-01 1.844477e-01 1.093158e+00 -6.859624e-01 -2.044542e-01 -6.716305e-02 3.620021e-01 4.344490e-01 4.655144e-01 4.628069e-01 9.809605e-02 -3.520146e-01 -4.288398e-02 3.071930e-01 2.532571e-02 -3.999819e-01
<VARIANCE> 39
 2.905465e+01 2.283250e+01 2.527201e+01 3.230855e+01 3.903838e+01 5.647449e+01 6.626031e+01 4.846390e+01 4.197049e+01 4.664650e+01 3.191751e+01 2.337537e+01 2.328063e+01 5.641664e+00 2.843158e+00 2.309195e+00 2.938744e+00 3.630432e+00 4.595884e+00 4.727821e+00 4.214643e+00 4.654788e+00 2.974686e+00 2.934319e+00 2.309856e+00 3.079612e+00 7.787755e-01 4.787622e-01 3.812808e-01 4.528092e-01 5.632761e-01 7.553718e-01 8.760693e-01 7.128831e-01 8.435744e-01 7.717396e-01 6.337616e-01 4.639415e-01 2.754743e-01
<GCONST> 1.271465e+02
<STATE> 3
<MEAN> 39
 -7.699132e-02 5.135716e-02 8.584144e+00 -1.061751e+01 -1.384695e+01 -1.643905e+01 -1.597656e+01 -7.137541e+00 4.265720e+00 -4.745114e-01 -5.114794e+00 -1.833819e+00 8.042059e+01 -6.744139e-01 2.159786e-01 4.039502e-01 8.438947e-01 5.411605e-01 5.782282e-01 9.039863e-01 4.745356e-01 -3.250215e-01 -2.329679e-01 2.667268e-01 -5.894870e-02 -6.487957e-01 -5.016432e-01 1.306352e-01 -2.247316e-02 3.302627e-01 6.577218e-01 6.149478e-01 5.708315e-01 3.942961e-02 -2.724204e-01 -3.272666e-01 1.349768e-02 -7.072625e-02 -3.623718e-01
<VARIANCE> 39
 5.873701e+00 1.336432e+01 2.825897e+01 2.879852e+01 3.300220e+01 5.039150e+01 4.480271e+01 4.708891e+01 2.724084e+01 2.867712e+01 2.225921e+01 2.673636e+01 1.246220e+01 1.734864e+00 1.293623e+00 1.370812e+00 2.464028e+00 3.174617e+00 3.477624e+00 3.389953e+00 2.713745e+00 2.513924e+00 2.418770e+00 2.184104e+00 1.737566e+00 1.461179e+00 3.311799e-01 1.846741e-01 2.873715e-01 3.762011e-01 4.444428e-01 4.360512e-01 4.991626e-01 5.237193e-01 5.108930e-01 4.146972e-01 4.323907e-01 3.418833e-01 1.611731e-01
<GCONST> 1.102591e+02
<STATE> 4
<MEAN> 39
 -9.348949e+00 2.423821e+00 9.648398e+00 -3.294642e+00 -4.118048e+00 -7.281738e+00 -5.744799e+00 -4.222091e+00 8.936087e-01 -3.993430e+00 -3.956135e+00 -2.201072e+00 7.331918e+01 -2.956034e+00 -7.096733e-02 -3.087028e-01 1.774258e+00 3.042635e+00 2.964537e+00 2.703214e+00 7.358581e-01 -1.040473e+00 -8.648844e-01 2.245474e-01 -1.845049e-02 -1.811976e+00 4.905891e-02 -3.740599e-01 -3.774888e-01 -5.906414e-01 -2.542557e-01 -7.369623e-02 -2.951506e-01 -3.197047e-01 -6.074141e-02 1.186414e-01 -3.633871e-02 1.393078e-02 2.157455e-01
<VARIANCE> 39
 5.917785e+01 3.024022e+01 2.903987e+01 4.617186e+01 5.896095e+01 5.611573e+01 5.496400e+01 4.423773e+01 5.040550e+01 3.448891e+01 2.801958e+01 2.176177e+01 6.605666e+01 3.991289e+00 2.270010e+00 3.043842e+00 4.241821e+00 3.793706e+00 3.251982e+00 3.873292e+00 4.320096e+00 3.968136e+00 2.886884e+00 3.117742e+00 2.343512e+00 2.469622e+00 4.666749e-01 3.679146e-01 4.903466e-01 7.577331e-01 7.630108e-01 7.080377e-01 7.705497e-01 8.246151e-01 8.780016e-01 4.792786e-01 5.081387e-01 3.354010e-01 3.513155e-01
<GCONST> 1.282537e+02
<TRANSP> 5
 0.000000e+00 1.000000e+00 0.000000e+00 0.000000e+00 0.000000e+00
 0.000000e+00 6.445184e-01 3.554816e-01 0.000000e+00 0.000000e+00
 0.000000e+00 0.000000e+00 8.180314e-01 1.819686e-01 0.000000e+00
 0.000000e+00 0.000000e+00 0.000000e+00 6.379322e-01 3.620678e-01
 0.000000e+00 0.000000e+00 0.000000e+00 0.000000e+00 0.000000e+00
<ENDHMM>
~h "R"
<BEGINHMM>
<NUMSTATES> 5
<STATE> 2
<MEAN> 39
 -2.676800e+00 -2.168836e+00 -1.470517e+00 -1.383581e+01 -3.241283e+00 -6.509054e+00 -5.694473e+00 -1.586307e+01 -4.306081e+00 -4.013041e+00 -8.527321e+00 7.459865e+00 7.788171e+01 -5.029236e-01 6.147964e-01 4.077205e-01 -6.725535e-03 -9.195293e-02 4.630088e-01 5.027555e-01 5.304216e-01 5.856782e-01 7.340015e-01 1.071690e-01 5.401345e-01 -7.724787e-01 -1.555217e-01 1.205455e-01 1.909314e-01 1.462085e-01 1.743951e-01 3.284510e-01 -1.308590e-01 2.955396e-02 -3.184966e-02 -1.937225e-04 1.103694e-01 -2.334218e-01 -2.120721e-01
<VARIANCE> 39
 5.742229e+00 1.654134e+01 2.141740e+01 1.973125e+01 4.626311e+01 3.121393e+01 3.238964e+01 4.237403e+01 4.539371e+01 2.734786e+01 2.136023e+01 3.127591e+01 6.892310e+00 3.114286e-01 1.065832e+00 1.228046e+00 1.005027e+00 1.246927e+00 1.686978e+00 1.269709e+00 1.645168e+00 1.288129e+00 1.221547e+00 1.120448e+00 1.418420e+00 4.107302e-01 5.843795e-02 2.061921e-01 2.158918e-01 1.775870e-01 2.039629e-01 2.234989e-01 2.148520e-01 2.880849e-01 1.990266e-01 2.059227e-01 2.271053e-01 1.842510e-01 5.669473e-02
<GCONST> 9.016139e+01
<STATE> 3
<MEAN> 39
 -7.553889e+00 1.316911e+00 1.748160e+00 -1.205175e+01 -1.417829e+00 3.464156e-01 -4.935358e+00 -1.213211e+01 -1.242007e+00 1.962541e-01 -5.515524e+00 8.001768e+00 7.103046e+01 -1.174858e+00 -2.664101e-01 -4.339771e-01 1.223247e+00 4.236102e-01 1.078623e+00 3.539761e-01 2.513456e+00 6.128253e-01 1.931072e-01 1.459475e+00 -2.490330e-02 -1.762895e+00 9.189986e-03 -3.805486e-01 -5.116608e-01 3.436280e-01 -8.613776e-02 -4.106084e-01 8.940498e-02 4.586856e-01 -2.383810e-01 -4.012607e-01 3.350090e-01 -8.534711e-02 -3.255687e-02
<VARIANCE> 39
 5.846997e+00 1.237147e+01 1.590449e+01 1.981224e+01 2.498643e+01 2.862055e+01 2.632852e+01 4.514176e+01 3.453959e+01 2.311099e+01 1.878871e+01 1.913797e+01 9.224685e+00 4.337264e-01 1.341506e+00 2.136914e+00 1.318835e+00 1.516887e+00 2.863743e+00 2.086022e+00 2.403122e+00 1.904045e+00 2.080173e+00 1.646437e+00 1.162487e+00 3.864565e-01 6.821382e-02 1.508930e-01 2.515651e-01 2.228326e-01 2.343109e-01 4.778615e-01 2.829131e-01 3.955396e-01 3.635211e-01 2.987098e-01 2.190782e-01 2.126575e-01 5.973443e-02
<GCONST> 9.486205e+01
<STATE> 4
<MEAN> 39
 -1.307329e+01 -1.481868e+00 -3.358088e+00 -3.590625e+00 -1.058314e+00 -1.371228e-01 -2.295740e+00 -4.892695e-02 -2.785060e+00 -3.739005e+00 2.217888e+00 6.024624e+00 6.286546e+01 -1.672588e+00 1.128839e-01 -2.426969e-01 1.686879e+00 4.421528e-02 -2.757376e-01 7.082413e-01 1.227469e+00 -3.755420e-01 -5.248126e-01 6.285890e-01 -9.155879e-01 -1.913207e+00 -1.355413e-01 2.482450e-01 3.491349e-01 -2.143019e-01 1.974245e-02 2.347146e-02 -1.110974e-02 -5.173997e-01 1.618654e-01 3.094019e-01 -4.717767e-01 -1.176955e-01 1.262979e-02
<VARIANCE> 39
 1.050601e+01 1.214783e+01 1.141301e+01 2.004638e+01 1.340736e+01 2.342338e+01 2.011346e+01 1.964782e+01 1.783857e+01 1.904781e+01 1.540491e+01 1.449481e+01 1.308737e+01 4.240302e-01 1.106610e+00 1.330847e+00 1.249816e+00 1.157787e+00 1.691213e+00 1.750728e+00 2.651595e+00 2.222731e+00 2.454631e+00 2.405547e+00 1.180511e+00 2.314148e-01 7.730217e-02 1.569272e-01 1.682467e-01 2.265090e-01 2.121155e-01 3.866580e-01 3.610376e-01 3.075667e-01 4.394020e-01 4.306722e-01 2.883311e-01 2.369225e-01 6.065585e-02
<GCONST> 9.120370e+01
<TRANSP> 5
 0.000000e+00 1.000000e+00 0.000000e+00 0.000000e+00 0.000000e+00
 0.000000e+00 8.178320e-01 1.821680e-01 0.000000e+00 0.000000e+00
 0.000000e+00 0.000000e+00 7.493221e-01 2.506779e-01 0.000000e+00
 0.000000e+00 0.000000e+00 0.000000e+00 8.097225e-01 1.902774e-01
 0.000000e+00 0.000000e+00 0.000000e+00 0.000000e+00 0.000000e+00
<ENDHMM>
~h "S"
<BEGINHMM>
<NUMSTATES> 5
<STATE> 2
<MEAN> 39
 -2.442938e+01 -1.871174e+01 7.797274e+00 -2.622561e+00 1.002894e+01 5.381911e-01 -4.325584e+00 -1.566276e+01 -4.516461e-02 -2.882096e+00 -2.689326e+00 -1.562089e+00 7.771678e+01 -2.358956e+00 -2.511414e+00 6.550373e-01 -6.290164e-01 -4.094957e-01 -1.657877e+00 -1.419094e-01 -3.349695e-01 7.755904e-01 1.121499e-01 1.046479e-01 -9.734438e-02 1.387610e+00 4.116881e-01 6.935633e-01 -1.698751e-01 -3.835346e-02 -3.036745e-01 -2.391807e-01 -2.258364e-01 -2.566547e-02 -1.426875e-01 5.240727e-02 -6.893010e-02 -1.767687e-02 -2.682653e-01
<VARIANCE> 39
 2.140223e+01 2.198266e+01 3.605904e+01 2.900272e+01 4.134371e+01 5.096886e+01 5.123483e+01 3.859732e+01 2.810618e+01 1.888711e+01 1.605523e+01 1.359249e+01 5.084767e+01 2.380259e+00 3.017253e+00 3.596025e+00 1.686429e+00 2.554214e+00 1.993672e+00 3.316816e+00 3.720491e+00 2.370823e+00 2.006706e+00 1.588148e+00 1.316939e+00 1.923357e+00 4.436536e-01 3.062131e-01 4.373576e-01 3.207349e-01 3.346633e-01 6.208174e-01 9.023365e-01 9.595113e-01 5.687745e-01 3.720201e-01 3.368105e-01 2.435437e-01 1.244324e-01
<GCONST> 1.146678e+02
<STATE> 3
<MEAN> 39
 -2.861959e+01 -2.265105e+01 7.687531e+00 -4.768347e+00 7.228089e+00 -6.142206e+00 -6.844718e+00 -1.783675e+01 -7.573654e-01 -3.075273e+00 -2.643160e+00 -1.824816e+00 8.064327e+01 6.814303e-01 4.435980e-01 -2.716539e-02 -5.148840e-02 -1.496846e-02 -6.886223e-02 -2.635325e-01 -2.930109e-01 -7.565329e-01 -3.291607e-01 -8.869488e-02 1.841127e-01 -1.596580e-01 5.630282e-01 4.160665e-01 4.490128e-02 9.883320e-02 1.327717e-01 3.020188e-01 3.068324e-02 3.082205e-02 -2.860050e-01 -1.016458e-01 -8.933028e-02 4.593781e-02 -1.294097e-01
<VARIANCE> 39
 6.530489e+00 6.422199e+00 1.629215e+01 1.698708e+01 1.933673e+01 2.215345e+01 2.515321e+01 3.038280e+01 1.938228e+01 1.503822e+01 1.199955e+01 1.704711e+01 8.643247e+00 2.904469e+00 1.787749e+00 1.144373e+00 1.108900e+00 1.030447e+00 1.520352e+00 1.343487e+00 1.815489e+00 2.069016e+00 1.387827e+00 1.009447e+00 8.935762e-01 6.726182e-01 3.882416e-01 2.433262e-01 2.078657e-01 1.874277e-01 1.709038e-01 2.359398e-01 2.449346e-01 3.461048e-01 3.434682e-01 2.594876e-01 2.219907e-01 1.920355e-01 4.733218e-02
<GCONST> 9.076234e+01
<STATE> 4
<MEAN> 39
 -1.263285e+01 -1.051481e+01 7.289123e+00 -4.672217e+00 8.562290e+00 -3.651128e-01 -7.903099e+00 -1.920616e+01 -1.198234e+01 -8.099792e+00 -5.244100e+00 9.350670e-01 7.730231e+01 3.888353e+00 2.954227e+00 -7.374635e-01 -2.357240e-01 -5.748577e-01 1.312506e+00 -4.581860e-01 3.207668e-01 -1.657342e+00 -5.563612e-01 -1.077441e+00 1.911527e-01 -5.774062e-01 -5.893159e-01 -2.984122e-01 -3.941820e-01 -1.606515e-01 -3.281505e-01 -2.683885e-01 -1.939265e-02 3.018454e-01 9.150484e-01 3.680465e-01 3.031089e-02 -2.069707e-01 1.289345e-03
<VARIANCE> 39
 9.702927e+01 4.128762e+01 3.942479e+01 3.040501e+01 2.597136e+01 2.507596e+01 3.617084e+01 4.837726e+01 5.157004e+01 2.740992e+01 2.518365e+01 1.503928e+01 3.975628e+01 8.278049e+00 2.995356e+00 3.956435e+00 2.914591e+00 2.660093e+00 2.604308e+00 4.017686e+00 6.560942e+00 8.178687e+00 2.833502e+00 2.701120e+00 1.853091e+00 1.541391e+00 1.216353e+00 6.352967e-01 7.288570e-01 4.611855e-01 3.807234e-01 4.532802e-01 6.197197e-01 6.638725e-01 1.084447e+00 3.800735e-01 4.239651e-01 2.596268e-01 1.471239e-01
<GCONST> 1.249283e+02
<TRANSP> 5
 0.000000e+00 1.000000e+00 0.000000e+00 0.000000e+00 0.000000e+00
 0.000000e+00 7.775800e-01 2.224201e-01 0.000000e+00 0.000000e+00
 0.000000e+00 0.000000e+00 8.914558e-01 1.085442e-01 0.000000e+00
 0.000000e+00 0.000000e+00 0.000000e+00 7.199249e-01 2.800751e-01
 0.000000e+00 0.000000e+00 0.000000e+00 0.000000e+00 0.000000e+00
<ENDHMM>
~h "T"
<BEGINHMM>
<NUMSTATES> 5
<STATE> 2
<MEAN> 39
 -2.820139e+01 -2.157051e+00 2.706784e+00 -9.678767e+00 3.105007e+00 2.637949e+00 -2.820414e+00 -9.550670e+00 -8.837768e-01 -5.712814e+00 -4.740745e-01 -1.570467e+00 7.113286e+01 -1.851637e+00 -3.462088e-01 -4.854268e-01 -9.792522e-01 -1.122564e-01 -1.413766e-02 -5.010667e-02 -6.784920e-02 5.915041e-02 -1.414790e-01 1.608350e-01 -1.074076e-01 7.285157e-01 3.983583e-01 1.896704e-02 1.219386e-02 7.625617e-02 -1.870100e-01 -2.311296e-01 -2.140714e-01 -1.221160e-01 -1.271254e-01 9.777917e-02 -1.358658e-01 -1.684250e-02 -7.961799e-02
<VARIANCE> 39
 3.070292e+01 1.202067e+01 4.375628e+01 2.942133e+01 3.128875e+01 3.200161e+01 3.449234e+01 3.967714e+01 2.497277e+01 1.833366e+01 1.400691e+01 1.329027e+01 4.292209e+01 3.229230e+00 1.272801e+00 2.606502e+00 3.124424e+00 2.759227e+00 2.654058e+00 2.750982e+00 4.022683e+00 2.168560e+00 1.966613e+00 1.577152e+00 1.354012e+00 2.208448e+00 4.864613e-01 2.466106e-01 4.877612e-01 5.656728e-01 4.592803e-01 4.858221e-01 6.377559e-01 8.286199e-01 4.154459e-01 3.947299e-01 3.321890e-01 2.313165e-01 2.557019e-01
<GCONST> 1.136149e+02
<STATE> 3
<MEAN> 39
 -3.157008e+01 -4.923522e+00 2.470396e+00 -1.421980e+01 1.666017e+00 -2.008826e-01 -3.810503e+00 -1.150952e+01 -2.272753e+00 -6.671364e+00 -1.163508e+00 -1.356539e+00 7.439623e+01 3.754691e-01 -3.958872e-01 1.228499e-01 -2.952387e-01 -2.644171e-01 -4.974552e-01 -2.975766e-01 -2.838791e-01 -4.258682e-01 -1.419863e-01 -1.745145e-01 2.581828e-02 -1.419275e-02 5.234304e-01 1.002686e-01 2.031368e-01 2.589779e-01 1.376209e-01 1.092042e-01 7.997152e-02 2.875978e-02 -2.017111e-02 5.364545e-02 -3.566671e-02 -2.262794e-02 -1.383790e-01
<VARIANCE> 39
 9.419892e+00 1.304298e+01 3.169278e+01 2.116213e+01 1.606569e+01 2.155575e+01 2.665584e+01 3.148619e+01 2.218492e+01 1.741442e+01 1.071204e+01 1.242204e+01 1.919787e+01 1.630428e+00 7.619375e-01 1.182779e+00 1.488769e+00 1.313906e+00 1.480018e+00 1.579109e+00 2.052406e+00 1.527451e+00 1.197405e+00 1.059867e+00 9.106471e-01 1.422983e+00 3.879952e-01 1.919887e-01 2.488405e-01 3.063131e-01 3.014037e-01 2.910953e-01 3.203739e-01 4.266090e-01 3.147261e-01 2.678916e-01 2.238574e-01 1.878968e-01 1.559775e-01
<GCONST> 9.582896e+01
<STATE> 4
<MEAN> 39
 -2.361862e+01 -4.521594e+00 4.604507e+00 -1.199549e+01 1.767454e+00 -1.116952e+00 -4.764138e+00 -1.225219e+01 -4.433343e+00 -6.482964e+00 -2.250353e+00 -2.120457e+00 7.305087e+01 3.924733e+00 1.297483e+00 9.381492e-01 1.083827e+00 2.719541e-01 3.893170e-01 -4.611120e-03 -1.963271e-01 -4.758894e-01 2.959163e-01 -8.334384e-01 -4.902443e-01 -2.608326e-01 5.886497e-01 3.439543e-01 -1.386351e-01 6.549040e-02 -1.147639e-01 1.992691e-01 -7.665294e-02 -3.893536e-03 9.839895e-02 6.841402e-02 -2.551080e-01 -1.430694e-01 1.516109e-01
<VARIANCE> 39
 4.827557e+01 2.719680e+01 3.494847e+01 2.332817e+01 1.886773e+01 1.836338e+01 2.610894e+01 2.975632e+01 2.101696e+01 1.638669e+01 1.495355e+01 1.739309e+01 4.253873e+01 8.021479e+00 2.979073e+00 3.134109e+00 2.879863e+00 3.267056e+00 2.182438e+00 2.863425e+00 6.005519e+00 3.158169e+00 2.513087e+00 2.297664e+00 1.450416e+00 2.646197e+00 1.057731e+00 6.163668e-01 5.280285e-01 5.272436e-01 5.572325e-01 3.937095e-01 5.952979e-01 6.566496e-01 5.810379e-01 4.859302e-01 4.983235e-01 3.099556e-01 2.008369e-01
<GCONST> 1.187479e+02
<TRANSP> 5
 0.000000e+00 1.000000e+00 0.000000e+00 0.000000e+00 0.000000e+00
 0.000000e+00 8.167237e-01 1.832763e-01 0.000000e+00 0.000000e+00
 0.000000e+00 0.000000e+00 8.293896e-01 1.706105e-01 0.000000e+00
 0.000000e+00 0.000000e+00 0.000000e+00 6.537532e-01 3.462468e-01
 0.000000e+00 0.000000e+00 0.000000e+00 0.000000e+00 0.000000e+00
<ENDHMM>
~h "U"
<BEGINHMM>
<NUMSTATES> 5
<STATE> 2
<MEAN> 39
 -1.049322e+00 2.112113e+00 7.125826e+00 -1.161235e+01 -1.602235e-01 -1.367752e+00 -1.300425e+01 -1.468386e+01 -3.760129e+00 -1.106813e+01 -1.281437e+01 -6.057663e+00 7.949888e+01 1.534356e+00 5.836299e-01 2.264674e-01 -3.849566e-01 -1.268152e+00 -4.875016e-01 -1.646261e+00 3.565120e-01 8.652289e-01 -1.207973e-01 -1.282749e+00 -2.180465e-01 -4.586366e-02 -7.863930e-01 -3.349983e-01 -2.831839e-01 1.150385e-01 1.742970e-01 1.050182e-01 2.853696e-01 2.912793e-02 -2.101010e-01 -1.122873e-02 5.007142e-01 2.876494e-01 -2.383486e-01
<VARIANCE> 39
 9.019043e+00 2.488369e+01 2.419235e+01 3.922913e+01 4.887237e+01 5.054304e+01 4.527335e+01 4.128048e+01 7.519637e+01 3.595815e+01 2.933372e+01 2.700091e+01 1.714368e+01 4.785892e+00 2.351072e+00 2.034701e+00 2.024448e+00 2.488391e+00 3.038314e+00 4.580571e+00 4.463608e+00 3.685086e+00 2.307287e+00 3.225158e+00 1.864064e+00 1.331325e+00 5.218663e-01 4.042004e-01 3.518819e-01 3.773398e-01 4.577485e-01 5.896561e-01 7.716294e-01 7.811906e-01 7.278291e-01 5.156424e-01 4.446214e-01 4.441366e-01 2.857849e-01
<GCONST> 1.205615e+02
<STATE> 3
<MEAN> 39
 -6.226761e-01 2.188135e+00 5.670038e+00 -1.285911e+01 -1.875099e+00 -1.047182e+00 -1.513996e+01 -1.532416e+01 -3.424431e+00 -1.272027e+01 -1.419759e+01 -3.863742e+00 7.836021e+01 -5.152600e-01 9.389040e-02 -3.129507e-01 6.435682e-01 4.682024e-01 3.038507e-01 5.527072e-01 3.131512e-01 -5.129293e-01 -1.898393e-01 4.742973e-01 8.106263e-01 -7.992043e-01 -5.500238e-01 -1.727882e-02 7.202851e-02 5.190032e-01 3.861341e-01 1.080737e-01 4.977524e-01 7.512493e-02 -9.914290e-02 3.494495e-01 5.622007e-01 2.034665e-01 -2.917317e-01
<VARIANCE> 39
 5.751030e+00 2.214302e+01 3.867681e+01 4.830814e+01 5.362784e+01 6.507451e+01 4.282858e+01 4.503928e+01 6.041913e+01 4.607576e+01 3.726305e+01 3.224453e+01 1.558040e+01 1.323964e+00 1.745561e+00 2.136722e+00 3.422843e+00 3.684550e+00 3.631553e+00 3.422328e+00 4.127695e+00 3.326084e+00 2.395029e+00 2.483391e+00 2.845913e+00 2.124966e+00 2.520408e-01 3.176456e-01 3.121527e-01 6.486661e-01 3.331346e-01 5.416451e-01 5.980085e-01 7.610160e-01 5.351987e-01 5.124913e-01 5.740314e-01 3.865627e-01 2.716777e-01
<GCONST> 1.196781e+02
<STATE> 4
<MEAN> 39
 -5.735238e+00 2.736022e+00 6.978496e+00 -5.718373e+00 2.155753e+00 6.377728e-01 -1.050977e+01 -1.309298e+01 -5.870165e+00 -1.081042e+01 -1.009216e+01 -1.226049e+00 7.303418e+01 -2.234938e+00 6.438166e-03 3.776862e-01 2.685465e+00 8.128716e-01 3.170365e-01 1.603495e+00 1.250901e+00 2.800092e-01 1.184823e+00 1.509124e+00 5.746897e-01 -1.972113e+00 -2.804119e-01 -3.977270e-01 -2.325387e-01 -2.281831e-01 5.535595e-03 -1.594301e-01 1.214030e-01 -4.111402e-02 2.683184e-01 2.582088e-01 2.046594e-01 -1.561750e-01 1.998649e-01
<VARIANCE> 39
 2.925157e+01 2.966852e+01 5.608387e+01 6.912967e+01 6.268318e+01 8.687307e+01 6.076270e+01 5.623063e+01 4.979279e+01 4.801051e+01 4.830674e+01 3.484278e+01 4.055721e+01 3.174178e+00 3.190019e+00 2.668209e+00 6.176424e+00 3.756338e+00 4.289985e+00 4.628078e+00 6.108265e+00 3.545813e+00 2.796671e+00 4.121126e+00 2.897019e+00 4.733438e+00 2.935268e-01 3.658761e-01 6.569611e-01 9.920936e-01 5.676404e-01 8.915270e-01 7.778835e-01 9.015933e-01 7.391813e-01 5.926870e-01 6.906622e-01 5.511374e-01 3.820941e-01
<GCONST> 1.334744e+02
<TRANSP> 5
 0.000000e+00 1.000000e+00 0.000000e+00 0.000000e+00 0.000000e+00
 0.000000e+00 5.871547e-01 4.128453e-01 0.000000e+00 0.000000e+00
 0.000000e+00 0.000000e+00 6.084153e-01 3.915847e-01 0.000000e+00
 0.000000e+00 0.000000e+00 0.000000e+00 4.576419e-01 5.423581e-01
 0.000000e+00 0.000000e+00 0.000000e+00 0.000000e+00 0.000000e+00
<ENDHMM>
~h "V"
<BEGINHMM>
<NUMSTATES> 5
<STATE> 2
<MEAN> 39
 -3.019393e+00 -2.596773e+00 1.165272e+00 -1.573666e+01 -8.292732e+00 -2.512500e+00 -2.716418e+00 -1.090680e+01 2.129161e+00 -1.472248e+00 -8.025624e+00 -2.405860e+00 8.103490e+01 2.053914e+00 -6.705688e-01 -4.631887e-01 -1.482001e+00 -2.302664e+00 -9.356841e-01 2.212227e-01 8.731857e-01 2.050260e+00 9.988353e-01 -9.689914e-01 -3.445265e-01 2.172307e+00 -6.801842e-01 -1.392047e-01 1.834232e-01 4.803959e-01 4.372157e-01 8.772070e-02 6.031597e-02 3.294744e-01 -3.132950e-01 -2.496397e-01 2.689479e-01 -4.443514e-02 -4.742739e-01
<VARIANCE> 39
 3.816117e+01 2.232771e+01 3.203069e+01 3.461058e+01 4.118972e+01 3.819603e+01 4.805960e+01 4.472944e+01 5.636343e+01 3.656395e+01 3.049648e+01 2.141644e+01 4.828879e+01 5.253230e+00 3.304347e+00 2.515826e+00 3.584169e+00 3.020754e+00 3.111858e+00 3.236334e+00 6.022223e+00 3.533387e+00 2.748487e+00 2.900336e+00 2.515566e+00 4.494053e+00 7.511759e-01 5.985097e-01 4.548044e-01 4.613188e-01 5.706570e-01 5.224034e-01 6.626871e-01 7.608153e-01 8.236287e-01 6.007488e-01 5.165971e-01 4.048405e-01 4.566314e-01
<GCONST> 1.271784e+02
<STATE> 3
<MEAN> 39
 -6.484657e-01 -4.573771e+00 2.111508e+00 -1.702055e+01 -1.204486e+01 -5.034097e+00 -2.591859e+00 -7.308825e+00 5.672615e+00 -5.748962e-01 -8.618700e+00 -3.700274e+00 8.424915e+01 -3.726557e-01 3.601232e-01 9.724545e-01 8.955655e-01 5.227200e-01 -1.359147e-01 2.795332e-02 4.553268e-01 -3.776721e-01 -3.538197e-01 1.105738e-01 -5.040739e-02 -5.989044e-01 -3.938006e-01 4.042069e-01 3.078639e-01 6.692970e-01 7.116644e-01 2.064572e-01 -5.622749e-02 -1.976904e-01 -5.045496e-01 -3.378816e-01 7.503666e-02 4.882197e-02 -5.941630e-01
<VARIANCE> 39
 5.312652e+00 1.654084e+01 3.497496e+01 2.370064e+01 3.565282e+01 4.488136e+01 3.443645e+01 4.183544e+01 2.748804e+01 2.798288e+01 1.902659e+01 2.070337e+01 9.489637e+00 9.628732e-01 1.705012e+00 1.657442e+00 2.944715e+00 3.032370e+00 2.396586e+00 2.368531e+00 2.893483e+00 2.729418e+00 2.278800e+00 1.625339e+00 1.579105e+00 1.477500e+00 2.368435e-01 2.343615e-01 2.846428e-01 4.424940e-01 3.590391e-01 4.067919e-01 4.176318e-01 5.342821e-01 4.090673e-01 4.050489e-01 3.471280e-01 3.292394e-01 1.656887e-01
<GCONST> 1.073943e+02
<STATE> 4
<MEAN> 39
 -5.795886e+00 -3.227615e-01 7.993208e+00 -7.819222e+00 -4.471704e+00 -4.047602e+00 -2.833802e+00 -6.271327e+00 1.394851e+00 -4.090756e+00 -7.550768e+00 -3.382530e+00 7.708742e+01 -2.262322e+00 1.090057e+00 1.416046e+00 3.366877e+00 2.777754e+00 9.807295e-01 6.142249e-01 4.419882e-01 -1.284844e+00 -1.034849e+00 2.711816e-01 -7.694600e-02 -2.351163e+00 -1.832995e-01 -1.909664e-01 -3.849200e-01 -3.080381e-01 -7.831641e-02 2.609564e-01 1.087841e-01 -1.356596e-01 2.277009e-03 7.584368e-02 4.161587e-02 -4.367513e-02 1.360812e-01
<VARIANCE> 39
 3.079273e+01 2.856911e+01 3.441586e+01 4.767948e+01 5.227075e+01 4.135931e+01 3.802101e+01 4.685594e+01 3.767850e+01 3.712898e+01 2.537918e+01 2.888143e+01 3.411651e+01 3.584896e+00 2.560286e+00 2.814722e+00 4.937406e+00 2.974186e+00 2.946660e+00 3.680269e+00 3.548105e+00 2.326201e+00 2.465390e+00 2.834675e+00 1.867308e+00 2.248631e+00 3.990252e-01 2.784514e-01 4.192716e-01 9.020433e-01 6.796657e-01 5.070438e-01 5.827901e-01 6.994506e-01 5.284929e-01 4.508702e-01 4.077073e-01 3.538042e-01 2.819384e-01
<GCONST> 1.224372e+02
<TRANSP> 5
 0.000000e+00 1.000000e+00 0.000000e+00 0.000000e+00 0.000000e+00
 0.000000e+00 5.997725e-01 4.002275e-01 0.000000e+00 0.000000e+00
 0.000000e+00 0.000000e+00 7.912971e-01 2.087030e-01 0.000000e+00
 0.000000e+00 0.000000e+00 0.000000e+00 6.035151e-01 3.964848e-01
 0.000000e+00 0.000000e+00 0.000000e+00 0.000000e+00 0.000000e+00
<ENDHMM>
~h "_"
<BEGINHMM>
<NUMSTATES> 5
<STATE> 2
<MEAN> 39
 -1.560852e+01 -2.882977e+00 1.049544e+01 5.107869e+00 5.466169e+00 1.590603e+00 -4.759697e+00 -8.345571e+00 -2.606669e+00 -5.121287e+00 -4.661934e+00 -5.783983e-01 6.670868e+01 -2.641200e+00 -3.624640e+00 8.605106e-01 -1.361744e+00 -2.404564e-01 -3.621192e-02 1.128978e+00 8.798005e-02 1.240095e+00 -3.873889e-01 -1.149091e-01 9.535456e-02 1.491624e+00 -4.342590e-01 -6.959711e-01 3.915553e-02 -5.255969e-01 1.969140e-01 -2.699673e-01 -7.553377e-02 -4.220538e-01 1.296240e-01 1.262816e-01 8.652214e-02 -2.722423e-02 6.953062e-01
<VARIANCE> 39
 3.359113e+01 1.128821e+02 5.270850e+01 5.839198e+01 2.995835e+01 3.127026e+01 4.552615e+01 4.218740e+01 2.285373e+01 1.986482e+01 1.863368e+01 1.691545e+01 3.656440e+01 3.581971e+00 1.036501e+01 6.098961e+00 6.362617e+00 3.089388e+00 3.948181e+00 4.859161e+00 6.519678e+00 2.676298e+00 2.853901e+00 2.071762e+00 1.850393e+00 6.609856e+00 4.663736e-01 2.005881e+00 1.240791e+00 1.350581e+00 6.206801e-01 8.166098e-01 8.976892e-01 8.780991e-01 5.040064e-01 5.180259e-01 4.273706e-01 3.250540e-01 7.471158e-01
<GCONST> 1.322422e+02
<STATE> 3
<MEAN> 39
 -2.893893e+01 -2.099702e+01 1.388822e+01 -2.013458e+00 6.826538e+00 -3.544837e+00 -3.480941e+00 -1.260830e+01 2.070656e+00 -3.566193e+00 -3.791502e+00 -9.239867e-02 7.745465e+01 5.107564e-01 -1.576869e-01 1.091008e-01 2.049285e-01 8.012130e-01 -5.715245e-01 -7.551427e-01 -1.323907e+00 -8.823739e-01 1.416360e-01 -2.125757e-02 -8.468229e-02 8.834006e-01 1.287657e+00 1.138074e+00 -3.216894e-01 3.592593e-01 7.412769e-02 3.634925e-01 -3.264800e-01 -1.949311e-01 -7.257243e-01 -1.788853e-01 -1.637958e-01 -4.482169e-02 -4.701735e-01
<VARIANCE> 39
 1.456205e+01 1.656927e+01 2.611572e+01 2.727815e+01 2.897712e+01 2.464969e+01 2.805518e+01 3.273616e+01 1.907375e+01 1.696941e+01 1.328951e+01 1.703815e+01 8.802228e+00 9.971353e+00 5.928949e+00 2.947437e+00 2.284818e+00 2.370245e+00 2.633064e+00 2.288450e+00 3.050632e+00 4.461823e+00 1.539928e+00 1.386225e+00 1.011961e+00 1.527356e+00 8.217893e-01 5.336668e-01 6.191655e-01 4.528483e-01 4.268752e-01 4.154914e-01 4.649056e-01 5.372331e-01 5.334976e-01 3.513308e-01 3.090681e-01 2.384741e-01 1.148717e-01
<GCONST> 1.112947e+02
<STATE> 4
<MEAN> 39
 -1.477366e+01 -1.153651e+01 1.045040e+01 -2.401723e-01 8.825986e+00 -1.096776e+00 -9.224023e+00 -1.993099e+01 -9.505741e+00 -6.123919e+00 -5.509066e+00 4.856049e-01 7.602948e+01 2.915774e+00 2.384138e+00 -1.568445e+00 -3.484703e-01 -9.782524e-01 7.315790e-01 -7.393982e-01 -2.223373e-01 -1.533098e+00 -3.989011e-01 -1.757621e-01 4.202312e-01 -6.679415e-01 -5.779403e-01 -2.760665e-01 -4.322781e-01 -3.884934e-01 -5.888790e-01 -2.064548e-01 2.352157e-01 6.160591e-01 8.537453e-01 2.323277e-01 1.772407e-01 4.702927e-02 -1.094602e-01
<VARIANCE> 39
 1.012302e+02 4.920494e+01 4.747027e+01 2.627395e+01 4.158481e+01 2.620782e+01 3.859190e+01 7.877078e+01 6.203876e+01 2.159657e+01 1.433567e+01 2.230725e+01 5.457115e+01 6.937268e+00 2.674192e+00 3.959046e+00 3.479607e+00 4.519669e+00 2.163984e+00 4.252574e+00 8.678087e+00 7.618294e+00 2.445482e+00 2.308051e+00 1.943809e+00 2.137862e+00 6.589934e-01 5.373838e-01 6.734260e-01 4.584865e-01 5.891031e-01 4.480421e-01 5.862995e-01 7.616056e-01 1.074627e+00 2.989274e-01 2.926027e-01 3.584678e-01 1.082460e-01
<GCONST> 1.259526e+02
<TRANSP> 5
 0.000000e+00 1.000000e+00 0.000000e+00 0.000000e+00 0.000000e+00
 0.000000e+00 7.829037e-01 2.170963e-01 0.000000e+00 0.000000e+00
 0.000000e+00 0.000000e+00 8.268626e-01 1.731374e-01 0.000000e+00
 0.000000e+00 0.000000e+00 0.000000e+00 7.466044e-01 2.533956e-01
 0.000000e+00 0.000000e+00 0.000000e+00 0.000000e+00 0.000000e+00
<ENDHMM>
~h "b"
<BEGINHMM>
<NUMSTATES> 5
<STATE> 2
<MEAN> 39
 -1.191348e+01 8.859765e+00 8.264388e+00 4.601021e+00 8.376895e-01 3.812873e-01 -1.258425e+00 -3.494162e+00 -2.673681e+00 -3.359507e+00 -4.038799e+00 -3.233876e+00 6.158074e+01 3.255063e-02 -2.553968e-01 -3.254900e-01 -1.206375e+00 3.705935e-01 2.832013e-01 -2.374418e-01 -1.287347e+00 -2.499288e-01 -6.593778e-01 2.427494e-01 -5.832031e-02 1.135603e+00 4.228840e-01 -6.354632e-01 -4.915786e-01 -9.876097e-01 1.435957e-02 -1.568706e-01 -5.180866e-01 -8.322059e-01 -1.529844e-01 -2.494967e-01 -1.294129e-01 -1.115794e-02 1.068488e+00
<VARIANCE> 39
 3.701561e+01 3.686720e+01 2.557787e+01 3.032463e+01 2.552804e+01 2.185818e+01 1.959887e+01 3.132171e+01 2.147626e+01 1.460155e+01 2.014485e+01 1.500073e+01 2.004122e+01 4.716973e+00 4.047573e+00 3.221344e+00 6.602220e+00 3.231228e+00 3.408675e+00 3.740202e+00 6.893997e+00 2.560863e+00 2.309191e+00 2.350964e+00 1.800175e+00 7.224550e+00 7.700570e-01 4.891023e-01 5.386453e-01 8.714511e-01 7.345342e-01 7.751446e-01 6.745186e-01 1.042702e+00 5.113630e-01 4.059476e-01 4.635885e-01 3.359232e-01 8.560948e-01
<GCONST> 1.233684e+02
<STATE> 3
<MEAN> 39
 -1.176717e+01 2.125014e+00 3.560470e+00 -7.305195e+00 3.445654e+00 2.313680e+00 -4.276099e+00 -1.379111e+01 -4.643239e+00 -7.540884e+00 -2.852143e+00 -3.899924e+00 7.237886e+01 3.245207e+00 -1.201154e+00 -8.896405e-01 -3.370761e+00 -1.952058e-01 -1.097487e+00 -2.709951e+00 -3.525776e+00 -7.517124e-01 -1.388189e+00 -1.193303e+00 -1.653015e-01 4.916961e+00 5.785176e-01 1.248515e-01 1.143751e-01 5.402109e-01 -6.310261e-01 -6.795276e-01 -4.035652e-01 6.322451e-01 2.390307e-01 2.676533e-01 -5.191482e-01 1.042234e-01 -2.259635e-01
<VARIANCE> 39
 2.959072e+01 2.063043e+01 2.056452e+01 3.176525e+01 3.391501e+01 4.284711e+01 4.113574e+01 3.890889e+01 2.687954e+01 2.031230e+01 2.314446e+01 2.057212e+01 2.373849e+01 4.633080e+00 4.103038e+00 4.420517e+00 4.600723e+00 5.570174e+00 5.841036e+00 3.962595e+00 7.014679e+00 4.466911e+00 2.941862e+00 3.540813e+00 2.776766e+00 3.827703e+00 6.663048e-01 6.317595e-01 5.554333e-01 6.211064e-01 6.001806e-01 7.515093e-01 1.035856e+00 9.841075e-01 6.457266e-01 5.545309e-01 5.740756e-01 4.444309e-01 6.099042e-01
<GCONST> 1.282427e+02
<STATE> 4
<MEAN> 39
 -3.958786e+00 7.375081e-01 2.803253e+00 -8.290735e+00 1.777886e+00 -2.813463e+00 -1.240342e+01 -1.749811e+01 -4.233886e+00 -7.206749e+00 -7.459788e+00 -4.612983e+00 7.830128e+01 2.069695e+00 -7.941776e-01 -3.355583e-01 -8.580658e-01 -1.032276e+00 -1.636536e+00 -1.999122e+00 -9.650524e-01 1.411730e-01 -2.127531e-01 -1.206500e+00 1.566768e-01 2.153694e+00 -6.312516e-01 1.544016e-01 3.191491e-01 8.080468e-01 -1.535195e-01 4.024506e-02 5.287356e-01 8.743213e-01 2.633940e-01 3.254175e-01 1.906159e-01 1.172026e-01 -9.734611e-01
<VARIANCE> 39
 3.261631e+01 2.888995e+01 5.083194e+01 5.103017e+01 9.080499e+01 7.123267e+01 8.149181e+01 8.835398e+01 5.145163e+01 2.871649e+01 3.396538e+01 3.671898e+01 2.415746e+01 4.346127e+00 3.477521e+00 3.518621e+00 3.984768e+00 4.967167e+00 5.624004e+00 6.014504e+00 6.631377e+00 3.913744e+00 3.854917e+00 3.666922e+00 2.775320e+00 4.034445e+00 5.972943e-01 3.527249e-01 4.496196e-01 5.374951e-01 5.687704e-01 6.044946e-01 6.579294e-01 8.500897e-01 5.356243e-01 4.201050e-01 4.851641e-01 3.669769e-01 4.223372e-01
<GCONST> 1.317496e+02
<TRANSP> 5
 0.000000e+00 1.000000e+00 0.000000e+00 0.000000e+00 0.000000e+00
 0.000000e+00 7.048011e-01 2.951989e-01 0.000000e+00 0.000000e+00
 0.000000e+00 0.000000e+00 3.430576e-01 6.569424e-01 0.000000e+00
 0.000000e+00 0.000000e+00 0.000000e+00 3.975204e-01 6.024796e-01
 0.000000e+00 0.000000e+00 0.000000e+00 0.000000e+00 0.000000e+00
<ENDHMM>
~h "d"
<BEGINHMM>
<NUMSTATES> 5
<STATE> 2
<MEAN> 39
 -1.288101e+01 4.541502e+00 1.029236e+01 6.532674e+00 5.267203e+00 -5.294634e-01 -4.369654e+00 -5.709052e+00 -6.135803e+00 -5.517243e+00 -5.128823e+00 -1.486834e+00 6.401251e+01 -1.484027e+00 -1.136090e+00 -3.195221e-01 3.084668e-01 -1.063707e-01 7.141688e-01 1.572380e+00 1.452078e+00 8.935804e-01 5.376901e-01 9.059176e-01 -1.482505e-01 -6.915398e-01 1.932620e-01 -1.072505e+00 -6.585890e-01 -1.345461e+00 -2.751703e-01 -4.105935e-01 -3.141912e-01 -8.891132e-01 -3.353134e-01 -3.083130e-01 2.854378e-02 -3.369885e-02 1.119215e+00
<VARIANCE> 39
 3.609375e+01 4.080643e+01 3.270314e+01 5.071048e+01 3.640511e+01 2.920391e+01 3.490872e+01 4.781393e+01 2.871963e+01 2.648584e+01 2.543831e+01 1.959843e+01 2.898235e+01 3.157972e+00 6.981037e+00 5.442148e+00 9.333634e+00 4.551626e+00 4.303432e+00 4.391196e+00 7.722492e+00 5.184711e+00 3.423863e+00 2.679923e+00 2.062586e+00 7.210192e+00 4.443230e-01 7.667120e-01 8.235360e-01 1.483448e+00 8.543826e-01 7.809923e-01 7.694879e-01 1.247421e+00 8.978563e-01 6.240350e-01 4.289916e-01 3.383633e-01 7.898204e-01
<GCONST> 1.330014e+02
<STATE> 3
<MEAN> 39
 -1.607565e+01 -5.884730e+00 3.673119e+00 -1.892291e+00 3.257638e+00 -1.126319e+00 -2.292108e+00 -6.783199e+00 -5.804053e+00 -5.612893e+00 -2.150832e+00 -2.332894e+00 6.857784e+01 3.177255e-02 -3.325321e+00 -7.713916e-01 -2.795266e+00 -9.978762e-01 -1.406755e+00 -6.542184e-01 -2.104633e+00 -1.496507e+00 -1.435423e+00 1.726271e-01 5.763556e-02 3.002469e+00 2.484416e-01 4.095190e-01 5.480031e-01 2.721706e-01 -1.906107e-01 -2.854586e-01 -4.213584e-01 -2.591677e-01 -3.713217e-01 -2.333875e-01 -2.519515e-01 1.891711e-01 -4.648802e-02
<VARIANCE> 39
 2.856521e+01 4.614165e+01 4.178405e+01 6.040952e+01 3.939352e+01 4.697871e+01 3.902135e+01 6.665408e+01 3.180859e+01 3.010120e+01 1.985240e+01 1.610525e+01 6.134337e+01 3.940711e+00 5.505270e+00 5.711479e+00 5.196370e+00 4.940747e+00 3.981957e+00 4.413570e+00 5.660224e+00 3.661783e+00 2.851372e+00 2.583169e+00 2.029406e+00 3.650123e+00 5.593812e-01 1.189387e+00 9.223475e-01 1.546724e+00 8.664529e-01 1.062882e+00 1.033241e+00 1.757650e+00 9.248664e-01 7.586713e-01 4.874510e-01 3.877723e-01 1.543817e+00
<GCONST> 1.356684e+02
<STATE> 4
<MEAN> 39
 -1.783753e+01 -9.088539e+00 4.728006e+00 -2.365285e+00 -3.108662e+00 -4.612204e+00 -3.344990e+00 -7.374089e+00 -1.093264e+01 -8.894321e+00 -1.231444e+00 5.590170e-01 6.717715e+01 1.073345e-02 9.252894e-01 -5.883608e-01 4.171531e-01 -6.413581e-01 1.087633e-01 -3.459550e-02 1.929673e-01 -2.840575e-01 1.414578e-01 1.892948e-01 4.249740e-01 -1.235038e+00 6.877457e-02 6.819961e-01 -1.713251e-01 2.547368e-01 2.977615e-01 2.593727e-01 3.186588e-02 2.414562e-01 4.601734e-01 3.593241e-01 -3.979883e-02 -1.222140e-01 -4.448633e-01
<VARIANCE> 39
 2.237165e+01 2.585786e+01 2.767805e+01 2.188449e+01 3.251019e+01 2.063207e+01 2.573429e+01 3.673331e+01 2.286936e+01 2.015812e+01 1.695845e+01 1.616725e+01 3.531346e+01 2.146257e+00 3.368049e+00 3.452628e+00 2.743999e+00 2.742835e+00 2.304237e+00 2.712947e+00 4.067874e+00 3.238454e+00 2.259130e+00 1.696263e+00 1.678852e+00 2.942159e+00 3.627770e-01 7.089283e-01 5.823022e-01 6.475354e-01 3.835780e-01 4.743927e-01 5.985806e-01 7.664097e-01 5.267082e-01 3.997224e-01 3.255398e-01 3.257897e-01 5.693672e-01
<GCONST> 1.165211e+02
<TRANSP> 5
 0.000000e+00 1.000000e+00 0.000000e+00 0.000000e+00 0.000000e+00
 0.000000e+00 5.665946e-01 4.334054e-01 0.000000e+00 0.000000e+00
 0.000000e+00 0.000000e+00 5.683969e-01 4.316031e-01 0.000000e+00
 0.000000e+00 0.000000e+00 0.000000e+00 7.580070e-01 2.419930e-01
 0.000000e+00 0.000000e+00 0.000000e+00 0.000000e+00 0.000000e+00
<ENDHMM>
~h "f"
<BEGINHMM>
<NUMSTATES> 5
<STATE> 2
<MEAN> 39
 -2.998301e+01 -4.530666e+00 1.000562e-01 -1.229296e+01 7.002017e+00 -2.496274e-01 -3.398183e+00 -8.530279e+00 -3.410354e+00 -4.863958e+00 -8.050829e-01 -1.302769e+00 7.113922e+01 -1.353735e+00 -4.657758e-01 -1.062945e-01 -7.870017e-01 8.476014e-02 -3.631531e-02 -4.927027e-02 -1.668127e-01 7.677528e-02 -1.340517e-01 5.752805e-02 -8.823995e-02 1.021821e+00 3.494292e-01 7.449344e-02 -5.847853e-03 1.883833e-01 -2.334914e-01 -7.757387e-02 -9.473284e-02 -5.770515e-02 -2.723568e-02 1.933234e-02 -5.449676e-02 8.069629e-03 -8.693054e-02
<VARIANCE> 39
 2.220997e+01 1.547213e+01 2.184657e+01 2.732929e+01 2.750278e+01 3.084127e+01 2.373786e+01 3.298632e+01 2.092425e+01 1.707303e+01 1.208166e+01 1.161228e+01 3.294637e+01 1.991741e+00 1.146876e+00 1.615815e+00 2.704528e+00 2.320312e+00 1.970982e+00 1.896007e+00 3.059527e+00 2.056690e+00 1.644275e+00 1.156321e+00 1.176599e+00 1.866586e+00 3.967240e-01 1.951668e-01 2.568459e-01 4.700072e-01 4.019740e-01 4.474014e-01 5.021361e-01 6.776495e-01 4.475397e-01 3.537542e-01 2.433950e-01 2.273777e-01 2.028829e-01
<GCONST> 1.055627e+02
<STATE> 3
<MEAN> 39
 -3.185556e+01 -6.183424e+00 -9.227825e-01 -1.467426e+01 4.806711e+00 -1.787194e+00 -4.686533e+00 -1.155783e+01 -5.053564e+00 -6.915174e+00 -1.436177e+00 -1.768568e+00 7.798045e+01 1.212555e+00 -1.121350e-01 6.215123e-02 -2.587977e-01 -4.368930e-01 -8.877994e-01 -3.619142e-01 -7.398901e-01 -5.599717e-01 -4.071994e-01 -3.381325e-01 -1.112150e-01 4.906868e-01 1.037907e+00 3.677056e-01 4.452958e-01 2.404322e-01 6.429695e-02 1.784829e-02 7.521598e-02 6.576816e-02 1.300121e-01 1.160541e-01 -1.359194e-01 -5.244485e-02 -1.249008e-01
<VARIANCE> 39
 7.645463e+00 9.258624e+00 1.491061e+01 1.731638e+01 2.103859e+01 2.586341e+01 1.830599e+01 3.024263e+01 1.821461e+01 1.745861e+01 1.213631e+01 1.025258e+01 1.020738e+01 3.277819e+00 1.337143e+00 1.405901e+00 1.469696e+00 1.442002e+00 1.614685e+00 1.602941e+00 2.324287e+00 1.658846e+00 1.290951e+00 1.025569e+00 8.843762e-01 1.394356e+00 5.908439e-01 3.121464e-01 2.592852e-01 2.794562e-01 2.913942e-01 3.844816e-01 3.452927e-01 4.672275e-01 3.821264e-01 3.098059e-01 2.485765e-01 1.946257e-01 1.102878e-01
<GCONST> 9.667973e+01
<STATE> 4
<MEAN> 39
 -1.843056e+01 -2.667598e+00 2.461204e+00 -1.418489e+01 3.936738e+00 -5.153094e+00 -5.057438e+00 -1.200152e+01 -4.946109e+00 -5.993656e+00 -3.387145e+00 -2.686832e+00 7.831716e+01 6.222770e+00 1.706495e+00 1.418467e+00 1.636475e-01 -1.164754e+00 -4.497150e-01 -7.236606e-01 -3.524940e-01 4.287525e-01 7.215489e-01 -1.426780e+00 -4.564883e-01 4.573267e-01 1.826985e-01 -9.921972e-02 -1.624187e-01 5.310395e-02 -3.402626e-01 2.567941e-01 -2.182462e-01 4.396833e-02 1.998765e-01 1.994720e-01 -2.416713e-01 1.135117e-02 -1.077083e-02
<VARIANCE> 39
 1.109377e+02 3.439964e+01 2.960360e+01 3.165581e+01 2.943716e+01 2.682104e+01 2.182448e+01 3.435218e+01 2.410908e+01 2.640933e+01 1.943389e+01 1.166029e+01 1.709881e+01 5.276822e+00 3.822125e+00 4.030649e+00 3.365104e+00 3.288131e+00 3.754226e+00 3.519287e+00 4.889263e+00 3.584080e+00 3.568360e+00 2.558222e+00 1.552181e+00 1.492169e+00 1.990096e+00 7.994979e-01 5.624274e-01 4.977440e-01 3.970414e-01 5.331879e-01 7.494963e-01 5.043450e-01 5.012468e-01 5.306115e-01 4.366569e-01 2.850079e-01 1.982301e-01
<GCONST> 1.217138e+02
<TRANSP> 5
 0.000000e+00 1.000000e+00 0.000000e+00 0.000000e+00 0.000000e+00
 0.000000e+00 8.557233e-01 1.442767e-01 0.000000e+00 0.000000e+00
 0.000000e+00 0.000000e+00 7.544246e-01 2.455753e-01 0.000000e+00
 0.000000e+00 0.000000e+00 0.000000e+00 5.974453e-01 4.025548e-01
 0.000000e+00 0.000000e+00 0.000000e+00 0.000000e+00 0.000000e+00
<ENDHMM>
~h "g"
<BEGINHMM>
<NUMSTATES> 5
<STATE> 2
<MEAN> 39
 -1.158304e+01 7.573632e+00 8.332793e+00 4.575095e+00 5.305995e+00 7.720317e-01 -4.815853e+00 -8.483448e+00 -6.571650e+00 -5.470119e+00 -2.613486e+00 -2.214217e+00 6.403172e+01 -1.704153e-01 -6.354488e-01 -1.227276e+00 -1.676025e+00 3.908309e-01 7.224519e-03 5.219606e-01 -5.284984e-01 -6.829178e-01 -1.070759e+00 4.133896e-01 -1.894864e-01 1.202251e+00 4.789218e-02 -7.056615e-01 -4.158049e-01 -8.162440e-01 1.659651e-01 -8.082165e-02 -2.007876e-01 -5.450728e-01 -9.912497e-02 -1.109833e-01 8.370285e-02 -1.564689e-01 8.194168e-01
<VARIANCE> 39
 3.181729e+01 5.602110e+01 4.674841e+01 4.397996e+01 2.708933e+01 2.475612e+01 3.810225e+01 4.914093e+01 3.084271e+01 3.735698e+01 2.077661e+01 2.029060e+01 2.711902e+01 3.212720e+00 7.143146e+00 5.509933e+00 8.563361e+00 4.294127e+00 3.464406e+00 5.600935e+00 6.502341e+00 3.888461e+00 3.499287e+00 2.330486e+00 2.719296e+00 6.587548e+00 5.861830e-01 8.165009e-01 1.079703e+00 1.145380e+00 7.932191e-01 6.007957e-01 9.748276e-01 9.907815e-01 6.518370e-01 6.158203e-01 4.606475e-01 4.004495e-01 7.171131e-01
<GCONST> 1.326168e+02
<STATE> 3
<MEAN> 39
 -1.274419e+01 -1.069857e+00 9.847517e-01 -8.330036e+00 7.922235e+00 -2.764583e-03 -4.478930e+00 -1.456787e+01 -9.887608e+00 -9.674266e+00 4.643953e-02 -5.037561e+00 7.515207e+01 1.548209e+00 -6.940057e-01 2.240807e-01 -1.443028e+00 4.729027e-01 1.702030e-01 -1.220542e+00 -2.651617e+00 -1.424877e+00 -9.566785e-01 -1.384501e-01 2.321946e-01 2.450288e+00 5.910209e-01 4.251425e-01 5.435117e-01 7.569641e-01 -5.088830e-01 1.225344e-01 -4.499904e-01 8.144453e-02 2.721332e-01 4.269312e-01 -4.794622e-01 4.605025e-01 -5.379540e-01
<VARIANCE> 39
 2.547963e+01 4.259125e+01 5.359835e+01 8.187042e+01 4.953390e+01 5.889798e+01 8.215639e+01 8.136954e+01 4.128208e+01 3.962236e+01 2.594766e+01 3.026295e+01 2.344982e+01 3.985200e+00 4.967305e+00 5.757594e+00 7.967148e+00 4.083759e+00 3.686106e+00 5.468169e+00 7.154067e+00 3.254365e+00 5.030993e+00 2.919036e+00 3.462154e+00 4.665975e+00 5.545728e-01 7.738962e-01 1.465387e+00 1.356485e+00 9.157619e-01 9.615504e-01 1.388829e+00 1.336024e+00 9.293031e-01 7.735608e-01 5.487928e-01 7.192389e-01 5.945498e-01
<GCONST> 1.394513e+02
<STATE> 4
<MEAN> 39
 -4.765677e+00 -9.938579e-01 3.010720e+00 -9.412008e+00 4.960812e+00 1.736466e+00 -1.025213e+01 -2.182091e+01 -1.181593e+01 -9.952232e+00 -3.280892e+00 -1.348668e+00 7.861401e+01 1.550005e+00 -4.428774e-01 -4.569338e-01 -1.133610e+00 -1.873572e+00 -8.892336e-01 -1.186648e+00 9.248796e-02 1.092991e+00 5.000781e-01 -1.086982e+00 7.609259e-01 9.536297e-01 -4.372997e-01 1.080432e-01 -3.447224e-02 2.170373e-01 -2.908871e-01 -4.152887e-01 3.548117e-01 1.034955e+00 7.876733e-01 4.436907e-01 7.518882e-02 -2.052226e-01 -4.142856e-01
<VARIANCE> 39
 3.671541e+01 3.018144e+01 2.951062e+01 5.823293e+01 4.942533e+01 4.880660e+01 6.596903e+01 8.599335e+01 4.377720e+01 3.558760e+01 3.196830e+01 3.374377e+01 3.554241e+01 3.098536e+00 2.174078e+00 4.902050e+00 4.205155e+00 4.555017e+00 5.044964e+00 5.433084e+00 8.041993e+00 5.837846e+00 3.785085e+00 3.889552e+00 3.815512e+00 1.558960e+00 4.338596e-01 3.039582e-01 6.829891e-01 6.939420e-01 6.296139e-01 6.621180e-01 1.057885e+00 1.047082e+00 7.712215e-01 5.430836e-01 5.990286e-01 5.641176e-01 1.526935e-01
<GCONST> 1.311763e+02
<TRANSP> 5
 0.000000e+00 1.000000e+00 0.000000e+00 0.000000e+00 0.000000e+00
 0.000000e+00 7.037277e-01 2.962724e-01 0.000000e+00 0.000000e+00
 0.000000e+00 0.000000e+00 5.997380e-01 4.002620e-01 0.000000e+00
 0.000000e+00 0.000000e+00 0.000000e+00 5.288590e-01 4.711410e-01
 0.000000e+00 0.000000e+00 0.000000e+00 0.000000e+00 0.000000e+00
<ENDHMM>
~h "h"
<BEGINHMM>
<NUMSTATES> 5
<STATE> 2
<MEAN> 39
 -1.434341e+01 -5.487419e+00 -4.975474e+00 -5.904311e+00 -4.779667e+00 -5.396006e+00 -1.020838e+01 -8.260503e+00 -5.948258e-01 -1.300668e+00 -3.165972e+00 -1.450969e+00 6.444139e+01 1.292585e+00 -2.012590e+00 -1.654449e-01 -1.082225e+00 -7.747685e-01 -1.016996e+00 -1.420457e+00 -1.305201e+00 6.073628e-01 -2.980363e-02 -8.607975e-01 -8.643033e-02 2.330302e+00 -2.723965e-01 1.310581e-01 4.901738e-01 -2.455384e-03 3.212688e-01 2.694603e-01 5.209572e-01 2.366460e-01 2.577672e-01 -7.424776e-03 -3.885638e-02 6.709261e-03 1.320113e-01
<VARIANCE> 39
 1.148677e+01 2.803031e+01 3.669518e+01 4.649119e+01 4.687892e+01 2.767074e+01 4.919112e+01 4.035544e+01 2.976992e+01 3.595525e+01 3.496111e+01 1.701191e+01 3.635071e+01 1.261629e+00 1.901803e+00 2.994241e+00 2.156379e+00 2.043736e+00 2.589553e+00 3.864338e+00 2.887055e+00 2.538383e+00 2.390119e+00 2.128472e+00 1.646678e+00 1.078757e+00 1.203481e-01 4.691805e-01 3.280510e-01 3.924403e-01 3.445862e-01 4.014913e-01 5.157667e-01 3.923422e-01 3.413481e-01 3.011931e-01 3.891183e-01 2.203719e-01 1.205970e-01
<GCONST> 1.112173e+02
<STATE> 3
<MEAN> 39
 -1.263675e+01 -1.068882e+01 -2.135891e+00 -1.016846e+01 -3.916103e+00 -6.226393e+00 -9.368810e+00 -1.028683e+01 4.425818e+00 -8.264431e-01 -4.335227e+00 -8.804899e-01 7.415592e+01 8.459369e-01 9.586445e-01 1.263320e+00 -2.448425e-01 7.181650e-01 8.196052e-01 9.962324e-01 -3.548996e-01 9.923698e-01 6.127449e-01 -3.338895e-01 1.162195e-02 1.651595e+00 3.263390e-01 7.651212e-01 1.892105e-01 1.778407e-01 3.184590e-02 3.207564e-01 2.105346e-01 -1.783014e-01 -3.138091e-01 1.261227e-01 -4.443750e-03 -1.304986e-01 -6.020147e-02
<VARIANCE> 39
 1.164686e+01 3.013729e+01 4.567348e+01 3.398398e+01 6.497360e+01 5.186436e+01 7.568953e+01 4.748962e+01 5.090699e+01 6.390672e+01 5.122570e+01 3.139627e+01 1.816116e+01 1.588250e+00 3.804150e+00 2.465581e+00 2.166859e+00 2.068848e+00 3.037417e+00 2.697922e+00 2.741077e+00 2.172989e+00 2.808993e+00 1.898597e+00 1.538742e+00 1.360735e+00 2.419573e-01 4.850199e-01 3.804913e-01 4.771616e-01 4.197817e-01 5.200942e-01 5.965563e-01 5.194330e-01 5.137520e-01 5.156776e-01 3.973170e-01 3.459099e-01 1.074029e-01
<GCONST> 1.179809e+02
<STATE> 4
<MEAN> 39
 -6.874642e+00 -2.242048e+00 3.633583e+00 -1.124650e+01 -2.362252e+00 -9.364476e-01 -5.418691e+00 -1.447193e+01 3.858202e+00 2.287832e+00 -5.054645e+00 -1.531499e+00 7.956393e+01 1.740778e+00 1.151419e+00 5.080020e-01 -6.650763e-01 -3.413717e-01 5.179662e-01 2.430096e-01 -1.438598e+00 -6.710231e-01 2.190251e-01 -5.386140e-01 -7.557500e-01 1.382953e+00 -3.691292e-02 -5.162235e-01 -4.666960e-01 -4.032804e-02 -1.584615e-01 -3.517721e-01 -3.064726e-01 1.554741e-02 -3.396320e-01 -2.591074e-01 6.451938e-02 -4.361248e-02 -1.618997e-01
<VARIANCE> 39
 2.605732e+01 3.727944e+01 3.868863e+01 3.764339e+01 7.533384e+01 5.233966e+01 6.998101e+01 5.711790e+01 4.239614e+01 5.591302e+01 3.357740e+01 2.350096e+01 1.826946e+01 1.783026e+00 3.053524e+00 2.232086e+00 2.527033e+00 2.801616e+00 2.369970e+00 3.640918e+00 3.028693e+00 2.780146e+00 2.678066e+00 2.029642e+00 1.753493e+00 1.531647e+00 2.431715e-01 6.185910e-01 3.801603e-01 4.414721e-01 3.752806e-01 4.248577e-01 3.655873e-01 4.615923e-01 4.326274e-01 3.910863e-01 2.677941e-01 2.967968e-01 1.147600e-01
<GCONST> 1.174127e+02
<TRANSP> 5
 0.000000e+00 1.000000e+00 0.000000e+00 0.000000e+00 0.000000e+00
 0.000000e+00 6.949310e-01 3.050691e-01 0.000000e+00 0.000000e+00
 0.000000e+00 0.000000e+00 7.134466e-01 2.865534e-01 0.000000e+00
 0.000000e+00 0.000000e+00 0.000000e+00 5.202736e-01 4.797264e-01
 0.000000e+00 0.000000e+00 0.000000e+00 0.000000e+00 0.000000e+00
<ENDHMM>
~h "i"
<BEGINHMM>
<NUMSTATES> 5
<STATE> 2
<MEAN> 39
 -6.661222e+00 -4.754066e+00 1.237071e+01 4.124146e+00 1.686968e+01 5.282462e-01 -1.591336e+01 -2.526894e+01 -9.004696e+00 -2.617116e+00 -5.922643e+00 -8.453687e+00 7.996748e+01 1.169151e+00 -3.862275e-01 1.599263e+00 2.783446e+00 9.071860e-01 -8.725114e-01 -1.951658e+00 -7.159504e-01 5.557328e-02 1.088131e+00 -7.409134e-01 -1.408333e+00 5.354781e-01 -5.459390e-01 -2.039981e-02 -2.192052e-01 -3.396728e-01 -8.717377e-01 -1.093618e-01 5.767987e-01 9.388938e-01 3.832005e-01 -3.195847e-01 6.970774e-03 3.528867e-01 -3.981528e-01
<VARIANCE> 39
 1.796046e+01 2.078528e+01 3.553793e+01 2.781436e+01 3.714854e+01 3.145897e+01 3.375278e+01 4.204528e+01 2.503035e+01 2.475734e+01 1.869805e+01 2.558097e+01 1.196153e+01 6.171000e+00 2.809540e+00 4.140494e+00 2.991401e+00 4.726616e+00 4.981573e+00 4.827387e+00 8.124412e+00 3.142337e+00 2.762814e+00 2.919609e+00 1.843708e+00 1.598907e+00 5.965551e-01 4.812025e-01 5.391144e-01 4.624123e-01 4.456251e-01 5.982318e-01 6.490695e-01 8.123533e-01 6.877778e-01 4.163980e-01 5.442291e-01 3.934070e-01 1.849865e-01
<GCONST> 1.213313e+02
<STATE> 3
<MEAN> 39
 -7.059452e+00 -6.271811e+00 1.711539e+01 1.172936e+01 1.572114e+01 -4.515135e+00 -1.920169e+01 -2.006016e+01 -5.961412e+00 -1.575263e+00 -7.416100e+00 -1.030171e+01 7.837095e+01 -2.635290e-01 2.151030e-01 2.249108e-01 3.247191e-01 -1.285204e-01 -3.562487e-01 9.467423e-03 5.909361e-01 2.722057e-01 5.768208e-02 5.552163e-02 4.194407e-02 -4.356519e-01 -6.163337e-02 1.800107e-01 -2.388984e-01 -3.274139e-01 -5.866411e-02 2.278194e-01 2.371427e-01 -1.007586e-02 -6.718052e-02 -9.234565e-02 6.206955e-02 1.556825e-01 -1.051323e-01
<VARIANCE> 39
 5.687789e+00 1.426342e+01 2.690401e+01 2.743546e+01 2.757487e+01 3.073593e+01 2.746205e+01 4.185123e+01 2.321073e+01 2.099489e+01 2.443719e+01 2.041917e+01 8.849240e+00 4.725709e-01 7.765759e-01 1.749064e+00 1.846335e+00 1.425138e+00 1.612078e+00 1.431665e+00 2.442083e+00 1.411940e+00 1.212294e+00 1.253027e+00 1.072509e+00 4.545527e-01 1.138761e-01 1.197422e-01 2.310999e-01 2.787569e-01 3.173360e-01 2.987623e-01 3.596170e-01 4.017435e-01 2.651844e-01 2.675890e-01 2.394880e-01 2.269039e-01 7.768648e-02
<GCONST> 9.390521e+01
<STATE> 4
<MEAN> 39
 -1.008892e+01 -1.101889e+00 1.518591e+01 8.458749e+00 1.476913e+01 -1.981264e+00 -1.604362e+01 -1.838936e+01 -6.054835e+00 -2.172475e+00 -6.781683e+00 -7.991595e+00 7.328671e+01 -9.512119e-01 7.331555e-01 -8.160235e-01 -9.559221e-01 -1.156368e+00 1.002206e+00 2.171381e+00 1.297770e+00 -1.380710e-02 -4.863792e-01 3.857715e-01 7.828606e-01 -9.968848e-01 -2.416095e-01 -1.362496e-01 -1.443226e-01 -1.857859e-01 -2.680639e-01 6.794504e-02 3.590287e-01 3.171229e-01 1.697249e-01 -9.943132e-02 5.114470e-02 1.096252e-01 -1.791436e-02
<VARIANCE> 39
 2.163816e+01 1.953055e+01 4.048123e+01 4.256507e+01 3.355839e+01 4.541473e+01 4.921851e+01 6.730083e+01 3.219306e+01 2.549431e+01 2.732228e+01 2.657053e+01 3.006843e+01 2.359364e+00 2.302111e+00 2.373378e+00 2.653554e+00 3.110029e+00 2.743067e+00 4.235466e+00 5.696213e+00 3.177906e+00 2.380492e+00 2.222219e+00 1.921628e+00 2.085862e+00 1.783482e-01 2.454639e-01 4.124405e-01 3.967831e-01 4.149063e-01 4.912942e-01 5.694451e-01 8.035815e-01 5.391896e-01 3.697340e-01 3.226636e-01 3.051433e-01 1.325842e-01
<GCONST> 1.171189e+02
<TRANSP> 5
 0.000000e+00 1.000000e+00 0.000000e+00 0.000000e+00 0.000000e+00
 0.000000e+00 6.452149e-01 3.547851e-01 0.000000e+00 0.000000e+00
 0.000000e+00 0.000000e+00 8.728631e-01 1.271369e-01 0.000000e+00
 0.000000e+00 0.000000e+00 0.000000e+00 7.351578e-01 2.648422e-01
 0.000000e+00 0.000000e+00 0.000000e+00 0.000000e+00 0.000000e+00
<ENDHMM>
~h "j"
<BEGINHMM>
<NUMSTATES> 5
<STATE> 2
<MEAN> 39
 -1.746121e+01 -7.576294e+00 1.184207e+01 1.743106e+00 1.143907e+01 -2.343979e+00 -8.435975e+00 -1.377528e+01 -1.793332e+00 -4.646026e+00 -3.704833e+00 -5.226248e+00 7.533461e+01 2.987318e+00 1.293256e+00 1.333314e+00 2.098335e+00 2.492749e+00 8.770905e-01 -1.712805e+00 -2.296438e+00 -1.409640e+00 1.298039e-01 -3.669981e-02 -2.698615e-03 9.201509e-01 5.200769e-01 3.014414e-01 -4.028537e-01 -6.566428e-02 -1.404408e-01 3.721666e-01 -1.710715e-01 -5.073066e-01 -5.738303e-01 -1.270476e-01 4.090834e-02 2.102340e-01 -5.273775e-02
<VARIANCE> 39
 7.120390e+01 8.926724e+01 5.436022e+01 5.102074e+01 4.493005e+01 3.579155e+01 4.047150e+01 4.643152e+01 4.177049e+01 3.007741e+01 1.870431e+01 2.545922e+01 4.088994e+01 5.568806e+00 5.323552e+00 3.855120e+00 3.342711e+00 2.574387e+00 4.664571e+00 2.758188e+00 4.509871e+00 4.737239e+00 2.296528e+00 1.424580e+00 1.522594e+00 1.461403e+00 7.939523e-01 8.256213e-01 7.748392e-01 8.188927e-01 6.638162e-01 5.721651e-01 6.189756e-01 9.247400e-01 7.274806e-01 4.199176e-01 2.714561e-01 3.330343e-01 2.170727e-01
<GCONST> 1.272688e+02
<STATE> 3
<MEAN> 39
 -6.450374e+00 -3.666321e+00 1.165926e+01 6.046433e+00 1.717957e+01 1.463903e+00 -1.567923e+01 -2.408531e+01 -8.125938e+00 -4.370577e+00 -3.477859e+00 -5.837543e+00 7.874989e+01 1.619168e+00 -3.448212e-02 -1.027656e+00 -5.148122e-01 3.265905e-01 9.344332e-01 -9.519037e-01 -2.147432e+00 -1.449129e+00 -4.387366e-01 -1.371546e-01 2.525535e-01 7.566318e-01 -5.229727e-01 -1.643782e-01 -4.097825e-01 -7.713552e-01 -6.816601e-01 -8.922403e-02 5.300818e-01 5.957453e-01 2.281930e-01 -3.281152e-01 -1.362221e-01 1.560532e-01 -1.699694e-01
<VARIANCE> 39
 7.991531e+00 1.761093e+01 2.944374e+01 3.471492e+01 2.672993e+01 3.596505e+01 2.640777e+01 3.888303e+01 3.638115e+01 2.821338e+01 1.517011e+01 3.445245e+01 1.368521e+01 3.291288e+00 2.896678e+00 2.379967e+00 2.709071e+00 1.897761e+00 2.959481e+00 2.557997e+00 3.710601e+00 3.803586e+00 2.550775e+00 1.610248e+00 1.969126e+00 6.716290e-01 4.672195e-01 3.770477e-01 3.543492e-01 4.093083e-01 4.697858e-01 5.135801e-01 3.914588e-01 7.938012e-01 7.185686e-01 5.131792e-01 2.900771e-01 3.568012e-01 8.584283e-02
<GCONST> 1.123095e+02
<STATE> 4
<MEAN> 39
 -3.735318e+00 -4.436056e+00 5.591562e+00 -9.508891e-01 1.532506e+01 4.290193e+00 -1.487153e+01 -2.797607e+01 -1.254991e+01 -8.550177e+00 -4.597929e+00 -2.820194e+00 8.036953e+01 4.212872e-01 5.505680e-01 -8.881328e-01 -1.564938e+00 -1.006750e+00 4.077270e-01 8.176206e-01 9.070826e-01 -3.510189e-01 -1.309357e+00 -8.144217e-01 7.467566e-01 -2.093299e-01 -1.825790e-01 1.580098e-01 1.880001e-01 1.479875e-01 -1.997271e-01 -2.155061e-01 2.572161e-01 7.084665e-01 4.309404e-01 8.809120e-02 -1.779037e-01 -1.528374e-01 -2.323919e-01
<VARIANCE> 39
 6.546313e+00 1.185040e+01 2.986650e+01 4.301573e+01 3.286985e+01 5.578613e+01 3.120305e+01 4.267579e+01 3.267855e+01 4.574201e+01 2.833000e+01 3.245049e+01 7.149447e+00 4.554697e-01 9.042448e-01 1.054804e+00 2.169904e+00 2.205653e+00 1.888200e+00 2.182195e+00 4.027207e+00 3.076410e+00 2.931625e+00 3.020632e+00 2.096067e+00 4.856546e-01 1.544570e-01 1.494723e-01 2.032559e-01 3.569614e-01 2.653810e-01 3.771026e-01 3.680159e-01 5.545109e-01 6.525005e-01 4.871344e-01 3.754725e-01 3.357208e-01 6.728186e-02
<GCONST> 1.046599e+02
<TRANSP> 5
 0.000000e+00 1.000000e+00 0.000000e+00 0.000000e+00 0.000000e+00
 0.000000e+00 6.234784e-01 3.765216e-01 0.000000e+00 0.000000e+00
 0.000000e+00 0.000000e+00 6.806525e-01 3.193475e-01 0.000000e+00
 0.000000e+00 0.000000e+00 0.000000e+00 7.634351e-01 2.365649e-01
 0.000000e+00 0.000000e+00 0.000000e+00 0.000000e+00 0.000000e+00
<ENDHMM>
~h "k"
<BEGINHMM>
<NUMSTATES> 5
<STATE> 2
<MEAN> 39
 -2.027425e+01 -1.376234e-01 4.082138e+00 8.369198e-01 2.881877e+00 1.511155e+00 5.410075e-03 -3.563203e+00 -2.434904e+00 -2.737283e+00 -2.210763e+00 -2.432468e+00 6.043397e+01 -2.506618e-01 -1.111053e+00 -2.313239e+00 -2.746543e+00 -1.801026e-01 -2.898519e-01 1.115223e-01 -5.692112e-01 -6.431327e-01 -8.438820e-01 5.463018e-01 -4.681958e-02 1.083701e+00 4.620726e-01 -3.816052e-01 -1.648464e-01 -8.540969e-01 -3.375874e-02 -4.348612e-01 -6.971959e-01 -1.110326e+00 -4.044667e-01 -3.719092e-01 4.061081e-02 -4.899723e-02 1.176942e+00
<VARIANCE> 39
 1.839767e+01 3.561745e+01 5.907315e+01 6.827034e+01 4.571195e+01 2.695852e+01 3.476294e+01 4.394814e+01 2.787414e+01 3.033307e+01 2.433109e+01 2.202870e+01 3.055996e+01 2.942379e+00 4.145104e+00 4.826629e+00 1.034120e+01 5.379320e+00 4.684524e+00 7.070580e+00 1.145676e+01 4.951160e+00 4.458059e+00 2.698268e+00 2.892568e+00 9.555305e+00 3.020038e-01 5.509740e-01 1.179519e+00 1.493361e+00 8.629705e-01 6.100156e-01 8.239782e-01 1.064269e+00 6.770307e-01 6.407622e-01 4.878692e-01 4.136623e-01 6.038122e-01
<GCONST> 1.338552e+02
<STATE> 3
<MEAN> 39
 -1.779243e+01 -5.956675e+00 -4.216210e+00 -1.499955e+01 1.315561e+00 -4.320298e+00 -4.484793e+00 -1.376649e+01 -8.478008e+00 -1.000310e+01 -7.501280e-01 -3.799601e+00 7.355901e+01 5.539711e-01 -1.243858e+00 2.785026e-01 -1.473493e+00 -2.813827e-02 -1.066846e+00 -1.460881e+00 -2.559597e+00 -1.117128e+00 -1.308065e+00 -8.378133e-02 9.696750e-02 2.788835e+00 -6.693020e-03 3.672340e-01 9.081790e-01 1.455887e+00 1.149339e-01 5.227814e-01 2.548677e-01 6.989897e-01 5.146002e-01 6.930674e-01 -1.049635e-01 2.924616e-01 -9.026600e-01
<VARIANCE> 39
 1.119314e+01 3.688966e+01 3.225101e+01 6.144791e+01 6.124619e+01 5.221474e+01 6.378817e+01 5.461973e+01 3.928933e+01 3.240744e+01 2.890684e+01 3.136102e+01 2.533986e+01 2.517617e+00 4.095161e+00 3.879659e+00 6.999739e+00 3.703049e+00 3.902185e+00 3.821759e+00 5.136027e+00 3.807895e+00 3.599605e+00 2.831765e+00 2.564007e+00 5.434723e+00 5.512930e-01 6.019171e-01 8.887685e-01 8.324143e-01 9.604881e-01 9.359903e-01 1.008933e+00 1.020163e+00 7.236081e-01 6.742082e-01 6.237122e-01 5.507874e-01 5.342245e-01
<GCONST> 1.323902e+02
<STATE> 4
<MEAN> 39
 -1.587379e+01 -6.947398e+00 -7.469295e-01 -1.093821e+01 2.609208e+00 -2.302022e+00 -6.277153e+00 -1.549121e+01 -8.172834e+00 -8.287325e+00 -8.369398e-01 -1.224844e+00 7.407695e+01 1.513125e+00 8.240747e-01 1.244362e+00 1.049513e+00 8.126298e-02 7.998656e-01 1.478599e-02 3.547361e-01 6.710626e-01 9.380691e-01 -3.036003e-01 4.145296e-01 6.607276e-02 3.536799e-01 4.882375e-01 6.188119e-02 4.754178e-02 -1.639464e-01 8.767986e-02 1.281098e-01 3.673576e-01 2.374468e-01 2.420965e-01 -1.407115e-01 -1.411039e-01 -1.775225e-01
<VARIANCE> 39
 3.164897e+01 3.792677e+01 4.491128e+01 5.483624e+01 3.664825e+01 4.531520e+01 4.503202e+01 5.229634e+01 4.887168e+01 3.582835e+01 2.381827e+01 2.365553e+01 4.756850e+01 5.975043e+00 4.350286e+00 3.922114e+00 3.017386e+00 3.381406e+00 4.108193e+00 4.163754e+00 4.706011e+00 3.394293e+00 2.803467e+00 2.744718e+00 2.516570e+00 2.037053e+00 7.274735e-01 7.140695e-01 6.760083e-01 6.639709e-01 5.725176e-01 8.377590e-01 7.874469e-01 9.174050e-01 6.676926e-01 5.457683e-01 4.336346e-01 4.302479e-01 3.917592e-01
<GCONST> 1.295110e+02
<TRANSP> 5
 0.000000e+00 1.000000e+00 0.000000e+00 0.000000e+00 0.000000e+00
 0.000000e+00 7.099061e-01 2.900939e-01 0.000000e+00 0.000000e+00
 0.000000e+00 0.000000e+00 6.316494e-01 3.683506e-01 0.000000e+00
 0.000000e+00 0.000000e+00 0.000000e+00 6.930108e-01 3.069892e-01
 0.000000e+00 0.000000e+00 0.000000e+00 0.000000e+00 0.000000e+00
<ENDHMM>
~h "l"
<BEGINHMM>
<NUMSTATES> 5
<STATE> 2
<MEAN> 39
 -2.154043e+00 6.364270e-01 8.729029e+00 -5.099727e+00 -4.084105e+00 -5.019854e+00 -8.026819e+00 -9.694960e+00 -5.966544e+00 -1.125382e+01 -1.327709e+01 -6.681523e+00 7.636487e+01 1.306642e+00 6.253233e-01 2.833073e-01 3.690029e-01 -1.026682e+00 -9.993018e-01 -4.439555e-01 7.008663e-01 -1.905383e-01 -8.249185e-01 -9.683191e-01 -3.315505e-01 2.869009e-01 -5.346302e-01 -3.954414e-01 -4.375106e-01 -3.109362e-01 3.010355e-01 4.514573e-02 -5.739153e-02 -5.094622e-01 -2.023475e-03 4.265772e-01 7.889024e-01 4.049443e-01 6.168532e-02
<VARIANCE> 39
 1.946912e+01 3.063472e+01 3.468956e+01 3.945422e+01 5.592902e+01 6.491535e+01 5.175886e+01 4.952106e+01 4.493636e+01 4.346901e+01 3.699268e+01 2.475858e+01 2.821478e+01 4.174541e+00 2.085089e+00 2.767767e+00 3.024495e+00 3.361464e+00 3.119354e+00 3.383045e+00 4.906895e+00 3.769995e+00 3.347106e+00 5.261717e+00 2.559881e+00 2.177727e+00 4.650918e-01 4.045431e-01 5.358067e-01 5.882084e-01 4.637926e-01 4.716883e-01 6.341026e-01 7.474479e-01 6.214887e-01 5.835302e-01 7.923110e-01 4.304838e-01 2.003794e-01
<GCONST> 1.256458e+02
<STATE> 3
<MEAN> 39
 -1.095765e+00 4.580871e-01 7.686183e+00 -5.606881e+00 -5.343694e+00 -8.398204e+00 -1.023656e+01 -1.008002e+01 -6.150747e+00 -1.106642e+01 -1.117480e+01 -4.410353e+00 7.738525e+01 -2.283565e-01 -3.292219e-01 -6.241453e-01 -5.369077e-01 4.145191e-01 -4.542513e-01 -3.867982e-01 -1.092929e+00 -2.493058e-01 8.244914e-01 1.412775e+00 8.456290e-01 4.620560e-01 -1.887977e-01 -1.113529e-01 -1.313682e-01 -1.344604e-01 2.124695e-01 1.944977e-01 1.066026e-02 -3.184530e-01 1.416392e-01 3.946224e-01 2.282805e-01 2.404574e-02 5.746553e-02
<VARIANCE> 39
 6.661054e+00 2.740551e+01 4.450864e+01 3.658746e+01 7.760895e+01 8.181658e+01 8.665566e+01 5.228210e+01 6.960532e+01 4.445138e+01 4.494199e+01 3.176729e+01 1.493521e+01 5.085690e-01 1.292398e+00 2.465579e+00 3.554272e+00 2.538513e+00 2.507259e+00 2.823347e+00 4.204722e+00 3.429668e+00 3.474870e+00 3.866950e+00 2.325881e+00 1.290237e+00 1.563922e-01 1.773672e-01 3.947108e-01 4.891975e-01 3.124597e-01 3.796650e-01 5.299127e-01 5.574614e-01 6.467815e-01 5.836517e-01 6.708937e-01 4.264322e-01 1.251180e-01
<GCONST> 1.175796e+02
<STATE> 4
<MEAN> 39
 -4.215311e+00 6.573754e+00 9.970442e+00 -1.953707e+00 -6.633280e+00 -1.382302e+01 -1.602893e+01 -9.787035e+00 -7.134898e+00 -8.504119e+00 -4.144917e+00 -1.213061e+00 7.147919e+01 -7.476889e-01 -1.294724e-01 -2.720898e-01 9.699515e-02 7.041903e-01 7.312121e-01 6.986938e-01 -2.017958e-01 2.994195e-02 6.506205e-01 5.538037e-01 1.272573e-01 -4.041137e-01 -1.518065e-01 -1.525332e-01 -2.341993e-02 -3.964081e-03 8.884322e-02 2.343049e-01 2.254618e-01 7.661115e-02 1.767709e-01 6.620034e-02 -1.447040e-01 -1.192833e-01 -4.026845e-02
<VARIANCE> 39
 1.637310e+01 5.155946e+01 4.587086e+01 4.514217e+01 6.704930e+01 6.249921e+01 6.439252e+01 5.419098e+01 3.869806e+01 4.347787e+01 2.665230e+01 2.631786e+01 4.670297e+01 1.018697e+00 1.743564e+00 2.196265e+00 2.339669e+00 2.100373e+00 2.774265e+00 3.516694e+00 3.500388e+00 3.004986e+00 2.839259e+00 1.912300e+00 1.526164e+00 1.295546e+00 1.553708e-01 2.341981e-01 2.943582e-01 3.091916e-01 2.945060e-01 3.462926e-01 3.785407e-01 3.520439e-01 3.475647e-01 3.082972e-01 3.272840e-01 2.545211e-01 8.440638e-02
<GCONST> 1.131327e+02
<TRANSP> 5
 0.000000e+00 1.000000e+00 0.000000e+00 0.000000e+00 0.000000e+00
 0.000000e+00 6.392359e-01 3.607641e-01 0.000000e+00 0.000000e+00
 0.000000e+00 0.000000e+00 6.864071e-01 3.135928e-01 0.000000e+00
 0.000000e+00 0.000000e+00 0.000000e+00 7.384134e-01 2.615866e-01
 0.000000e+00 0.000000e+00 0.000000e+00 0.000000e+00 0.000000e+00
<ENDHMM>
~h "m"
<BEGINHMM>
<NUMSTATES> 5
<STATE> 2
<MEAN> 39
 -7.047060e+00 6.935350e+00 7.275684e+00 1.340622e+00 6.795526e+00 4.500197e+00 -7.735901e-01 -9.904273e+00 -6.216117e+00 -4.611774e+00 -7.726879e+00 -4.773635e+00 6.838586e+01 1.584918e+00 1.267047e+00 5.702383e-02 4.150754e-01 1.107462e+00 1.219177e+00 -4.973100e-01 -1.420550e+00 -9.331336e-01 -3.754015e-01 -7.228930e-01 -6.917061e-01 3.934065e-01 -2.095546e-01 -5.147296e-01 -5.088819e-01 -5.294847e-01 -3.461326e-01 -3.444174e-01 -2.915910e-01 -1.339407e-01 1.910766e-01 1.008688e-01 1.323355e-01 -9.275483e-03 1.683494e-01
<VARIANCE> 39
 2.662876e+01 2.671475e+01 2.163109e+01 2.367970e+01 2.258429e+01 2.639784e+01 2.332347e+01 4.217884e+01 2.438671e+01 1.981192e+01 2.111491e+01 2.097689e+01 4.170367e+01 4.912699e+00 1.672492e+00 2.950917e+00 2.805892e+00 2.190939e+00 2.166796e+00 2.161449e+00 4.495280e+00 2.521243e+00 1.617529e+00 1.755586e+00 1.509443e+00 3.545076e+00 3.421714e-01 2.906809e-01 3.622938e-01 2.820622e-01 3.268120e-01 2.872654e-01 3.543862e-01 5.135686e-01 3.859558e-01 2.947611e-01 2.838839e-01 2.656415e-01 1.401472e-01
<GCONST> 1.100847e+02
<STATE> 3
<MEAN> 39
 -4.730145e+00 7.740869e+00 5.272944e+00 1.676258e-01 8.645878e+00 5.936301e+00 -3.188303e+00 -1.339345e+01 -7.133170e+00 -4.827415e+00 -8.966087e+00 -6.817773e+00 6.953867e+01 3.198914e-03 -4.150294e-02 -2.322253e-01 -2.748789e-01 3.896542e-03 1.017890e-02 -1.134668e-01 -6.626523e-02 9.068687e-02 -4.091872e-02 1.150491e-01 -2.165448e-01 8.138201e-02 -1.872189e-01 -2.089973e-01 7.627858e-03 -1.476490e-01 -2.440854e-01 -2.603900e-01 4.687320e-02 2.115419e-01 2.096855e-01 8.491643e-02 1.733463e-01 1.300531e-01 6.503283e-02
<VARIANCE> 39
 1.108539e+01 1.681415e+01 1.641696e+01 1.934959e+01 2.317257e+01 2.864077e+01 2.526167e+01 5.117417e+01 2.654734e+01 1.706411e+01 1.751194e+01 2.243809e+01 1.931020e+01 6.301977e-01 8.034535e-01 1.106365e+00 1.250148e+00 1.028764e+00 1.174923e+00 1.181943e+00 1.580156e+00 1.004422e+00 9.499499e-01 8.879945e-01 9.903120e-01 8.530418e-01 1.502811e-01 1.683470e-01 2.010040e-01 2.770972e-01 2.976886e-01 2.750008e-01 2.621151e-01 2.947616e-01 2.713915e-01 2.237838e-01 1.867723e-01 2.242694e-01 1.218570e-01
<GCONST> 9.179517e+01
<STATE> 4
<MEAN> 39
 -4.261301e+00 5.371442e+00 3.926911e+00 -3.373886e+00 5.543550e+00 3.189931e+00 -2.312971e+00 -1.114881e+01 -5.068322e+00 -4.864015e+00 -7.106577e+00 -6.876503e+00 7.243310e+01 -3.476535e-01 -1.016539e+00 -3.219860e-01 -1.095838e+00 -1.309320e+00 -1.284366e+00 -3.885890e-01 5.985149e-02 8.681077e-01 4.137631e-01 6.870735e-01 6.601996e-01 8.155060e-01 -1.809698e-01 -3.552418e-01 1.333343e-01 1.204856e-02 -2.035295e-01 -2.300192e-01 -1.370468e-01 -5.066249e-02 1.670396e-01 1.452135e-01 7.496339e-02 2.877646e-01 1.421273e-01
<VARIANCE> 39
 2.410999e+01 2.266267e+01 2.735067e+01 4.384429e+01 3.626736e+01 4.581629e+01 3.065272e+01 6.289767e+01 2.905607e+01 1.856859e+01 1.898651e+01 2.379103e+01 4.274823e+01 1.005353e+00 2.178837e+00 1.936821e+00 4.018939e+00 3.655367e+00 2.417868e+00 2.686708e+00 3.676439e+00 2.537754e+00 2.177945e+00 1.586620e+00 2.478903e+00 3.405012e+00 1.063807e-01 2.713594e-01 3.142828e-01 5.120743e-01 5.161001e-01 4.288733e-01 4.112284e-01 4.215193e-01 3.255453e-01 3.866909e-01 2.654061e-01 3.511348e-01 2.266948e-01
<GCONST> 1.132567e+02
<TRANSP> 5
 0.000000e+00 1.000000e+00 0.000000e+00 0.000000e+00 0.000000e+00
 0.000000e+00 5.916839e-01 4.083161e-01 0.000000e+00 0.000000e+00
 0.000000e+00 0.000000e+00 7.942469e-01 2.057531e-01 0.000000e+00
 0.000000e+00 0.000000e+00 0.000000e+00 6.245562e-01 3.754438e-01
 0.000000e+00 0.000000e+00 0.000000e+00 0.000000e+00 0.000000e+00
<ENDHMM>
~h "n"
<BEGINHMM>
<NUMSTATES> 5
<STATE> 2
<MEAN> 39
 -4.357017e+00 4.546591e+00 7.758118e+00 1.592871e+00 7.273311e+00 1.830348e+00 -5.050654e+00 -1.287419e+01 -4.856433e+00 -5.261814e+00 -9.529155e+00 -7.377372e+00 7.280087e+01 1.046478e-01 1.227343e+00 1.816152e-01 1.176513e+00 4.681815e-01 6.095665e-01 -3.195538e-01 -2.325206e-01 5.605127e-02 -5.871291e-01 -7.160095e-01 -4.888307e-01 -1.000123e+00 -1.412926e-01 -2.591783e-01 -1.735091e-01 -5.050567e-01 -1.390716e-01 -1.627055e-01 -1.750831e-01 -1.895721e-01 9.961790e-02 2.039125e-01 2.908684e-01 1.147034e-01 2.376085e-01
<VARIANCE> 39
