~o
<STREAMINFO> 1 39
<VECSIZE> 39<NULLD><MFCC_D_A_0><DIAGC>
~h "#"
<BEGINHMM>
<NUMSTATES> 5
<STATE> 2
<MEAN> 39
 -2.859055e-01 -1.841417e+00 -9.037513e-01 -1.569257e+01 -8.501455e+00 -6.727312e+00 -6.243455e+00 -9.214369e+00 4.063662e+00 -2.064860e-01 -7.655403e+00 -2.493098e+00 8.190565e+01 8.740125e-01 -7.697871e-01 -5.883557e-01 -6.803082e-01 -1.653223e+00 -1.132187e+00 4.430993e-01 1.098622e+00 1.872220e+00 1.154813e+00 -4.564608e-01 -3.979292e-01 1.057659e+00 -6.105950e-01 -1.869631e-01 2.654954e-01 4.349338e-01 2.954654e-01 1.961210e-01 3.841123e-01 7.817467e-02 -4.156727e-01 -2.201740e-01 1.285645e-01 6.435896e-03 -4.188208e-01
<VARIANCE> 39
 1.333798e+01 2.158443e+01 3.240699e+01 2.155993e+01 4.062862e+01 5.954172e+01 5.707722e+01 5.913847e+01 4.781396e+01 4.000280e+01 2.872107e+01 2.296618e+01 1.922487e+01 2.777086e+00 2.049894e+00 2.220693e+00 2.659986e+00 2.312687e+00 3.222053e+00 2.976783e+00 4.518297e+00 3.917146e+00 2.411009e+00 2.392218e+00 2.441363e+00 1.829579e+00 4.099135e-01 4.819639e-01 3.977038e-01 4.248588e-01 3.501557e-01 5.559964e-01 4.648796e-01 6.984251e-01 6.336669e-01 5.410426e-01 4.654148e-01 4.391850e-01 1.741852e-01
<GCONST> 1.189788e+02
<STATE> 3
<MEAN> 39
 -7.418414e-01 -4.159556e+00 1.393274e+00 -1.597283e+01 -1.378395e+01 -9.271524e+00 -8.817741e-02 -4.819059e+00 6.434334e+00 2.614296e+00 -9.265537e+00 -3.286180e+00 8.225450e+01 -1.699418e-01 4.586491e-03 2.948432e-01 -5.704133e-02 6.981321e-03 3.265296e-01 4.323885e-01 -2.142607e-02 -1.634706e-01 1.344779e-01 -5.691266e-02 -3.420447e-02 -1.567328e-01 -4.119660e-02 1.416226e-01 2.526267e-02 4.489104e-02 2.184494e-01 1.410934e-01 -1.605216e-01 -9.407250e-02 -1.194213e-01 -1.225053e-01 4.775638e-02 1.028711e-02 -1.007945e-01
<VARIANCE> 39
 4.349910e+00 2.295849e+01 3.848421e+01 1.713312e+01 3.022283e+01 3.846793e+01 6.057434e+01 3.827617e+01 2.313790e+01 2.793295e+01 2.431848e+01 2.007818e+01 1.541843e+01 2.306742e-01 8.643394e-01 1.170548e+00 7.819642e-01 1.246906e+00 1.558830e+00 1.870185e+00 1.424985e+00 1.311357e+00 1.335017e+00 1.234084e+00 1.072611e+00 2.792712e-01 4.586956e-02 1.320154e-01 1.715424e-01 1.907824e-01 1.876339e-01 2.096106e-01 2.200446e-01 2.632540e-01 2.555006e-01 2.284818e-01 2.108780e-01 2.032768e-01 4.795525e-02
<GCONST> 8.884715e+01
<STATE> 4
<MEAN> 39
 -4.054709e+00 -2.040689e+00 4.145938e+00 -1.374092e+01 -7.214099e+00 -3.359260e+00 -1.783648e+00 -7.418206e+00 3.222707e+00 6.103958e-01 -7.466360e+00 -2.845172e+00 7.872346e+01 -1.769673e+00 6.715942e-01 1.197209e+00 2.142367e+00 2.239171e+00 9.376929e-01 -2.400527e-01 9.839609e-03 -1.464197e+00 -1.517387e+00 7.242339e-01 1.839981e-01 -1.595084e+00 -5.383332e-01 -1.181061e-01 1.512436e-01 4.692568e-01 2.066779e-01 -1.272067e-02 2.208539e-01 7.384363e-02 -2.156049e-01 -1.844730e-01 1.330274e-01 -6.960299e-02 -2.066113e-01
<VARIANCE> 39
 1.726074e+01 2.598559e+01 3.639882e+01 3.442299e+01 4.263517e+01 3.582938e+01 4.393865e+01 5.006181e+01 3.766895e+01 3.824773e+01 2.559838e+01 2.675668e+01 2.966636e+01 2.601775e+00 2.845782e+00 2.351696e+00 4.831668e+00 2.609814e+00 2.354470e+00 3.335203e+00 3.306482e+00 2.370913e+00 2.237074e+00 3.219810e+00 2.401671e+00 1.746978e+00 2.369495e-01 4.484134e-01 4.084404e-01 8.323019e-01 5.008064e-01 4.257174e-01 4.458275e-01 6.219267e-01 4.836288e-01 4.809240e-01 5.002207e-01 4.049731e-01 3.270497e-01
<GCONST> 1.197344e+02
<TRANSP> 5
 0.000000e+00 1.000000e+00 0.000000e+00 0.000000e+00 0.000000e+00
 0.000000e+00 7.292886e-01 2.707113e-01 0.000000e+00 0.000000e+00
 0.000000e+00 0.000000e+00 9.048721e-01 9.512787e-02 0.000000e+00
 0.000000e+00 0.000000e+00 0.000000e+00 7.561338e-01 2.438662e-01
 0.000000e+00 0.000000e+00 0.000000e+00 0.000000e+00 0.000000e+00
<ENDHMM>
~h "$"
<BEGINHMM>
<NUMSTATES> 5
<STATE> 2
<MEAN> 39
 -1.639360e+00 6.096981e+00 1.092555e+01 -8.992519e+00 -5.235179e+00 -9.550083e+00 -1.669390e+01 -1.279786e+01 -5.805593e-01 -5.613122e+00 -7.850096e+00 -3.884399e+00 7.754550e+01 2.451838e+00 7.935237e-01 8.978695e-01 1.572525e-01 -1.392885e+00 -1.848696e+00 -3.431334e+00 -4.484385e-01 1.266253e+00 7.104157e-01 -6.783494e-01 1.931835e-01 8.387932e-01 -8.562993e-01 -5.339005e-01 -4.101738e-01 9.754977e-02 1.512096e-01 2.209331e-01 3.951839e-01 2.599521e-01 -1.667495e-01 -1.262721e-01 3.342719e-01 1.926070e-01 -2.796803e-01
<VARIANCE> 39
 1.666120e+01 2.719910e+01 2.089859e+01 2.580793e+01 2.166568e+01 6.039827e+01 6.832602e+01 3.543320e+01 3.805674e+01 2.839746e+01 3.663790e+01 2.271350e+01 2.606046e+01 5.189207e+00 2.414635e+00 2.675553e+00 2.193916e+00 2.165472e+00 3.523428e+00 4.218534e+00 3.249951e+00 3.937162e+00 3.243212e+00 2.392119e+00 1.640770e+00 2.341913e+00 5.274462e-01 3.320106e-01 4.602916e-01 3.590454e-01 3.559940e-01 7.045799e-01 9.216541e-01 5.853201e-01 6.460023e-01 6.047155e-01 4.613393e-01 2.997512e-01 1.844705e-01
<GCONST> 1.195845e+02
<STATE> 3
<MEAN> 39
 7.510183e-01 6.708250e+00 1.144273e+01 -5.895905e+00 -8.888187e+00 -1.591800e+01 -2.494798e+01 -1.231930e+01 -3.550332e-01 -5.929644e+00 -7.044471e+00 -1.639559e+00 7.687338e+01 8.766815e-03 -8.447092e-02 -1.790820e-01 1.127499e-01 -3.213692e-01 -4.330754e-01 -2.167688e-01 3.491004e-01 -1.280321e-01 -2.332931e-01 2.103871e-01 1.465617e-01 -1.332593e-01 -7.739077e-02 -2.325361e-02 -1.079628e-01 -8.791978e-02 8.213539e-02 2.094767e-01 3.142142e-01 3.052677e-02 -1.053836e-02 -3.230201e-02 -6.736126e-03 -9.568848e-02 -2.623557e-02
<VARIANCE> 39
 3.136563e+00 1.368317e+01 2.592389e+01 2.907044e+01 2.201167e+01 3.776373e+01 3.661323e+01 3.270247e+01 3.010247e+01 2.868054e+01 2.298273e+01 2.188870e+01 8.199208e+00 1.653685e-01 5.358924e-01 8.126964e-01 1.173098e+00 1.029975e+00 1.457960e+00 1.884813e+00 1.471285e+00 1.415729e+00 1.504987e+00 1.150510e+00 1.126471e+00 2.509329e-01 5.757989e-02 8.192037e-02 1.187380e-01 1.941898e-01 2.016986e-01 2.508524e-01 2.845886e-01 2.784211e-01 2.673406e-01 2.565985e-01 2.193761e-01 2.019940e-01 3.287009e-02
<GCONST> 8.568958e+01
<STATE> 4
<MEAN> 39
 -1.254389e+00 4.387827e+00 6.186080e+00 -9.321991e+00 -7.664435e+00 -1.005806e+01 -1.646370e+01 -8.586854e+00 1.076817e+00 -6.318618e+00 -6.001811e+00 -3.082032e+00 7.584095e+01 -1.201624e+00 -2.752952e-01 -4.543689e-01 2.738158e-01 1.505297e+00 2.289356e+00 2.634922e+00 3.168417e-01 -2.758398e-01 -3.924368e-01 -3.565550e-01 -1.256442e-01 -6.869118e-01 -4.354101e-01 -2.723571e-02 1.850705e-01 4.240100e-01 3.590931e-01 1.251625e-01 2.089611e-01 4.770505e-02 -2.483733e-01 -4.762009e-02 5.811571e-02 1.893767e-01 -2.298364e-01
<VARIANCE> 39
 1.650654e+01 2.131453e+01 3.133315e+01 4.721671e+01 3.525874e+01 7.385902e+01 6.394096e+01 6.514755e+01 3.271390e+01 3.479080e+01 2.981122e+01 3.022697e+01 2.996907e+01 2.709797e+00 1.298391e+00 1.848458e+00 4.414520e+00 2.996029e+00 2.859688e+00 3.280826e+00 3.448283e+00 2.844498e+00 2.421968e+00 2.442374e+00 2.439876e+00 1.439057e+00 3.108977e-01 2.589003e-01 3.383692e-01 6.269148e-01 4.337506e-01 5.511318e-01 6.156166e-01 7.669105e-01 4.760609e-01 4.731162e-01 5.381346e-01 4.035672e-01 1.694812e-01
<GCONST> 1.192459e+02
<TRANSP> 5
 0.000000e+00 1.000000e+00 0.000000e+00 0.000000e+00 0.000000e+00
 0.000000e+00 6.749272e-01 3.250727e-01 0.000000e+00 0.000000e+00
 0.000000e+00 0.000000e+00 9.061253e-01 9.387471e-02 0.000000e+00
 0.000000e+00 0.000000e+00 0.000000e+00 7.966738e-01 2.033262e-01
 0.000000e+00 0.000000e+00 0.000000e+00 0.000000e+00 0.000000e+00
<ENDHMM>
~h "@"
<BEGINHMM>
<NUMSTATES> 5
<STATE> 2
<MEAN> 39
 -4.178880e+00 -9.670807e-01 2.517513e+00 -1.335979e+01 -6.782988e-02 5.324143e-01 -5.810294e+00 -1.787691e+01 -6.626928e+00 -6.095284e+00 -8.346225e+00 -8.307860e-01 7.850695e+01 2.395063e+00 2.884380e-01 -7.832056e-01 -8.364202e-01 -3.827573e-01 -2.389854e-01 -1.227207e+00 -1.048871e+00 -4.154354e-01 -4.497339e-01 -1.211343e+00 3.210395e-01 1.245929e+00 -8.871675e-01 -1.713915e-01 4.442120e-02 5.468897e-01 6.829806e-02 -1.955171e-01 1.488774e-01 5.898297e-01 2.341813e-01 -4.010868e-02 3.102801e-01 -2.070660e-02 -5.210754e-01
<VARIANCE> 39
 3.181555e+01 2.201063e+01 4.394035e+01 4.107865e+01 5.766426e+01 4.831257e+01 4.945044e+01 5.571613e+01 8.955266e+01 6.444878e+01 2.884377e+01 2.938989e+01 2.587950e+01 5.351439e+00 3.100729e+00 3.130003e+00 3.673069e+00 2.768133e+00 3.219792e+00 3.585950e+00 4.355932e+00 3.735739e+00 3.004375e+00 3.564627e+00 2.318548e+00 3.437744e+00 8.773280e-01 5.069242e-01 4.841094e-01 5.904309e-01 4.763089e-01 5.611862e-01 6.479445e-01 6.686279e-01 8.328253e-01 5.590236e-01 4.594329e-01 3.702708e-01 3.305187e-01
<GCONST> 1.283279e+02
<STATE> 3
<MEAN> 39
 -2.025674e+00 -2.599591e+00 1.711696e+00 -1.285968e+01 1.137983e-01 -2.338140e+00 -8.579835e+00 -1.843036e+01 -9.441940e+00 -9.216719e+00 -1.005434e+01 3.317761e-01 7.987254e+01 -3.117472e-01 2.952346e-01 2.431741e-01 5.991313e-01 2.848567e-02 -2.445869e-01 2.183983e-01 6.157892e-01 8.251718e-02 -1.650744e-01 -1.410856e-01 2.366754e-01 -6.219285e-01 -5.046001e-01 2.060690e-01 4.184614e-01 5.376784e-01 1.417765e-01 1.348149e-01 3.493266e-01 4.428379e-01 1.631550e-01 6.871580e-02 1.844219e-01 -1.609298e-01 -4.331675e-01
<VARIANCE> 39
 7.539886e+00 1.763449e+01 2.651129e+01 3.578783e+01 5.090847e+01 4.909317e+01 3.794547e+01 4.923804e+01 5.859307e+01 4.173644e+01 2.746564e+01 3.417329e+01 7.601214e+00 8.682434e-01 1.401000e+00 2.052716e+00 3.027957e+00 1.877581e+00 2.165220e+00 1.733117e+00 2.685025e+00 2.670425e+00 2.266000e+00 2.063376e+00 2.123225e+00 8.486806e-01 4.245107e-01 2.443000e-01 2.544964e-01 3.771512e-01 3.021384e-01 3.555888e-01 3.978873e-01 5.697843e-01 4.812320e-01 3.765529e-01 4.555935e-01 3.054499e-01 1.940755e-01
<GCONST> 1.098858e+02
<STATE> 4
<MEAN> 39
 -5.155817e+00 5.338193e-01 4.756557e+00 -8.413812e+00 -4.217011e-02 -1.259631e+00 -5.572442e+00 -1.396041e+01 -7.742649e+00 -8.750739e+00 -8.935477e+00 2.163979e-01 7.486283e+01 -1.404681e+00 6.524103e-01 1.216187e+00 2.195978e+00 3.362639e-01 2.453490e-01 8.995483e-01 1.828339e+00 4.495268e-01 3.180264e-02 4.797908e-01 -2.553461e-01 -1.739945e+00 -3.869018e-01 -1.741054e-01 1.008763e-01 1.198202e-01 4.727720e-02 6.554712e-02 1.921915e-01 1.590188e-01 2.061801e-01 2.110106e-01 2.649437e-01 -2.045759e-02 -9.164269e-02
<VARIANCE> 39
 1.775619e+01 2.122042e+01 4.008441e+01 5.151883e+01 4.738306e+01 4.603002e+01 4.049354e+01 5.429629e+01 5.566036e+01 5.495572e+01 3.386499e+01 3.329837e+01 1.969779e+01 2.324068e+00 2.485051e+00 2.871300e+00 4.649033e+00 2.264416e+00 2.657915e+00 2.435070e+00 3.611353e+00 3.022270e+00 2.745565e+00 2.610646e+00 2.181320e+00 2.015092e+00 2.724665e-01 3.726786e-01 3.771876e-01 4.814846e-01 3.735951e-01 4.374865e-01 5.258516e-01 5.995712e-01 4.980446e-01 4.544206e-01 4.792483e-01 2.957592e-01 1.784331e-01
<GCONST> 1.194075e+02
<TRANSP> 5
 0.000000e+00 1.000000e+00 0.000000e+00 0.000000e+00 0.000000e+00
 0.000000e+00 4.328513e-01 5.671487e-01 0.000000e+00 0.000000e+00
 0.000000e+00 0.000000e+00 6.599435e-01 3.400566e-01 0.000000e+00
 0.000000e+00 0.000000e+00 0.000000e+00 5.391676e-01 4.608324e-01
 0.000000e+00 0.000000e+00 0.000000e+00 0.000000e+00 0.000000e+00
<ENDHMM>
~h "D"
<BEGINHMM>
<NUMSTATES> 5
<STATE> 2
<MEAN> 39
 -2.027080e+01 4.875073e+00 9.376038e+00 -1.633324e+00 5.988505e+00 5.703295e+00 -2.711234e-01 -1.267909e+01 -2.232423e+00 -7.371439e+00 -4.995865e+00 -4.428844e+00 7.274847e+01 -1.766083e+00 9.548669e-02 -8.180246e-01 -8.635159e-01 1.665741e-01 2.977933e-01 8.961329e-01 1.451507e+00 5.322965e-01 -5.438513e-01 3.488626e-01 8.701665e-02 -2.938403e-01 1.196765e+00 -6.189187e-01 -2.186166e-01 -1.043905e+00 -6.070787e-01 -4.497406e-01 -8.063382e-01 -8.158188e-01 -3.172258e-01 2.801794e-01 -3.890382e-01 2.420395e-02 6.291248e-01
<VARIANCE> 39
 3.564080e+01 2.044531e+01 3.371063e+01 3.404800e+01 4.076470e+01 3.677467e+01 3.227089e+01 4.613396e+01 3.264778e+01 2.523110e+01 3.742115e+01 2.599213e+01 1.858928e+01 7.356918e+00 2.479678e+00 2.171131e+00 5.551440e+00 3.422218e+00 3.141898e+00 4.546434e+00 6.335294e+00 3.246589e+00 2.518238e+00 3.067198e+00 1.729411e+00 2.020307e+00 1.171200e+00 3.226725e-01 4.542925e-01 9.364222e-01 6.251825e-01 5.555410e-01 5.815029e-01 9.830343e-01 5.629739e-01 4.491978e-01 5.325221e-01 3.437349e-01 3.070346e-01
<GCONST> 1.243523e+02
<STATE> 3
<MEAN> 39
 -1.588761e+01 3.067137e+00 6.274713e+00 -1.056233e+01 1.803411e+00 3.493242e+00 -2.779996e+00 -1.486103e+01 -3.462464e+00 -9.144279e+00 -8.717354e+00 -5.640622e+00 7.609674e+01 2.541051e+00 -1.638115e+00 -6.694704e-01 -2.693540e+00 -1.687901e+00 -1.521331e+00 -1.537457e+00 -1.717004e+00 -9.879714e-01 -1.560151e-01 -1.209979e+00 4.797371e-02 1.362963e+00 4.307595e-01 -3.595155e-01 1.278292e-01 3.559132e-01 -1.604674e-01 -4.514666e-01 -2.020981e-01 -2.456059e-01 -1.949611e-01 1.919828e-01 4.226571e-02 1.832942e-01 1.036904e-01
<VARIANCE> 39
 9.938639e+01 2.529565e+01 3.441147e+01 2.950600e+01 3.989294e+01 3.531012e+01 3.876359e+01 3.627698e+01 2.794917e+01 2.174516e+01 5.562763e+01 2.930351e+01 1.213985e+01 9.587063e+00 1.788665e+00 1.966389e+00 3.769558e+00 2.888383e+00 2.240439e+00 3.234031e+00 4.930665e+00 3.501788e+00 2.204613e+00 3.565442e+00 1.665381e+00 1.214731e+00 1.384748e+00 3.999488e-01 4.282374e-01 5.192863e-01 6.393986e-01 4.262317e-01 6.927618e-01 9.425915e-01 4.989825e-01 4.340129e-01 6.896725e-01 3.644799e-01 2.177978e-01
<GCONST> 1.224775e+02
<STATE> 4
<MEAN> 39
 -2.300694e+01 -4.854381e+00 8.043047e+00 -1.086187e+01 9.116012e-01 1.380976e-01 -6.397807e-01 -1.224537e+01 -4.625342e+00 -4.873291e+00 -3.309486e+00 -1.610315e+00 7.095130e+01 8.472709e-01 -4.191561e-01 -4.789789e-01 4.858751e-02 -7.876100e-01 -5.578795e-01 -4.127177e-01 3.124006e-01 -3.400990e-01 2.990595e-01 -1.410192e-01 1.952908e-01 -6.354611e-01 9.302418e-02 2.015392e-01 -1.847746e-02 3.499249e-01 1.277780e-01 1.020875e-01 6.543653e-02 1.075167e-01 1.044713e-01 5.662825e-02 6.129655e-02 1.882210e-02 -1.432411e-01
<VARIANCE> 39
 9.902813e+01 2.388343e+01 3.449659e+01 3.292735e+01 3.072045e+01 3.036504e+01 4.269436e+01 5.598461e+01 2.597499e+01 2.753565e+01 4.524498e+01 1.805268e+01 5.608941e+01 3.685157e+00 2.595928e+00 1.881396e+00 2.798803e+00 1.979400e+00 2.563544e+00 2.116899e+00 3.547643e+00 2.183389e+00 1.568001e+00 1.950140e+00 1.251380e+00 2.225688e+00 5.617207e-01 2.678109e-01 2.863429e-01 3.640969e-01 3.235002e-01 3.654363e-01 4.187125e-01 6.209136e-01 4.237136e-01 2.882162e-01 3.782903e-01 2.402303e-01 2.010679e-01
<GCONST> 1.151435e+02
<TRANSP> 5
 0.000000e+00 1.000000e+00 0.000000e+00 0.000000e+00 0.000000e+00
 0.000000e+00 6.661090e-01 3.338910e-01 0.000000e+00 0.000000e+00
 0.000000e+00 0.000000e+00 4.930845e-01 5.069155e-01 0.000000e+00
 0.000000e+00 0.000000e+00 0.000000e+00 7.403636e-01 2.596365e-01
 0.000000e+00 0.000000e+00 0.000000e+00 0.000000e+00 0.000000e+00
<ENDHMM>
~h "E"
<BEGINHMM>
<NUMSTATES> 5
<STATE> 2
<MEAN> 39
 -4.993152e+00 -5.145237e+00 5.522396e-01 -1.074224e+01 3.592141e+00 -3.242650e-01 -1.034592e+01 -2.654873e+01 -4.707654e+00 2.045327e+00 -1.156501e-01 9.212402e-01 8.425993e+01 1.460895e+00 -5.980443e-01 -1.015775e+00 -3.436826e-01 -6.614846e-02 -3.915523e-01 -6.319680e-01 -1.426190e+00 6.094798e-01 1.538294e+00 7.467257e-01 5.350131e-01 1.728180e+00 -8.020483e-01 -7.903763e-02 3.775736e-01 2.838406e-01 -8.736016e-02 9.533204e-03 5.073652e-01 9.507481e-01 1.004852e-01 -2.950572e-01 -1.684257e-01 -2.431437e-01 -6.144888e-01
<VARIANCE> 39
 2.297816e+01 1.931974e+01 3.731275e+01 3.676855e+01 3.997993e+01 3.865797e+01 4.330677e+01 3.916103e+01 4.721557e+01 3.952981e+01 2.201938e+01 2.411611e+01 2.252489e+01 5.693031e+00 3.119611e+00 3.421654e+00 4.035606e+00 3.149603e+00 3.553534e+00 3.606462e+00 6.290032e+00 4.145220e+00 3.966418e+00 2.509373e+00 1.901292e+00 3.621542e+00 6.397400e-01 6.453567e-01 6.345887e-01 5.893528e-01 4.681801e-01 5.792432e-01 6.779182e-01 7.575609e-01 7.987313e-01 6.072677e-01 4.766178e-01 3.471560e-01 4.079765e-01
<GCONST> 1.261271e+02
<STATE> 3
<MEAN> 39
 -4.853860e+00 -6.295837e+00 3.156118e-01 -1.118639e+01 3.696904e+00 -3.036308e-01 -9.525038e+00 -2.591533e+01 -3.541768e+00 3.800859e+00 5.594739e-01 7.631050e-01 8.548210e+01 -5.198342e-01 4.530942e-01 1.161326e+00 9.474251e-01 5.758288e-01 1.081818e-01 4.350763e-01 6.645014e-01 -1.897590e-01 -4.468156e-01 -4.574092e-01 -5.651156e-01 -8.359175e-01 -2.272561e-01 3.606769e-01 3.726126e-01 4.466926e-01 7.152095e-02 7.971616e-02 1.768209e-01 4.252353e-01 -1.203008e-01 -4.390991e-01 -3.375239e-01 -1.930331e-01 -5.514593e-01
<VARIANCE> 39
 8.520881e+00 1.743400e+01 2.667042e+01 3.147595e+01 4.212079e+01 3.726212e+01 4.082957e+01 4.359870e+01 3.019596e+01 2.825648e+01 2.451382e+01 3.469786e+01 1.029060e+01 9.002296e-01 1.502272e+00 1.934950e+00 2.945581e+00 2.100663e+00 2.073745e+00 2.446599e+00 2.988961e+00 2.729197e+00 2.777330e+00 2.141586e+00 1.797354e+00 1.260702e+00 1.878620e-01 2.575607e-01 3.041942e-01 4.057834e-01 3.202296e-01 3.542936e-01 3.732719e-01 5.289482e-01 4.652453e-01 3.991616e-01 3.780829e-01 3.127473e-01 1.484876e-01
<GCONST> 1.085435e+02
<STATE> 4
<MEAN> 39
 -1.007299e+01 -2.029137e+00 8.641070e+00 -4.279290e-01 7.798983e+00 -4.259342e-02 -8.075257e+00 -2.062050e+01 -4.451361e+00 8.232999e-01 -3.228626e+00 -3.050575e+00 7.666660e+01 -1.936813e+00 1.094031e+00 1.681356e+00 2.701023e+00 -1.314201e-01 2.831605e-01 1.778719e+00 3.527900e+00 3.796217e-01 -1.001948e+00 -8.259240e-01 -7.318976e-01 -2.837263e+00 -1.457493e-01 -1.765468e-01 -5.354576e-01 -5.596130e-01 -4.352009e-01 4.432983e-02 2.391615e-01 2.416264e-01 1.337819e-01 2.079863e-03 1.464463e-01 1.811480e-01 9.350026e-02
<VARIANCE> 39
 3.158038e+01 2.097198e+01 4.210179e+01 8.026476e+01 6.555407e+01 3.675606e+01 6.254622e+01 6.965484e+01 4.268452e+01 3.579753e+01 3.828040e+01 4.679035e+01 4.788160e+01 3.148146e+00 2.809666e+00 3.274184e+00 4.680921e+00 3.436767e+00 2.460599e+00 3.347098e+00 4.543979e+00 2.800629e+00 2.802492e+00 3.721414e+00 2.929435e+00 2.466056e+00 3.693923e-01 3.712949e-01 5.690121e-01 8.544702e-01 6.315875e-01 4.199588e-01 7.009306e-01 1.117922e+00 5.759504e-01 5.201094e-01 5.228373e-01 5.379924e-01 3.639283e-01
<GCONST> 1.285108e+02
<TRANSP> 5
 0.000000e+00 1.000000e+00 0.000000e+00 0.000000e+00 0.000000e+00
 0.000000e+00 5.970774e-01 4.029226e-01 0.000000e+00 0.000000e+00
 0.000000e+00 0.000000e+00 7.834614e-01 2.165386e-01 0.000000e+00
 0.000000e+00 0.000000e+00 0.000000e+00 5.734138e-01 4.265862e-01
 0.000000e+00 0.000000e+00 0.000000e+00 0.000000e+00 0.000000e+00
<ENDHMM>
~h "H"
<BEGINHMM>
<NUMSTATES> 5
<STATE> 2
<MEAN> 39
 -3.084079e+00 -1.846309e+00 4.218153e+00 -9.717334e+00 3.531993e+00 -2.306212e+00 -5.782293e+00 -1.498855e+01 -1.335996e+01 -1.033203e+01 -1.116373e+01 -3.958751e+00 7.826643e+01 3.285265e-01 1.183080e+00 -5.586143e-01 1.377916e+00 4.077475e-01 2.095819e-01 1.798968e-01 1.080187e+00 8.692697e-01 3.365382e-01 -2.793671e-01 -1.965847e-01 -1.174276e+00 -7.670127e-01 7.376146e-02 4.024712e-01 6.659593e-01 1.679810e-01 6.150243e-02 2.454741e-01 2.910082e-01 6.272790e-01 2.478207e-01 4.386159e-01 4.838829e-02 -3.589076e-01
<VARIANCE> 39
 7.014305e+00 1.027891e+01 2.647574e+01 2.270133e+01 3.691308e+01 2.709391e+01 3.781327e+01 4.207878e+01 3.422927e+01 2.573274e+01 2.023589e+01 2.468073e+01 1.024069e+01 3.914626e+00 1.219649e+00 3.251072e+00 3.964284e+00 1.590794e+00 1.530997e+00 3.241672e+00 3.438265e+00 4.466581e+00 2.083949e+00 3.507619e+00 1.988162e+00 9.707424e-01 6.413437e-01 2.879760e-01 3.825943e-01 3.157014e-01 3.324834e-01 3.014714e-01 6.421237e-01 7.209873e-01 8.079916e-01 3.943867e-01 5.233624e-01 3.523167e-01 7.721812e-02
<GCONST> 1.112502e+02
<STATE> 3
<MEAN> 39
 -6.030805e+00 6.428122e+00 6.784023e+00 3.856771e+00 8.811954e+00 1.114844e+00 -6.394925e+00 -1.067038e+01 -5.393759e+00 -6.836917e+00 -9.469926e+00 -4.884058e+00 6.887585e+01 -4.070528e-01 1.034717e+00 5.422435e-01 9.925913e-01 4.604690e-01 4.167551e-01 -5.045331e-01 -1.391252e-01 6.194079e-01 4.853024e-01 1.548712e-01 -2.440600e-01 -9.543195e-01 -8.497378e-04 -1.322585e-01 -1.275524e-02 -4.291067e-01 -1.777468e-01 -6.688741e-02 -1.870327e-02 -1.333388e-01 -2.513487e-01 -7.379259e-02 -1.584298e-03 5.499065e-02 1.608068e-01
<VARIANCE> 39
 4.656179e+00 1.071944e+01 1.379483e+01 1.420260e+01 1.566724e+01 1.594023e+01 2.340792e+01 1.857866e+01 1.571339e+01 2.074935e+01 1.645720e+01 1.545185e+01 5.391385e+00 2.088060e-01 8.323918e-01 1.088055e+00 2.731963e+00 1.590528e+00 9.375376e-01 1.311560e+00 1.524453e+00 1.409459e+00 9.395365e-01 1.019483e+00 9.801478e-01 4.795878e-01 3.796206e-02 1.108269e-01 1.685217e-01 3.440765e-01 2.060116e-01 1.524439e-01 2.523375e-01 3.394518e-01 2.213222e-01 1.627287e-01 1.945643e-01 1.617034e-01 6.499165e-02
<GCONST> 8.169527e+01
<STATE> 4
<MEAN> 39
 -1.135403e+01 9.312821e+00 8.465781e+00 4.837273e+00 7.572668e+00 3.547242e+00 -5.638079e+00 -8.868179e+00 -4.618037e+00 -4.789092e+00 -7.047903e+00 -4.611459e+00 6.267130e+01 -7.455658e-01 -3.865933e-01 -3.705024e-01 -1.408282e-01 -5.478935e-01 -1.326081e-01 2.983871e-01 7.977832e-01 -6.908430e-02 1.526359e-02 6.558621e-01 1.867412e-01 -6.416596e-01 -1.012963e-01 -3.802234e-01 -1.266132e-01 -1.291887e-01 -1.216378e-01 -7.101005e-02 1.901149e-01 1.176937e-01 1.872188e-02 -8.438090e-04 1.052458e-01 1.363620e-01 1.078744e-01
<VARIANCE> 39
 1.311800e+01 1.705527e+01 2.476427e+01 1.253120e+01 1.300364e+01 2.053386e+01 2.961990e+01 2.806949e+01 1.262358e+01 1.451804e+01 1.718851e+01 1.479314e+01 1.235841e+01 5.324938e-01 1.587196e+00 2.007761e+00 1.275460e+00 1.458478e+00 1.983130e+00 2.271278e+00 1.658118e+00 1.265318e+00 1.093360e+00 1.152668e+00 1.030974e+00 4.713343e-01 1.378664e-01 4.262211e-01 3.627570e-01 2.998572e-01 2.526700e-01 4.076852e-01 5.565772e-01 3.567470e-01 2.684824e-01 2.427363e-01 2.309746e-01 2.041260e-01 1.271172e-01
<GCONST> 9.451437e+01
<TRANSP> 5
 0.000000e+00 1.000000e+00 0.000000e+00 0.000000e+00 0.000000e+00
 0.000000e+00 8.126368e-01 1.873632e-01 0.000000e+00 0.000000e+00
 0.000000e+00 0.000000e+00 8.490768e-01 1.509232e-01 0.000000e+00
 0.000000e+00 0.000000e+00 0.000000e+00 8.645314e-01 1.354686e-01
 0.000000e+00 0.000000e+00 0.000000e+00 0.000000e+00 0.000000e+00
<ENDHMM>
~h "I"
<BEGINHMM>
<NUMSTATES> 5
<STATE> 2
<MEAN> 39
 -5.987494e+00 -3.858900e+00 6.785235e+00 -4.320726e+00 1.000704e+01 5.165411e-01 -1.259992e+01 -2.628846e+01 -1.149220e+01 -4.929673e+00 -5.368195e+00 -3.791788e+00 7.944546e+01 1.787553e+00 -5.752748e-02 -4.125549e-01 7.426059e-01 1.226442e+00 -3.733265e-01 -2.012338e+00 -2.155419e+00 -5.070891e-01 4.818373e-01 -6.591638e-01 -4.052293e-01 1.015966e+00 -9.144931e-01 -1.367425e-01 1.109910e-02 1.515552e-01 -4.724732e-01 -2.362922e-01 6.070663e-01 1.125031e+00 6.195917e-01 -3.325210e-02 8.369010e-02 6.826355e-02 -5.257233e-01
<VARIANCE> 39
 3.013738e+01 1.832055e+01 4.391351e+01 3.954451e+01 4.182397e+01 3.008427e+01 4.311278e+01 5.238149e+01 4.927593e+01 5.485104e+01 2.432099e+01 2.692710e+01 2.585468e+01 6.594013e+00 2.945230e+00 4.670266e+00 3.646186e+00 3.159939e+00 3.207555e+00 3.829709e+00 7.715197e+00 3.289875e+00 3.497338e+00 3.540585e+00 2.366628e+00 3.199692e+00 8.541809e-01 5.180760e-01 7.277960e-01 5.692499e-01 4.640472e-01 4.512258e-01 6.296007e-01 1.009620e+00 6.302189e-01 5.450149e-01 6.125597e-01 3.865628e-01 3.422982e-01
<GCONST> 1.278901e+02
<STATE> 3
<MEAN> 39
 -5.633842e+00 -5.056251e+00 5.670094e+00 -7.242819e-01 1.207284e+01 -3.295878e+00 -1.546068e+01 -2.675890e+01 -9.999107e+00 -4.354091e+00 -7.333008e+00 -3.413138e+00 7.900922e+01 -8.051584e-01 4.307147e-01 8.672550e-01 1.085784e+00 3.044085e-02 -1.984076e-01 4.380799e-01 1.067820e+00 7.363451e-01 3.513496e-01 -1.372873e-01 -8.231792e-02 -9.038665e-01 -3.155010e-01 2.526620e-01 2.521878e-01 9.603913e-02 -2.285934e-01 2.269957e-01 4.573244e-01 6.614022e-01 1.954139e-01 -7.501337e-02 6.080370e-02 -1.600595e-02 -3.652041e-01
<VARIANCE> 39
 1.039267e+01 1.870984e+01 3.294042e+01 5.409645e+01 4.657169e+01 3.641772e+01 4.791952e+01 5.499988e+01 4.257359e+01 4.817343e+01 2.845130e+01 4.559763e+01 1.612819e+01 1.074040e+00 1.326749e+00 2.092867e+00 2.975745e+00 1.658938e+00 1.890092e+00 2.207471e+00 3.671456e+00 2.136409e+00 2.032425e+00 1.822133e+00 2.052459e+00 1.182213e+00 2.362809e-01 2.522989e-01 3.342350e-01 3.939766e-01 3.117741e-01 3.025618e-01 4.075872e-01 5.361504e-01 4.301187e-01 3.801679e-01 3.920139e-01 3.487630e-01 1.454212e-01
<GCONST> 1.112358e+02
<STATE> 4
<MEAN> 39
 -1.208676e+01 -2.069997e-01 1.139056e+01 5.034742e+00 1.109632e+01 -1.375572e+00 -1.329437e+01 -1.814261e+01 -4.519829e+00 -1.093253e+00 -7.980923e+00 -6.142456e+00 7.050003e+01 -1.408646e+00 5.429156e-01 1.246586e-01 4.587273e-01 -1.120049e+00 4.355228e-01 1.842003e+00 2.818011e+00 8.322686e-01 -7.647063e-02 5.105383e-01 8.511859e-02 -1.608971e+00 -9.685771e-02 -2.178220e-01 -3.675735e-01 -3.946188e-01 -1.828441e-01 5.472316e-02 2.407936e-01 4.020349e-02 1.783168e-02 -1.416162e-01 1.298360e-01 1.082591e-01 9.869781e-02
<VARIANCE> 39
 2.404228e+01 1.815441e+01 4.058845e+01 5.109590e+01 4.457299e+01 3.017487e+01 5.620365e+01 6.080966e+01 3.764587e+01 4.381713e+01 3.094254e+01 3.576696e+01 5.106260e+01 2.805221e+00 2.444252e+00 4.156736e+00 4.169520e+00 2.408391e+00 2.036035e+00 3.261083e+00 4.693548e+00 3.052070e+00 2.680249e+00 2.620255e+00 2.077476e+00 1.879924e+00 2.006281e-01 2.945784e-01 4.698574e-01 4.442676e-01 3.485749e-01 3.970538e-01 4.378699e-01 5.271052e-01 4.067326e-01 4.224726e-01 3.672231e-01 3.075358e-01 1.336139e-01
<GCONST> 1.188139e+02
<TRANSP> 5
 0.000000e+00 1.000000e+00 0.000000e+00 0.000000e+00 0.000000e+00
 0.000000e+00 5.986973e-01 4.013027e-01 0.000000e+00 0.000000e+00
 0.000000e+00 0.000000e+00 7.553633e-01 2.446367e-01 0.000000e+00
 0.000000e+00 0.000000e+00 0.000000e+00 6.159120e-01 3.840880e-01
 0.000000e+00 0.000000e+00 0.000000e+00 0.000000e+00 0.000000e+00
<ENDHMM>
~h "J"
<BEGINHMM>
<NUMSTATES> 5
<STATE> 2
<MEAN> 39
 -1.983028e+01 -7.642912e+00 5.859833e+00 -4.627739e-01 2.517864e+00 1.612611e+00 -4.482072e+00 -8.310638e+00 -1.714378e+00 -4.135035e+00 -5.195865e+00 -1.770604e+00 6.507905e+01 -2.003993e+00 -3.397819e+00 1.350380e+00 -1.243473e+00 3.740874e-01 -4.402756e-01 1.673158e-02 -4.893900e-01 1.001925e+00 -1.349189e-01 7.149881e-02 2.659386e-01 2.065356e+00 -2.654002e-01 -1.922924e-01 3.203269e-01 -1.601085e-01 1.649181e-01 -3.853365e-01 -6.047415e-02 -3.009130e-01 5.412623e-02 1.179688e-01 1.541957e-01 8.788077e-03 5.248297e-01
<VARIANCE> 39
 2.384313e+01 9.016126e+01 6.811436e+01 5.491317e+01 3.918027e+01 3.471920e+01 3.219693e+01 3.867485e+01 2.236701e+01 2.042581e+01 1.753397e+01 1.522757e+01 4.816013e+01 3.761251e+00 7.753384e+00 8.528403e+00 5.257224e+00 4.045696e+00 3.733138e+00 3.861375e+00 6.831522e+00 2.929323e+00 2.868117e+00 2.297596e+00 1.936368e+00 7.396788e+00 7.133759e-01 1.498546e+00 1.388218e+00 1.456500e+00 7.032731e-01 6.208167e-01 8.420796e-01 1.123781e+00 5.545697e-01 5.542870e-01 4.868873e-01 3.318064e-01 1.010102e+00
<GCONST> 1.331858e+02
<STATE> 3
<MEAN> 39
 -3.015472e+01 -2.289873e+01 1.128637e+01 -4.331350e+00 6.128647e+00 -4.784304e+00 -5.354985e+00 -1.419007e+01 2.113891e+00 -2.454115e+00 -3.302335e+00 -1.036639e+00 7.836430e+01 -6.110088e-02 -4.690951e-01 -5.315983e-01 -1.112326e-01 3.627602e-01 -6.948363e-01 -5.486374e-01 -9.158828e-01 -3.379048e-01 1.466829e-01 7.154401e-02 -2.582521e-02 8.330324e-01 6.911843e-01 6.443294e-01 -3.129371e-01 1.144664e-01 -6.689809e-02 2.246696e-01 -1.184005e-01 3.929482e-02 -4.029036e-01 -1.435088e-01 -9.492069e-02 1.584093e-02 -4.611876e-01
<VARIANCE> 39
 5.580108e+00 8.589462e+00 2.255495e+01 1.691059e+01 2.187113e+01 2.621993e+01 2.752197e+01 3.205693e+01 1.793769e+01 1.387826e+01 1.086071e+01 1.396284e+01 1.216376e+01 2.783919e+00 1.522433e+00 3.065858e+00 1.155671e+00 1.229466e+00 1.385610e+00 1.818936e+00 1.942407e+00 2.098122e+00 1.342895e+00 1.161371e+00 8.726665e-01 1.475494e+00 3.670605e-01 3.271490e-01 9.856330e-01 2.788671e-01 2.583969e-01 2.267601e-01 3.229627e-01 3.384950e-01 3.257839e-01 2.344042e-01 1.994377e-01 1.875781e-01 8.069568e-02
<GCONST> 9.676787e+01
<STATE> 4
<MEAN> 39
 -2.175090e+01 -1.717220e+01 8.167557e+00 -3.403186e+00 6.938378e+00 -3.304373e+00 -8.468376e+00 -1.764917e+01 -5.426171e+00 -3.875472e+00 -3.856229e+00 8.212841e-02 7.565039e+01 2.890141e+00 2.818366e+00 1.361492e-01 7.407343e-01 -2.073948e-01 1.090333e+00 1.637751e-01 4.015636e-01 -1.557581e+00 -2.435728e-01 -1.767069e-01 4.798494e-01 -1.094926e+00 2.424092e-01 3.031924e-01 -1.737699e-01 -9.146275e-02 -3.015982e-01 1.332932e-01 1.102760e-01 1.774833e-01 1.681583e-01 8.990470e-02 -3.952835e-02 -2.930966e-02 -6.862268e-03
<VARIANCE> 39
 5.430642e+01 4.320354e+01 3.241942e+01 3.240777e+01 2.547494e+01 2.653202e+01 3.109264e+01 6.374768e+01 4.280889e+01 1.704323e+01 1.539612e+01 1.629628e+01 5.025941e+01 6.766139e+00 3.000983e+00 2.392612e+00 2.398842e+00 3.365978e+00 2.084314e+00 3.165268e+00 6.872629e+00 5.414098e+00 2.077654e+00 1.632208e+00 1.480140e+00 1.950037e+00 6.805435e-01 6.581845e-01 5.537327e-01 4.465906e-01 3.399525e-01 4.878008e-01 4.720976e-01 7.551286e-01 6.602513e-01 3.086198e-01 2.533805e-01 2.727385e-01 1.984529e-01
<GCONST> 1.193853e+02
<TRANSP> 5
 0.000000e+00 1.000000e+00 0.000000e+00 0.000000e+00 0.000000e+00
 0.000000e+00 7.867339e-01 2.132660e-01 0.000000e+00 0.000000e+00
 0.000000e+00 0.000000e+00 8.575701e-01 1.424299e-01 0.000000e+00
 0.000000e+00 0.000000e+00 0.000000e+00 7.712216e-01 2.287784e-01
 0.000000e+00 0.000000e+00 0.000000e+00 0.000000e+00 0.000000e+00
<ENDHMM>
~h "N"
<BEGINHMM>
<NUMSTATES> 5
<STATE> 2
<MEAN> 39
 -8.574059e+00 -2.302853e+00 9.622561e+00 4.930630e+00 1.081166e+01 -4.209171e+00 -1.322596e+01 -1.768495e+01 3.351206e+00 3.686138e+00 -1.074361e+01 -1.063663e+01 7.441462e+01 2.054956e-01 2.027484e+00 8.071919e-02 -3.208263e-01 -1.081916e+00 1.506871e+00 1.749952e+00 2.073835e+00 -5.825601e-01 -1.722713e+00 -1.114691e+00 -1.456803e-01 -1.537477e+00 2.552045e-01 2.455382e-01 -5.954071e-01 -3.907378e-01 -1.196877e-01 3.151521e-01 1.887184e-01 -3.351356e-01 -7.640064e-01 -5.246629e-01 4.289638e-01 5.970035e-01 -4.482927e-02
<VARIANCE> 39
 7.290441e+00 2.618115e+01 2.027379e+01 2.239761e+01 2.599104e+01 3.468150e+01 4.065631e+01 3.762209e+01 2.423250e+01 2.667563e+01 2.311509e+01 2.221088e+01 1.628494e+01 5.690327e-01 9.599873e-01 2.504155e+00 1.498702e+00 1.486557e+00 1.727316e+00 1.979614e+00 2.414963e+00 4.479223e+00 2.822577e+00 2.217729e+00 3.294254e+00 2.692752e-01 6.732774e-02 1.578786e-01 2.285741e-01 2.441889e-01 2.420296e-01 3.289169e-01 3.508118e-01 3.912972e-01 5.440099e-01 5.212660e-01 4.968791e-01 3.952026e-01 4.437887e-02
<GCONST> 1.011765e+02
<STATE> 3
<MEAN> 39
 -6.949543e+00 8.211896e+00 5.237927e+00 2.209970e+00 6.546391e+00 3.653411e+00 -6.417015e+00 -1.228688e+01 -3.980172e+00 -5.800548e+00 -8.963264e+00 -6.645459e+00 6.658279e+01 -4.210448e-01 7.645388e-01 -1.062759e-01 1.177752e-01 3.086954e-03 5.317640e-01 3.454094e-01 5.615109e-01 -4.163123e-01 -4.523070e-01 5.687698e-01 2.826139e-01 -9.486494e-01 -3.128265e-01 -3.520262e-01 1.912581e-01 6.610753e-02 2.028555e-01 -1.941852e-01 -1.040106e-01 5.484543e-02 2.145889e-01 3.083996e-01 4.314832e-02 -1.306629e-01 1.008172e-01
<VARIANCE> 39
 1.175522e+01 1.501172e+01 1.941629e+01 1.294002e+01 1.383917e+01 1.514299e+01 1.499526e+01 1.643679e+01 1.287104e+01 1.473524e+01 1.137655e+01 1.601535e+01 1.828340e+01 8.133469e-01 1.300227e+00 1.871175e+00 1.149145e+00 1.120518e+00 1.447133e+00 1.433921e+00 1.124777e+00 1.298493e+00 1.490443e+00 9.339450e-01 1.208655e+00 3.353536e-01 1.039445e-01 1.424415e-01 3.123789e-01 2.606870e-01 2.546141e-01 2.732854e-01 3.741532e-01 2.607040e-01 2.505544e-01 2.270408e-01 1.990153e-01 2.282092e-01 5.963713e-02
<GCONST> 8.756570e+01
<STATE> 4
<MEAN> 39
 -1.809077e+01 4.454724e+00 6.344642e+00 -1.496889e+00 9.211141e+00 3.935655e+00 -2.970222e+00 -6.014566e+00 -5.385281e+00 -5.014733e+00 -2.719880e+00 -4.036977e+00 6.227818e+01 -1.223363e+00 -1.061720e+00 -5.717568e-01 -5.843433e-01 -3.877316e-01 -3.409650e-01 4.317787e-01 7.415992e-01 2.828822e-02 3.931514e-01 8.152997e-01 5.615930e-01 -5.210284e-01 1.466385e-01 -2.350033e-02 -1.884326e-01 3.566900e-02 -2.800757e-01 -1.038164e-01 -2.603392e-02 -8.198116e-03 1.226447e-01 3.279677e-02 -8.121318e-02 6.767641e-02 -3.575705e-02
<VARIANCE> 39
 3.747964e+01 3.053326e+01 3.925815e+01 4.137600e+01 3.901069e+01 2.724294e+01 2.360804e+01 3.306589e+01 1.714347e+01 1.880909e+01 2.383925e+01 2.146819e+01 2.119907e+01 3.613578e+00 2.049724e+00 4.401322e+00 4.657696e+00 5.425151e+00 2.789418e+00 2.371766e+00 3.881256e+00 2.249567e+00 1.947676e+00 2.412019e+00 1.610378e+00 2.068406e+00 6.329042e-01 5.204161e-01 8.615131e-01 9.838508e-01 8.581783e-01 6.171340e-01 4.323985e-01 7.796015e-01 4.445487e-01 3.945053e-01 4.749192e-01 3.258354e-01 4.100324e-01
<GCONST> 1.208326e+02
<TRANSP> 5
 0.000000e+00 1.000000e+00 0.000000e+00 0.000000e+00 0.000000e+00
 0.000000e+00 7.595873e-01 2.404127e-01 0.000000e+00 0.000000e+00
 0.000000e+00 0.000000e+00 8.705882e-01 1.294118e-01 0.000000e+00
 0.000000e+00 0.000000e+00 0.000000e+00 8.360372e-01 1.639628e-01
 0.000000e+00 0.000000e+00 0.000000e+00 0.000000e+00 0.000000e+00
<ENDHMM>
~h "P"
<BEGINHMM>
<NUMSTATES> 5
<STATE> 2
<MEAN> 39
 -1.152343e+00 4.331152e+00 1.015281e+01 -5.933679e+00 -9.380701e+00 -1.738096e+01 -1.982388e+01 -8.297047e+00 -3.717196e+00 -1.014995e+01 -8.087838e+00 -4.264677e+00 7.557729e+01 1.536904e-01 5.592406e-01 3.277448e-01 1.170854e+00 -5.445598e-01 -1.547507e+00 -1.735685e+00 7.086781e-01 -4.794990e-01 4.493262e-02 6.472486e-01 6.922066e-01 -7.609815e-01 -4.075883e-01 1.140241e-02 -1.497574e-02 7.585824e-02 2.881814e-01 3.857574e-01 5.632100e-01 -3.481088e-02 -2.355934e-01 3.167816e-02 2.755194e-01 1.194896e-01 -1.577269e-01
<VARIANCE> 39
 4.307913e+00 1.497056e+01 2.116896e+01 3.062404e+01 1.970817e+01 4.060379e+01 4.999684e+01 3.280528e+01 2.274477e+01 2.538997e+01 3.108748e+01 2.664849e+01 9.541150e+00 1.205320e+00 9.064480e-01 1.212379e+00 1.372846e+00 1.414340e+00 2.064282e+00 3.625335e+00 1.708345e+00 1.894718e+00 2.083995e+00 2.195918e+00 1.450209e+00 3.850807e-01 3.167715e-01 2.019808e-01 2.033428e-01 3.184360e-01 2.358274e-01 3.125382e-01 3.980867e-01 3.283887e-01 2.594099e-01 3.368079e-01 4.983168e-01 3.099289e-01 5.962431e-02
<GCONST> 9.955574e+01
<STATE> 3
<MEAN> 39
 -3.643470e+00 1.017850e+01 1.282065e+01 1.338798e+00 -9.731206e+00 -2.011465e+01 -2.030350e+01 -6.645626e+00 -1.039346e+01 -9.996908e+00 -3.106167e+00 -1.357009e-01 6.878048e+01 -4.378218e-01 4.954269e-01 1.435838e-01 4.973657e-01 2.022897e-01 5.427088e-01 7.391426e-01 -6.191249e-02 -3.307664e-01 1.894515e-01 2.698449e-01 7.099374e-02 -6.902281e-01 -1.503796e-01 -2.013708e-01 -6.692457e-02 -9.662311e-02 1.692806e-01 2.749863e-01 2.263738e-01 2.627634e-02 2.601266e-01 1.041114e-01 -4.867673e-02 -8.614498e-02 2.952486e-02
<VARIANCE> 39
 3.413598e+00 1.447372e+01 1.721821e+01 1.899058e+01 1.673623e+01 2.254840e+01 2.336311e+01 2.914615e+01 2.119561e+01 3.347575e+01 1.402170e+01 1.703794e+01 6.623089e+00 3.091901e-01 8.328167e-01 7.902133e-01 8.050310e-01 9.714210e-01 1.228156e+00 1.112527e+00 1.202102e+00 1.231613e+00 1.031378e+00 7.530969e-01 7.755604e-01 2.560484e-01 1.056188e-01 1.800489e-01 1.568891e-01 1.489240e-01 2.456165e-01 2.314583e-01 2.275714e-01 2.486710e-01 1.884733e-01 2.068715e-01 1.675035e-01 1.420660e-01 4.291674e-02
<GCONST> 8.116304e+01
<STATE> 4
<MEAN> 39
 -1.194281e+01 7.749086e+00 8.366011e+00 2.302430e+00 -4.569540e+00 -9.927942e+00 -1.120425e+01 -5.068821e+00 -5.171463e+00 -4.277722e+00 -1.536774e+00 -7.748213e-01 6.201867e+01 -1.851031e+00 -1.436056e+00 -1.068184e+00 -2.455567e-01 1.179264e+00 1.850367e+00 2.201994e+00 6.931651e-01 1.065563e+00 8.368709e-01 2.242783e-01 -7.936692e-02 -8.301700e-01 -1.157562e-01 -1.973340e-01 -1.208817e-01 -1.511944e-01 1.548687e-02 -1.312040e-02 9.225126e-02 -5.820248e-03 -1.263922e-02 -5.322246e-02 -8.492670e-03 4.958471e-02 6.996333e-02
<VARIANCE> 39
 2.001185e+01 2.206245e+01 3.452984e+01 1.493192e+01 1.937586e+01 2.975801e+01 2.932289e+01 2.438602e+01 2.997878e+01 2.780998e+01 1.381395e+01 1.185967e+01 1.716232e+01 1.278898e+00 1.745757e+00 1.773501e+00 1.215637e+00 3.258615e+00 3.068023e+00 2.902284e+00 2.665917e+00 2.721018e+00 2.260310e+00 1.350089e+00 1.048506e+00 6.376199e-01 3.182206e-01 4.552962e-01 3.454698e-01 2.476965e-01 4.411302e-01 5.501130e-01 5.617409e-01 4.966045e-01 5.340837e-01 3.998271e-01 2.260720e-01 1.884355e-01 8.448151e-02
<GCONST> 1.049895e+02
<TRANSP> 5
 0.000000e+00 1.000000e+00 0.000000e+00 0.000000e+00 0.000000e+00
 0.000000e+00 8.485796e-01 1.514203e-01 0.000000e+00 0.000000e+00
 0.000000e+00 0.000000e+00 8.838329e-01 1.161671e-01 0.000000e+00
 0.000000e+00 0.000000e+00 0.000000e+00 7.919849e-01 2.080151e-01
 0.000000e+00 0.000000e+00 0.000000e+00 0.000000e+00 0.000000e+00
<ENDHMM>
~h "Q"
<BEGINHMM>
<NUMSTATES> 5
<STATE> 2
<MEAN> 39
 -1.297245e+00 3.080578e-01 7.255110e+00 -1.164820e+01 -9.594227e+00 -1.240082e+01 -1.200706e+01 -9.451697e+00 1.650488e+00 -3.881302e+00 -7.530385e+00 -2.147915e+00 8.066463e+01 2.286895e+00 5.580752e-02 2.262125e-01 -6.143801e-01 -2.293429e+00 -2.577513e+00 -2.313644e+00 7.416329e-01 1.854445e+00 1.329779e+00 -4.704282e-01 1.704537e-01 1.167557e+00 -8.377756e-01 -2.873813e-01 -8.694085e-02 4.313398e-01 4.686326e-01 4.707486e-01 5.176692e-01 1.418906e-01 -2.945674e-01 -1.095407e-03 3.756907e-01 2.873875e-02 -4.508161e-01
<VARIANCE> 39
 2.156349e+01 2.194210e+01 2.548671e+01 3.334413e+01 3.913083e+01 6.194421e+01 6.440149e+01 5.210247e+01 4.293816e+01 4.850917e+01 3.304840e+01 2.518173e+01 2.142151e+01 5.573031e+00 2.702900e+00 2.401832e+00 2.911455e+00 3.888940e+00 4.587092e+00 4.676020e+00 4.467681e+00 4.901744e+00 3.101331e+00 3.060395e+00 2.318165e+00 3.154449e+00 7.065167e-01 4.556910e-01 4.064613e-01 4.565023e-01 6.002126e-01 8.541303e-01 9.156518e-01 7.658418e-01 8.882573e-01 8.190945e-01 6.607504e-01 4.931858e-01 2.860052e-01
<GCONST> 1.277987e+02
<STATE> 3
<MEAN> 39
 1.702362e-01 -7.424797e-02 8.478857e+00 -1.074697e+01 -1.384008e+01 -1.624942e+01 -1.619414e+01 -7.360472e+00 4.280718e+00 -5.732457e-01 -5.142203e+00 -1.966160e+00 8.065036e+01 -5.506194e-01 1.544216e-01 4.000944e-01 7.481334e-01 3.609859e-01 4.243098e-01 7.594886e-01 4.611328e-01 -2.973265e-01 -1.768873e-01 2.312898e-01 -6.401291e-02 -5.644854e-01 -4.661677e-01 1.595814e-01 -1.901517e-03 3.162807e-01 6.344856e-01 5.882638e-01 5.620430e-01 3.559172e-02 -2.853013e-01 -3.323425e-01 4.028974e-03 -7.476008e-02 -3.550732e-01
<VARIANCE> 39
 4.774656e+00 1.285410e+01 2.814009e+01 2.904273e+01 3.239743e+01 5.143683e+01 4.632693e+01 4.775923e+01 2.711015e+01 2.902873e+01 2.214831e+01 2.691289e+01 1.070323e+01 1.278847e+00 1.268655e+00 1.353404e+00 2.379222e+00 3.035144e+00 3.543680e+00 3.225544e+00 2.607957e+00 2.479503e+00 2.457237e+00 2.092456e+00 1.711738e+00 1.304617e+00 3.055311e-01 1.677626e-01 2.696770e-01 3.645571e-01 4.362424e-01 4.211570e-01 4.938656e-01 5.139436e-01 5.108200e-01 4.100039e-01 4.277101e-01 3.465324e-01 1.455269e-01
<GCONST> 1.088011e+02
<STATE> 4
<MEAN> 39
 -8.858832e+00 2.463787e+00 9.775303e+00 -3.657359e+00 -4.562346e+00 -7.844952e+00 -6.346286e+00 -4.423679e+00 1.101609e+00 -3.671309e+00 -3.875783e+00 -2.264173e+00 7.358128e+01 -3.011482e+00 1.923449e-03 -2.157400e-01 1.908575e+00 3.075250e+00 2.928506e+00 2.744861e+00 7.999811e-01 -9.700498e-01 -8.550224e-01 2.697856e-01 -3.266227e-03 -1.885800e+00 -2.444668e-02 -3.759596e-01 -3.868334e-01 -5.268891e-01 -1.845427e-01 1.217470e-02 -2.039754e-01 -2.707365e-01 -7.995100e-02 9.459407e-02 -4.447046e-02 2.747633e-02 1.686546e-01
<VARIANCE> 39
 5.450714e+01 2.886073e+01 2.873991e+01 4.613860e+01 6.374170e+01 5.856982e+01 5.439509e+01 4.416623e+01 5.096566e+01 3.565404e+01 2.707085e+01 2.171596e+01 6.184863e+01 3.909302e+00 2.217825e+00 3.013782e+00 4.079468e+00 3.735044e+00 3.247747e+00 3.888701e+00 4.274732e+00 3.966407e+00 2.903046e+00 3.242621e+00 2.349906e+00 2.433856e+00 4.633086e-01 3.489476e-01 4.753096e-01 7.647899e-01 7.888497e-01 7.015374e-01 7.700151e-01 8.324778e-01 8.967121e-01 4.994491e-01 5.002582e-01 3.246064e-01 3.392491e-01
<GCONST> 1.280103e+02
<TRANSP> 5
 0.000000e+00 1.000000e+00 0.000000e+00 0.000000e+00 0.000000e+00
 0.000000e+00 5.967845e-01 4.032155e-01 0.000000e+00 0.000000e+00
 0.000000e+00 0.000000e+00 8.222110e-01 1.777890e-01 0.000000e+00
 0.000000e+00 0.000000e+00 0.000000e+00 6.510185e-01 3.489815e-01
 0.000000e+00 0.000000e+00 0.000000e+00 0.000000e+00 0.000000e+00
<ENDHMM>
~h "R"
<BEGINHMM>
<NUMSTATES> 5
<STATE> 2
<MEAN> 39
 -2.710695e+00 -2.173492e+00 -1.638433e+00 -1.370212e+01 -3.282617e+00 -6.783067e+00 -5.409524e+00 -1.532701e+01 -4.208100e+00 -3.981965e+00 -8.605586e+00 7.703890e+00 7.774022e+01 -5.463536e-01 6.696703e-01 4.901937e-01 4.375156e-02 -3.245711e-02 5.566619e-01 4.515743e-01 4.991778e-01 5.600820e-01 7.198796e-01 1.336435e-01 4.787834e-01 -8.279893e-01 -1.658425e-01 1.184064e-01 1.908652e-01 1.402262e-01 1.611414e-01 3.533302e-01 -1.293119e-01 2.949741e-02 -1.506130e-02 1.159890e-02 1.177001e-01 -2.323491e-01 -2.262214e-01
<VARIANCE> 39
 5.214980e+00 1.650375e+01 2.008939e+01 1.959506e+01 4.597881e+01 2.880733e+01 3.171354e+01 3.695627e+01 4.521289e+01 2.679785e+01 2.029983e+01 2.981549e+01 6.858829e+00 3.204145e-01 1.016590e+00 1.239505e+00 9.627070e-01 1.157162e+00 1.604033e+00 1.257654e+00 1.558812e+00 1.237190e+00 1.211479e+00 1.054472e+00 1.353033e+00 4.279953e-01 5.924662e-02 2.067810e-01 2.063746e-01 1.825245e-01 1.993873e-01 2.032184e-01 2.136616e-01 2.840344e-01 1.940696e-01 2.069779e-01 2.220775e-01 1.786741e-01 5.771573e-02
<GCONST> 8.906916e+01
<STATE> 3
<MEAN> 39
 -7.855938e+00 1.477162e+00 1.934122e+00 -1.184144e+01 -1.295524e+00 8.852270e-01 -4.800798e+00 -1.175211e+01 -1.112621e+00 2.886503e-01 -5.262778e+00 7.876810e+00 7.061413e+01 -1.180187e+00 -3.268494e-01 -5.448124e-01 1.269272e+00 4.057973e-01 1.044453e+00 4.439922e-01 2.610701e+00 6.418818e-01 1.500492e-01 1.512969e+00 -2.227099e-02 -1.775367e+00 2.834629e-02 -3.857635e-01 -5.313367e-01 3.271056e-01 -1.032479e-01 -4.758727e-01 5.986989e-02 4.289608e-01 -2.675059e-01 -4.255512e-01 3.208199e-01 -8.270320e-02 -8.805133e-03
<VARIANCE> 39
 5.628606e+00 1.104714e+01 1.480318e+01 1.932506e+01 2.522693e+01 2.703926e+01 2.682993e+01 4.703909e+01 3.313607e+01 2.260764e+01 1.952222e+01 1.921914e+01 9.452109e+00 4.446474e-01 1.220263e+00 2.003310e+00 1.328846e+00 1.555873e+00 2.862516e+00 2.106049e+00 2.371464e+00 1.821889e+00 2.087472e+00 1.676689e+00 1.201949e+00 3.867268e-01 6.202326e-02 1.340395e-01 2.251108e-01 2.173885e-01 2.342440e-01 4.405363e-01 2.864147e-01 4.118872e-01 3.525740e-01 2.900076e-01 2.240388e-01 2.111913e-01 5.299074e-02
<GCONST> 9.399364e+01
<STATE> 4
<MEAN> 39
 -1.345289e+01 -1.581325e+00 -3.481542e+00 -3.185117e+00 -1.160579e+00 -4.527621e-01 -2.195285e+00 2.098015e-01 -2.837472e+00 -3.882663e+00 2.295063e+00 5.848506e+00 6.247754e+01 -1.697892e+00 1.567068e-01 -1.481949e-01 1.634915e+00 5.427662e-02 -2.859682e-01 6.604166e-01 1.088323e+00 -3.568754e-01 -4.433271e-01 5.143794e-01 -9.394942e-01 -1.896293e+00 -1.215162e-01 2.481140e-01 3.557462e-01 -2.391539e-01 3.174992e-02 7.161091e-02 -8.116957e-03 -5.103045e-01 1.906184e-01 3.394829e-01 -4.674071e-01 -1.118189e-01 2.527453e-02
<VARIANCE> 39
 1.204303e+01 1.224084e+01 1.094690e+01 1.948451e+01 1.330575e+01 2.252771e+01 1.991838e+01 1.834916e+01 1.770927e+01 1.814415e+01 1.475957e+01 1.483590e+01 1.441974e+01 4.093937e-01 1.126239e+00 1.329592e+00 1.261429e+00 1.149503e+00 1.645982e+00 1.744479e+00 2.446446e+00 2.290123e+00 2.555089e+00 2.337610e+00 1.146068e+00 2.357539e-01 8.611222e-02 1.627122e-01 1.629126e-01 2.301800e-01 2.087024e-01 3.536262e-01 3.607444e-01 3.135763e-01 4.237158e-01 3.947991e-01 2.901299e-01 2.432884e-01 6.748806e-02
<GCONST> 9.113438e+01
<TRANSP> 5
 0.000000e+00 1.000000e+00 0.000000e+00 0.000000e+00 0.000000e+00
 0.000000e+00 8.047771e-01 1.952229e-01 0.000000e+00 0.000000e+00
 0.000000e+00 0.000000e+00 7.540678e-01 2.459323e-01 0.000000e+00
 0.000000e+00 0.000000e+00 0.000000e+00 8.119642e-01 1.880358e-01
 0.000000e+00 0.000000e+00 0.000000e+00 0.000000e+00 0.000000e+00
<ENDHMM>
~h "S"
<BEGINHMM>
<NUMSTATES> 5
<STATE> 2
<MEAN> 39
 -2.340341e+01 -1.787420e+01 7.732535e+00 -2.220474e+00 1.066259e+01 1.568878e+00 -4.066228e+00 -1.557841e+01 -3.852544e-01 -3.082817e+00 -2.756961e+00 -1.540196e+00 7.745006e+01 -2.704202e+00 -2.899990e+00 7.599760e-01 -6.608815e-01 -3.178614e-01 -1.653265e+00 7.190111e-02 -1.813298e-01 9.662628e-01 9.835524e-02 1.744086e-01 -9.899356e-02 1.535806e+00 3.675458e-01 7.047493e-01 -1.741246e-01 -9.340712e-02 -4.013087e-01 -3.631241e-01 -2.805257e-01 -4.160424e-02 -9.255575e-02 8.539042e-02 -8.188344e-02 -2.547578e-02 -2.561972e-01
<VARIANCE> 39
 2.132000e+01 2.245343e+01 4.029874e+01 3.192540e+01 4.494270e+01 4.975375e+01 5.626936e+01 4.193845e+01 3.001199e+01 2.031983e+01 1.681840e+01 1.398960e+01 5.429003e+01 2.350773e+00 2.714095e+00 3.927308e+00 1.832685e+00 2.715286e+00 2.163784e+00 3.803026e+00 4.452835e+00 2.504619e+00 2.146368e+00 1.775828e+00 1.438445e+00 1.904259e+00 4.816144e-01 3.362396e-01 4.814516e-01 3.896494e-01 3.480044e-01 6.254069e-01 1.046417e+00 1.101470e+00 6.212429e-01 3.990853e-01 3.757059e-01 2.603131e-01 1.456006e-01
<GCONST> 1.175228e+02
<STATE> 3
<MEAN> 39
 -2.878747e+01 -2.270885e+01 7.785286e+00 -4.707410e+00 7.230072e+00 -5.987876e+00 -6.663029e+00 -1.761360e+01 -5.103422e-01 -2.996653e+00 -2.677151e+00 -1.881337e+00 8.064899e+01 3.807225e-01 2.305572e-01 -7.719603e-02 -1.106471e-01 -1.200053e-01 -2.347861e-01 -2.923361e-01 -2.910516e-01 -5.960305e-01 -2.662100e-01 -4.975697e-02 1.536238e-01 -1.058982e-01 5.446771e-01 4.130490e-01 4.416479e-02 1.110372e-01 1.376399e-01 2.904911e-01 3.631995e-02 2.966785e-02 -2.788661e-01 -9.362752e-02 -7.156047e-02 4.817710e-02 -1.529319e-01
<VARIANCE> 39
 5.653378e+00 6.304989e+00 1.662332e+01 1.725945e+01 1.994460e+01 2.304961e+01 2.604061e+01 3.069173e+01 1.943044e+01 1.499332e+01 1.207523e+01 1.657052e+01 9.264997e+00 1.885746e+00 1.273277e+00 1.086918e+00 1.067272e+00 1.015716e+00 1.472089e+00 1.362496e+00 1.803725e+00 1.688149e+00 1.351694e+00 9.432339e-01 8.714026e-01 7.279111e-01 3.609626e-01 2.394562e-01 2.049588e-01 1.769273e-01 1.690943e-01 2.265675e-01 2.416893e-01 3.393109e-01 3.296962e-01 2.582086e-01 2.088732e-01 1.878836e-01 4.233000e-02
<GCONST> 8.916877e+01
<STATE> 4
<MEAN> 39
 -1.461003e+01 -1.172779e+01 7.646660e+00 -4.267013e+00 8.553789e+00 -8.564756e-01 -7.409265e+00 -1.872565e+01 -1.056791e+01 -7.568218e+00 -4.481357e+00 8.450835e-01 7.708836e+01 4.305935e+00 3.240051e+00 -4.414298e-01 -5.530529e-02 -4.377810e-01 1.438414e+00 -4.072742e-01 2.101372e-01 -2.023180e+00 -6.826236e-01 -1.128739e+00 2.500798e-01 -5.822082e-01 -3.562834e-01 -2.012052e-01 -4.774104e-01 -2.329936e-01 -3.343855e-01 -1.759835e-01 -1.058976e-01 2.086109e-01 7.010038e-01 2.929871e-01 -5.638360e-02 -2.092745e-01 5.717353e-02
<VARIANCE> 39
 9.376521e+01 4.443482e+01 3.790129e+01 2.889977e+01 2.566893e+01 2.831262e+01 3.383123e+01 4.829359e+01 5.233062e+01 2.693046e+01 2.308465e+01 1.491484e+01 4.252257e+01 7.790649e+00 2.769054e+00 4.038760e+00 3.003391e+00 2.913770e+00 2.477759e+00 3.919592e+00 6.693180e+00 7.811602e+00 2.770462e+00 2.661180e+00 1.813294e+00 1.534062e+00 1.337061e+00 6.913109e-01 6.490748e-01 4.135731e-01 3.817049e-01 5.201284e-01 5.731234e-01 6.593915e-01 1.182686e+00 3.922103e-01 4.177940e-01 2.588587e-01 1.415473e-01
<GCONST> 1.247967e+02
<TRANSP> 5
 0.000000e+00 1.000000e+00 0.000000e+00 0.000000e+00 0.000000e+00
 0.000000e+00 7.459168e-01 2.540832e-01 0.000000e+00 0.000000e+00
 0.000000e+00 0.000000e+00 8.958526e-01 1.041474e-01 0.000000e+00
 0.000000e+00 0.000000e+00 0.000000e+00 7.255189e-01 2.744810e-01
 0.000000e+00 0.000000e+00 0.000000e+00 0.000000e+00 0.000000e+00
<ENDHMM>
~h "T"
<BEGINHMM>
<NUMSTATES> 5
<STATE> 2
<MEAN> 39
 -2.756797e+01 -2.063307e+00 3.016196e+00 -9.326302e+00 3.303457e+00 2.784557e+00 -2.792166e+00 -9.730656e+00 -8.368223e-01 -5.691341e+00 -5.231567e-01 -1.727170e+00 7.110958e+01 -1.958564e+00 -3.609899e-01 -4.971803e-01 -1.059981e+00 -9.209968e-02 2.978952e-03 4.053667e-03 -8.555672e-02 2.356016e-02 -2.085412e-01 1.937371e-01 -1.157689e-01 7.978848e-01 3.898259e-01 1.710234e-02 -1.236346e-03 6.719778e-02 -2.020960e-01 -2.462920e-01 -2.486055e-01 -1.171818e-01 -1.288342e-01 1.163967e-01 -1.444039e-01 -1.800084e-02 -8.040684e-02
<VARIANCE> 39
 3.176531e+01 1.293785e+01 4.644949e+01 3.262571e+01 3.286308e+01 3.291323e+01 3.806543e+01 4.329728e+01 2.608717e+01 1.878185e+01 1.494328e+01 1.411545e+01 4.709696e+01 3.650845e+00 1.452032e+00 2.844946e+00 3.306719e+00 2.912215e+00 2.778277e+00 3.098445e+00 4.408128e+00 2.375906e+00 2.060736e+00 1.726684e+00 1.418846e+00 2.371926e+00 5.370053e-01 2.740768e-01 5.280783e-01 6.239491e-01 4.908379e-01 5.203500e-01 6.862857e-01 8.933228e-01 4.404548e-01 4.047207e-01 3.511587e-01 2.377512e-01 2.867001e-01
<GCONST> 1.164363e+02
<STATE> 3
<MEAN> 39
 -3.168798e+01 -4.831893e+00 2.483600e+00 -1.411186e+01 1.708282e+00 1.261027e-02 -3.756934e+00 -1.136178e+01 -2.259075e+00 -6.611371e+00 -1.111809e+00 -1.345526e+00 7.427783e+01 2.190869e-01 -3.985793e-01 4.584666e-02 -2.936511e-01 -2.788920e-01 -4.693649e-01 -2.719518e-01 -2.095821e-01 -3.388420e-01 -1.030336e-01 -1.401096e-01 4.121133e-02 -2.831636e-02 4.857352e-01 8.675173e-02 1.952580e-01 2.458408e-01 1.198287e-01 8.433644e-02 8.795518e-02 2.699721e-02 -1.248148e-02 4.314490e-02 -2.868567e-02 -1.616376e-02 -1.410023e-01
<VARIANCE> 39
 9.102509e+00 1.344488e+01 3.087338e+01 2.091064e+01 1.702390e+01 2.240608e+01 2.597743e+01 3.137062e+01 2.187401e+01 1.797199e+01 1.099960e+01 1.217923e+01 1.844015e+01 1.417558e+00 7.198789e-01 1.084322e+00 1.411413e+00 1.270758e+00 1.460622e+00 1.557001e+00 1.965681e+00 1.442989e+00 1.179441e+00 1.021310e+00 8.711088e-01 1.274602e+00 3.188344e-01 1.815929e-01 2.258423e-01 2.860864e-01 2.839930e-01 2.804582e-01 3.060395e-01 3.884493e-01 2.997439e-01 2.660250e-01 2.170135e-01 1.829148e-01 1.344066e-01
<GCONST> 9.421752e+01
<STATE> 4
<MEAN> 39
 -2.444011e+01 -4.785912e+00 4.444201e+00 -1.146433e+01 1.752506e+00 -1.153310e+00 -4.423893e+00 -1.183511e+01 -4.377660e+00 -6.348088e+00 -2.157682e+00 -1.720322e+00 7.235361e+01 3.883719e+00 1.333480e+00 9.729012e-01 1.145618e+00 2.727361e-01 3.861683e-01 1.199786e-02 -1.587986e-01 -4.156970e-01 3.045882e-01 -8.006974e-01 -4.742189e-01 -3.463165e-01 6.485310e-01 3.542117e-01 -1.176020e-01 5.021608e-02 -9.006914e-02 2.086276e-01 -9.670869e-02 -5.910616e-02 9.704950e-02 6.723455e-02 -2.624635e-01 -1.605459e-01 1.893566e-01
<VARIANCE> 39
 3.581021e+01 2.218722e+01 3.574905e+01 2.411678e+01 1.932148e+01 1.867218e+01 2.493782e+01 2.986401e+01 2.036400e+01 1.627625e+01 1.444850e+01 1.608216e+01 4.892007e+01 7.837104e+00 2.759061e+00 3.192591e+00 2.891046e+00 3.338001e+00 2.167444e+00 2.990217e+00 6.156672e+00 3.397049e+00 2.535409e+00 2.331092e+00 1.477574e+00 2.641219e+00 1.035880e+00 5.770963e-01 5.371935e-01 5.223147e-01 5.597161e-01 3.966709e-01 5.946910e-01 6.610133e-01 6.011868e-01 4.827172e-01 4.975210e-01 3.048172e-01 1.835999e-01
<GCONST> 1.182645e+02
<TRANSP> 5
 0.000000e+00 1.000000e+00 0.000000e+00 0.000000e+00 0.000000e+00
 0.000000e+00 8.101482e-01 1.898517e-01 0.000000e+00 0.000000e+00
 0.000000e+00 0.000000e+00 8.391141e-01 1.608858e-01 0.000000e+00
 0.000000e+00 0.000000e+00 0.000000e+00 6.655076e-01 3.344923e-01
 0.000000e+00 0.000000e+00 0.000000e+00 0.000000e+00 0.000000e+00
<ENDHMM>
~h "U"
<BEGINHMM>
<NUMSTATES> 5
<STATE> 2
<MEAN> 39
 -8.880038e-01 2.198146e+00 6.901282e+00 -1.164530e+01 7.780173e-02 -1.223073e+00 -1.317129e+01 -1.516424e+01 -4.073894e+00 -1.075634e+01 -1.233892e+01 -6.195338e+00 7.950539e+01 1.538916e+00 5.170267e-01 1.185281e-01 -4.343337e-01 -1.379215e+00 -5.510550e-01 -1.821443e+00 4.150812e-01 1.086806e+00 -6.671216e-02 -1.394525e+00 -1.991456e-01 -1.040810e-02 -8.306357e-01 -3.543897e-01 -2.542183e-01 1.642197e-01 1.737621e-01 1.154799e-01 3.163152e-01 1.260499e-01 -1.965720e-01 -4.085262e-02 4.884533e-01 2.890537e-01 -2.662329e-01
<VARIANCE> 39
 7.356774e+00 2.595813e+01 2.306855e+01 3.722051e+01 5.136475e+01 5.381419e+01 4.237801e+01 4.251393e+01 8.048456e+01 3.612387e+01 2.684414e+01 2.794806e+01 1.690829e+01 4.122334e+00 2.200580e+00 1.993617e+00 2.097259e+00 2.348389e+00 2.857865e+00 4.186414e+00 4.403055e+00 3.388884e+00 2.451242e+00 3.223314e+00 1.958504e+00 1.357958e+00 5.297785e-01 4.078201e-01 3.577287e-01 3.476481e-01 4.351999e-01 5.483000e-01 7.379441e-01 7.631760e-01 7.851610e-01 5.287202e-01 4.307157e-01 4.688057e-01 2.501447e-01
<GCONST> 1.197596e+02
<STATE> 3
<MEAN> 39
 -4.417281e-01 2.096257e+00 5.713628e+00 -1.328447e+01 -2.423360e+00 -1.140506e+00 -1.552013e+01 -1.574325e+01 -2.470733e+00 -1.202944e+01 -1.405618e+01 -3.691405e+00 7.878459e+01 -4.771016e-01 6.780694e-02 -3.250175e-01 5.646781e-01 4.838098e-01 3.863031e-01 5.424356e-01 3.082887e-01 -6.165475e-01 -3.321569e-01 3.411160e-01 7.154593e-01 -7.721927e-01 -4.926017e-01 6.291442e-02 9.637909e-02 5.211475e-01 3.993016e-01 1.600462e-01 5.053214e-01 8.350378e-02 -1.680610e-01 2.640921e-01 4.807039e-01 1.261506e-01 -3.277340e-01
<VARIANCE> 39
 5.124344e+00 2.158619e+01 3.999546e+01 4.448763e+01 5.269666e+01 6.358220e+01 4.210223e+01 4.701454e+01 5.910625e+01 4.232730e+01 3.466262e+01 3.334035e+01 1.495071e+01 9.510696e-01 1.650672e+00 2.018332e+00 2.927190e+00 3.257968e+00 3.190716e+00 2.882618e+00 4.378948e+00 3.172628e+00 2.337970e+00 2.418979e+00 2.706932e+00 1.777482e+00 2.374678e-01 2.672898e-01 2.938632e-01 5.804344e-01 3.161286e-01 4.774008e-01 5.806184e-01 6.266757e-01 4.984192e-01 4.648708e-01 5.476841e-01 3.487740e-01 2.158200e-01
<GCONST> 1.166403e+02
<STATE> 4
<MEAN> 39
 -5.974829e+00 3.021995e+00 7.582562e+00 -5.315945e+00 2.421430e+00 1.338027e+00 -1.034227e+01 -1.311473e+01 -6.143070e+00 -1.058321e+01 -1.049383e+01 -1.548463e+00 7.259420e+01 -2.252058e+00 1.849787e-01 4.842519e-01 2.980555e+00 8.239470e-01 5.097877e-01 1.721877e+00 1.559021e+00 2.489889e-01 1.014462e+00 1.304510e+00 3.606825e-01 -2.240230e+00 -2.644309e-01 -4.230653e-01 -2.476968e-01 -2.498032e-01 -2.613167e-02 -1.992859e-01 1.686631e-01 -3.100541e-02 2.702453e-01 2.151074e-01 2.522571e-01 -1.717424e-01 2.424987e-01
<VARIANCE> 39
 2.730635e+01 2.836420e+01 4.889551e+01 6.993912e+01 6.453536e+01 8.698941e+01 5.883279e+01 5.586598e+01 5.044019e+01 5.096090e+01 5.118861e+01 3.182743e+01 3.833353e+01 3.075187e+00 2.971474e+00 2.588034e+00 5.021265e+00 3.782549e+00 3.805138e+00 4.311035e+00 5.849601e+00 3.574938e+00 2.916167e+00 4.673404e+00 2.618488e+00 4.013309e+00 2.886424e-01 3.650843e-01 6.470676e-01 9.917520e-01 5.424894e-01 9.042357e-01 6.895591e-01 9.046715e-01 7.479354e-01 5.852875e-01 6.626605e-01 4.716783e-01 3.806866e-01
<GCONST> 1.321683e+02
<TRANSP> 5
 0.000000e+00 1.000000e+00 0.000000e+00 0.000000e+00 0.000000e+00
 0.000000e+00 5.685669e-01 4.314331e-01 0.000000e+00 0.000000e+00
 0.000000e+00 0.000000e+00 6.550764e-01 3.449236e-01 0.000000e+00
 0.000000e+00 0.000000e+00 0.000000e+00 4.696823e-01 5.303177e-01
 0.000000e+00 0.000000e+00 0.000000e+00 0.000000e+00 0.000000e+00
<ENDHMM>
~h "V"
<BEGINHMM>
<NUMSTATES> 5
<STATE> 2
<MEAN> 39
 -2.476416e+00 -2.354030e+00 1.246850e+00 -1.623121e+01 -8.294077e+00 -2.468273e+00 -3.147418e+00 -1.148938e+01 1.691010e+00 -1.643421e+00 -8.172326e+00 -2.209368e+00 8.150083e+01 2.121519e+00 -7.394529e-01 -5.918243e-01 -1.493688e+00 -2.278506e+00 -9.870964e-01 1.223314e-01 9.629657e-01 2.037884e+00 9.526894e-01 -9.379935e-01 -3.707716e-01 2.177780e+00 -7.929237e-01 -1.998743e-01 1.806931e-01 5.423729e-01 4.659342e-01 8.316606e-02 1.004632e-01 4.307548e-01 -2.713616e-01 -2.399534e-01 3.118394e-01 -6.673147e-02 -5.380967e-01
<VARIANCE> 39
 3.069524e+01 1.969128e+01 3.270454e+01 3.288969e+01 4.150256e+01 3.922755e+01 5.185533e+01 4.474370e+01 6.158080e+01 3.792463e+01 3.140374e+01 2.189772e+01 3.873027e+01 5.215439e+00 2.926042e+00 2.475606e+00 3.398749e+00 2.951625e+00 3.180955e+00 3.371671e+00 5.819808e+00 3.725468e+00 2.743839e+00 2.812976e+00 2.514709e+00 4.352315e+00 7.026916e-01 5.200875e-01 4.804788e-01 4.266806e-01 5.475712e-01 5.422024e-01 6.943538e-01 7.224391e-01 8.314862e-01 6.160305e-01 5.260009e-01 4.134432e-01 4.201776e-01
<GCONST> 1.264183e+02
<STATE> 3
<MEAN> 39
 -4.954369e-01 -4.623370e+00 1.998674e+00 -1.711073e+01 -1.205578e+01 -5.051885e+00 -2.756876e+00 -7.308473e+00 5.608487e+00 -7.425327e-01 -8.502711e+00 -3.695219e+00 8.438039e+01 -3.307570e-01 3.367991e-01 9.366335e-01 8.273888e-01 4.441605e-01 -1.668563e-01 2.621313e-02 4.341120e-01 -3.417180e-01 -3.221124e-01 6.032206e-02 -6.895806e-02 -5.607249e-01 -3.644052e-01 4.314620e-01 3.251950e-01 6.647875e-01 7.070521e-01 2.041900e-01 -6.201328e-02 -2.189129e-01 -5.128238e-01 -3.303970e-01 5.600735e-02 5.080804e-02 -5.939389e-01
<VARIANCE> 39
 4.798646e+00 1.670668e+01 3.552199e+01 2.442620e+01 3.593456e+01 4.692616e+01 3.560294e+01 4.287890e+01 2.736192e+01 2.880624e+01 1.929305e+01 2.078170e+01 9.022937e+00 6.968247e-01 1.633900e+00 1.595045e+00 2.691969e+00 2.899666e+00 2.412045e+00 2.315180e+00 3.047248e+00 2.839416e+00 2.283744e+00 1.618683e+00 1.578836e+00 1.319840e+00 2.157771e-01 2.109012e-01 2.692451e-01 4.351903e-01 3.519114e-01 4.088889e-01 4.134483e-01 5.338282e-01 4.156916e-01 4.088839e-01 3.394315e-01 3.286130e-01 1.553073e-01
<GCONST> 1.065111e+02
<STATE> 4
<MEAN> 39
 -5.607260e+00 -3.428672e-01 7.842286e+00 -8.200043e+00 -4.571310e+00 -3.929002e+00 -2.837501e+00 -6.536797e+00 1.315295e+00 -3.934157e+00 -7.609691e+00 -3.296294e+00 7.718234e+01 -2.294203e+00 1.093061e+00 1.498433e+00 3.493562e+00 2.829265e+00 9.171527e-01 6.195333e-01 5.652574e-01 -1.223989e+00 -1.015110e+00 3.155479e-01 -5.440689e-02 -2.417652e+00 -2.388037e-01 -2.091822e-01 -3.992320e-01 -2.576172e-01 -3.983843e-02 2.631300e-01 1.330934e-01 -8.893354e-02 1.429643e-02 6.934170e-02 7.365741e-02 -3.430708e-02 1.049472e-01
<VARIANCE> 39
 2.828761e+01 2.593267e+01 3.490046e+01 4.839242e+01 5.194912e+01 4.129393e+01 3.793212e+01 4.755317e+01 4.023252e+01 4.007622e+01 2.522171e+01 2.969687e+01 3.364832e+01 3.314827e+00 2.578840e+00 2.768560e+00 4.466025e+00 2.816687e+00 2.847037e+00 3.604255e+00 3.445519e+00 2.484953e+00 2.622321e+00 2.867150e+00 1.851360e+00 2.148788e+00 3.529286e-01 2.687141e-01 4.319907e-01 8.896531e-01 6.584441e-01 4.954802e-01 5.556628e-01 6.814536e-01 5.559359e-01 5.059817e-01 4.184565e-01 3.653536e-01 2.477508e-01
<GCONST> 1.220210e+02
<TRANSP> 5
 0.000000e+00 1.000000e+00 0.000000e+00 0.000000e+00 0.000000e+00
 0.000000e+00 5.799463e-01 4.200536e-01 0.000000e+00 0.000000e+00
 0.000000e+00 0.000000e+00 7.914062e-01 2.085938e-01 0.000000e+00
 0.000000e+00 0.000000e+00 0.000000e+00 6.147155e-01 3.852845e-01
 0.000000e+00 0.000000e+00 0.000000e+00 0.000000e+00 0.000000e+00
<ENDHMM>
~h "_"
<BEGINHMM>
<NUMSTATES> 5
<STATE> 2
<MEAN> 39
 -1.532954e+01 -2.551785e+00 1.054065e+01 5.385293e+00 5.686296e+00 1.598808e+00 -4.860207e+00 -8.404274e+00 -2.631832e+00 -5.124422e+00 -4.741885e+00 -6.350883e-01 6.667566e+01 -2.629179e+00 -3.632145e+00 8.064747e-01 -1.371122e+00 -2.427982e-01 -1.218878e-04 1.172374e+00 1.264310e-01 1.259244e+00 -4.045047e-01 -1.189924e-01 8.916440e-02 1.464625e+00 -4.543979e-01 -7.341970e-01 3.872498e-02 -5.574110e-01 1.971812e-01 -2.657979e-01 -6.824223e-02 -4.304649e-01 1.292503e-01 1.247600e-01 9.000202e-02 -2.333518e-02 7.134264e-01
<VARIANCE> 39
 3.018788e+01 1.113215e+02 5.219509e+01 5.746719e+01 2.886887e+01 3.150786e+01 4.577150e+01 4.282514e+01 2.289572e+01 2.018876e+01 1.891611e+01 1.688089e+01 3.606376e+01 3.586399e+00 1.027823e+01 5.971325e+00 6.194987e+00 3.157686e+00 3.963824e+00 4.910423e+00 6.449750e+00 2.651674e+00 2.858441e+00 2.075427e+00 1.880944e+00 6.425159e+00 4.445759e-01 1.932819e+00 1.229478e+00 1.319172e+00 6.183181e-01 8.264378e-01 9.120724e-01 8.687198e-01 5.013357e-01 5.303577e-01 4.331119e-01 3.241221e-01 7.273480e-01
<GCONST> 1.319539e+02
<STATE> 3
<MEAN> 39
 -2.913881e+01 -2.128735e+01 1.365075e+01 -2.360122e+00 6.511665e+00 -3.778324e+00 -3.673674e+00 -1.268238e+01 2.131000e+00 -3.541414e+00 -3.803826e+00 1.429206e-01 7.711888e+01 3.114777e-01 -2.635278e-01 1.092361e-01 1.578428e-01 6.659107e-01 -6.177975e-01 -7.140877e-01 -1.151127e+00 -7.548975e-01 1.449788e-01 -1.260450e-02 -3.584680e-02 7.813364e-01 1.231284e+00 1.119220e+00 -2.925634e-01 3.994223e-01 8.393808e-02 3.563966e-01 -2.972105e-01 -1.543228e-01 -6.955371e-01 -1.606621e-01 -1.547239e-01 -4.583090e-02 -4.780796e-01
<VARIANCE> 39
 1.192405e+01 1.482412e+01 2.654563e+01 2.585746e+01 2.689438e+01 2.474378e+01 2.943582e+01 3.732103e+01 1.832768e+01 1.653518e+01 1.305189e+01 1.711639e+01 9.269370e+00 8.741266e+00 5.288517e+00 2.984839e+00 2.231525e+00 2.372780e+00 2.376064e+00 2.168493e+00 3.133356e+00 3.887350e+00 1.460394e+00 1.327161e+00 1.002657e+00 1.960982e+00 8.458901e-01 5.325726e-01 5.873017e-01 4.073695e-01 3.951249e-01 4.130420e-01 4.726288e-01 5.443909e-01 5.272223e-01 3.438849e-01 2.969100e-01 2.383982e-01 1.071588e-01
<GCONST> 1.103193e+02
<STATE> 4
<MEAN> 39
 -1.382850e+01 -1.040930e+01 1.069359e+01 5.608895e-01 9.389527e+00 -3.862297e-01 -9.146465e+00 -2.006010e+01 -1.020219e+01 -6.251463e+00 -5.521521e+00 2.515393e-02 7.609129e+01 3.306072e+00 2.684109e+00 -1.574807e+00 -3.097203e-01 -8.358086e-01 8.873103e-01 -7.671359e-01 -4.709346e-01 -1.759804e+00 -4.142006e-01 -2.052185e-01 3.389163e-01 -5.671137e-01 -6.000072e-01 -3.295896e-01 -5.041796e-01 -4.994028e-01 -6.386274e-01 -2.417139e-01 2.071875e-01 5.926215e-01 8.921765e-01 2.343184e-01 1.802982e-01 5.837303e-02 -7.131460e-02
<VARIANCE> 39
 8.473743e+01 3.651686e+01 4.879054e+01 2.528954e+01 4.428326e+01 2.302967e+01 3.771344e+01 7.428188e+01 5.269376e+01 2.085943e+01 1.368175e+01 2.218898e+01 6.238420e+01 7.377934e+00 2.643575e+00 4.175529e+00 3.657214e+00 4.975056e+00 2.189272e+00 4.662571e+00 9.314157e+00 8.373947e+00 2.615255e+00 2.419479e+00 2.071482e+00 2.115574e+00 6.907837e-01 5.194675e-01 6.707004e-01 4.196765e-01 6.145515e-01 4.358433e-01 6.048231e-01 8.196822e-01 1.080406e+00 2.929533e-01 2.939208e-01 3.595042e-01 1.024387e-01
<GCONST> 1.258644e+02
<TRANSP> 5
 0.000000e+00 1.000000e+00 0.000000e+00 0.000000e+00 0.000000e+00
 0.000000e+00 7.787995e-01 2.212005e-01 0.000000e+00 0.000000e+00
 0.000000e+00 0.000000e+00 8.351867e-01 1.648133e-01 0.000000e+00
 0.000000e+00 0.000000e+00 0.000000e+00 7.317175e-01 2.682825e-01
 0.000000e+00 0.000000e+00 0.000000e+00 0.000000e+00 0.000000e+00
<ENDHMM>
~h "b"
<BEGINHMM>
<NUMSTATES> 5
<STATE> 2
<MEAN> 39
 -1.174694e+01 9.068405e+00 8.390468e+00 4.885183e+00 8.140745e-01 3.944378e-01 -1.209331e+00 -3.333939e+00 -2.696382e+00 -3.304145e+00 -4.132638e+00 -3.260952e+00 6.148824e+01 -4.732556e-02 -2.182842e-01 -3.192346e-01 -1.119222e+00 3.510187e-01 2.836842e-01 -1.896215e-01 -1.174281e+00 -2.001993e-01 -6.040027e-01 2.865157e-01 -1.950988e-02 1.000283e+00 3.877227e-01 -6.491309e-01 -5.061644e-01 -1.000236e+00 3.172306e-02 -1.427205e-01 -5.086270e-01 -8.326848e-01 -1.456131e-01 -2.452032e-01 -1.096181e-01 -1.521006e-02 1.054631e+00
<VARIANCE> 39
 3.653406e+01 3.445873e+01 2.361158e+01 2.774650e+01 2.596315e+01 2.126897e+01 1.948121e+01 3.031972e+01 2.158251e+01 1.461291e+01 2.022088e+01 1.510495e+01 1.922845e+01 4.549973e+00 4.001598e+00 3.155222e+00 6.481934e+00 3.205208e+00 3.322570e+00 3.640680e+00 6.739501e+00 2.537415e+00 2.302080e+00 2.262167e+00 1.782861e+00 7.048116e+00 7.507113e-01 4.642438e-01 5.178412e-01 8.191602e-01 7.224532e-01 7.497413e-01 6.503286e-01 9.986050e-01 5.021329e-01 3.985644e-01 4.503281e-01 3.314283e-01 8.439655e-01
<GCONST> 1.223880e+02
<STATE> 3
<MEAN> 39
 -1.238076e+01 1.876220e+00 3.626152e+00 -7.075204e+00 3.703639e+00 2.794219e+00 -3.801534e+00 -1.367336e+01 -4.646805e+00 -7.630766e+00 -2.546298e+00 -3.807835e+00 7.204421e+01 3.142269e+00 -1.204800e+00 -8.550178e-01 -3.408109e+00 -7.248288e-02 -9.003509e-01 -2.631235e+00 -3.637032e+00 -8.613604e-01 -1.470739e+00 -1.142059e+00 -1.710495e-01 4.894287e+00 7.014648e-01 1.857582e-01 1.351719e-01 4.891919e-01 -6.511340e-01 -7.083091e-01 -4.783124e-01 5.741162e-01 2.053297e-01 2.251938e-01 -5.863174e-01 8.301552e-02 -1.527958e-01
<VARIANCE> 39
 2.635205e+01 2.039081e+01 2.010007e+01 2.903568e+01 3.207182e+01 3.968609e+01 4.010561e+01 3.760924e+01 2.561919e+01 2.031057e+01 2.180341e+01 2.083836e+01 2.386266e+01 4.570639e+00 4.195294e+00 4.383577e+00 4.484024e+00 5.239070e+00 5.507275e+00 3.854286e+00 6.724879e+00 4.156754e+00 2.882244e+00 3.426037e+00 2.679029e+00 3.731873e+00 5.444433e-01 6.423784e-01 5.547830e-01 6.099668e-01 6.003098e-01 7.484689e-01 9.782697e-01 9.499810e-01 6.464659e-01 5.629889e-01 5.415364e-01 4.569052e-01 5.824284e-01
<GCONST> 1.269575e+02
<STATE> 4
<MEAN> 39
 -4.138379e+00 9.918374e-01 2.714548e+00 -8.354824e+00 1.698408e+00 -2.767703e+00 -1.203381e+01 -1.705104e+01 -4.462523e+00 -7.205830e+00 -7.271193e+00 -4.533986e+00 7.791972e+01 2.256536e+00 -7.218171e-01 -3.496950e-01 -9.681471e-01 -1.085296e+00 -1.713452e+00 -2.129484e+00 -1.045126e+00 1.493787e-01 -2.343921e-01 -1.282880e+00 1.282615e-01 2.280118e+00 -6.157427e-01 1.230109e-01 2.917309e-01 8.196471e-01 -1.822938e-01 5.692214e-03 4.919884e-01 8.699436e-01 3.039233e-01 3.448388e-01 1.754396e-01 1.179191e-01 -9.651679e-01
<VARIANCE> 39
 3.128023e+01 2.880809e+01 4.880138e+01 4.949755e+01 8.496728e+01 6.774865e+01 7.986479e+01 8.652459e+01 4.745354e+01 2.723331e+01 3.283945e+01 3.522753e+01 2.758586e+01 4.670224e+00 3.662878e+00 3.595090e+00 4.291869e+00 5.138026e+00 5.810458e+00 5.827909e+00 6.647755e+00 3.996865e+00 3.794211e+00 3.642491e+00 2.842670e+00 4.611880e+00 5.244095e-01 3.383069e-01 4.601321e-01 5.407960e-01 5.436297e-01 5.752948e-01 6.523209e-01 8.715376e-01 5.110702e-01 4.138412e-01 4.541937e-01 3.571500e-01 4.082353e-01
<GCONST> 1.314028e+02
<TRANSP> 5
 0.000000e+00 1.000000e+00 0.000000e+00 0.000000e+00 0.000000e+00
 0.000000e+00 7.088704e-01 2.911296e-01 0.000000e+00 0.000000e+00
 0.000000e+00 0.000000e+00 3.362250e-01 6.637750e-01 0.000000e+00
 0.000000e+00 0.000000e+00 0.000000e+00 4.011510e-01 5.988491e-01
 0.000000e+00 0.000000e+00 0.000000e+00 0.000000e+00 0.000000e+00
<ENDHMM>
~h "d"
<BEGINHMM>
<NUMSTATES> 5
<STATE> 2
<MEAN> 39
 -1.363656e+01 4.753712e+00 1.069601e+01 7.355448e+00 5.206360e+00 -3.407156e-01 -3.835186e+00 -4.726962e+00 -5.592385e+00 -5.079580e+00 -4.812246e+00 -1.559126e+00 6.304996e+01 -1.445300e+00 -1.466527e+00 -6.556906e-01 -1.666090e-01 -2.648948e-01 6.194218e-01 1.529871e+00 1.226775e+00 8.700510e-01 5.066538e-01 9.431517e-01 -1.433312e-01 -4.128010e-01 2.773300e-01 -1.141371e+00 -6.972671e-01 -1.450654e+00 -2.761045e-01 -4.758604e-01 -4.030333e-01 -1.038408e+00 -4.709181e-01 -4.176914e-01 -2.216346e-02 -2.424106e-02 1.258471e+00
<VARIANCE> 39
 3.321365e+01 3.910590e+01 2.838209e+01 3.906081e+01 3.276598e+01 2.760743e+01 3.348759e+01 4.289386e+01 2.611158e+01 2.336093e+01 2.233546e+01 1.873596e+01 2.371696e+01 3.018037e+00 7.262438e+00 5.338905e+00 9.094852e+00 4.386528e+00 4.359804e+00 4.424108e+00 7.599510e+00 4.824998e+00 3.348763e+00 2.632611e+00 2.003136e+00 6.895843e+00 4.263843e-01 6.637287e-01 7.547434e-01 1.244994e+00 8.574571e-01 7.861876e-01 7.846156e-01 1.137008e+00 8.770814e-01 5.735076e-01 3.986403e-01 3.347653e-01 6.603728e-01
<GCONST> 1.304140e+02
<STATE> 3
<MEAN> 39
 -1.592263e+01 -6.948023e+00 3.012450e+00 -3.005804e+00 2.980878e+00 -1.456463e+00 -2.564275e+00 -7.713260e+00 -6.176497e+00 -5.909321e+00 -1.970443e+00 -2.297490e+00 6.964745e+01 1.382461e-01 -3.273350e+00 -5.137810e-01 -2.735003e+00 -9.338949e-01 -1.502301e+00 -7.758254e-01 -2.289741e+00 -1.699015e+00 -1.604923e+00 6.669601e-02 6.149102e-02 3.191416e+00 2.210445e-01 5.880989e-01 6.409379e-01 4.592947e-01 -1.481841e-01 -1.936235e-01 -3.670494e-01 -9.696609e-02 -2.846668e-01 -1.625946e-01 -2.628485e-01 1.868039e-01 -2.420829e-01
<VARIANCE> 39
 2.844149e+01 3.860117e+01 3.931079e+01 5.292934e+01 4.143199e+01 4.871138e+01 3.947300e+01 6.578429e+01 3.242264e+01 3.056126e+01 1.982071e+01 1.658953e+01 5.681202e+01 4.119425e+00 5.273495e+00 5.611682e+00 5.013309e+00 5.227941e+00 3.734850e+00 4.099316e+00 5.336804e+00 3.323376e+00 2.557842e+00 2.498572e+00 2.053530e+00 3.298650e+00 5.796794e-01 1.023399e+00 8.350980e-01 1.333417e+00 8.831033e-01 1.037374e+00 1.035707e+00 1.662520e+00 8.621650e-01 7.366106e-01 4.967708e-01 3.929371e-01 1.348499e+00
<GCONST> 1.342185e+02
<STATE> 4
<MEAN> 39
 -1.790495e+01 -8.102902e+00 4.063440e+00 -1.923624e+00 -3.327393e+00 -4.455720e+00 -3.327576e+00 -6.975223e+00 -1.084250e+01 -8.547421e+00 -1.006663e+00 7.111499e-01 6.592997e+01 -7.386900e-02 1.137786e+00 -5.814036e-01 4.438150e-01 -4.560728e-01 1.945310e-01 1.730239e-02 2.936162e-01 -1.142603e-02 2.965017e-01 1.727674e-01 3.108049e-01 -1.366710e+00 2.479251e-02 5.252371e-01 -1.264730e-01 1.766718e-01 2.935986e-01 2.426915e-01 4.261994e-02 2.239890e-01 4.635139e-01 3.404131e-01 -5.220595e-02 -1.343291e-01 -3.425010e-01
<VARIANCE> 39
 2.016505e+01 2.831352e+01 2.876696e+01 2.017908e+01 3.052650e+01 1.914742e+01 2.389691e+01 3.422349e+01 2.125260e+01 1.965459e+01 1.642919e+01 1.528146e+01 3.747504e+01 1.996414e+00 2.699836e+00 3.101225e+00 2.366704e+00 2.642958e+00 2.073415e+00 2.603884e+00 3.712312e+00 3.306872e+00 2.162848e+00 1.651881e+00 1.677788e+00 2.223360e+00 3.198704e-01 7.407380e-01 5.477157e-01 5.801514e-01 3.562875e-01 4.393854e-01 5.412332e-01 6.832079e-01 4.803586e-01 3.767872e-01 3.076205e-01 3.128163e-01 5.356593e-01
<GCONST> 1.139731e+02
<TRANSP> 5
 0.000000e+00 1.000000e+00 0.000000e+00 0.000000e+00 0.000000e+00
 0.000000e+00 5.755861e-01 4.244139e-01 0.000000e+00 0.000000e+00
 0.000000e+00 0.000000e+00 5.635030e-01 4.364970e-01 0.000000e+00
 0.000000e+00 0.000000e+00 0.000000e+00 7.862608e-01 2.137392e-01
 0.000000e+00 0.000000e+00 0.000000e+00 0.000000e+00 0.000000e+00
<ENDHMM>
~h "f"
<BEGINHMM>
<NUMSTATES> 5
<STATE> 2
<MEAN> 39
 -2.984670e+01 -4.414110e+00 3.919221e-01 -1.209677e+01 7.093797e+00 -1.365028e-01 -3.335426e+00 -8.420040e+00 -3.303889e+00 -4.785082e+00 -7.607189e-01 -1.336419e+00 7.095171e+01 -1.426986e+00 -4.744691e-01 -1.277487e-01 -7.935851e-01 1.037472e-01 -2.171022e-02 -1.654345e-02 -1.269335e-01 9.784430e-02 -1.166125e-01 6.913316e-02 -9.384744e-02 1.017973e+00 3.691276e-01 6.966189e-02 -2.517964e-02 1.720735e-01 -2.613695e-01 -8.034404e-02 -1.186182e-01 -7.461205e-02 -4.030946e-02 1.962486e-02 -6.047369e-02 1.182613e-02 -8.040830e-02
<VARIANCE> 39
 2.289261e+01 1.629539e+01 2.255788e+01 2.800544e+01 2.893321e+01 3.098082e+01 2.415584e+01 3.386423e+01 2.146287e+01 1.705133e+01 1.221102e+01 1.178088e+01 3.313914e+01 2.214025e+00 1.196476e+00 1.714710e+00 2.730664e+00 2.316314e+00 2.003767e+00 1.939700e+00 3.293872e+00 2.127434e+00 1.703624e+00 1.205236e+00 1.198875e+00 1.908623e+00 4.198907e-01 2.096003e-01 2.611423e-01 4.868407e-01 4.109620e-01 4.611700e-01 5.158715e-01 7.124882e-01 4.625762e-01 3.646173e-01 2.518603e-01 2.308591e-01 2.110325e-01
<GCONST> 1.067971e+02
<STATE> 3
<MEAN> 39
 -3.191632e+01 -6.251556e+00 -1.057998e+00 -1.466471e+01 4.808064e+00 -1.783846e+00 -4.719491e+00 -1.153257e+01 -5.107138e+00 -6.945282e+00 -1.509046e+00 -1.743687e+00 7.804111e+01 1.028559e+00 -1.770633e-01 5.625174e-02 -2.358427e-01 -4.260592e-01 -8.533576e-01 -3.423276e-01 -6.484545e-01 -5.349268e-01 -4.140686e-01 -3.049507e-01 -9.834836e-02 4.563454e-01 9.702750e-01 3.565683e-01 4.532162e-01 2.571804e-01 8.762537e-02 8.406984e-03 9.747520e-02 8.618235e-02 1.355375e-01 1.087671e-01 -1.203469e-01 -5.193216e-02 -1.483511e-01
<VARIANCE> 39
 6.840376e+00 9.163464e+00 1.517751e+01 1.802887e+01 2.103588e+01 2.578607e+01 1.842327e+01 3.001044e+01 1.780518e+01 1.748909e+01 1.212230e+01 1.021842e+01 9.415756e+00 2.613970e+00 1.222717e+00 1.357854e+00 1.469910e+00 1.440551e+00 1.602981e+00 1.629749e+00 2.207494e+00 1.597285e+00 1.254174e+00 1.007410e+00 8.770718e-01 1.312798e+00 5.893010e-01 3.061090e-01 2.483205e-01 2.767632e-01 2.776308e-01 3.689274e-01 3.324794e-01 4.516375e-01 3.659323e-01 2.960466e-01 2.458335e-01 1.944092e-01 1.067724e-01
<GCONST> 9.558894e+01
<STATE> 4
<MEAN> 39
 -1.887274e+01 -2.655198e+00 2.622249e+00 -1.397124e+01 4.055676e+00 -5.139823e+00 -4.840398e+00 -1.167202e+01 -4.890035e+00 -6.021534e+00 -3.242371e+00 -2.597080e+00 7.797517e+01 6.328876e+00 1.853725e+00 1.488332e+00 1.573255e-01 -1.155487e+00 -4.638845e-01 -7.563524e-01 -3.667323e-01 4.443836e-01 7.406511e-01 -1.432858e+00 -4.572200e-01 4.191937e-01 2.456797e-01 -9.285819e-02 -1.937843e-01 1.589285e-02 -3.663870e-01 2.585522e-01 -2.677971e-01 -4.247423e-03 1.803272e-01 2.027854e-01 -2.595302e-01 1.054600e-02 2.050716e-02
<VARIANCE> 39
 1.036430e+02 3.456462e+01 3.003122e+01 3.146129e+01 2.885854e+01 2.683817e+01 2.126024e+01 3.294488e+01 2.315608e+01 2.521277e+01 1.876093e+01 1.149599e+01 1.931296e+01 4.990894e+00 3.434476e+00 3.880039e+00 3.508048e+00 3.181820e+00 3.828152e+00 3.632212e+00 5.015356e+00 3.632174e+00 3.429035e+00 2.469910e+00 1.540484e+00 1.706794e+00 1.917692e+00 7.668332e-01 5.416449e-01 4.860649e-01 3.808932e-01 5.363033e-01 7.184474e-01 4.825669e-01 4.988710e-01 5.265066e-01 4.190608e-01 2.829584e-01 1.863572e-01
<GCONST> 1.211219e+02
<TRANSP> 5
 0.000000e+00 1.000000e+00 0.000000e+00 0.000000e+00 0.000000e+00
 0.000000e+00 8.530560e-01 1.469441e-01 0.000000e+00 0.000000e+00
 0.000000e+00 0.000000e+00 7.681746e-01 2.318254e-01 0.000000e+00
 0.000000e+00 0.000000e+00 0.000000e+00 5.985181e-01 4.014820e-01
 0.000000e+00 0.000000e+00 0.000000e+00 0.000000e+00 0.000000e+00
<ENDHMM>
~h "g"
<BEGINHMM>
<NUMSTATES> 5
<STATE> 2
<MEAN> 39
 -1.115624e+01 8.565761e+00 9.103316e+00 5.342486e+00 5.206677e+00 7.746896e-01 -4.998119e+00 -8.601662e+00 -6.815799e+00 -5.521852e+00 -2.831775e+00 -1.968594e+00 6.359559e+01 -2.172099e-01 -6.015252e-01 -1.278893e+00 -1.607322e+00 4.123209e-01 7.549845e-02 5.920110e-01 -4.369841e-01 -6.173608e-01 -1.013126e+00 4.362860e-01 -1.602316e-01 1.049265e+00 4.181217e-03 -8.014604e-01 -5.004048e-01 -9.073135e-01 1.921383e-01 -9.260735e-02 -1.875260e-01 -5.244289e-01 -6.291246e-02 -1.114325e-01 9.436859e-02 -2.104199e-01 8.775812e-01
<VARIANCE> 39
 3.031645e+01 4.450700e+01 3.784545e+01 3.223706e+01 2.646925e+01 2.354989e+01 3.469547e+01 4.349622e+01 3.003821e+01 3.626577e+01 2.012835e+01 1.943795e+01 2.238287e+01 3.204168e+00 6.918298e+00 5.211015e+00 8.206032e+00 4.641807e+00 3.422172e+00 5.293396e+00 6.161351e+00 3.941820e+00 3.564921e+00 2.360144e+00 2.661578e+00 5.996400e+00 5.573495e-01 6.593729e-01 8.836737e-01 9.866441e-01 8.125222e-01 5.909287e-01 9.231996e-01 9.361808e-01 6.281499e-01 5.914447e-01 4.461469e-01 3.728855e-01 6.793588e-01
<GCONST> 1.300045e+02
<STATE> 3
<MEAN> 39
 -1.359993e+01 -1.400098e+00 1.522788e-01 -8.970190e+00 7.289750e+00 -5.120788e-01 -3.495357e+00 -1.290539e+01 -9.016466e+00 -9.682984e+00 8.537357e-02 -5.364316e+00 7.469431e+01 1.366334e+00 -8.170552e-01 3.448121e-01 -1.491941e+00 5.736710e-01 1.260557e-01 -1.167061e+00 -2.603911e+00 -1.422275e+00 -1.078195e+00 -5.154742e-02 3.680603e-02 2.619857e+00 6.726589e-01 5.246228e-01 7.171603e-01 8.904189e-01 -4.085794e-01 2.266007e-01 -5.078834e-01 -7.946995e-02 1.263659e-01 4.003166e-01 -4.969136e-01 4.814060e-01 -5.470048e-01
<VARIANCE> 39
 2.368171e+01 4.728395e+01 5.162886e+01 8.088916e+01 5.008695e+01 5.764207e+01 7.663552e+01 7.619801e+01 4.330742e+01 4.006059e+01 2.534822e+01 2.907743e+01 2.221202e+01 3.718573e+00 5.190771e+00 5.859019e+00 8.560223e+00 3.538260e+00 3.974960e+00 5.414394e+00 6.640791e+00 3.237062e+00 4.533046e+00 2.578793e+00 3.162946e+00 4.776111e+00 4.765307e-01 7.340082e-01 1.234171e+00 1.166773e+00 9.062095e-01 9.223589e-01 1.334373e+00 1.288020e+00 8.975456e-01 7.773283e-01 5.104074e-01 6.666499e-01 5.695890e-01
<GCONST> 1.379631e+02
<STATE> 4
<MEAN> 39
 -5.255109e+00 -8.385364e-01 3.830216e+00 -8.168617e+00 6.195241e+00 2.730816e+00 -1.004707e+01 -2.222592e+01 -1.257631e+01 -1.004620e+01 -3.107507e+00 -1.627320e+00 7.803212e+01 1.855797e+00 -3.108922e-01 -4.643877e-01 -1.124903e+00 -1.768839e+00 -5.708837e-01 -1.327366e+00 -3.261276e-01 7.348868e-01 3.419107e-01 -1.246377e+00 9.256574e-01 9.835283e-01 -4.127879e-01 7.796737e-02 -2.190791e-01 2.888541e-02 -4.358464e-01 -5.404975e-01 3.314834e-01 1.082698e+00 8.867438e-01 4.468393e-01 6.853777e-02 -1.687118e-01 -3.813300e-01
<VARIANCE> 39
 3.558465e+01 2.891463e+01 2.765169e+01 5.934292e+01 4.315473e+01 4.564522e+01 6.736306e+01 8.208545e+01 3.739816e+01 3.500589e+01 2.835612e+01 3.200766e+01 3.657448e+01 3.326802e+00 2.341919e+00 4.637957e+00 3.836043e+00 4.458987e+00 4.925378e+00 5.308112e+00 8.323576e+00 5.460131e+00 3.800444e+00 3.732775e+00 3.568627e+00 1.659562e+00 4.125901e-01 3.189272e-01 7.433972e-01 7.210033e-01 5.697106e-01 5.599338e-01 1.038465e+00 1.014559e+00 7.212029e-01 5.457035e-01 5.561609e-01 5.680815e-01 1.672012e-01
<GCONST> 1.301298e+02
<TRANSP> 5
 0.000000e+00 1.000000e+00 0.000000e+00 0.000000e+00 0.000000e+00
 0.000000e+00 6.953041e-01 3.046959e-01 0.000000e+00 0.000000e+00
 0.000000e+00 0.000000e+00 6.144997e-01 3.855003e-01 0.000000e+00
 0.000000e+00 0.000000e+00 0.000000e+00 5.313418e-01 4.686582e-01
 0.000000e+00 0.000000e+00 0.000000e+00 0.000000e+00 0.000000e+00
<ENDHMM>
~h "h"
<BEGINHMM>
<NUMSTATES> 5
<STATE> 2
<MEAN> 39
 -1.443377e+01 -5.452825e+00 -4.934083e+00 -5.710823e+00 -4.941013e+00 -5.534972e+00 -1.037338e+01 -8.383778e+00 -7.079222e-01 -1.387713e+00 -3.394207e+00 -1.578040e+00 6.418930e+01 1.265563e+00 -2.061363e+00 -8.686579e-02 -1.074533e+00 -7.625726e-01 -1.039308e+00 -1.408829e+00 -1.263124e+00 5.775092e-01 -4.770323e-02 -8.663720e-01 -1.037954e-01 2.344778e+00 -2.764932e-01 1.353690e-01 4.958289e-01 -1.018288e-02 3.259105e-01 2.805827e-01 5.359820e-01 2.571820e-01 2.721265e-01 -1.693903e-03 -1.370174e-02 1.085268e-02 1.289715e-01
<VARIANCE> 39
 9.387710e+00 2.822705e+01 3.806711e+01 4.589053e+01 4.534895e+01 2.661278e+01 4.981962e+01 4.045917e+01 3.058588e+01 3.653462e+01 3.337732e+01 1.616585e+01 3.219036e+01 1.302031e+00 1.791473e+00 2.948986e+00 2.171819e+00 2.046639e+00 2.478308e+00 3.758817e+00 2.828853e+00 2.509114e+00 2.383699e+00 2.067155e+00 1.581096e+00 1.108587e+00 1.222894e-01 4.593875e-01 3.119422e-01 3.849734e-01 3.398087e-01 3.968335e-01 5.148672e-01 3.740091e-01 3.272549e-01 2.901630e-01 3.637095e-01 2.167466e-01 1.162760e-01
<GCONST> 1.102797e+02
<STATE> 3
<MEAN> 39
 -1.310911e+01 -1.123002e+01 -2.049600e+00 -1.038080e+01 -4.417507e+00 -6.784362e+00 -9.420990e+00 -1.002613e+01 4.188817e+00 -1.386994e+00 -4.192503e+00 -1.116720e+00 7.410099e+01 8.150856e-01 8.655075e-01 1.149027e+00 -1.517285e-01 7.065280e-01 7.382704e-01 9.767621e-01 -9.761444e-02 1.080710e+00 5.918187e-01 -2.577112e-01 1.174419e-01 1.505695e+00 3.675572e-01 8.551681e-01 2.576641e-01 2.020974e-01 4.265501e-02 3.711170e-01 2.198467e-01 -1.758541e-01 -2.469015e-01 1.770760e-01 -2.999747e-02 -1.085583e-01 -4.139499e-02
<VARIANCE> 39
 1.010544e+01 2.587496e+01 4.623926e+01 3.390154e+01 6.275954e+01 5.108439e+01 7.519697e+01 4.674511e+01 5.019617e+01 6.184792e+01 5.368138e+01 3.079773e+01 1.750211e+01 1.648813e+00 3.657905e+00 2.514149e+00 2.138140e+00 1.968760e+00 2.967229e+00 2.465871e+00 2.428424e+00 2.075034e+00 2.768881e+00 1.708162e+00 1.446478e+00 1.379304e+00 2.533463e-01 3.673477e-01 3.200790e-01 4.368694e-01 3.930800e-01 4.733409e-01 5.680501e-01 5.332726e-01 4.973149e-01 5.049365e-01 4.223103e-01 3.388295e-01 1.176340e-01
<GCONST> 1.164761e+02
<STATE> 4
<MEAN> 39
 -6.869825e+00 -1.600116e+00 3.641436e+00 -1.039040e+01 -1.344128e+00 -6.119939e-01 -4.410575e+00 -1.343303e+01 4.634829e+00 2.826972e+00 -4.984733e+00 -6.872641e-01 7.916824e+01 2.141668e+00 1.668324e+00 6.474429e-01 -8.737671e-01 -4.436439e-01 8.164573e-01 3.030930e-01 -1.854051e+00 -7.099487e-01 5.121890e-01 -6.740150e-01 -8.675118e-01 1.696567e+00 -6.122984e-02 -6.999515e-01 -6.247798e-01 -1.774691e-01 -2.475581e-01 -4.390021e-01 -3.876609e-01 -1.366660e-01 -5.037910e-01 -3.489182e-01 5.505539e-02 -1.501669e-01 -1.074294e-01
<VARIANCE> 39
 1.805253e+01 2.817660e+01 4.318431e+01 4.025754e+01 7.611230e+01 4.600335e+01 6.828017e+01 6.217130e+01 3.781468e+01 5.450056e+01 3.209779e+01 2.263237e+01 1.774658e+01 1.535663e+00 3.028896e+00 2.746890e+00 2.652064e+00 3.148072e+00 2.431180e+00 4.223089e+00 2.666974e+00 2.843368e+00 3.247398e+00 2.409421e+00 1.941566e+00 1.323868e+00 2.232446e-01 4.508209e-01 2.960021e-01 4.702788e-01 3.931130e-01 3.825930e-01 3.599902e-01 4.960945e-01 3.860464e-01 3.713574e-01 2.732011e-01 2.989797e-01 1.180112e-01
<GCONST> 1.165360e+02
<TRANSP> 5
 0.000000e+00 1.000000e+00 0.000000e+00 0.000000e+00 0.000000e+00
 0.000000e+00 6.865824e-01 3.134176e-01 0.000000e+00 0.000000e+00
 0.000000e+00 0.000000e+00 7.170654e-01 2.829346e-01 0.000000e+00
 0.000000e+00 0.000000e+00 0.000000e+00 5.521379e-01 4.478621e-01
 0.000000e+00 0.000000e+00 0.000000e+00 0.000000e+00 0.000000e+00
<ENDHMM>
~h "i"
<BEGINHMM>
<NUMSTATES> 5
<STATE> 2
<MEAN> 39
 -6.505268e+00 -4.717468e+00 1.240502e+01 4.150943e+00 1.697444e+01 6.034422e-01 -1.602315e+01 -2.536531e+01 -9.030747e+00 -2.618207e+00 -5.953420e+00 -8.554640e+00 8.005321e+01 1.127934e+00 -4.398986e-01 1.604628e+00 2.813305e+00 8.637674e-01 -9.400675e-01 -1.966221e+00 -6.489411e-01 6.822385e-02 1.076627e+00 -7.153739e-01 -1.407275e+00 5.168793e-01 -5.558270e-01 -2.434083e-02 -2.121510e-01 -3.462160e-01 -8.799298e-01 -1.187313e-01 5.833029e-01 9.533542e-01 3.911185e-01 -3.252418e-01 4.689526e-04 3.523272e-01 -4.032100e-01
<VARIANCE> 39
 1.655001e+01 2.076092e+01 3.540715e+01 2.952159e+01 3.642967e+01 3.196312e+01 3.317162e+01 4.167387e+01 2.491607e+01 2.533832e+01 1.921628e+01 2.536033e+01 1.082055e+01 6.047443e+00 2.721914e+00 4.044933e+00 2.926039e+00 4.677618e+00 4.962625e+00 4.614378e+00 8.025626e+00 3.198832e+00 2.895244e+00 2.981156e+00 1.865180e+00 1.521376e+00 5.745106e-01 4.656263e-01 5.383069e-01 4.619586e-01 4.462298e-01 5.909017e-01 6.338317e-01 7.833501e-01 6.840852e-01 4.295336e-01 5.650045e-01 4.002349e-01 1.788481e-01
<GCONST> 1.209923e+02
<STATE> 3
<MEAN> 39
 -7.256331e+00 -6.100853e+00 1.740750e+01 1.193532e+01 1.542076e+01 -4.894701e+00 -1.939466e+01 -1.955282e+01 -5.785939e+00 -1.872087e+00 -7.732412e+00 -9.994395e+00 7.801919e+01 -2.468054e-01 2.076295e-01 2.428557e-01 2.970772e-01 -6.417472e-02 -3.547467e-01 -9.873625e-02 5.042278e-01 2.945891e-01 7.921188e-02 4.565790e-03 -3.676127e-02 -4.115443e-01 -3.387330e-02 1.673376e-01 -2.392704e-01 -3.115031e-01 -8.452792e-03 2.400131e-01 2.047152e-01 -7.936172e-02 -9.166779e-02 -5.412187e-02 7.739646e-02 1.285222e-01 -8.276064e-02
<VARIANCE> 39
 6.019994e+00 1.469411e+01 2.733803e+01 2.632995e+01 2.690178e+01 3.068229e+01 2.847772e+01 4.348825e+01 2.302209e+01 2.070592e+01 2.379442e+01 2.135815e+01 1.017118e+01 3.662310e-01 6.949779e-01 1.661867e+00 1.719981e+00 1.306895e+00 1.484797e+00 1.142486e+00 2.303110e+00 1.264790e+00 1.159238e+00 1.178117e+00 9.883575e-01 3.146991e-01 9.348255e-02 1.142419e-01 2.169586e-01 2.585166e-01 2.647232e-01 2.808303e-01 3.257375e-01 3.489866e-01 2.545637e-01 2.412753e-01 2.193823e-01 2.224258e-01 6.208929e-02
<GCONST> 9.120155e+01
<STATE> 4
<MEAN> 39
 -9.581485e+00 -1.137365e+00 1.428441e+01 7.919231e+00 1.531512e+01 -1.107703e+00 -1.549342e+01 -1.943464e+01 -6.603173e+00 -1.613577e+00 -6.143039e+00 -8.257285e+00 7.377280e+01 -1.009199e+00 8.412479e-01 -8.872554e-01 -9.373565e-01 -1.358165e+00 1.022384e+00 2.525231e+00 1.568743e+00 -5.826949e-02 -5.791484e-01 4.922415e-01 9.715449e-01 -1.128140e+00 -3.146298e-01 -1.167690e-01 -1.297776e-01 -2.077630e-01 -3.714248e-01 4.895491e-02 4.580483e-01 4.832293e-01 2.347640e-01 -1.773564e-01 1.438066e-02 1.536796e-01 -6.063887e-02
<VARIANCE> 39
 2.251508e+01 2.125418e+01 3.974909e+01 4.433830e+01 3.726350e+01 4.103541e+01 4.164584e+01 6.753244e+01 3.348321e+01 2.766109e+01 2.698671e+01 2.710288e+01 3.386495e+01 2.513699e+00 2.342908e+00 2.453277e+00 3.106104e+00 3.138357e+00 2.979903e+00 3.340428e+00 5.792321e+00 3.569478e+00 2.430855e+00 2.266849e+00 1.857944e+00 2.283311e+00 1.946208e-01 2.816704e-01 4.602004e-01 4.609474e-01 4.769250e-01 5.124543e-01 5.952419e-01 8.124521e-01 5.586621e-01 4.115505e-01 3.573867e-01 3.254037e-01 1.703326e-01
<GCONST> 1.189900e+02
<TRANSP> 5
 0.000000e+00 1.000000e+00 0.000000e+00 0.000000e+00 0.000000e+00
 0.000000e+00 6.498650e-01 3.501350e-01 0.000000e+00 0.000000e+00
 0.000000e+00 0.000000e+00 8.727274e-01 1.272727e-01 0.000000e+00
 0.000000e+00 0.000000e+00 0.000000e+00 7.289963e-01 2.710037e-01
 0.000000e+00 0.000000e+00 0.000000e+00 0.000000e+00 0.000000e+00
<ENDHMM>
~h "j"
<BEGINHMM>
<NUMSTATES> 5
<STATE> 2
<MEAN> 39
 -1.830644e+01 -8.395336e+00 1.136592e+01 1.059716e+00 1.073530e+01 -2.865563e+00 -8.038261e+00 -1.339607e+01 -1.312688e+00 -4.870026e+00 -3.912465e+00 -5.030563e+00 7.544489e+01 2.849460e+00 1.217999e+00 1.292376e+00 2.057835e+00 2.450989e+00 7.883597e-01 -1.666005e+00 -2.075559e+00 -1.261502e+00 1.229813e-01 -8.591386e-02 -5.190102e-02 8.481908e-01 5.819498e-01 3.716665e-01 -3.029860e-01 3.369872e-02 -4.591819e-02 4.107479e-01 -1.810905e-01 -5.195531e-01 -6.221077e-01 -1.058584e-01 6.536679e-02 2.011382e-01 -6.467354e-02
<VARIANCE> 39
 7.427496e+01 9.587222e+01 5.501347e+01 5.255988e+01 4.549456e+01 3.932666e+01 3.734969e+01 4.382547e+01 4.216924e+01 3.007786e+01 1.986139e+01 2.584187e+01 4.052958e+01 5.530146e+00 5.290327e+00 3.869446e+00 3.347672e+00 2.584697e+00 4.611159e+00 2.703705e+00 4.371947e+00 4.597641e+00 2.194092e+00 1.453258e+00 1.486813e+00 1.511148e+00 7.610439e-01 8.199019e-01 8.108561e-01 7.900620e-01 6.685377e-01 5.714629e-01 5.853531e-01 9.138703e-01 7.161490e-01 4.270789e-01 2.685956e-01 3.363112e-01 2.230323e-01
<GCONST> 1.272817e+02
<STATE> 3
<MEAN> 39
 -6.575521e+00 -3.725307e+00 1.171356e+01 6.016350e+00 1.724230e+01 1.130556e+00 -1.597017e+01 -2.413656e+01 -7.803458e+00 -4.093000e+00 -3.640427e+00 -6.307036e+00 7.876173e+01 1.526674e+00 -4.071644e-02 -9.245303e-01 -4.560453e-01 3.808896e-01 9.189322e-01 -9.578486e-01 -2.201807e+00 -1.374726e+00 -3.268408e-01 -7.089405e-02 2.539297e-01 7.522413e-01 -4.675995e-01 -1.377602e-01 -4.206604e-01 -7.494517e-01 -6.457814e-01 -4.437673e-02 5.220840e-01 5.155939e-01 1.612199e-01 -3.149760e-01 -8.890588e-02 1.918293e-01 -1.589723e-01
<VARIANCE> 39
 8.173203e+00 1.721445e+01 2.841759e+01 3.245532e+01 2.616612e+01 3.492298e+01 2.572701e+01 3.759274e+01 3.489187e+01 2.784299e+01 1.518116e+01 3.486661e+01 1.278273e+01 3.480480e+00 2.876418e+00 2.393448e+00 2.713107e+00 1.912456e+00 3.010723e+00 2.578491e+00 3.569636e+00 3.859219e+00 2.442323e+00 1.529532e+00 1.942463e+00 6.757527e-01 4.494535e-01 3.683347e-01 3.552504e-01 4.029427e-01 4.658444e-01 5.019684e-01 3.737517e-01 7.753869e-01 6.610577e-01 4.832858e-01 2.879259e-01 3.342456e-01 8.358467e-02
<GCONST> 1.115284e+02
<STATE> 4
<MEAN> 39
 -3.579174e+00 -4.534342e+00 5.662750e+00 -1.110056e+00 1.537173e+01 5.367199e+00 -1.440171e+01 -2.857719e+01 -1.294909e+01 -8.672659e+00 -4.108482e+00 -2.024071e+00 8.060145e+01 4.421859e-01 5.943629e-01 -9.320612e-01 -1.701475e+00 -9.916735e-01 3.817704e-01 8.614740e-01 9.328990e-01 -4.691527e-01 -1.375172e+00 -7.682578e-01 8.340210e-01 -1.995951e-01 -1.927703e-01 1.548562e-01 1.902449e-01 1.589315e-01 -2.035324e-01 -2.602504e-01 2.223812e-01 7.546030e-01 4.849772e-01 6.553574e-02 -2.375539e-01 -1.968401e-01 -2.447966e-01
<VARIANCE> 39
 5.524289e+00 1.162702e+01 2.944718e+01 4.122176e+01 3.002653e+01 5.715576e+01 3.048500e+01 3.907189e+01 3.067604e+01 3.921992e+01 2.422067e+01 3.109842e+01 6.727337e+00 4.334789e-01 8.591655e-01 1.000741e+00 1.949985e+00 2.211395e+00 1.854830e+00 2.169743e+00 3.312823e+00 2.924181e+00 2.776611e+00 2.915875e+00 1.986092e+00 3.822549e-01 1.595138e-01 1.566929e-01 1.912355e-01 3.388211e-01 2.688414e-01 3.643903e-01 3.658288e-01 5.364127e-01 6.349077e-01 4.579975e-01 3.421268e-01 3.207642e-01 6.133280e-02
<GCONST> 1.024351e+02
<TRANSP> 5
 0.000000e+00 1.000000e+00 0.000000e+00 0.000000e+00 0.000000e+00
 0.000000e+00 6.291808e-01 3.708192e-01 0.000000e+00 0.000000e+00
 0.000000e+00 0.000000e+00 7.167482e-01 2.832517e-01 0.000000e+00
 0.000000e+00 0.000000e+00 0.000000e+00 7.475712e-01 2.524288e-01
 0.000000e+00 0.000000e+00 0.000000e+00 0.000000e+00 0.000000e+00
<ENDHMM>
~h "k"
<BEGINHMM>
<NUMSTATES> 5
<STATE> 2
<MEAN> 39
 -2.035741e+01 1.072691e-01 4.478364e+00 1.677064e+00 3.124186e+00 1.645297e+00 -5.027858e-02 -3.296952e+00 -2.153002e+00 -2.472333e+00 -2.277960e+00 -2.525644e+00 6.002049e+01 -2.706179e-01 -1.138557e+00 -2.447290e+00 -2.792596e+00 -1.648431e-01 -2.210283e-01 1.846273e-01 -4.947951e-01 -5.926760e-01 -8.196383e-01 5.598453e-01 -1.219548e-02 1.030666e+00 4.905824e-01 -4.031980e-01 -2.203692e-01 -9.528686e-01 -4.297081e-02 -4.615188e-01 -7.227650e-01 -1.168834e+00 -4.435522e-01 -4.042564e-01 5.512401e-02 -4.814690e-02 1.241221e+00
<VARIANCE> 39
 1.729236e+01 3.321951e+01 5.499212e+01 5.881161e+01 4.480456e+01 2.580652e+01 3.223011e+01 4.095465e+01 2.522115e+01 2.829933e+01 2.340555e+01 2.122335e+01 2.719220e+01 2.956434e+00 4.129390e+00 4.601122e+00 9.754236e+00 5.367425e+00 4.705797e+00 7.167325e+00 1.136802e+01 4.798696e+00 4.298453e+00 2.647729e+00 2.921990e+00 9.132814e+00 2.862712e-01 5.453578e-01 1.065470e+00 1.348008e+00 8.707896e-01 5.855510e-01 7.896897e-01 1.012348e+00 6.310319e-01 6.055444e-01 4.683637e-01 4.026829e-01 5.449413e-01
<GCONST> 1.320223e+02
<STATE> 3
<MEAN> 39
 -1.769759e+01 -5.626641e+00 -4.473624e+00 -1.529507e+01 9.999077e-01 -4.006668e+00 -3.960526e+00 -1.348531e+01 -8.379471e+00 -9.978894e+00 -8.459635e-01 -3.829248e+00 7.335632e+01 5.717061e-01 -1.272699e+00 1.265038e-01 -1.715124e+00 -9.101439e-02 -1.118665e+00 -1.468492e+00 -2.616421e+00 -1.140368e+00 -1.402626e+00 -1.090720e-01 3.871367e-02 2.925248e+00 -1.644733e-02 3.401094e-01 9.424087e-01 1.480093e+00 1.357960e-01 4.744513e-01 1.904015e-01 6.471670e-01 4.945902e-01 6.677339e-01 -1.034630e-01 2.807564e-01 -8.682780e-01
<VARIANCE> 39
 1.106952e+01 3.726833e+01 3.188366e+01 6.008083e+01 6.180919e+01 5.386422e+01 6.507915e+01 5.498584e+01 3.953713e+01 3.294087e+01 2.925327e+01 3.142673e+01 2.693124e+01 2.356547e+00 4.031705e+00 3.966775e+00 7.412867e+00 3.858336e+00 3.829266e+00 3.859392e+00 5.126068e+00 3.896399e+00 3.455968e+00 2.807480e+00 2.502177e+00 5.157959e+00 5.296730e-01 6.007100e-01 8.822590e-01 7.791765e-01 9.383435e-01 9.499034e-01 1.034769e+00 1.027494e+00 7.208540e-01 6.728201e-01 6.249686e-01 5.431036e-01 5.371149e-01
<GCONST> 1.323406e+02
<STATE> 4
<MEAN> 39
 -1.612992e+01 -6.725283e+00 -7.625620e-01 -1.047895e+01 2.682845e+00 -2.183623e+00 -6.146647e+00 -1.506005e+01 -8.141706e+00 -8.113910e+00 -7.321130e-01 -1.147220e+00 7.336157e+01 1.474003e+00 8.840980e-01 1.253480e+00 1.099601e+00 8.734369e-02 7.595028e-01 1.310371e-02 4.060556e-01 6.869053e-01 9.706202e-01 -2.728383e-01 3.979425e-01 -2.677950e-02 3.696969e-01 4.723895e-01 6.288546e-02 2.255292e-02 -1.668681e-01 8.909333e-02 1.052630e-01 3.355245e-01 2.319059e-01 2.385342e-01 -1.470522e-01 -1.392161e-01 -1.484561e-01
<VARIANCE> 39
 2.922168e+01 3.711088e+01 4.422221e+01 5.517299e+01 3.623375e+01 4.407013e+01 4.458838e+01 5.287656e+01 4.817213e+01 3.517030e+01 2.369020e+01 2.312395e+01 5.366048e+01 5.982880e+00 4.150854e+00 3.804198e+00 2.885331e+00 3.306864e+00 4.095558e+00 4.079110e+00 4.817067e+00 3.441947e+00 2.708762e+00 2.693680e+00 2.547596e+00 2.029634e+00 6.971006e-01 6.897321e-01 6.468592e-01 6.180230e-01 5.650685e-01 8.299382e-01 7.796900e-01 9.104123e-01 6.595822e-01 5.549908e-01 4.245669e-01 4.303473e-01 3.830119e-01
<GCONST> 1.289753e+02
<TRANSP> 5
 0.000000e+00 1.000000e+00 0.000000e+00 0.000000e+00 0.000000e+00
 0.000000e+00 6.878977e-01 3.121023e-01 0.000000e+00 0.000000e+00
 0.000000e+00 0.000000e+00 6.424165e-01 3.575835e-01 0.000000e+00
 0.000000e+00 0.000000e+00 0.000000e+00 7.048293e-01 2.951707e-01
 0.000000e+00 0.000000e+00 0.000000e+00 0.000000e+00 0.000000e+00
<ENDHMM>
~h "l"
<BEGINHMM>
<NUMSTATES> 5
<STATE> 2
<MEAN> 39
 -2.258744e+00 9.595749e-01 9.061785e+00 -4.534348e+00 -3.500489e+00 -4.662531e+00 -7.725441e+00 -9.458889e+00 -6.509902e+00 -1.153395e+01 -1.361895e+01 -6.840765e+00 7.599514e+01 1.498481e+00 6.749567e-01 2.697226e-01 3.966473e-01 -1.116982e+00 -9.191551e-01 -3.423545e-01 7.394046e-01 -2.290166e-01 -9.301054e-01 -1.169538e+00 -4.294604e-01 3.486407e-01 -5.898679e-01 -4.470697e-01 -4.929359e-01 -3.713981e-01 2.831095e-01 2.206533e-02 -5.652469e-02 -5.281152e-01 4.837410e-02 4.552439e-01 8.575559e-01 4.343142e-01 7.550973e-02
<VARIANCE> 39
 1.846272e+01 3.059247e+01 3.436364e+01 3.827732e+01 5.542172e+01 6.412739e+01 5.184015e+01 4.692403e+01 4.074860e+01 4.270802e+01 3.557513e+01 2.381793e+01 2.622310e+01 4.414871e+00 2.222063e+00 2.702705e+00 2.829392e+00 3.487162e+00 3.100644e+00 3.341392e+00 4.856868e+00 3.712419e+00 3.132407e+00 4.838455e+00 2.347661e+00 2.172233e+00 4.810734e-01 4.160881e-01 5.419887e-01 6.031373e-01 4.855592e-01 4.846093e-01 6.403645e-01 7.834849e-01 6.042939e-01 5.664780e-01 7.644778e-01 4.270793e-01 2.261076e-01
<GCONST> 1.252417e+02
<STATE> 3
<MEAN> 39
 -1.033617e+00 1.932558e-01 7.425911e+00 -5.766752e+00 -4.909270e+00 -7.166239e+00 -8.932329e+00 -1.012215e+01 -5.995833e+00 -1.139873e+01 -1.223087e+01 -4.807307e+00 7.754100e+01 -2.118740e-01 -3.977523e-01 -6.782715e-01 -6.898245e-01 3.090645e-01 -5.712821e-01 -3.790477e-01 -1.045700e+00 -3.390609e-02 8.615807e-01 1.454770e+00 9.035246e-01 5.774575e-01 -1.823178e-01 -1.271212e-01 -1.790393e-01 -1.817865e-01 2.274025e-01 1.611755e-01 -5.677340e-02 -3.928102e-01 1.015047e-01 4.628810e-01 3.395463e-01 1.029885e-01 8.864219e-02
<VARIANCE> 39
 6.652060e+00 2.454961e+01 4.552378e+01 3.952292e+01 7.584996e+01 7.384208e+01 7.561111e+01 4.719205e+01 7.310822e+01 5.102840e+01 3.970676e+01 3.153387e+01 1.357963e+01 4.780754e-01 1.260086e+00 2.591423e+00 3.538161e+00 2.672827e+00 2.783545e+00 2.890303e+00 4.389212e+00 3.512562e+00 3.346499e+00 3.889990e+00 2.444988e+00 1.222788e+00 1.486434e-01 1.708175e-01 3.773561e-01 4.622272e-01 3.241405e-01 3.917067e-01 5.269914e-01 5.580369e-01 6.985173e-01 6.044779e-01 5.995730e-01 4.197721e-01 1.204800e-01
<GCONST> 1.171528e+02
<STATE> 4
<MEAN> 39
 -4.328298e+00 6.960945e+00 1.018688e+01 -1.830275e+00 -7.509247e+00 -1.440375e+01 -1.629030e+01 -8.894948e+00 -6.660478e+00 -8.689540e+00 -3.918432e+00 -1.188129e+00 7.103040e+01 -7.564452e-01 -1.124940e-01 -3.239725e-01 8.678336e-02 6.795748e-01 6.730227e-01 6.898690e-01 -1.628832e-01 -1.100582e-01 5.942714e-01 6.336184e-01 2.121351e-01 -4.418350e-01 -1.548758e-01 -1.622750e-01 -2.272134e-02 -1.727196e-02 1.091897e-01 2.565987e-01 2.312484e-01 3.703936e-02 1.530131e-01 7.894945e-02 -1.476181e-01 -1.273214e-01 -2.616626e-02
<VARIANCE> 39
 1.905685e+01 4.371975e+01 4.187018e+01 4.137550e+01 5.438372e+01 6.093320e+01 6.330946e+01 4.658651e+01 3.875270e+01 4.176045e+01 2.593676e+01 2.398601e+01 4.688517e+01 1.091003e+00 1.853375e+00 2.157287e+00 2.415891e+00 2.171914e+00 2.914167e+00 3.723762e+00 3.592242e+00 3.178015e+00 2.934783e+00 2.040119e+00 1.528003e+00 1.323864e+00 1.663619e-01 2.317488e-01 2.832693e-01 3.008527e-01 2.947364e-01 3.557820e-01 4.049015e-01 3.501559e-01 3.477885e-01 2.944095e-01 3.087761e-01 2.536870e-01 8.227891e-02
<GCONST> 1.128188e+02
<TRANSP> 5
 0.000000e+00 1.000000e+00 0.000000e+00 0.000000e+00 0.000000e+00
 0.000000e+00 6.034996e-01 3.965003e-01 0.000000e+00 0.000000e+00
 0.000000e+00 0.000000e+00 6.740271e-01 3.259730e-01 0.000000e+00
 0.000000e+00 0.000000e+00 0.000000e+00 7.538564e-01 2.461437e-01
 0.000000e+00 0.000000e+00 0.000000e+00 0.000000e+00 0.000000e+00
<ENDHMM>
~h "m"
<BEGINHMM>
<NUMSTATES> 5
<STATE> 2
<MEAN> 39
 -7.178546e+00 6.915196e+00 7.353623e+00 1.531975e+00 7.171733e+00 4.848422e+00 -8.714992e-01 -1.000415e+01 -6.512978e+00 -4.724591e+00 -7.469242e+00 -4.681215e+00 6.826288e+01 1.861625e+00 1.328908e+00 -2.467049e-02 3.213056e-01 1.105503e+00 1.214102e+00 -5.869462e-01 -1.594553e+00 -1.002064e+00 -3.801713e-01 -7.782472e-01 -7.260374e-01 5.849407e-01 -2.374193e-01 -5.613589e-01 -5.684178e-01 -5.688502e-01 -3.776750e-01 -3.707219e-01 -2.850611e-01 -1.309380e-01 2.189917e-01 1.122211e-01 1.305645e-01 -1.220944e-02 1.707806e-01
<VARIANCE> 39
 2.878759e+01 2.711979e+01 2.287653e+01 2.196193e+01 2.032847e+01 2.466048e+01 2.356628e+01 4.324195e+01 2.456259e+01 2.010548e+01 2.133744e+01 2.197787e+01 4.238398e+01 4.900142e+00 1.785534e+00 3.150506e+00 2.897673e+00 2.236072e+00 2.232582e+00 2.140546e+00 4.452758e+00 2.590915e+00 1.621676e+00 1.746823e+00 1.531676e+00 3.550628e+00 3.857910e-01 2.804774e-01 3.638970e-01 2.623095e-01 3.259806e-01 2.888819e-01 3.698353e-01 5.614215e-01 4.015248e-01 3.006978e-01 2.974347e-01 2.782544e-01 1.578148e-01
<GCONST> 1.107701e+02
<STATE> 3
<MEAN> 39
 -4.984404e+00 7.715028e+00 5.440849e+00 2.580837e-01 8.365602e+00 5.538929e+00 -3.067734e+00 -1.283657e+01 -6.755290e+00 -4.678217e+00 -8.927953e+00 -6.726930e+00 6.935577e+01 -6.012077e-02 -2.342320e-02 -1.907736e-01 -1.994336e-01 2.491473e-02 2.360429e-02 -1.176746e-01 -2.696386e-02 6.588205e-02 -4.974034e-02 1.485283e-01 -2.031947e-01 -3.087059e-03 -1.656188e-01 -1.761889e-01 1.303820e-02 -1.353921e-01 -2.335078e-01 -2.359712e-01 4.636744e-02 1.954080e-01 1.720152e-01 6.763943e-02 1.606567e-01 1.132503e-01 5.203689e-02
<VARIANCE> 39
 1.256849e+01 1.692218e+01 1.668398e+01 1.969594e+01 2.471353e+01 3.192013e+01 2.598017e+01 5.350945e+01 2.670448e+01 1.710180e+01 1.762561e+01 2.205678e+01 2.087486e+01 5.450292e-01 7.960004e-01 1.044976e+00 1.110894e+00 9.409848e-01 1.180570e+00 1.153329e+00 1.499450e+00 9.361759e-01 9.254963e-01 8.686641e-01 9.907433e-01 7.716169e-01 1.375595e-01 1.592353e-01 1.900922e-01 2.665266e-01 2.867306e-01 2.646604e-01 2.576588e-01 2.871411e-01 2.622739e-01 2.143712e-01 1.809058e-01 2.166744e-01 1.092156e-01
<GCONST> 9.096147e+01
<STATE> 4
<MEAN> 39
 -4.355040e+00 5.455563e+00 3.642056e+00 -3.371536e+00 5.702993e+00 3.672726e+00 -2.097600e+00 -1.148754e+01 -5.287230e+00 -4.977610e+00 -6.979797e+00 -6.805615e+00 7.224131e+01 -3.354039e-01 -1.085930e+00 -3.913802e-01 -1.254192e+00 -1.463163e+00 -1.365015e+00 -3.623784e-01 5.306587e-02 9.940103e-01 4.667542e-01 6.865664e-01 6.812878e-01 9.166485e-01 -1.893281e-01 -4.042946e-01 1.317962e-01 3.224082e-03 -2.088729e-01 -2.517885e-01 -1.649562e-01 -5.250654e-02 2.036606e-01 1.749346e-01 7.198636e-02 3.023727e-01 1.764851e-01
<VARIANCE> 39
 2.710682e+01 2.042911e+01 2.720765e+01 4.420008e+01 3.596649e+01 4.317222e+01 3.060046e+01 6.390299e+01 3.094129e+01 1.852522e+01 1.948314e+01 2.378203e+01 4.334452e+01 1.075951e+00 2.251961e+00 2.038407e+00 4.166883e+00 3.763785e+00 2.474151e+00 2.799487e+00 3.918143e+00 2.686810e+00 2.328647e+00 1.626196e+00 2.498001e+00 3.611792e+00 1.143105e-01 2.588788e-01 3.401109e-01 5.456390e-01 5.186696e-01 4.428766e-01 4.272831e-01 4.450381e-01 3.495634e-01 4.008489e-01 2.810014e-01 3.494400e-01 2.332111e-01
<GCONST> 1.143643e+02
<TRANSP> 5
 0.000000e+00 1.000000e+00 0.000000e+00 0.000000e+00 0.000000e+00
 0.000000e+00 5.708855e-01 4.291145e-01 0.000000e+00 0.000000e+00
 0.000000e+00 0.000000e+00 8.010918e-01 1.989082e-01 0.000000e+00
 0.000000e+00 0.000000e+00 0.000000e+00 6.214530e-01 3.785470e-01
 0.000000e+00 0.000000e+00 0.000000e+00 0.000000e+00 0.000000e+00
<ENDHMM>
~h "n"
<BEGINHMM>
<NUMSTATES> 5
<STATE> 2
<MEAN> 39
 -4.305727e+00 4.231261e+00 8.147257e+00 1.659613e+00 7.150156e+00 1.708782e+00 -4.531862e+00 -1.247586e+01 -5.069884e+00 -5.561820e+00 -9.414545e+00 -7.217827e+00 7.317596e+01 1.649407e-01 1.377123e+00 2.078627e-01 1.359124e+00 5.028899e-01 6.576546e-01 -3.286253e-01 -2.448160e-01 5.465860e-02 -6.833978e-01 -8.129079e-01 -5.282580e-01 -1.095305e+00 -1.537061e-01 -3.091303e-01 -2.353099e-01 -6.025028e-01 -1.512316e-01 -1.695098e-01 -2.277304e-01 -2.606887e-01 1.385801e-01 2.602091e-01 3.277256e-01 1.160652e-01 2.885724e-01
<VARIANCE> 39
