~o
<STREAMINFO> 1 39
<VECSIZE> 39<NULLD><MFCC_D_A_0><DIAGC>
~h "#"
<BEGINHMM>
<NUMSTATES> 5
<STATE> 2
<MEAN> 39
 -5.912263e+00 -3.138924e+00 2.668891e+00 -1.199876e+01 -6.696984e+00 -5.254643e+00 -2.743644e+00 -7.917412e+00 1.629013e+00 -9.703703e-01 -6.801528e+00 -3.016069e+00 7.820827e+01 1.423714e-01 -7.726301e-02 1.702502e-01 -1.269704e-01 -1.473287e-01 -8.471746e-02 1.396063e-01 1.456119e-02 1.165072e-01 1.013282e-01 -7.270839e-02 -4.067398e-02 2.805759e-01 -7.489823e-02 3.600512e-03 2.307341e-02 4.690030e-02 5.127533e-02 3.473461e-02 4.595612e-03 -3.120542e-03 -3.746339e-02 -2.581115e-02 2.677700e-02 4.963910e-03 -6.430290e-02
<VARIANCE> 39
 8.658934e+01 4.852341e+01 4.931553e+01 5.761726e+01 8.741968e+01 5.578972e+01 6.783833e+01 7.104527e+01 6.026235e+01 4.442049e+01 3.550674e+01 2.618242e+01 6.429171e+01 3.770220e+00 2.662577e+00 2.316471e+00 3.458782e+00 3.296043e+00 2.852437e+00 2.853512e+00 3.537429e+00 3.572815e+00 2.735436e+00 2.225883e+00 1.801016e+00 2.680852e+00 4.187374e-01 4.208689e-01 3.707100e-01 5.796568e-01 4.250919e-01 4.291820e-01 4.505764e-01 5.979284e-01 5.412230e-01 4.350595e-01 3.702465e-01 3.243090e-01 3.245226e-01
<GCONST> 1.264527e+02
<STATE> 3
<MEAN> 39
 -5.914149e+00 -3.372625e+00 3.344071e+00 -1.213870e+01 -6.843697e+00 -5.324991e+00 -2.304789e+00 -7.913509e+00 1.766332e+00 -8.206854e-01 -6.903264e+00 -3.116692e+00 7.871241e+01 -1.129987e-01 -7.031804e-02 2.384363e-01 2.950301e-02 4.315162e-02 3.372452e-02 1.216686e-01 -2.309058e-02 -2.518225e-02 -3.163196e-03 1.740001e-02 -1.926759e-02 6.916165e-02 -7.352399e-02 1.268474e-03 1.682911e-02 4.466309e-02 5.738045e-02 3.329080e-02 -1.066176e-02 -1.408664e-02 -4.388463e-02 -3.407786e-02 2.632893e-02 7.459427e-03 -6.020637e-02
<VARIANCE> 39
 8.786012e+01 4.672529e+01 5.250969e+01 5.762435e+01 8.860759e+01 5.657283e+01 7.045267e+01 6.915116e+01 5.865289e+01 4.562164e+01 3.530338e+01 2.675727e+01 5.294808e+01 3.747841e+00 2.690281e+00 2.270753e+00 3.583124e+00 3.338067e+00 2.786070e+00 2.806346e+00 3.329391e+00 3.386933e+00 2.696568e+00 2.199165e+00 1.769662e+00 2.486158e+00 4.097089e-01 4.202485e-01 3.635907e-01 6.131890e-01 4.296285e-01 4.142174e-01 4.364294e-01 5.674987e-01 5.043658e-01 4.214509e-01 3.612354e-01 3.152540e-01 3.112190e-01
<GCONST> 1.258184e+02
<STATE> 4
<MEAN> 39
 -7.247462e+00 -3.680576e+00 4.579388e+00 -1.153690e+01 -6.002659e+00 -4.877481e+00 -2.068078e+00 -8.225821e+00 1.163070e+00 -1.269972e+00 -6.598476e+00 -3.051152e+00 7.832201e+01 -3.904884e-01 -7.294609e-02 2.751463e-01 2.007926e-01 2.697881e-01 1.418307e-01 4.048227e-02 -9.349108e-02 -2.094189e-01 -1.481795e-01 1.168311e-01 2.834586e-02 -1.641399e-01 -4.965116e-02 -1.438110e-03 1.708955e-03 3.286135e-02 4.244909e-02 1.793067e-02 -1.932819e-02 -1.390884e-02 -3.682004e-02 -3.004642e-02 1.867825e-02 1.049827e-02 -4.397633e-02
<VARIANCE> 39
 1.054176e+02 5.075126e+01 5.780611e+01 6.430016e+01 9.235770e+01 5.597029e+01 7.262175e+01 7.039684e+01 6.029788e+01 4.794414e+01 3.720210e+01 2.776620e+01 4.857476e+01 3.899664e+00 2.893427e+00 2.330403e+00 3.852463e+00 3.315085e+00 2.705175e+00 2.879716e+00 3.247583e+00 3.166552e+00 2.621984e+00 2.201074e+00 1.742161e+00 2.333804e+00 4.428802e-01 4.411884e-01 3.811768e-01 6.821751e-01 4.494256e-01 4.076066e-01 4.418076e-01 5.618019e-01 4.749765e-01 4.102167e-01 3.599958e-01 3.074967e-01 3.224924e-01
<GCONST> 1.266821e+02
<TRANSP> 5
 0.000000e+00 1.000000e+00 0.000000e+00 0.000000e+00 0.000000e+00
 0.000000e+00 7.022085e-01 2.977915e-01 0.000000e+00 0.000000e+00
 0.000000e+00 0.000000e+00 7.022089e-01 2.977911e-01 0.000000e+00
 0.000000e+00 0.000000e+00 0.000000e+00 8.185152e-01 1.814848e-01
 0.000000e+00 0.000000e+00 0.000000e+00 0.000000e+00 0.000000e+00
<ENDHMM>
~h "$"
<BEGINHMM>
<NUMSTATES> 5
<STATE> 2
<MEAN> 39
 -7.267442e+00 2.951108e+00 7.909600e+00 -6.860531e+00 -4.416427e+00 -8.827025e+00 -1.445490e+01 -1.039436e+01 -1.344144e+00 -5.889060e+00 -5.426241e+00 -2.166956e+00 7.402627e+01 4.458960e-01 1.286322e-01 1.798937e-01 4.294439e-03 -2.037909e-01 -2.946050e-01 -4.049338e-01 -4.880119e-02 1.464575e-02 -9.852715e-02 -9.252995e-02 4.003246e-02 2.279686e-01 -5.074769e-02 -2.451346e-02 -2.241069e-02 1.314126e-02 2.049590e-02 3.442993e-02 5.994850e-02 1.976201e-02 -1.065751e-02 -6.577432e-03 1.517681e-02 4.124846e-03 -3.630167e-02
<VARIANCE> 39
 1.325994e+02 6.437682e+01 4.614199e+01 4.870821e+01 5.318066e+01 8.585241e+01 1.365544e+02 5.532410e+01 3.614656e+01 3.328866e+01 3.252107e+01 2.430373e+01 6.468891e+01 4.616680e+00 2.444258e+00 2.338094e+00 2.744356e+00 2.532902e+00 3.591458e+00 5.278393e+00 2.973800e+00 2.638896e+00 2.406780e+00 2.040113e+00 1.583911e+00 2.003113e+00 5.323750e-01 3.586102e-01 3.826434e-01 4.738054e-01 3.795398e-01 4.878578e-01 6.238948e-01 5.286595e-01 4.632705e-01 4.218699e-01 3.654574e-01 2.850273e-01 2.574761e-01
<GCONST> 1.252877e+02
<STATE> 3
<MEAN> 39
 -6.202091e+00 3.196827e+00 8.312618e+00 -6.732742e+00 -4.944617e+00 -9.566149e+00 -1.536024e+01 -1.037909e+01 -1.364185e+00 -6.237614e+00 -5.600400e+00 -2.003176e+00 7.446216e+01 2.121509e-01 1.935731e-02 8.739337e-02 5.188053e-02 -8.966684e-02 -1.306803e-01 -1.370265e-01 1.619860e-02 -3.695324e-02 -1.113424e-01 -2.785303e-02 4.563699e-02 9.304743e-02 -7.135600e-02 -3.352070e-02 -2.722753e-02 1.294072e-02 3.880208e-02 5.309377e-02 8.082519e-02 1.512009e-02 -1.625076e-02 -1.713487e-03 1.827313e-02 -4.045880e-04 -3.875157e-02
<VARIANCE> 39
 1.177727e+02 6.066650e+01 4.398767e+01 4.950955e+01 5.291503e+01 8.829121e+01 1.348639e+02 5.597907e+01 3.749488e+01 3.332433e+01 3.183696e+01 2.497420e+01 5.628757e+01 4.663290e+00 2.369735e+00 2.308713e+00 2.869686e+00 2.713143e+00 3.863800e+00 5.660328e+00 3.087308e+00 2.667123e+00 2.374694e+00 2.072493e+00 1.619521e+00 1.944728e+00 5.125650e-01 3.405351e-01 3.734385e-01 5.050010e-01 3.958958e-01 5.041367e-01 6.467597e-01 5.478851e-01 4.632236e-01 4.208059e-01 3.692265e-01 2.902426e-01 2.536036e-01
<GCONST> 1.253780e+02
<STATE> 4
<MEAN> 39
 -6.447641e+00 2.792879e+00 8.331550e+00 -6.317095e+00 -4.860255e+00 -9.484674e+00 -1.491726e+01 -1.000375e+01 -1.719696e+00 -6.652722e+00 -5.417150e+00 -1.772473e+00 7.412334e+01 -1.443963e-01 -1.363614e-01 -4.188032e-02 1.134082e-01 1.133191e-01 1.253530e-01 2.456140e-01 7.084243e-02 -1.287386e-01 -9.347273e-02 5.308437e-02 4.071055e-02 -9.606846e-02 -6.350790e-02 -2.960969e-02 -2.275862e-02 9.456239e-03 4.043984e-02 4.916139e-02 6.761088e-02 3.758087e-03 -1.858196e-02 5.682972e-03 1.298505e-02 -2.089052e-03 -3.196767e-02
<VARIANCE> 39
 1.130006e+02 6.333743e+01 4.533141e+01 5.324020e+01 5.477943e+01 9.071438e+01 1.395358e+02 6.051348e+01 3.964034e+01 3.286746e+01 3.225452e+01 2.564650e+01 5.666086e+01 4.409997e+00 2.363414e+00 2.315517e+00 3.184640e+00 2.830934e+00 3.936316e+00 5.574651e+00 3.230926e+00 2.675246e+00 2.296782e+00 2.114293e+00 1.647920e+00 1.895879e+00 4.810626e-01 3.416217e-01 3.794708e-01 5.698012e-01 4.180168e-01 5.121295e-01 6.556363e-01 5.682467e-01 4.591171e-01 4.119539e-01 3.730520e-01 2.938446e-01 2.649365e-01
<GCONST> 1.260986e+02
<TRANSP> 5
 0.000000e+00 1.000000e+00 0.000000e+00 0.000000e+00 0.000000e+00
 0.000000e+00 7.114106e-01 2.885894e-01 0.000000e+00 0.000000e+00
 0.000000e+00 0.000000e+00 7.114122e-01 2.885877e-01 0.000000e+00
 0.000000e+00 0.000000e+00 0.000000e+00 8.315412e-01 1.684587e-01
 0.000000e+00 0.000000e+00 0.000000e+00 0.000000e+00 0.000000e+00
<ENDHMM>
~h "@"
<BEGINHMM>
<NUMSTATES> 5
<STATE> 2
<MEAN> 39
 -9.209337e+00 -1.923204e+00 4.808347e+00 -8.485795e+00 4.538568e-01 -1.055385e+00 -4.938118e+00 -1.357155e+01 -5.084251e+00 -6.225841e+00 -6.337501e+00 -1.152574e+00 7.548792e+01 -4.109552e-02 3.613938e-02 4.291219e-02 6.854724e-02 -1.131276e-02 -5.902707e-02 -6.657736e-03 5.561054e-02 -1.942091e-02 -2.637447e-02 -7.822076e-03 1.215665e-01 -1.202877e-01 -3.727554e-02 -8.098016e-03 2.130005e-03 3.575077e-02 9.065059e-03 -4.683580e-04 2.144315e-03 2.745013e-02 1.361294e-02 1.792869e-02 2.650806e-02 -1.892422e-03 -3.679784e-02
<VARIANCE> 39
 1.033456e+02 5.630409e+01 5.844244e+01 8.462216e+01 6.501115e+01 5.534111e+01 6.420708e+01 8.063255e+01 5.426754e+01 5.145217e+01 4.469715e+01 3.581271e+01 5.974553e+01 5.394068e+00 3.066424e+00 2.958947e+00 5.114439e+00 2.747285e+00 2.852385e+00 3.679692e+00 4.972079e+00 3.289778e+00 2.688900e+00 2.873607e+00 1.990132e+00 3.088129e+00 7.168907e-01 4.741584e-01 4.894753e-01 8.335438e-01 4.331838e-01 4.810224e-01 5.910518e-01 8.096945e-01 5.463567e-01 4.390481e-01 4.710030e-01 3.259459e-01 4.426798e-01
<GCONST> 1.321374e+02
<STATE> 3
<MEAN> 39
 -9.520578e+00 -1.874665e+00 4.952734e+00 -8.115592e+00 4.668242e-01 -1.247667e+00 -4.950423e+00 -1.328479e+01 -5.124920e+00 -6.259851e+00 -6.235506e+00 -8.145890e-01 7.495615e+01 -1.507178e-01 2.070327e-03 4.016334e-02 1.646203e-01 1.532066e-02 -6.010733e-02 1.031908e-03 1.241324e-01 1.636994e-02 3.254930e-02 7.017825e-02 1.110950e-01 -2.232859e-01 -3.419439e-02 -1.260188e-02 -4.774441e-03 2.920785e-02 8.852501e-03 1.558323e-03 -7.439227e-05 1.957386e-02 8.714884e-03 1.816088e-02 2.514544e-02 -6.172836e-03 -3.256163e-02
<VARIANCE> 39
 1.047242e+02 6.019754e+01 6.004589e+01 8.726625e+01 6.503687e+01 5.618912e+01 6.496332e+01 8.259283e+01 5.212056e+01 5.043331e+01 4.573760e+01 3.645372e+01 6.046013e+01 4.965639e+00 3.050335e+00 2.905104e+00 4.921567e+00 2.640644e+00 2.800089e+00 3.584270e+00 4.799911e+00 3.217789e+00 2.648403e+00 2.802879e+00 1.939233e+00 2.914343e+00 6.477261e-01 4.690141e-01 4.817921e-01 8.001786e-01 4.120988e-01 4.682029e-01 5.722294e-01 7.789202e-01 5.375522e-01 4.336827e-01 4.555003e-01 3.157101e-01 4.249293e-01
<GCONST> 1.314565e+02
<STATE> 4
<MEAN> 39
 -1.033762e+01 -2.027102e+00 5.132038e+00 -7.418406e+00 5.537643e-01 -1.459884e+00 -5.059387e+00 -1.278353e+01 -5.029656e+00 -6.041232e+00 -5.760275e+00 -5.208402e-01 7.397573e+01 -2.411755e-01 -4.996128e-02 8.884412e-03 2.325872e-01 3.627271e-02 -5.811058e-02 -2.449672e-03 1.607942e-01 4.029826e-02 9.547779e-02 1.444925e-01 8.146802e-02 -3.028339e-01 -2.030261e-02 -1.075204e-02 -1.258692e-02 1.577410e-02 3.112633e-03 2.447036e-03 -2.522761e-03 1.090634e-02 4.352966e-03 1.358813e-02 1.738457e-02 -9.743648e-03 -2.198459e-02
<VARIANCE> 39
 1.076931e+02 6.600470e+01 6.235800e+01 8.951355e+01 6.638646e+01 5.596107e+01 6.767559e+01 8.865419e+01 4.889026e+01 4.947837e+01 4.661545e+01 3.640092e+01 6.802341e+01 4.349202e+00 3.015179e+00 2.801201e+00 4.580803e+00 2.517906e+00 2.704894e+00 3.473723e+00 4.587032e+00 3.106797e+00 2.586253e+00 2.654910e+00 1.850504e+00 2.714231e+00 5.533859e-01 4.604504e-01 4.631396e-01 7.421600e-01 3.865387e-01 4.472125e-01 5.484895e-01 7.339225e-01 5.227143e-01 4.277165e-01 4.280508e-01 3.020643e-01 3.948065e-01
<GCONST> 1.304540e+02
<TRANSP> 5
 0.000000e+00 1.000000e+00 0.000000e+00 0.000000e+00 0.000000e+00
 0.000000e+00 6.722307e-01 3.277693e-01 0.000000e+00 0.000000e+00
 0.000000e+00 0.000000e+00 6.722301e-01 3.277698e-01 0.000000e+00
 0.000000e+00 0.000000e+00 0.000000e+00 7.850046e-01 2.149954e-01
 0.000000e+00 0.000000e+00 0.000000e+00 0.000000e+00 0.000000e+00
<ENDHMM>
~h "D"
<BEGINHMM>
<NUMSTATES> 5
<STATE> 2
<MEAN> 39
 -1.046965e+01 -1.198028e+00 7.326106e+00 -7.787440e+00 1.054917e+00 5.248382e-01 -5.755038e+00 -1.644946e+01 -3.369892e+00 -4.972336e+00 -6.893929e+00 -4.020684e+00 7.747552e+01 -1.385683e-01 -1.223508e-02 2.924266e-02 -1.171165e-01 -8.803346e-02 -6.877509e-02 1.104096e-01 7.008884e-02 -9.352759e-02 -1.052951e-01 -2.902066e-02 3.926471e-02 -1.059932e-01 -7.725873e-03 -5.751613e-03 -1.188355e-02 6.518766e-03 -9.822759e-03 -1.884440e-02 4.751561e-03 2.614547e-02 -7.706851e-03 -5.637319e-03 1.510103e-03 1.176191e-02 -3.288872e-02
<VARIANCE> 39
 1.020866e+02 4.044780e+01 5.247281e+01 7.817669e+01 9.285101e+01 5.836726e+01 8.444350e+01 8.099216e+01 4.884290e+01 5.416299e+01 4.424445e+01 3.357280e+01 5.076576e+01 5.137088e+00 2.563002e+00 2.219685e+00 3.849451e+00 2.888630e+00 2.850294e+00 3.726663e+00 4.579173e+00 2.661252e+00 2.505475e+00 2.571860e+00 1.911550e+00 2.056947e+00 7.428886e-01 3.833196e-01 3.563799e-01 6.229040e-01 4.375212e-01 4.392980e-01 5.678014e-01 7.694506e-01 4.629685e-01 3.961719e-01 4.351340e-01 3.133258e-01 2.612775e-01
<GCONST> 1.284717e+02
<STATE> 3
<MEAN> 39
 -1.109781e+01 -1.296460e+00 7.338071e+00 -8.169420e+00 7.271785e-01 2.432969e-01 -5.277987e+00 -1.606892e+01 -3.693791e+00 -5.293536e+00 -6.905372e+00 -3.775290e+00 7.690374e+01 -1.522005e-01 -4.069968e-02 -1.349775e-02 -8.473609e-02 -1.186080e-01 -1.175309e-01 1.337972e-01 1.562405e-01 -1.047995e-01 -1.031781e-01 -1.105381e-02 8.584306e-02 -2.034483e-01 2.632506e-03 -7.240984e-03 -1.204919e-02 1.526621e-02 -5.092542e-03 -1.328616e-02 1.413678e-03 2.230838e-02 -9.066908e-05 6.107396e-03 6.320105e-03 1.506385e-02 -2.736319e-02
<VARIANCE> 39
 1.081136e+02 4.103874e+01 5.001254e+01 7.332430e+01 8.763575e+01 5.731036e+01 7.817759e+01 8.048383e+01 4.880201e+01 5.355855e+01 4.620188e+01 3.363526e+01 5.184094e+01 5.124033e+00 2.600009e+00 2.170366e+00 3.932066e+00 2.857707e+00 2.863521e+00 3.698667e+00 4.500514e+00 2.635376e+00 2.419107e+00 2.614268e+00 1.933664e+00 2.024340e+00 7.555504e-01 3.906256e-01 3.465459e-01 6.377410e-01 4.391145e-01 4.417008e-01 5.688352e-01 7.642689e-01 4.614213e-01 3.801693e-01 4.436719e-01 3.142694e-01 2.715926e-01
<GCONST> 1.283248e+02
<STATE> 4
<MEAN> 39
 -1.236678e+01 -1.604530e+00 7.339116e+00 -8.235431e+00 4.843484e-01 -1.933354e-01 -4.689551e+00 -1.506048e+01 -4.105420e+00 -5.500994e+00 -6.569320e+00 -3.248691e+00 7.531866e+01 -1.698912e-01 -7.336537e-02 -6.721690e-02 2.235791e-05 -1.327953e-01 -1.356138e-01 1.550099e-01 2.579515e-01 -9.299301e-02 -5.789766e-02 5.093148e-02 1.492185e-01 -3.209951e-01 4.702936e-03 -2.937448e-03 -9.190438e-03 2.550560e-02 1.311029e-03 -3.818704e-03 -5.329027e-03 1.736841e-02 4.991548e-03 1.306105e-02 1.267690e-02 1.214915e-02 -2.356016e-02
<VARIANCE> 39
 1.167292e+02 4.293146e+01 4.894023e+01 6.973476e+01 8.103923e+01 5.474807e+01 7.334401e+01 8.314877e+01 4.662388e+01 5.230463e+01 4.789978e+01 3.319091e+01 6.177587e+01 4.749303e+00 2.582546e+00 2.135082e+00 3.851568e+00 2.717227e+00 2.767293e+00 3.600303e+00 4.307796e+00 2.624026e+00 2.283576e+00 2.588248e+00 1.900864e+00 2.019565e+00 6.966547e-01 3.896536e-01 3.426957e-01 6.212738e-01 4.196171e-01 4.291959e-01 5.584459e-01 7.306373e-01 4.643653e-01 3.631523e-01 4.416695e-01 3.110449e-01 2.868053e-01
<GCONST> 1.277233e+02
<TRANSP> 5
 0.000000e+00 1.000000e+00 0.000000e+00 0.000000e+00 0.000000e+00
 0.000000e+00 7.043049e-01 2.956951e-01 0.000000e+00 0.000000e+00
 0.000000e+00 0.000000e+00 7.043052e-01 2.956948e-01 0.000000e+00
 0.000000e+00 0.000000e+00 0.000000e+00 8.229196e-01 1.770804e-01
 0.000000e+00 0.000000e+00 0.000000e+00 0.000000e+00 0.000000e+00
<ENDHMM>
~h "E"
<BEGINHMM>
<NUMSTATES> 5
<STATE> 2
<MEAN> 39
 -1.214564e+01 -3.796281e+00 4.508035e+00 -7.456576e+00 2.347989e+00 -3.520942e-01 -5.887468e+00 -1.701688e+01 -3.867960e+00 -1.938294e+00 -2.297023e+00 -1.162628e+00 7.687827e+01 1.161440e-01 -7.908247e-02 1.825758e-01 9.881188e-02 1.162801e-01 -5.151474e-02 -3.013409e-02 -1.790025e-01 -2.341247e-02 -1.363386e-02 -1.146275e-02 -5.616456e-02 2.971687e-01 -4.238663e-02 1.621469e-02 1.095351e-02 3.640648e-02 -1.107758e-02 -3.225857e-03 2.482313e-02 7.593813e-02 -1.242081e-02 -3.310522e-02 -1.383263e-02 -1.156995e-02 -8.278826e-02
<VARIANCE> 39
 1.204745e+02 6.870477e+01 6.042523e+01 7.573620e+01 6.190268e+01 5.101750e+01 6.621786e+01 1.077997e+02 4.347287e+01 5.062146e+01 3.722803e+01 2.965940e+01 9.647029e+01 5.396323e+00 3.627451e+00 3.671265e+00 5.027633e+00 2.875925e+00 2.857184e+00 3.920050e+00 7.237254e+00 3.488535e+00 3.636775e+00 2.618070e+00 2.004227e+00 4.831577e+00 6.610769e-01 5.470565e-01 6.031558e-01 8.032445e-01 4.727560e-01 4.764199e-01 6.307309e-01 1.059115e+00 6.183571e-01 5.878484e-01 4.448993e-01 3.463458e-01 5.552375e-01
<GCONST> 1.353390e+02
<STATE> 3
<MEAN> 39
 -1.197526e+01 -3.935453e+00 5.103234e+00 -6.986729e+00 2.600874e+00 -5.362234e-01 -5.865718e+00 -1.716456e+01 -4.018219e+00 -2.156519e+00 -2.423882e+00 -1.377892e+00 7.732245e+01 -7.081916e-03 -3.415535e-02 2.100997e-01 1.791899e-01 6.888063e-02 -6.496193e-02 3.890828e-02 3.933111e-02 -6.700402e-02 -1.219286e-01 -6.085014e-02 -8.290569e-02 5.494110e-02 -3.610818e-02 9.556677e-03 4.953220e-03 1.631791e-02 -1.820574e-02 -5.610693e-03 1.870266e-02 6.448151e-02 -1.536417e-02 -3.457143e-02 -1.499594e-02 -5.697880e-03 -7.058916e-02
<VARIANCE> 39
 1.179400e+02 6.705016e+01 5.994048e+01 7.833459e+01 6.624976e+01 5.339574e+01 6.758733e+01 1.031522e+02 4.312872e+01 4.955607e+01 3.881182e+01 3.042445e+01 8.592173e+01 5.474116e+00 3.698919e+00 3.768451e+00 5.291260e+00 3.023652e+00 2.874854e+00 3.982120e+00 7.191771e+00 3.489748e+00 3.506783e+00 2.703788e+00 2.054400e+00 4.732853e+00 6.695210e-01 5.537485e-01 6.227800e-01 8.579089e-01 4.963466e-01 4.729230e-01 6.413772e-01 1.074241e+00 6.137510e-01 5.684325e-01 4.550569e-01 3.535548e-01 5.693157e-01
<GCONST> 1.357301e+02
<STATE> 4
<MEAN> 39
 -1.221783e+01 -3.975118e+00 5.920588e+00 -6.313367e+00 2.587468e+00 -9.240663e-01 -5.735046e+00 -1.648445e+01 -4.345999e+00 -2.908545e+00 -2.783028e+00 -1.698115e+00 7.695280e+01 -1.104203e-01 -1.593806e-02 1.974688e-01 1.850346e-01 -1.235154e-02 -9.466790e-02 7.748189e-02 2.220312e-01 -1.140634e-01 -2.201379e-01 -1.027752e-01 -7.670521e-02 -1.585456e-01 -1.972220e-02 -1.564602e-03 -8.092896e-03 -6.752284e-03 -1.904227e-02 -7.375404e-03 5.390915e-03 3.479192e-02 -1.069348e-02 -1.971170e-02 -6.099945e-03 5.805400e-03 -3.961138e-02
<VARIANCE> 39
 1.183611e+02 6.895512e+01 5.814075e+01 8.021036e+01 7.086992e+01 5.731168e+01 6.943884e+01 9.953508e+01 4.335611e+01 4.729422e+01 4.030608e+01 3.045498e+01 8.024083e+01 5.377944e+00 3.822347e+00 3.775500e+00 5.342894e+00 3.088309e+00 2.885504e+00 3.988509e+00 6.726727e+00 3.435524e+00 3.193820e+00 2.706493e+00 2.047460e+00 4.346909e+00 6.706895e-01 5.654919e-01 6.346169e-01 8.776314e-01 5.075133e-01 4.676017e-01 6.451827e-01 1.046375e+00 6.006558e-01 5.268136e-01 4.522311e-01 3.515546e-01 5.660546e-01
<GCONST> 1.355426e+02
<TRANSP> 5
 0.000000e+00 1.000000e+00 0.000000e+00 0.000000e+00 0.000000e+00
 0.000000e+00 6.748409e-01 3.251591e-01 0.000000e+00 0.000000e+00
 0.000000e+00 0.000000e+00 6.748393e-01 3.251608e-01 0.000000e+00
 0.000000e+00 0.000000e+00 0.000000e+00 7.887806e-01 2.112193e-01
 0.000000e+00 0.000000e+00 0.000000e+00 0.000000e+00 0.000000e+00
<ENDHMM>
~h "H"
<BEGINHMM>
<NUMSTATES> 5
<STATE> 2
<MEAN> 39
 -1.035402e+01 1.628307e+00 7.473376e+00 -1.163624e+00 5.962803e+00 1.844286e-01 -4.988125e+00 -1.132844e+01 -6.289324e+00 -6.573359e+00 -7.076517e+00 -3.698955e+00 7.110558e+01 -1.123013e-01 3.275416e-01 -4.020564e-03 3.702449e-01 3.326807e-02 1.194235e-01 1.534960e-02 2.509944e-01 9.153304e-02 8.892926e-02 3.724784e-02 -9.893468e-04 -6.003917e-01 -5.999399e-02 -6.222741e-02 -2.830951e-03 -2.845034e-02 -3.635313e-02 -1.211923e-02 1.696170e-02 1.081287e-02 1.936006e-02 1.281799e-02 3.803638e-02 1.416700e-02 7.874989e-03
<VARIANCE> 39
 7.359546e+01 7.732786e+01 3.575473e+01 6.348359e+01 3.997364e+01 3.114413e+01 4.193092e+01 4.768033e+01 3.705517e+01 2.785962e+01 3.549447e+01 2.001496e+01 5.743152e+01 4.906630e+00 3.475326e+00 2.490590e+00 3.805137e+00 2.281760e+00 1.942465e+00 3.021435e+00 2.908768e+00 3.134363e+00 1.705398e+00 2.383353e+00 1.425878e+00 1.305537e+00 6.608612e-01 4.201677e-01 4.158431e-01 6.116244e-01 3.582797e-01 3.372836e-01 5.466760e-01 5.379270e-01 5.421566e-01 2.952966e-01 3.956564e-01 2.495755e-01 2.013688e-01
<GCONST> 1.205110e+02
<STATE> 3
<MEAN> 39
 -1.098286e+01 2.480644e+00 7.470973e+00 1.546860e-03 5.949585e+00 5.575213e-01 -4.870969e+00 -1.044869e+01 -5.892838e+00 -6.207511e+00 -6.783881e+00 -3.643348e+00 6.910617e+01 -3.174686e-01 9.450041e-02 -2.449644e-02 2.509662e-01 -1.048263e-01 6.299178e-02 7.976989e-02 2.879171e-01 1.400473e-01 1.186614e-01 1.671749e-01 4.971872e-02 -5.593882e-01 -5.489924e-02 -7.466643e-02 -1.580382e-02 -4.391376e-02 -4.589246e-02 -2.493705e-02 1.835922e-02 1.321998e-02 4.970931e-03 2.704330e-03 3.847180e-02 1.785054e-02 1.613311e-02
<VARIANCE> 39
 6.843909e+01 7.268313e+01 3.789441e+01 5.593533e+01 3.743315e+01 3.020257e+01 4.077028e+01 4.730137e+01 3.223252e+01 2.654745e+01 3.549858e+01 1.885943e+01 5.636989e+01 3.886518e+00 3.701741e+00 2.442855e+00 3.339979e+00 2.108604e+00 1.913719e+00 2.999689e+00 2.643616e+00 2.701454e+00 1.573815e+00 2.144131e+00 1.327755e+00 1.221670e+00 5.210577e-01 4.418871e-01 4.002337e-01 5.287036e-01 3.261499e-01 3.320586e-01 5.422438e-01 4.894719e-01 4.796538e-01 2.784075e-01 3.533434e-01 2.302737e-01 1.836974e-01
<GCONST> 1.178709e+02
<STATE> 4
<MEAN> 39
 -1.266179e+01 2.432933e+00 7.295708e+00 7.582111e-01 5.198048e+00 6.482642e-01 -4.479656e+00 -9.131381e+00 -5.288887e+00 -5.689613e+00 -5.816252e+00 -3.356054e+00 6.685806e+01 -5.053492e-01 -1.939653e-01 -1.017360e-01 7.074070e-02 -2.822320e-01 -4.588564e-02 1.519279e-01 3.298168e-01 1.360364e-01 1.138215e-01 2.968842e-01 1.162632e-01 -4.847220e-01 -2.999545e-02 -5.921163e-02 -2.719320e-02 -4.305830e-02 -4.022944e-02 -2.959677e-02 1.073571e-02 1.065861e-02 -7.073470e-03 -2.952195e-03 2.410399e-02 1.558832e-02 1.608358e-02
<VARIANCE> 39
 6.953613e+01 7.450392e+01 4.393077e+01 4.735302e+01 3.853991e+01 2.992164e+01 4.181394e+01 4.802831e+01 2.785619e+01 2.500115e+01 3.703863e+01 1.835309e+01 5.509311e+01 3.011196e+00 3.935040e+00 2.423586e+00 2.843626e+00 1.935298e+00 1.940239e+00 3.024840e+00 2.429492e+00 2.337314e+00 1.504216e+00 1.892255e+00 1.240191e+00 1.199328e+00 4.103287e-01 4.898116e-01 3.915564e-01 4.496812e-01 3.005636e-01 3.404295e-01 5.443732e-01 4.466006e-01 4.277731e-01 2.738695e-01 3.143980e-01 2.144166e-01 1.771381e-01
<GCONST> 1.160073e+02
<TRANSP> 5
 0.000000e+00 1.000000e+00 0.000000e+00 0.000000e+00 0.000000e+00
 0.000000e+00 7.053061e-01 2.946940e-01 0.000000e+00 0.000000e+00
 0.000000e+00 0.000000e+00 7.053058e-01 2.946942e-01 0.000000e+00
 0.000000e+00 0.000000e+00 0.000000e+00 8.221282e-01 1.778719e-01
 0.000000e+00 0.000000e+00 0.000000e+00 0.000000e+00 0.000000e+00
<ENDHMM>
~h "I"
<BEGINHMM>
<NUMSTATES> 5
<STATE> 2
<MEAN> 39
 -1.245963e+01 -3.537694e+00 7.048097e+00 -2.997740e+00 6.292675e+00 -8.981516e-01 -8.100753e+00 -1.689955e+01 -5.968379e+00 -4.803854e+00 -5.067911e+00 -2.984727e+00 7.438560e+01 -4.587121e-02 -6.646156e-03 9.172094e-02 1.002232e-01 -7.354505e-03 -6.570993e-02 2.427387e-02 8.433688e-02 3.567772e-02 1.935749e-02 8.438798e-03 -2.017482e-02 -3.317459e-02 -2.186666e-02 8.720569e-03 -2.155327e-02 -1.051144e-02 -4.286455e-02 3.688047e-03 4.101815e-02 6.774026e-02 1.524177e-02 -6.063610e-03 1.453153e-02 8.549177e-03 -4.189032e-02
<VARIANCE> 39
 1.052183e+02 6.044613e+01 5.667561e+01 8.159208e+01 7.117184e+01 4.418093e+01 8.248832e+01 1.121762e+02 5.035182e+01 4.820453e+01 4.010223e+01 3.266971e+01 7.506508e+01 5.491097e+00 3.276048e+00 3.432141e+00 4.474702e+00 3.329411e+00 2.740562e+00 4.555794e+00 7.525647e+00 3.506734e+00 2.782936e+00 2.701799e+00 1.994027e+00 3.407584e+00 6.945717e-01 5.043157e-01 5.803602e-01 7.339507e-01 4.923579e-01 4.745847e-01 7.026020e-01 1.130815e+00 5.924521e-01 4.803947e-01 4.565133e-01 3.432173e-01 4.585751e-01
<GCONST> 1.344301e+02
<STATE> 3
<MEAN> 39
 -1.269367e+01 -3.501675e+00 7.221669e+00 -2.738142e+00 6.072156e+00 -1.083711e+00 -7.846516e+00 -1.632884e+01 -5.798181e+00 -4.782483e+00 -4.988801e+00 -2.994426e+00 7.406234e+01 -1.130295e-01 1.745276e-02 1.875025e-02 5.703434e-02 -1.373338e-01 -4.877429e-02 1.448763e-01 2.740620e-01 7.137131e-02 -4.122471e-03 5.295097e-02 1.421218e-02 -1.608278e-01 -1.967871e-02 3.870697e-03 -2.659715e-02 -1.653692e-02 -3.790865e-02 5.161796e-03 3.289465e-02 5.021365e-02 6.226285e-03 -7.794775e-03 1.529769e-02 1.251909e-02 -3.741348e-02
<VARIANCE> 39
 1.044140e+02 6.352313e+01 5.670625e+01 8.174543e+01 7.043901e+01 4.402771e+01 8.182334e+01 1.081276e+02 4.967972e+01 4.770684e+01 4.028380e+01 3.357430e+01 7.461608e+01 5.172655e+00 3.312967e+00 3.391065e+00 4.440468e+00 3.168470e+00 2.697669e+00 4.432486e+00 7.034631e+00 3.444134e+00 2.717091e+00 2.637342e+00 1.970384e+00 3.258442e+00 6.467150e-01 5.052989e-01 5.720879e-01 7.352052e-01 4.697435e-01 4.647264e-01 6.836304e-01 1.078058e+00 5.890290e-01 4.684219e-01 4.418500e-01 3.386525e-01 4.508163e-01
<GCONST> 1.337472e+02
<STATE> 4
<MEAN> 39
 -1.328002e+01 -3.388201e+00 7.166015e+00 -2.672275e+00 5.307667e+00 -1.241349e+00 -7.222843e+00 -1.502720e+01 -5.432406e+00 -4.821648e+00 -4.690327e+00 -2.859142e+00 7.316411e+01 -1.798312e-01 2.250175e-02 -7.292852e-02 -5.401348e-03 -2.470277e-01 -3.329929e-02 2.273063e-01 3.961518e-01 7.581769e-02 -2.408980e-02 1.061552e-01 6.520233e-02 -2.767140e-01 -1.244985e-02 -2.169940e-03 -2.357950e-02 -1.517260e-02 -1.941020e-02 3.414784e-03 1.121308e-02 1.648593e-02 -4.007685e-03 -2.801339e-03 1.301038e-02 1.249972e-02 -2.295779e-02
<VARIANCE> 39
 1.056305e+02 6.926784e+01 5.777287e+01 8.051436e+01 7.050122e+01 4.476736e+01 8.029254e+01 1.043119e+02 4.768990e+01 4.590913e+01 4.052314e+01 3.357233e+01 7.994571e+01 4.635242e+00 3.297967e+00 3.264762e+00 4.298546e+00 2.955620e+00 2.636105e+00 4.179893e+00 6.244813e+00 3.294027e+00 2.587023e+00 2.527314e+00 1.906824e+00 3.001947e+00 5.733418e-01 4.949978e-01 5.498692e-01 7.196821e-01 4.450052e-01 4.511976e-01 6.453331e-01 9.863759e-01 5.717580e-01 4.470547e-01 4.198924e-01 3.281469e-01 4.327226e-01
<GCONST> 1.324690e+02
<TRANSP> 5
 0.000000e+00 1.000000e+00 0.000000e+00 0.000000e+00 0.000000e+00
 0.000000e+00 6.757590e-01 3.242410e-01 0.000000e+00 0.000000e+00
 0.000000e+00 0.000000e+00 6.757617e-01 3.242383e-01 0.000000e+00
 0.000000e+00 0.000000e+00 0.000000e+00 7.889792e-01 2.110208e-01
 0.000000e+00 0.000000e+00 0.000000e+00 0.000000e+00 0.000000e+00
<ENDHMM>
~h "J"
<BEGINHMM>
<NUMSTATES> 5
<STATE> 2
<MEAN> 39
 -2.006312e+01 -1.124105e+01 6.503422e+00 -3.548196e+00 3.454613e+00 -1.735575e+00 -5.830861e+00 -1.247519e+01 -2.263866e+00 -3.260753e+00 -4.044038e+00 -1.211467e+00 7.188429e+01 -1.142874e-01 -5.122219e-01 1.695302e-01 -8.546219e-02 2.106840e-01 -1.102614e-01 -1.933942e-01 -3.340860e-01 -1.246095e-01 -9.303732e-02 -5.466634e-02 1.008848e-01 4.630380e-01 7.329088e-02 7.693305e-02 -2.663044e-02 -1.033539e-02 -1.558927e-02 1.166435e-03 -5.666478e-03 -1.604336e-03 -2.050916e-02 3.208042e-04 2.064052e-03 -8.791159e-04 -3.494334e-03
<VARIANCE> 39
 1.049153e+02 1.130208e+02 5.550435e+01 4.875781e+01 5.012372e+01 3.589547e+01 4.921453e+01 8.906953e+01 4.629870e+01 3.003654e+01 2.212585e+01 2.129861e+01 1.029263e+02 5.485178e+00 6.661422e+00 4.702729e+00 3.608152e+00 2.624881e+00 2.613581e+00 3.045069e+00 5.016919e+00 3.668827e+00 2.096644e+00 1.822412e+00 1.629624e+00 4.619579e+00 6.734769e-01 8.502562e-01 9.276674e-01 6.236356e-01 4.371476e-01 4.504028e-01 5.334658e-01 7.815220e-01 5.874740e-01 3.753606e-01 3.361757e-01 3.008731e-01 5.144605e-01
<GCONST> 1.305374e+02
<STATE> 3
<MEAN> 39
 -1.991840e+01 -1.239042e+01 6.873113e+00 -3.821348e+00 4.075414e+00 -2.069658e+00 -6.543625e+00 -1.354395e+01 -2.812797e+00 -3.554185e+00 -4.203144e+00 -8.990421e-01 7.329045e+01 1.683335e-01 -1.851075e-01 5.112511e-02 -9.185962e-02 1.303988e-01 -8.295750e-02 -1.952526e-01 -2.756345e-01 -1.845116e-01 -8.865307e-02 -4.886695e-02 8.933845e-02 3.630252e-01 7.934202e-02 1.049505e-01 -3.385132e-02 1.580448e-03 -2.880338e-02 1.352646e-02 5.689660e-03 3.031926e-02 -1.242941e-02 2.457002e-03 4.333685e-03 -5.496035e-03 -4.399300e-02
<VARIANCE> 39
 1.152824e+02 1.065252e+02 5.281867e+01 4.694888e+01 5.049218e+01 3.542193e+01 5.077085e+01 8.934406e+01 5.162851e+01 2.998889e+01 2.196296e+01 2.169125e+01 9.066562e+01 5.941506e+00 6.485046e+00 4.564013e+00 3.302475e+00 2.560030e+00 2.541914e+00 3.008092e+00 5.053155e+00 3.866923e+00 2.037544e+00 1.759709e+00 1.600384e+00 4.121659e+00 7.157828e-01 8.012457e-01 8.945151e-01 5.776263e-01 4.159958e-01 4.363587e-01 5.174540e-01 7.650522e-01 6.095769e-01 3.644109e-01 3.195468e-01 2.916014e-01 4.571962e-01
<GCONST> 1.298011e+02
<STATE> 4
<MEAN> 39
 -1.830106e+01 -1.200753e+01 6.758242e+00 -4.139629e+00 4.273587e+00 -2.241773e+00 -7.539025e+00 -1.431754e+01 -3.570747e+00 -3.786944e+00 -4.383430e+00 -6.576764e-01 7.419487e+01 3.950944e-01 2.283434e-01 -8.227713e-02 -4.829399e-02 -8.944703e-03 -1.285171e-02 -1.242311e-01 -5.540451e-02 -1.757872e-01 -7.167177e-02 -3.310427e-02 5.769842e-02 7.641710e-02 3.126765e-02 8.112218e-02 -2.325937e-02 7.538128e-03 -3.009819e-02 1.603672e-02 2.198736e-02 5.259349e-02 7.476872e-03 3.512717e-03 7.151870e-03 -7.838772e-03 -6.328028e-02
<VARIANCE> 39
 1.324910e+02 1.013359e+02 5.180302e+01 4.910889e+01 5.800809e+01 3.583495e+01 5.775521e+01 9.488423e+01 5.543062e+01 3.362735e+01 2.386868e+01 2.371743e+01 8.417628e+01 5.716349e+00 5.585174e+00 4.014726e+00 3.023213e+00 2.490043e+00 2.428234e+00 3.080018e+00 5.115052e+00 3.931213e+00 2.012434e+00 1.789234e+00 1.574950e+00 3.402086e+00 6.860721e-01 6.970768e-01 7.676933e-01 5.307456e-01 3.913549e-01 4.114080e-01 5.025414e-01 7.495174e-01 6.170673e-01 3.532982e-01 3.122511e-01 2.795671e-01 3.814567e-01
<GCONST> 1.290556e+02
<TRANSP> 5
 0.000000e+00 1.000000e+00 0.000000e+00 0.000000e+00 0.000000e+00
 0.000000e+00 7.063816e-01 2.936185e-01 0.000000e+00 0.000000e+00
 0.000000e+00 0.000000e+00 7.063817e-01 2.936183e-01 0.000000e+00
 0.000000e+00 0.000000e+00 0.000000e+00 8.242472e-01 1.757528e-01
 0.000000e+00 0.000000e+00 0.000000e+00 0.000000e+00 0.000000e+00
<ENDHMM>
~h "N"
<BEGINHMM>
<NUMSTATES> 5
<STATE> 2
<MEAN> 39
 -1.002796e+01 2.164142e+00 5.604950e+00 -8.473396e-04 7.426167e+00 7.771943e-01 -7.401240e+00 -1.368060e+01 -2.931839e+00 -2.969671e+00 -6.742633e+00 -5.810134e+00 6.985911e+01 -4.152886e-01 3.094918e-01 3.081574e-02 -3.324724e-02 -1.097257e-01 2.490831e-01 3.450821e-01 5.832716e-01 -1.142897e-01 -2.080950e-01 1.534262e-01 7.490626e-02 -6.249989e-01 -4.573149e-02 -6.584347e-02 -2.924819e-02 -3.952285e-02 -1.440436e-02 -2.807280e-02 -7.922114e-03 -2.052163e-03 -2.093596e-02 7.967027e-03 4.212239e-02 3.172337e-02 6.285527e-03
<VARIANCE> 39
 5.043729e+01 6.012160e+01 3.844881e+01 5.010409e+01 4.420421e+01 4.106999e+01 5.419155e+01 7.793620e+01 3.418498e+01 4.436811e+01 3.164684e+01 2.954876e+01 6.707063e+01 2.474994e+00 3.101763e+00 3.171286e+00 3.389812e+00 2.772495e+00 2.677673e+00 2.922678e+00 3.696441e+00 3.040286e+00 2.957713e+00 2.486474e+00 2.218856e+00 1.683511e+00 3.642214e-01 3.692963e-01 5.548553e-01 5.953591e-01 4.694614e-01 4.542073e-01 4.841754e-01 6.071920e-01 5.348499e-01 4.690497e-01 4.445043e-01 3.984472e-01 2.459699e-01
<GCONST> 1.243040e+02
<STATE> 3
<MEAN> 39
 -1.148202e+01 2.889314e+00 5.610818e+00 -2.270370e-01 7.038774e+00 1.435642e+00 -6.363545e+00 -1.188765e+01 -3.360263e+00 -3.593389e+00 -6.115833e+00 -5.443214e+00 6.794662e+01 -5.363514e-01 8.196487e-02 -6.629866e-02 -1.387227e-01 -1.600713e-01 1.375268e-01 3.009667e-01 5.577149e-01 -1.567707e-01 -1.570634e-01 2.768685e-01 1.706195e-01 -5.848294e-01 -2.320645e-02 -7.353115e-02 -3.956503e-02 -2.077498e-02 -2.593505e-02 -4.565231e-02 -2.257116e-02 -1.586705e-02 -2.098308e-03 2.457996e-02 3.099843e-02 2.940283e-02 1.474469e-02
<VARIANCE> 39
 5.733425e+01 5.540675e+01 3.787725e+01 4.720399e+01 4.326882e+01 3.865685e+01 4.993118e+01 7.161917e+01 3.082907e+01 3.840079e+01 3.297659e+01 2.893481e+01 6.511037e+01 2.521139e+00 3.159896e+00 3.266427e+00 3.535756e+00 2.936197e+00 2.733399e+00 2.773799e+00 3.576590e+00 2.729724e+00 2.653891e+00 2.399213e+00 2.063512e+00 1.743757e+00 3.904701e-01 3.773313e-01 5.837507e-01 6.491709e-01 5.050349e-01 4.713500e-01 4.728251e-01 6.207634e-01 4.968981e-01 4.371960e-01 4.322778e-01 3.737142e-01 2.748397e-01
<GCONST> 1.237945e+02
<STATE> 4
<MEAN> 39
 -1.349275e+01 2.826652e+00 5.229385e+00 -8.278835e-01 6.275995e+00 1.671969e+00 -5.449678e+00 -9.954530e+00 -3.901587e+00 -4.052554e+00 -4.972886e+00 -4.628540e+00 6.592632e+01 -5.707299e-01 -1.567077e-01 -1.972762e-01 -1.721187e-01 -2.648156e-01 -3.137589e-02 2.169772e-01 4.850657e-01 -1.306899e-01 -5.630746e-02 3.511823e-01 2.600546e-01 -5.206934e-01 1.020380e-02 -4.636057e-02 -3.906316e-02 6.839034e-03 -3.895148e-02 -4.397226e-02 -2.359938e-02 -2.378802e-02 1.701549e-02 2.783651e-02 6.225264e-03 1.805524e-02 1.209886e-02
<VARIANCE> 39
 6.413896e+01 5.263098e+01 3.937962e+01 4.489727e+01 4.565636e+01 3.731072e+01 4.889138e+01 6.785069e+01 2.825793e+01 3.236415e+01 3.407888e+01 2.921598e+01 6.323003e+01 2.518638e+00 2.955111e+00 3.268619e+00 3.574145e+00 3.061246e+00 2.704734e+00 2.671007e+00 3.616071e+00 2.513723e+00 2.361305e+00 2.264183e+00 1.891269e+00 1.775783e+00 4.025917e-01 3.723826e-01 5.886271e-01 6.742364e-01 5.275749e-01 4.808357e-01 4.636459e-01 6.535444e-01 4.680988e-01 4.072175e-01 4.131398e-01 3.444646e-01 2.959640e-01
<GCONST> 1.231396e+02
<TRANSP> 5
 0.000000e+00 1.000000e+00 0.000000e+00 0.000000e+00 0.000000e+00
 0.000000e+00 6.821244e-01 3.178756e-01 0.000000e+00 0.000000e+00
 0.000000e+00 0.000000e+00 6.821263e-01 3.178736e-01 0.000000e+00
 0.000000e+00 0.000000e+00 0.000000e+00 7.949033e-01 2.050967e-01
 0.000000e+00 0.000000e+00 0.000000e+00 0.000000e+00 0.000000e+00
<ENDHMM>
~h "P"
<BEGINHMM>
<NUMSTATES> 5
<STATE> 2
<MEAN> 39
 -7.606116e+00 5.112135e+00 1.008864e+01 -1.681409e+00 -6.130462e+00 -1.372220e+01 -1.397775e+01 -7.075028e+00 -6.492164e+00 -8.380836e+00 -3.952636e+00 -1.565942e+00 6.986557e+01 -3.860901e-01 3.925723e-02 -5.715815e-02 2.959517e-01 3.600561e-02 3.424377e-02 1.940405e-01 2.306671e-01 -4.037457e-02 1.465269e-01 2.171352e-01 1.573401e-01 -5.323666e-01 -7.019141e-02 -6.680530e-02 -3.699773e-02 -2.674956e-02 4.793739e-02 9.903616e-02 1.035518e-01 -3.489813e-03 3.139783e-02 2.691875e-02 3.762583e-03 -1.183754e-02 -3.072273e-03
<VARIANCE> 39
 7.147466e+01 5.577806e+01 3.986156e+01 4.249821e+01 4.574199e+01 8.361189e+01 1.036782e+02 4.320309e+01 3.485168e+01 3.791204e+01 2.777644e+01 2.298986e+01 4.672060e+01 3.304290e+00 2.586762e+00 1.844114e+00 2.224956e+00 2.553946e+00 3.655914e+00 4.816566e+00 2.423953e+00 2.329177e+00 2.153383e+00 1.993595e+00 1.383309e+00 9.796407e-01 4.056851e-01 3.238722e-01 3.105052e-01 3.693731e-01 4.032088e-01 4.536845e-01 5.560856e-01 4.347565e-01 3.710377e-01 3.619379e-01 3.527052e-01 2.447509e-01 1.477456e-01
<GCONST> 1.187211e+02
<STATE> 3
<MEAN> 39
 -9.163672e+00 4.970562e+00 9.732750e+00 -8.274858e-01 -5.811583e+00 -1.318628e+01 -1.291684e+01 -6.333960e+00 -6.477613e+00 -7.779858e+00 -3.213421e+00 -1.099820e+00 6.810547e+01 -6.052057e-01 -1.911387e-01 -1.863242e-01 1.887597e-01 1.744280e-01 3.401486e-01 5.134690e-01 2.237252e-01 6.326444e-02 2.149982e-01 2.137402e-01 1.120303e-01 -5.315382e-01 -5.485369e-02 -6.925161e-02 -4.419985e-02 -4.035613e-02 2.926385e-02 7.905044e-02 7.856163e-02 -1.175667e-03 2.689135e-02 1.124203e-02 -8.038430e-03 -1.415819e-02 3.226590e-03
<VARIANCE> 39
 7.908770e+01 6.233950e+01 4.308811e+01 3.652747e+01 4.218975e+01 7.975099e+01 1.032160e+02 4.177850e+01 3.425303e+01 3.793526e+01 2.466363e+01 2.028783e+01 4.872563e+01 2.888195e+00 2.790159e+00 1.850495e+00 1.976575e+00 2.551646e+00 3.409362e+00 4.368419e+00 2.379782e+00 2.348725e+00 2.073534e+00 1.682480e+00 1.262559e+00 9.352591e-01 3.589079e-01 3.365476e-01 3.087698e-01 3.186982e-01 4.228102e-01 4.518458e-01 5.352935e-01 4.292773e-01 3.782967e-01 3.549870e-01 3.010683e-01 2.242078e-01 1.378741e-01
<GCONST> 1.172180e+02
<STATE> 4
<MEAN> 39
 -1.194084e+01 3.848698e+00 8.646904e+00 -3.935785e-01 -4.963364e+00 -1.126620e+01 -1.041970e+01 -5.429313e+00 -5.987230e+00 -6.799750e+00 -2.441727e+00 -7.319840e-01 6.591053e+01 -7.485000e-01 -4.169429e-01 -3.500701e-01 3.182621e-02 2.376035e-01 5.689079e-01 7.250844e-01 2.192049e-01 1.397698e-01 2.233593e-01 1.684917e-01 5.951035e-02 -5.058611e-01 -1.375575e-02 -3.989041e-02 -3.893139e-02 -3.652098e-02 -4.371920e-04 3.495988e-02 2.383895e-02 -1.323878e-03 7.460733e-03 -6.386589e-03 -1.471998e-02 -9.050971e-03 5.667278e-03
<VARIANCE> 39
 8.621262e+01 7.330420e+01 4.968528e+01 3.103839e+01 3.887075e+01 7.742399e+01 1.023443e+02 3.961771e+01 3.375095e+01 3.686729e+01 2.090555e+01 1.706594e+01 5.209333e+01 2.494125e+00 2.894516e+00 1.847314e+00 1.815276e+00 2.553167e+00 3.025733e+00 3.789044e+00 2.363297e+00 2.357526e+00 2.011183e+00 1.410635e+00 1.145427e+00 9.849046e-01 3.190523e-01 3.543537e-01 3.130601e-01 2.896293e-01 4.421229e-01 4.519174e-01 5.144756e-01 4.342214e-01 3.940620e-01 3.525202e-01 2.563217e-01 2.074774e-01 1.443879e-01
<GCONST> 1.159547e+02
<TRANSP> 5
 0.000000e+00 1.000000e+00 0.000000e+00 0.000000e+00 0.000000e+00
 0.000000e+00 6.969315e-01 3.030685e-01 0.000000e+00 0.000000e+00
 0.000000e+00 0.000000e+00 6.969312e-01 3.030688e-01 0.000000e+00
 0.000000e+00 0.000000e+00 0.000000e+00 8.120253e-01 1.879747e-01
 0.000000e+00 0.000000e+00 0.000000e+00 0.000000e+00 0.000000e+00
<ENDHMM>
~h "Q"
<BEGINHMM>
<NUMSTATES> 5
<STATE> 2
<MEAN> 39
 -9.188904e+00 -8.814950e-01 6.896015e+00 -7.812339e+00 -4.920688e+00 -7.119771e+00 -8.007682e+00 -8.183350e+00 -3.187594e-01 -3.929789e+00 -4.249115e+00 -2.258200e+00 7.503625e+01 2.072420e-01 -3.529990e-02 1.402426e-01 -3.660052e-02 -7.603204e-02 -1.504541e-01 -9.434535e-02 -3.063392e-02 1.898124e-02 1.476007e-04 -5.270069e-02 2.257988e-02 2.768171e-01 -8.134743e-02 -8.813309e-03 -2.136241e-02 4.393878e-02 6.554869e-02 6.847595e-02 5.624368e-02 1.920318e-03 -3.555372e-02 -1.723909e-02 1.392199e-02 -1.635489e-03 -7.468170e-02
<VARIANCE> 39
 1.284231e+02 6.586374e+01 4.360558e+01 6.711406e+01 8.465072e+01 9.249068e+01 8.817828e+01 6.541283e+01 4.825325e+01 3.891928e+01 2.976182e+01 2.504840e+01 8.427209e+01 6.246196e+00 3.117391e+00 2.629911e+00 4.217064e+00 4.718443e+00 5.153714e+00 5.322432e+00 4.520543e+00 3.922048e+00 3.193489e+00 2.438884e+00 1.865944e+00 3.526687e+00 7.656557e-01 4.862146e-01 4.610996e-01 7.144746e-01 6.858497e-01 7.198016e-01 7.807767e-01 7.967842e-01 6.968476e-01 5.723594e-01 4.582977e-01 3.431479e-01 4.498448e-01
<GCONST> 1.351168e+02
<STATE> 3
<MEAN> 39
 -9.034573e+00 -1.054805e+00 7.178085e+00 -7.699874e+00 -4.801803e+00 -7.223909e+00 -7.988950e+00 -8.277697e+00 -4.493003e-01 -4.012989e+00 -4.349331e+00 -2.208213e+00 7.546124e+01 -4.101339e-02 -7.695422e-02 7.549396e-02 7.786987e-02 1.316309e-01 5.777190e-02 6.879754e-02 -5.922721e-02 -9.705462e-02 -5.987161e-02 -1.746204e-02 7.090099e-03 7.534222e-02 -7.487044e-02 -1.698973e-02 -2.270868e-02 3.144255e-02 6.474645e-02 6.327723e-02 4.607418e-02 -1.693848e-02 -3.799272e-02 -2.078192e-02 9.724770e-03 -5.317919e-03 -5.790554e-02
<VARIANCE> 39
 1.276186e+02 6.327216e+01 4.340559e+01 6.715675e+01 8.767625e+01 9.385189e+01 8.830123e+01 6.905634e+01 4.870679e+01 3.861803e+01 3.012512e+01 2.583186e+01 7.811568e+01 6.337340e+00 3.034212e+00 2.745062e+00 4.472239e+00 4.868531e+00 5.237553e+00 5.439306e+00 4.857633e+00 3.936063e+00 3.144585e+00 2.484557e+00 1.909000e+00 3.541431e+00 7.723577e-01 4.633369e-01 4.797127e-01 7.761698e-01 7.148069e-01 7.394903e-01 8.047929e-01 8.459539e-01 6.938388e-01 5.625036e-01 4.629535e-01 3.526974e-01 4.711592e-01
<GCONST> 1.357078e+02
<STATE> 4
<MEAN> 39
 -1.004640e+01 -1.571281e+00 7.259475e+00 -7.163213e+00 -3.794599e+00 -6.501852e+00 -7.454246e+00 -8.675310e+00 -1.131280e+00 -4.328947e+00 -4.307600e+00 -2.220290e+00 7.508165e+01 -2.624699e-01 -1.462843e-01 -1.076399e-03 1.402797e-01 3.134341e-01 2.224803e-01 1.720925e-01 -1.396192e-01 -2.082067e-01 -1.125169e-01 3.433938e-03 -8.389013e-03 -8.279439e-02 -3.678685e-02 -1.643221e-02 -1.734770e-02 9.253301e-03 3.424732e-02 2.838116e-02 1.178107e-02 -2.412370e-02 -2.341472e-02 -1.142954e-02 2.019417e-03 -1.496599e-03 -2.668792e-02
<VARIANCE> 39
 1.328958e+02 6.431290e+01 4.644462e+01 6.807127e+01 9.134967e+01 9.001616e+01 8.772308e+01 7.614526e+01 4.919926e+01 3.818109e+01 3.083681e+01 2.670432e+01 7.886650e+01 6.249127e+00 2.999454e+00 2.946980e+00 4.678230e+00 4.728293e+00 4.975784e+00 5.286101e+00 5.198953e+00 3.818350e+00 3.029525e+00 2.470282e+00 1.921097e+00 3.537200e+00 7.784677e-01 4.463820e-01 5.095347e-01 8.315617e-01 7.149342e-01 7.258108e-01 7.970125e-01 8.900874e-01 6.733757e-01 5.409414e-01 4.541473e-01 3.532602e-01 4.963453e-01
<GCONST> 1.360701e+02
<TRANSP> 5
 0.000000e+00 1.000000e+00 0.000000e+00 0.000000e+00 0.000000e+00
 0.000000e+00 6.790957e-01 3.209043e-01 0.000000e+00 0.000000e+00
 0.000000e+00 0.000000e+00 6.790951e-01 3.209049e-01 0.000000e+00
 0.000000e+00 0.000000e+00 0.000000e+00 7.934363e-01 2.065637e-01
 0.000000e+00 0.000000e+00 0.000000e+00 0.000000e+00 0.000000e+00
<ENDHMM>
~h "R"
<BEGINHMM>
<NUMSTATES> 5
<STATE> 2
<MEAN> 39
 -8.105923e+00 -1.615041e+00 -6.356716e-03 -8.700680e+00 -5.869361e-01 -2.702913e+00 -6.286379e+00 -1.237404e+01 -3.995359e+00 -2.890420e+00 -4.450332e+00 4.521605e+00 7.174390e+01 -5.015325e-01 1.817817e-01 -2.145685e-01 2.550275e-01 -9.325484e-02 2.257119e-01 3.555569e-01 8.542112e-01 2.058741e-01 1.871742e-01 3.625182e-01 2.002667e-01 -8.740838e-01 -7.023036e-02 -1.217472e-02 3.290113e-03 7.376561e-02 1.948285e-02 1.471487e-02 9.400523e-03 5.201535e-02 -7.815296e-03 -2.679942e-02 2.691407e-02 -7.153212e-02 -5.988451e-02
<VARIANCE> 39
 5.503340e+01 2.489165e+01 2.676387e+01 5.183718e+01 5.234767e+01 3.783277e+01 5.577934e+01 1.269889e+02 4.622810e+01 3.003658e+01 3.713163e+01 4.313366e+01 8.097584e+01 1.808301e+00 1.390221e+00 1.662112e+00 2.466260e+00 1.621762e+00 2.159081e+00 2.037565e+00 3.214723e+00 1.928468e+00 1.864566e+00 2.096709e+00 1.982030e+00 1.081947e+00 2.297167e-01 2.392637e-01 2.972788e-01 2.988913e-01 2.513137e-01 3.776344e-01 3.206591e-01 4.557562e-01 3.322306e-01 3.223529e-01 3.460500e-01 2.558881e-01 1.049764e-01
<GCONST> 1.133365e+02
<STATE> 3
<MEAN> 39
 -9.877584e+00 -1.063438e+00 -6.501975e-01 -7.736789e+00 -8.361208e-01 -1.968297e+00 -5.087845e+00 -9.571266e+00 -3.369369e+00 -2.398938e+00 -3.302718e+00 4.904739e+00 6.887655e+01 -6.927686e-01 1.396729e-01 -2.050839e-01 4.636382e-01 -4.149051e-02 2.434355e-01 3.742875e-01 9.652398e-01 1.710127e-01 9.901324e-02 4.181373e-01 -1.796147e-02 -1.026516e+00 -5.365414e-02 -1.056498e-02 5.108749e-03 5.374083e-02 1.229866e-02 -1.114542e-02 -1.048842e-03 2.586070e-03 -1.980812e-02 -3.000589e-02 2.851517e-03 -7.048407e-02 -3.516482e-02
<VARIANCE> 39
 5.761683e+01 2.048648e+01 2.168342e+01 4.866746e+01 3.871912e+01 3.454961e+01 4.659247e+01 1.194165e+02 4.022837e+01 2.652913e+01 3.522498e+01 3.560165e+01 8.695179e+01 1.322041e+00 1.215315e+00 1.501951e+00 2.214799e+00 1.409397e+00 2.058277e+00 1.820849e+00 3.100929e+00 1.898130e+00 1.918627e+00 2.042193e+00 1.776629e+00 9.652967e-01 1.622648e-01 2.145747e-01 2.794837e-01 2.694274e-01 2.252894e-01 3.737011e-01 2.971610e-01 4.437945e-01 3.302823e-01 3.378967e-01 3.334749e-01 2.368451e-01 8.915042e-02
<GCONST> 1.095323e+02
<STATE> 4
<MEAN> 39
 -1.262248e+01 -5.380228e-01 -1.257462e+00 -5.962846e+00 -9.377422e-01 -1.141075e+00 -3.816122e+00 -6.285829e+00 -2.845261e+00 -2.132176e+00 -1.886373e+00 4.432287e+00 6.508308e+01 -8.053775e-01 1.116978e-01 -1.712728e-01 5.711620e-01 -1.302088e-02 1.800499e-01 3.552721e-01 8.722249e-01 1.054770e-01 1.659826e-02 3.595872e-01 -2.244600e-01 -1.060126e+00 -1.840683e-02 1.483278e-03 1.988567e-02 5.192157e-03 5.917822e-03 -2.273288e-02 -1.707537e-02 -6.151136e-02 -1.689999e-02 -9.617524e-03 -3.250550e-02 -4.827365e-02 8.545714e-03
<VARIANCE> 39
 5.814997e+01 1.599930e+01 1.671510e+01 4.480846e+01 2.597846e+01 2.852144e+01 3.653827e+01 9.838481e+01 3.228352e+01 2.245496e+01 2.946762e+01 2.942553e+01 8.392427e+01 1.026350e+00 1.005706e+00 1.288203e+00 1.900146e+00 1.192374e+00 1.854779e+00 1.634793e+00 2.966527e+00 1.826479e+00 1.897648e+00 1.923974e+00 1.497392e+00 9.187073e-01 1.197539e-01 1.809891e-01 2.478793e-01 2.422162e-01 2.006002e-01 3.453892e-01 2.745135e-01 4.068232e-01 3.224106e-01 3.441817e-01 3.123727e-01 2.157589e-01 7.819288e-02
<GCONST> 1.042734e+02
<TRANSP> 5
 0.000000e+00 1.000000e+00 0.000000e+00 0.000000e+00 0.000000e+00
 0.000000e+00 6.769667e-01 3.230333e-01 0.000000e+00 0.000000e+00
 0.000000e+00 0.000000e+00 6.769676e-01 3.230324e-01 0.000000e+00
 0.000000e+00 0.000000e+00 0.000000e+00 7.916831e-01 2.083168e-01
 0.000000e+00 0.000000e+00 0.000000e+00 0.000000e+00 0.000000e+00
<ENDHMM>
~h "S"
<BEGINHMM>
<NUMSTATES> 5
<STATE> 2
<MEAN> 39
 -1.929171e+01 -1.243611e+01 6.122007e+00 -3.702060e+00 6.855766e+00 -1.903486e+00 -6.598988e+00 -1.583706e+01 -3.422291e+00 -3.880682e+00 -4.258036e+00 -1.468320e+00 7.542850e+01 2.042598e-02 -9.608913e-02 1.510139e-01 5.393433e-02 4.916205e-02 -7.384148e-02 -1.220002e-01 -8.768137e-02 -1.541467e-01 -1.172114e-01 -1.183143e-01 -3.901047e-03 1.094427e-01 5.336522e-02 9.393472e-02 -2.216195e-02 3.585586e-03 -2.834956e-02 2.057977e-02 1.263748e-02 4.390546e-02 -4.253909e-03 -1.223031e-03 -1.672287e-03 -3.196325e-03 -4.553149e-02
<VARIANCE> 39
 1.157714e+02 1.191945e+02 3.966175e+01 4.066027e+01 4.389205e+01 4.140242e+01 4.233868e+01 6.834921e+01 4.560794e+01 3.033816e+01 2.583261e+01 2.028757e+01 7.938942e+01 5.617388e+00 5.021389e+00 2.597791e+00 2.206834e+00 2.067223e+00 2.630881e+00 2.880256e+00 4.017651e+00 3.790212e+00 1.975348e+00 1.795016e+00 1.359310e+00 2.119873e+00 6.320365e-01 5.257638e-01 4.481092e-01 3.651255e-01 3.250145e-01 4.319783e-01 5.000038e-01 6.168863e-01 6.576250e-01 3.471178e-01 3.110624e-01 2.465618e-01 1.860983e-01
<GCONST> 1.230455e+02
<STATE> 3
<MEAN> 39
 -1.881634e+01 -1.217997e+01 6.463093e+00 -3.532158e+00 6.891295e+00 -2.003222e+00 -6.945945e+00 -1.590889e+01 -4.003268e+00 -4.281412e+00 -4.645725e+00 -1.491648e+00 7.558939e+01 2.213863e-01 2.367406e-01 5.256164e-02 6.929757e-02 -4.866436e-02 1.697755e-02 -7.572031e-02 6.750146e-02 -1.666273e-01 -1.138584e-01 -1.129560e-01 -5.877782e-03 -7.220494e-02 4.632908e-02 8.452518e-02 -2.871939e-02 2.225987e-03 -2.840392e-02 2.533488e-02 1.803457e-02 4.362962e-02 2.673311e-03 3.602024e-03 7.334799e-03 7.858173e-04 -4.939553e-02
<VARIANCE> 39
 1.243615e+02 1.280302e+02 3.764864e+01 4.024178e+01 4.073978e+01 4.031776e+01 4.173203e+01 6.538516e+01 4.781479e+01 3.091312e+01 2.671591e+01 2.152592e+01 6.848232e+01 5.677000e+00 4.524613e+00 2.633348e+00 2.186693e+00 1.928625e+00 2.511465e+00 2.779340e+00 3.852248e+00 3.947545e+00 2.006437e+00 1.763297e+00 1.385293e+00 2.004250e+00 6.553342e-01 4.814293e-01 4.594566e-01 3.654189e-01 3.082424e-01 4.087320e-01 4.797308e-01 5.985494e-01 6.860308e-01 3.535930e-01 3.036425e-01 2.489114e-01 1.828745e-01
<GCONST> 1.225187e+02
<STATE> 4
<MEAN> 39
 -1.708304e+01 -1.042138e+01 6.410162e+00 -3.432619e+00 6.402102e+00 -1.587965e+00 -7.306677e+00 -1.552461e+01 -4.751153e+00 -4.646542e+00 -5.014751e+00 -1.598300e+00 7.514813e+01 4.007891e-01 5.292755e-01 -6.064072e-02 6.688038e-02 -1.583434e-01 1.058943e-01 -1.333869e-02 2.215475e-01 -1.330413e-01 -8.619978e-02 -7.155914e-02 2.070309e-03 -2.654713e-01 1.090843e-02 3.838637e-02 -2.021397e-02 -2.541887e-03 -2.332938e-02 9.592885e-03 1.910574e-02 3.118042e-02 1.560808e-02 8.578176e-03 1.585810e-02 2.470946e-03 -3.564368e-02
<VARIANCE> 39
 1.349904e+02 1.366685e+02 3.882767e+01 4.533827e+01 4.274959e+01 4.066159e+01 4.610733e+01 7.175837e+01 4.952862e+01 3.438485e+01 2.807705e+01 2.398078e+01 7.102525e+01 5.630185e+00 3.879087e+00 2.629159e+00 2.286484e+00 1.880976e+00 2.368208e+00 2.879017e+00 3.886683e+00 4.043012e+00 2.094750e+00 1.767402e+00 1.448973e+00 1.819575e+00 6.650032e-01 4.506636e-01 4.640430e-01 3.833715e-01 3.014928e-01 3.837043e-01 4.791683e-01 6.049995e-01 7.051683e-01 3.655637e-01 3.017357e-01 2.567086e-01 1.916586e-01
<GCONST> 1.233230e+02
<TRANSP> 5
 0.000000e+00 1.000000e+00 0.000000e+00 0.000000e+00 0.000000e+00
 0.000000e+00 7.066849e-01 2.933151e-01 0.000000e+00 0.000000e+00
 0.000000e+00 0.000000e+00 7.066854e-01 2.933146e-01 0.000000e+00
 0.000000e+00 0.000000e+00 0.000000e+00 8.247470e-01 1.752530e-01
 0.000000e+00 0.000000e+00 0.000000e+00 0.000000e+00 0.000000e+00
<ENDHMM>
~h "T"
<BEGINHMM>
<NUMSTATES> 5
<STATE> 2
<MEAN> 39
 -2.204127e+01 -2.905948e+00 3.826667e+00 -8.940216e+00 1.670852e+00 9.893310e-02 -4.660699e+00 -1.134137e+01 -2.574031e+00 -5.235651e+00 -2.488917e+00 -2.059450e+00 7.167596e+01 -1.498237e-01 -9.718586e-02 4.413967e-02 -2.504198e-01 -1.682653e-02 -2.987881e-02 -3.128846e-02 -1.438054e-01 -8.414662e-02 -1.343193e-01 -4.923458e-02 -4.641183e-02 2.734492e-01 7.978456e-02 1.454915e-02 -1.241496e-03 3.227197e-02 -8.910085e-03 -3.340265e-03 -8.686800e-03 5.319079e-03 -1.122748e-02 1.971300e-02 -1.396782e-02 6.573534e-04 -1.974361e-02
<VARIANCE> 39
 1.231259e+02 2.935508e+01 5.124446e+01 6.050562e+01 4.653322e+01 3.392640e+01 5.803764e+01 7.131754e+01 3.139488e+01 2.806836e+01 2.825370e+01 2.102737e+01 8.357772e+01 5.831875e+00 1.792537e+00 2.229040e+00 3.076107e+00 2.368891e+00 2.286278e+00 3.071516e+00 3.797524e+00 2.269514e+00 2.018791e+00 2.010965e+00 1.375800e+00 1.996555e+00 6.422654e-01 3.180308e-01 3.834031e-01 4.720837e-01 4.085405e-01 3.971973e-01 5.074639e-01 6.227877e-01 4.105994e-01 3.669106e-01 3.564972e-01 2.491328e-01 2.260498e-01
<GCONST> 1.207762e+02
<STATE> 3
<MEAN> 39
 -2.191681e+01 -3.111518e+00 4.020320e+00 -9.545372e+00 1.559859e+00 -9.502530e-03 -4.826684e+00 -1.178428e+01 -2.891974e+00 -5.523067e+00 -2.735604e+00 -2.205375e+00 7.245476e+01 1.677146e-01 -4.351849e-02 4.891391e-02 -1.221362e-01 -5.490842e-02 -4.317927e-02 -6.978236e-02 -1.246993e-01 -1.157518e-01 -6.844018e-02 -9.425791e-02 -3.711739e-02 1.876681e-01 9.520842e-02 1.884905e-02 1.878771e-04 4.140981e-02 -1.053542e-02 -2.019004e-03 -1.013247e-02 7.740564e-03 -7.008522e-03 2.127846e-02 -1.171829e-02 3.397685e-03 -2.856630e-02
<VARIANCE> 39
 1.364808e+02 3.288328e+01 5.165661e+01 6.097039e+01 4.548954e+01 3.458720e+01 5.851813e+01 7.025450e+01 3.199294e+01 2.882225e+01 2.979000e+01 2.098753e+01 7.387605e+01 6.231000e+00 1.892534e+00 2.258538e+00 3.068300e+00 2.322710e+00 2.277539e+00 3.063203e+00 3.835788e+00 2.295161e+00 2.093329e+00 2.062119e+00 1.402982e+00 1.959817e+00 6.912261e-01 3.284670e-01 3.887856e-01 4.603276e-01 4.027988e-01 3.943390e-01 5.068983e-01 6.309934e-01 4.144967e-01 3.793348e-01 3.661594e-01 2.542928e-01 2.208699e-01
<GCONST> 1.213116e+02
<STATE> 4
<MEAN> 39
 -1.991905e+01 -3.005652e+00 4.362250e+00 -9.787106e+00 1.203984e+00 -1.585457e-01 -5.457608e+00 -1.231118e+01 -3.315578e+00 -5.564156e+00 -3.252996e+00 -2.418479e+00 7.303651e+01 5.215955e-01 3.136066e-02 5.116046e-02 5.628240e-02 -1.005306e-01 -5.316522e-02 -1.155606e-01 -8.928487e-02 -1.192682e-01 1.061724e-02 -1.218694e-01 -1.962325e-02 5.598982e-02 5.892847e-02 1.831188e-02 -4.053277e-03 3.704066e-02 -7.552679e-03 1.521115e-04 -4.214067e-03 1.263200e-02 2.303047e-03 1.644472e-02 -2.833741e-03 3.646688e-03 -3.106110e-02
<VARIANCE> 39
 1.613986e+02 3.960667e+01 5.137941e+01 6.653391e+01 4.804472e+01 3.796526e+01 6.413416e+01 7.218366e+01 3.376699e+01 3.294965e+01 3.247068e+01 2.180908e+01 7.438954e+01 6.113780e+00 2.070532e+00 2.304700e+00 3.088857e+00 2.312458e+00 2.253997e+00 3.051635e+00 3.920574e+00 2.358763e+00 2.257005e+00 2.128345e+00 1.454258e+00 1.915334e+00 7.130131e-01 3.442116e-01 3.909072e-01 4.553759e-01 3.989292e-01 3.836376e-01 5.007989e-01 6.373988e-01 4.205964e-01 3.979909e-01 3.824378e-01 2.631177e-01 2.125317e-01
<GCONST> 1.227164e+02
<TRANSP> 5
 0.000000e+00 1.000000e+00 0.000000e+00 0.000000e+00 0.000000e+00
 0.000000e+00 7.002265e-01 2.997735e-01 0.000000e+00 0.000000e+00
 0.000000e+00 0.000000e+00 7.002268e-01 2.997732e-01 0.000000e+00
 0.000000e+00 0.000000e+00 0.000000e+00 8.165655e-01 1.834344e-01
 0.000000e+00 0.000000e+00 0.000000e+00 0.000000e+00 0.000000e+00
<ENDHMM>
~h "U"
<BEGINHMM>
<NUMSTATES> 5
<STATE> 2
<MEAN> 39
 -9.320318e+00 -7.563896e-01 5.162836e+00 -7.297256e+00 2.602215e+00 -1.776533e+00 -9.485169e+00 -1.399919e+01 -4.984875e+00 -8.463078e+00 -7.228195e+00 -2.446118e+00 7.532564e+01 2.751887e-01 2.885108e-02 -6.577566e-02 4.481670e-02 1.203760e-02 -1.202470e-01 -2.157101e-01 -1.963817e-01 -8.099184e-02 1.876627e-02 -1.020071e-01 1.067657e-01 3.542599e-02 -6.315873e-02 -2.701458e-02 -5.966105e-03 3.279242e-02 1.627883e-02 -1.603466e-03 3.387012e-02 2.335470e-02 7.185131e-03 4.003199e-02 3.799440e-02 1.101775e-02 -4.649156e-02
<VARIANCE> 39
 1.218143e+02 7.162012e+01 5.280785e+01 8.057091e+01 8.012041e+01 6.755138e+01 7.606161e+01 8.053999e+01 5.662650e+01 4.706840e+01 5.087690e+01 3.382320e+01 5.831119e+01 5.687405e+00 3.356216e+00 3.237910e+00 4.894464e+00 3.474660e+00 3.450411e+00 4.557398e+00 5.237901e+00 3.888969e+00 3.407713e+00 3.458619e+00 2.386913e+00 3.431876e+00 6.502799e-01 5.181354e-01 5.414618e-01 8.005196e-01 5.437337e-01 5.686512e-01 7.283264e-01 8.836745e-01 6.773579e-01 5.487788e-01 5.404612e-01 4.166711e-01 4.588203e-01
<GCONST> 1.363271e+02
<STATE> 3
<MEAN> 39
 -8.821891e+00 -8.262287e-01 4.975073e+00 -6.984323e+00 2.740864e+00 -2.121264e+00 -9.968470e+00 -1.446328e+01 -5.213681e+00 -8.244890e+00 -7.348047e+00 -2.097424e+00 7.520846e+01 7.307272e-02 -5.861830e-02 -7.759847e-02 1.336777e-01 6.850866e-02 -1.193710e-01 -1.071562e-01 -1.180443e-01 -6.909022e-02 1.161350e-01 6.684517e-03 1.329081e-01 -9.502931e-02 -6.815697e-02 -3.109934e-02 2.527892e-03 2.299758e-02 1.605845e-02 2.451878e-03 3.571141e-02 2.604521e-02 5.890745e-03 2.957526e-02 3.485087e-02 3.405611e-03 -3.577438e-02
<VARIANCE> 39
 1.097966e+02 7.168114e+01 5.387264e+01 8.037263e+01 8.231406e+01 7.074448e+01 7.802842e+01 8.544287e+01 5.603699e+01 4.815310e+01 5.115691e+01 3.629577e+01 5.849578e+01 5.311123e+00 3.297091e+00 3.256204e+00 5.081462e+00 3.398071e+00 3.507624e+00 4.536469e+00 5.229305e+00 3.822484e+00 3.442745e+00 3.501423e+00 2.483639e+00 3.293469e+00 5.917016e-01 5.088149e-01 5.414066e-01 8.373327e-01 5.283316e-01 5.734261e-01 7.081527e-01 8.756158e-01 6.575364e-01 5.555663e-01 5.461183e-01 4.246437e-01 4.544204e-01
<GCONST> 1.363166e+02
<STATE> 4
<MEAN> 39
 -9.274842e+00 -1.328112e+00 4.878510e+00 -6.454876e+00 3.007555e+00 -2.367930e+00 -1.006163e+01 -1.459126e+01 -5.389214e+00 -7.628910e+00 -7.035057e+00 -1.678602e+00 7.453042e+01 -1.608640e-01 -1.592610e-01 -6.141092e-02 1.980143e-01 1.198059e-01 -9.502462e-02 2.435358e-02 -1.179915e-02 -5.855680e-02 1.734446e-01 1.132373e-01 1.329480e-01 -2.091994e-01 -5.384300e-02 -2.164501e-02 9.717228e-03 1.057396e-02 5.386680e-03 8.092103e-03 3.052856e-02 2.763801e-02 6.508113e-03 1.182338e-02 2.240994e-02 -5.589895e-03 -2.320908e-02
<VARIANCE> 39
 1.031004e+02 7.540579e+01 5.546184e+01 8.037312e+01 8.371992e+01 6.963388e+01 8.069681e+01 9.348305e+01 5.371091e+01 4.822278e+01 5.037788e+01 3.749309e+01 6.472683e+01 4.746324e+00 3.218370e+00 3.277860e+00 5.293399e+00 3.275680e+00 3.464855e+00 4.431491e+00 5.092663e+00 3.698070e+00 3.332328e+00 3.371167e+00 2.476727e+00 3.209135e+00 5.279822e-01 4.938235e-01 5.381314e-01 8.806463e-01 5.065058e-01 5.643458e-01 6.740893e-01 8.396653e-01 6.275050e-01 5.485833e-01 5.278040e-01 4.156595e-01 4.617594e-01
<GCONST> 1.358675e+02
<TRANSP> 5
 0.000000e+00 1.000000e+00 0.000000e+00 0.000000e+00 0.000000e+00
 0.000000e+00 6.647423e-01 3.352577e-01 0.000000e+00 0.000000e+00
 0.000000e+00 0.000000e+00 6.647423e-01 3.352576e-01 0.000000e+00
 0.000000e+00 0.000000e+00 0.000000e+00 7.771764e-01 2.228236e-01
 0.000000e+00 0.000000e+00 0.000000e+00 0.000000e+00 0.000000e+00
<ENDHMM>
~h "V"
<BEGINHMM>
<NUMSTATES> 5
<STATE> 2
<MEAN> 39
 -9.923930e+00 -2.432280e+00 4.508348e+00 -1.018569e+01 -3.606557e+00 -1.718511e+00 -2.496622e+00 -8.905115e+00 -5.873063e-01 -4.040416e+00 -5.940949e+00 -2.832163e+00 7.604244e+01 3.263707e-01 2.740452e-03 2.185042e-01 -3.327888e-03 -3.847107e-02 -1.219723e-01 -3.093385e-02 -5.135020e-02 8.369737e-02 -4.981584e-03 -1.409944e-01 -7.985043e-02 3.811602e-01 -6.817590e-02 9.813838e-03 1.485268e-02 7.174937e-02 5.238176e-02 5.454423e-03 -1.146618e-02 1.946719e-02 -3.439488e-02 -2.276351e-02 2.425467e-02 -2.797473e-04 -8.608840e-02
<VARIANCE> 39
 1.311571e+02 6.742203e+01 5.375298e+01 8.402866e+01 7.607449e+01 5.009288e+01 4.866404e+01 6.051214e+01 5.160072e+01 3.827409e+01 3.561154e+01 2.642916e+01 9.307465e+01 5.915741e+00 3.539570e+00 3.053529e+00 5.489362e+00 4.642433e+00 3.045453e+00 3.091115e+00 4.497899e+00 4.025827e+00 3.057629e+00 2.414502e+00 1.893781e+00 4.654246e+00 6.922473e-01 5.495765e-01 5.272228e-01 8.216858e-01 6.796250e-01 5.164181e-01 5.284953e-01 8.111017e-01 6.558918e-01 5.421047e-01 4.188843e-01 3.595036e-01 5.638279e-01
<GCONST> 1.338950e+02
<STATE> 3
<MEAN> 39
 -9.314316e+00 -2.371239e+00 5.257146e+00 -9.797083e+00 -3.414382e+00 -2.074382e+00 -2.685176e+00 -8.953400e+00 -5.551991e-01 -4.216410e+00 -6.237604e+00 -3.070712e+00 7.672045e+01 9.794111e-02 2.776898e-02 2.488365e-01 2.043339e-01 1.321231e-01 -9.647883e-02 -7.209497e-02 -1.950616e-02 -4.460597e-02 -8.560566e-02 -6.451306e-02 -7.137322e-02 1.133844e-01 -6.838048e-02 4.836991e-03 4.713090e-03 5.671452e-02 5.049203e-02 8.224536e-03 -1.520119e-02 2.299695e-03 -4.275521e-02 -2.588243e-02 2.305307e-02 4.879882e-03 -7.779922e-02
<VARIANCE> 39
 1.242588e+02 6.713023e+01 5.394533e+01 8.537753e+01 7.895000e+01 5.259993e+01 5.257500e+01 6.086152e+01 5.171102e+01 3.749626e+01 3.433458e+01 2.725330e+01 7.956638e+01 5.979843e+00 3.570027e+00 3.109591e+00 5.596416e+00 4.724098e+00 3.126754e+00 3.255390e+00 4.405256e+00 3.975715e+00 2.978007e+00 2.372008e+00 1.898405e+00 4.390991e+00 6.916655e-01 5.427563e-01 5.368478e-01 8.584566e-01 6.923458e-01 5.282333e-01 5.491707e-01 7.880228e-01 6.408015e-01 5.238389e-01 4.090265e-01 3.566616e-01 5.402678e-01
<GCONST> 1.338305e+02
<STATE> 4
<MEAN> 39
 -9.501573e+00 -2.180382e+00 6.361284e+00 -8.610842e+00 -2.627280e+00 -2.518727e+00 -3.268811e+00 -9.017624e+00 -1.144691e+00 -4.819797e+00 -6.281448e+00 -3.235131e+00 7.647966e+01 -1.164531e-01 3.227032e-02 2.237092e-01 3.346449e-01 2.587815e-01 -7.395355e-02 -1.334249e-01 -5.445419e-02 -1.916904e-01 -1.583967e-01 1.005390e-02 -2.554854e-02 -1.249919e-01 -3.783152e-02 -3.043924e-03 -1.165953e-02 1.829734e-02 2.014084e-02 4.182127e-03 -1.511719e-02 -1.375264e-02 -2.989600e-02 -1.261567e-02 1.537818e-02 1.226251e-02 -4.298026e-02
<VARIANCE> 39
 1.209096e+02 7.231359e+01 5.398738e+01 8.609254e+01 8.123905e+01 5.672517e+01 6.039762e+01 6.436308e+01 5.164296e+01 3.698956e+01 3.373718e+01 2.815472e+01 7.121049e+01 5.715168e+00 3.573556e+00 3.097538e+00 5.445410e+00 4.445200e+00 3.123049e+00 3.413191e+00 4.240781e+00 3.668951e+00 2.802450e+00 2.312461e+00 1.858184e+00 3.863422e+00 6.794588e-01 5.262495e-01 5.363665e-01 8.686035e-01 6.654289e-01 5.275151e-01 5.648428e-01 7.471665e-01 5.952672e-01 4.913630e-01 3.952738e-01 3.438683e-01 5.026537e-01
<GCONST> 1.332458e+02
<TRANSP> 5
 0.000000e+00 1.000000e+00 0.000000e+00 0.000000e+00 0.000000e+00
 0.000000e+00 6.863528e-01 3.136472e-01 0.000000e+00 0.000000e+00
 0.000000e+00 0.000000e+00 6.863516e-01 3.136484e-01 0.000000e+00
 0.000000e+00 0.000000e+00 0.000000e+00 8.011472e-01 1.988528e-01
 0.000000e+00 0.000000e+00 0.000000e+00 0.000000e+00 0.000000e+00
<ENDHMM>
~h "_"
<BEGINHMM>
<NUMSTATES> 5
<STATE> 2
<MEAN> 39
 -1.617656e+01 -7.377518e+00 8.168544e+00 -3.107328e-01 5.929790e+00 -7.121187e-01 -6.407066e+00 -1.301135e+01 -3.552824e+00 -4.320037e+00 -4.646274e+00 -1.215793e+00 7.201924e+01 -7.439011e-02 -4.267659e-01 1.615470e-01 -7.752185e-02 6.783298e-02 -8.813477e-02 -9.922454e-02 -2.822209e-01 -6.153008e-02 -7.031018e-02 -6.757255e-02 7.172548e-02 3.877305e-01 5.167554e-02 5.070980e-02 -3.617089e-02 -2.510387e-02 -2.924091e-02 -5.846427e-03 -1.862773e-02 3.707649e-05 -1.638367e-02 -6.180855e-04 2.209526e-03 2.524159e-03 -7.019347e-03
<VARIANCE> 39
 1.131776e+02 1.134652e+02 6.102552e+01 6.396534e+01 5.809301e+01 3.474595e+01 5.834386e+01 9.622186e+01 4.900921e+01 3.081394e+01 2.391439e+01 2.706098e+01 9.633154e+01 6.789979e+00 7.820060e+00 4.183459e+00 4.173060e+00 3.312704e+00 2.745499e+00 3.501323e+00 5.384301e+00 4.283053e+00 2.242169e+00 1.850471e+00 1.692226e+00 3.761306e+00 9.405695e-01 1.124616e+00 7.152759e-01 6.921329e-01 5.506696e-01 5.130085e-01 5.659618e-01 7.667528e-01 7.304164e-01 4.123528e-01 3.533863e-01 3.125416e-01 4.628197e-01
<GCONST> 1.337960e+02
<STATE> 3
<MEAN> 39
 -1.611898e+01 -8.391550e+00 8.408889e+00 -6.876769e-01 5.947753e+00 -1.013634e+00 -6.821689e+00 -1.383722e+01 -3.826975e+00 -4.533896e+00 -4.820610e+00 -9.430363e-01 7.310555e+01 1.134498e-01 -1.942993e-01 1.563544e-02 -1.359820e-01 -5.396193e-02 -1.043120e-01 -1.439575e-01 -2.156747e-01 -1.029729e-01 -7.119263e-02 -4.736770e-02 7.843957e-02 2.957330e-01 5.800842e-02 8.383527e-02 -4.595548e-02 -1.258144e-02 -3.929509e-02 -2.934940e-03 -8.587726e-03 3.346798e-02 -7.207475e-03 2.984487e-04 7.763535e-03 -6.368381e-04 -4.099432e-02
<VARIANCE> 39
 1.215435e+02 1.084289e+02 6.183395e+01 6.087739e+01 5.941323e+01 3.646878e+01 5.860876e+01 9.589072e+01 5.550045e+01 3.222701e+01 2.504562e+01 2.668296e+01 8.653461e+01 7.349595e+00 7.621478e+00 4.322529e+00 3.965545e+00 3.480743e+00 2.795033e+00 3.678774e+00 5.689528e+00 4.923514e+00 2.281515e+00 1.936927e+00 1.718039e+00 3.533665e+00 1.003437e+00 1.063024e+00 7.262693e-01 6.681601e-01 5.653089e-01 5.135284e-01 5.861832e-01 8.067115e-01 8.432720e-01 4.139346e-01 3.640891e-01 3.165710e-01 4.197189e-01
<GCONST> 1.345078e+02
<STATE> 4
<MEAN> 39
 -1.521350e+01 -8.392555e+00 7.952835e+00 -1.396753e+00 5.331899e+00 -1.426808e+00 -7.505148e+00 -1.430281e+01 -4.196559e+00 -4.787014e+00 -4.910517e+00 -6.298774e-01 7.373443e+01 2.611978e-01 1.249597e-01 -1.654387e-01 -1.589465e-01 -2.042458e-01 -1.063224e-01 -1.217234e-01 -6.707137e-03 -9.005696e-02 -6.158879e-02 -3.585676e-03 5.879282e-02 6.329732e-02 2.335699e-02 6.893334e-02 -3.327550e-02 -7.755168e-04 -2.748650e-02 -5.464724e-05 1.082315e-02 5.048494e-02 8.496007e-03 2.333849e-03 1.060926e-02 -9.104984e-03 -5.409082e-02
<VARIANCE> 39
 1.297399e+02 9.889375e+01 6.415331e+01 5.850756e+01 6.491650e+01 3.955695e+01 6.047313e+01 1.003523e+02 6.115033e+01 3.401402e+01 2.690211e+01 2.672636e+01 8.355067e+01 6.934137e+00 6.517248e+00 4.135256e+00 3.697863e+00 3.477774e+00 2.801009e+00 3.871150e+00 5.859599e+00 5.408587e+00 2.250540e+00 1.999772e+00 1.774242e+00 3.091913e+00 9.237107e-01 8.936095e-01 6.876622e-01 6.277629e-01 5.517784e-01 4.953737e-01 6.050690e-01 8.279749e-01 9.255081e-01 4.022100e-01 3.668856e-01 3.247521e-01 3.616084e-01
<GCONST> 1.342501e+02
<TRANSP> 5
 0.000000e+00 1.000000e+00 0.000000e+00 0.000000e+00 0.000000e+00
 0.000000e+00 6.910903e-01 3.089097e-01 0.000000e+00 0.000000e+00
 0.000000e+00 0.000000e+00 6.910903e-01 3.089096e-01 0.000000e+00
 0.000000e+00 0.000000e+00 0.000000e+00 8.065257e-01 1.934743e-01
 0.000000e+00 0.000000e+00 0.000000e+00 0.000000e+00 0.000000e+00
<ENDHMM>
~h "b"
<BEGINHMM>
<NUMSTATES> 5
<STATE> 2
<MEAN> 39
 -9.588938e+00 1.721740e+00 4.150070e+00 -4.040081e+00 -2.681317e-01 -2.021597e+00 -6.128082e+00 -1.003954e+01 -3.174059e+00 -4.789283e+00 -4.987952e+00 -2.681797e+00 7.065055e+01 4.369758e-01 -3.021215e-02 1.430459e-01 -2.127079e-01 -1.748054e-02 -1.674746e-01 -3.099671e-01 -4.295288e-01 -9.937268e-02 -1.950432e-01 -1.654985e-01 -6.344154e-03 6.254675e-01 -2.425291e-02 -3.529393e-02 -1.096492e-02 -2.467415e-02 -1.509028e-02 -3.629823e-03 1.027418e-02 -1.140967e-03 1.055718e-02 1.127755e-02 4.828429e-03 1.108297e-02 1.016183e-02
<VARIANCE> 39
 8.753625e+01 5.082074e+01 5.051373e+01 8.336303e+01 6.456680e+01 6.776295e+01 8.150948e+01 1.023634e+02 4.124381e+01 4.507852e+01 3.469367e+01 2.638949e+01 1.259518e+02 4.229445e+00 2.725936e+00 2.731771e+00 4.834576e+00 3.086573e+00 3.185115e+00 4.165733e+00 5.823957e+00 2.596526e+00 2.659442e+00 2.495570e+00 1.866865e+00 5.394781e+00 6.240152e-01 4.053084e-01 4.417025e-01 7.455409e-01 5.047610e-01 5.317494e-01 6.614915e-01 9.882520e-01 4.576385e-01 4.432440e-01 4.422582e-01 3.313178e-01 7.466056e-01
<GCONST> 1.326420e+02
<STATE> 3
<MEAN> 39
 -8.449580e+00 1.378649e+00 4.508452e+00 -4.816922e+00 -4.010769e-01 -2.528230e+00 -7.013314e+00 -1.133453e+01 -3.394725e+00 -5.286978e+00 -5.443815e+00 -2.644811e+00 7.257167e+01 2.983948e-01 -1.398884e-01 1.033388e-01 -2.410254e-01 -3.944335e-02 -1.496261e-01 -2.409166e-01 -3.855750e-01 -6.001778e-02 -1.295813e-01 -1.225365e-01 2.518398e-02 5.702053e-01 -5.216089e-02 -3.146858e-02 -1.097341e-02 -7.103911e-04 -2.196103e-03 1.173608e-02 2.890078e-02 2.129331e-02 1.438518e-02 2.538779e-02 1.777637e-02 8.543852e-03 -2.992688e-02
<VARIANCE> 39
 8.286209e+01 5.568695e+01 5.434002e+01 9.164057e+01 7.290062e+01 7.629618e+01 8.913023e+01 1.048369e+02 4.552450e+01 5.082154e+01 3.735185e+01 2.861164e+01 1.131289e+02 4.190627e+00 2.766599e+00 2.821207e+00 4.952981e+00 3.143473e+00 3.305169e+00 4.358532e+00 5.854328e+00 2.709103e+00 2.825143e+00 2.617963e+00 1.933656e+00 5.175631e+00 6.011548e-01 4.078898e-01 4.501064e-01 7.522691e-01 5.095218e-01 5.426098e-01 6.803545e-01 9.900578e-01 4.714200e-01 4.585589e-01 4.581637e-01 3.362311e-01 7.138135e-01
<GCONST> 1.339028e+02
<STATE> 4
<MEAN> 39
 -7.791604e+00 5.099247e-01 4.876709e+00 -5.739735e+00 -4.823870e-01 -2.929252e+00 -7.774505e+00 -1.265875e+01 -3.443276e+00 -5.538375e+00 -5.775464e+00 -2.534621e+00 7.448283e+01 5.733627e-02 -2.147940e-01 8.400179e-02 -1.603564e-01 5.419200e-03 -7.666044e-02 -1.113346e-01 -2.622044e-01 -2.909244e-02 -3.299831e-02 -3.306575e-02 4.240281e-02 3.514011e-01 -5.665496e-02 -1.219638e-02 -2.526827e-03 2.259702e-02 1.297959e-02 2.027190e-02 3.404103e-02 3.232459e-02 7.024309e-03 2.208074e-02 2.086267e-02 2.079676e-03 -5.466088e-02
<VARIANCE> 39
 8.229500e+01 6.115467e+01 5.928177e+01 9.915209e+01 8.221368e+01 8.229396e+01 9.568559e+01 1.042910e+02 4.875129e+01 5.613940e+01 3.935571e+01 3.141069e+01 9.889397e+01 3.782244e+00 2.695964e+00 2.801344e+00 4.826468e+00 3.069162e+00 3.262439e+00 4.354051e+00 5.492476e+00 2.761688e+00 2.919365e+00 2.593266e+00 1.943681e+00 4.435211e+00 5.165154e-01 3.892149e-01 4.371358e-01 7.187386e-01 4.845183e-01 5.214577e-01 6.612678e-01 9.129452e-01 4.715206e-01 4.615397e-01 4.498437e-01 3.280995e-01 5.991156e-01
<GCONST> 1.335421e+02
<TRANSP> 5
 0.000000e+00 1.000000e+00 0.000000e+00 0.000000e+00 0.000000e+00
 0.000000e+00 6.879871e-01 3.120128e-01 0.000000e+00 0.000000e+00
 0.000000e+00 0.000000e+00 6.879873e-01 3.120128e-01 0.000000e+00
 0.000000e+00 0.000000e+00 0.000000e+00 8.023520e-01 1.976480e-01
 0.000000e+00 0.000000e+00 0.000000e+00 0.000000e+00 0.000000e+00
<ENDHMM>
~h "d"
<BEGINHMM>
<NUMSTATES> 5
<STATE> 2
<MEAN> 39
 -1.200026e+01 -1.828950e+00 5.910967e+00 -2.201088e+00 1.877394e+00 -3.019975e+00 -6.457189e+00 -1.062708e+01 -6.456457e+00 -6.093616e+00 -4.530404e+00 -1.831493e+00 7.036628e+01 -2.913770e-01 -2.087490e-01 -1.002045e-01 4.203926e-02 -7.657902e-02 1.824069e-02 1.656138e-01 1.753143e-01 -8.103435e-02 -3.383202e-02 1.421696e-01 8.457587e-02 -2.045097e-01 -5.968861e-03 1.870128e-03 -2.857383e-02 -2.602527e-02 -2.728150e-02 5.418735e-04 6.501144e-04 -8.494788e-04 9.591677e-03 7.590553e-03 4.994884e-03 5.351865e-03 -1.110493e-02
<VARIANCE> 39
 8.232384e+01 6.533038e+01 5.182060e+01 7.090990e+01 7.491459e+01 5.389587e+01 6.964275e+01 9.239398e+01 4.709825e+01 4.088482e+01 3.592918e+01 2.795952e+01 8.803091e+01 2.827639e+00 4.501422e+00 3.203754e+00 5.050761e+00 3.443956e+00 2.969235e+00 3.757906e+00 5.513474e+00 3.532811e+00 2.593665e+00 2.197411e+00 1.771648e+00 4.201574e+00 3.857006e-01 7.413065e-01 5.751044e-01 9.226553e-01 5.228117e-01 5.317613e-01 6.210548e-01 9.549147e-01 6.404855e-01 4.751131e-01 3.793888e-01 3.114341e-01 6.853390e-01
<GCONST> 1.328042e+02
<STATE> 3
<MEAN> 39
 -1.300815e+01 -2.487828e+00 5.445679e+00 -2.154463e+00 1.499892e+00 -2.957602e+00 -5.874871e+00 -9.979543e+00 -6.655008e+00 -6.156445e+00 -4.044990e+00 -1.517921e+00 6.958890e+01 -3.009926e-01 -1.755923e-01 -1.954382e-01 -2.670796e-02 -1.620148e-01 1.828786e-02 1.654725e-01 1.885301e-01 -3.735052e-02 1.600989e-03 1.544050e-01 1.013739e-01 -2.608576e-01 2.179815e-03 3.144331e-02 -2.588038e-02 -1.482449e-02 -1.637278e-02 3.384678e-03 -3.014671e-03 4.863570e-03 2.177480e-02 1.677002e-02 -4.139690e-04 3.293111e-03 -2.407931e-02
<VARIANCE> 39
 8.067250e+01 6.378159e+01 5.166036e+01 6.658189e+01 7.022094e+01 4.981023e+01 6.452859e+01 8.871142e+01 4.483960e+01 3.911162e+01 3.456997e+01 2.646275e+01 9.037119e+01 2.718549e+00 4.655641e+00 3.204966e+00 4.876896e+00 3.352576e+00 2.948798e+00 3.701085e+00 5.344713e+00 3.583287e+00 2.654300e+00 2.119732e+00 1.759155e+00 4.155656e+00 3.788131e-01 7.677444e-01 5.845127e-01 9.035464e-01 5.158232e-01 5.360891e-01 6.276665e-01 9.472393e-01 6.515731e-01 4.866547e-01 3.712076e-01 3.134912e-01 6.914529e-01
<GCONST> 1.321797e+02
<STATE> 4
<MEAN> 39
 -1.418479e+01 -2.921962e+00 4.605983e+00 -2.396938e+00 7.096652e-01 -2.880339e+00 -5.278219e+00 -9.151829e+00 -6.608800e+00 -6.014911e+00 -3.452418e+00 -1.117084e+00 6.837257e+01 -2.810798e-01 -3.640346e-02 -2.722909e-01 -4.313828e-02 -1.894723e-01 3.791217e-02 1.532790e-01 2.150312e-01 4.483010e-02 7.055520e-02 1.444483e-01 1.027876e-01 -3.657670e-01 7.144820e-03 4.820045e-02 -9.697217e-03 2.094725e-05 8.107338e-03 1.103828e-02 -4.835128e-03 5.604181e-03 3.162506e-02 2.265227e-02 -7.185710e-03 -5.655615e-03 -2.497147e-02
<VARIANCE> 39
 7.877280e+01 5.848738e+01 5.142888e+01 6.103965e+01 6.345021e+01 4.611039e+01 5.925098e+01 8.375994e+01 4.285530e+01 3.789336e+01 3.246733e+01 2.449772e+01 9.796342e+01 2.455264e+00 4.327975e+00 2.952491e+00 4.255551e+00 3.006713e+00 2.756855e+00 3.422574e+00 4.752059e+00 3.476648e+00 2.591249e+00 1.963889e+00 1.700928e+00 3.657887e+00 3.454394e-01 7.013974e-01 5.432730e-01 7.916199e-01 4.688199e-01 5.017263e-01 5.884991e-01 8.567457e-01 6.234423e-01 4.690135e-01 3.500545e-01 3.072808e-01 6.134468e-01
<GCONST> 1.294692e+02
<TRANSP> 5
 0.000000e+00 1.000000e+00 0.000000e+00 0.000000e+00 0.000000e+00
 0.000000e+00 6.899125e-01 3.100875e-01 0.000000e+00 0.000000e+00
 0.000000e+00 0.000000e+00 6.899132e-01 3.100867e-01 0.000000e+00
 0.000000e+00 0.000000e+00 0.000000e+00 8.059322e-01 1.940678e-01
 0.000000e+00 0.000000e+00 0.000000e+00 0.000000e+00 0.000000e+00
<ENDHMM>
~h "f"
<BEGINHMM>
<NUMSTATES> 5
<STATE> 2
<MEAN> 39
 -2.077090e+01 -3.362386e+00 8.666542e-01 -1.021156e+01 2.977261e+00 -2.000028e+00 -4.660775e+00 -9.813402e+00 -2.863930e+00 -3.985017e+00 -2.755531e+00 -1.367077e+00 7.202414e+01 -1.474790e-02 -1.446520e-01 8.068825e-02 -2.716690e-01 9.786199e-02 -7.721224e-02 -1.531834e-01 -2.731043e-01 -4.733117e-02 -8.691253e-02 -8.925441e-02 -4.857573e-02 5.709819e-01 6.438345e-02 2.780478e-02 2.037119e-02 5.215225e-02 -2.986304e-02 9.324008e-03 -6.156761e-03 8.596089e-03 -1.238331e-04 9.512384e-03 -3.583795e-03 -1.476254e-03 -2.358443e-02
<VARIANCE> 39
 1.490274e+02 3.048971e+01 4.434477e+01 5.523728e+01 5.272699e+01 4.610327e+01 4.944407e+01 6.898420e+01 3.537325e+01 3.644685e+01 2.684935e+01 1.719598e+01 9.045252e+01 6.883401e+00 1.927319e+00 2.181401e+00 3.205159e+00 2.680943e+00 2.536898e+00 3.021197e+00 3.924858e+00 2.377681e+00 2.112789e+00 1.844986e+00 1.345558e+00 2.115929e+00 8.063748e-01 3.298788e-01 3.726752e-01 4.909427e-01 4.103712e-01 4.413565e-01 5.171173e-01 6.486065e-01 4.186348e-01 3.740626e-01 3.202828e-01 2.560727e-01 2.504025e-01
<GCONST> 1.222643e+02
<STATE> 3
<MEAN> 39
 -2.026361e+01 -3.629889e+00 1.250883e+00 -1.073906e+01 3.062613e+00 -2.190453e+00 -5.172363e+00 -1.063120e+01 -3.001941e+00 -4.176003e+00 -3.074452e+00 -1.524639e+00 7.366940e+01 2.505084e-01 -5.707645e-02 1.506858e-01 -9.726448e-02 -5.856109e-03 -5.917963e-02 -1.706196e-01 -2.560158e-01 -5.084374e-02 -5.126192e-02 -9.860152e-02 -4.745496e-02 4.638472e-01 8.302570e-02 2.810736e-02 2.216053e-02 5.430853e-02 -3.211248e-02 6.183001e-03 -3.799414e-03 6.627146e-03 5.244390e-04 1.220378e-02 -2.243985e-03 -2.203640e-04 -3.806330e-02
<VARIANCE> 39
 1.683530e+02 3.223930e+01 4.678214e+01 5.614525e+01 5.472258e+01 4.890085e+01 5.532980e+01 7.211711e+01 3.610668e+01 3.903608e+01 2.845866e+01 1.877135e+01 7.440668e+01 7.542266e+00 2.062283e+00 2.313084e+00 3.181926e+00 2.691617e+00 2.627825e+00 3.129968e+00 3.994849e+00 2.378492e+00 2.167755e+00 1.993902e+00 1.403705e+00 2.084652e+00 8.856930e-01 3.543469e-01 3.920451e-01 4.854052e-01 4.079269e-01 4.503738e-01 5.229972e-01 6.601943e-01 4.189475e-01 3.836223e-01 3.459205e-01 2.620259e-01 2.482404e-01
<GCONST> 1.236035e+02
<STATE> 4
<MEAN> 39
 -1.804557e+01 -3.484878e+00 2.197034e+00 -1.073356e+01 2.531085e+00 -2.368308e+00 -5.941998e+00 -1.161817e+01 -3.091659e+00 -4.194506e+00 -3.591572e+00 -1.770008e+00 7.523811e+01 5.421917e-01 2.853040e-02 2.257550e-01 9.521993e-02 -1.150577e-01 -4.569912e-02 -1.631888e-01 -2.222904e-01 -4.045459e-02 -9.763115e-03 -1.080276e-01 -4.852028e-02 2.730430e-01 4.670142e-02 1.625822e-02 1.430927e-02 4.058326e-02 -1.990433e-02 4.640997e-03 4.688832e-03 1.195305e-02 2.761654e-03 7.972589e-03 5.715736e-04 -8.645158e-04 -4.571846e-02
<VARIANCE> 39
 1.867023e+02 3.778831e+01 5.084634e+01 6.358789e+01 6.275823e+01 5.424404e+01 6.757018e+01 7.892066e+01 3.826639e+01 4.374598e+01 3.165833e+01 2.163485e+01 6.447601e+01 8.001988e+00 2.272626e+00 2.494514e+00 3.241787e+00 2.783745e+00 2.766159e+00 3.409070e+00 4.238892e+00 2.492348e+00 2.343794e+00 2.219635e+00 1.496781e+00 2.110070e+00 9.617720e-01 3.913284e-01 4.173883e-01 4.952779e-01 4.160855e-01 4.604490e-01 5.427777e-01 6.903701e-01 4.361286e-01 4.096694e-01 3.835159e-01 2.701396e-01 2.533617e-01
<GCONST> 1.263182e+02
<TRANSP> 5
 0.000000e+00 1.000000e+00 0.000000e+00 0.000000e+00 0.000000e+00
 0.000000e+00 6.917356e-01 3.082645e-01 0.000000e+00 0.000000e+00
 0.000000e+00 0.000000e+00 6.917375e-01 3.082625e-01 0.000000e+00
 0.000000e+00 0.000000e+00 0.000000e+00 8.078582e-01 1.921419e-01
 0.000000e+00 0.000000e+00 0.000000e+00 0.000000e+00 0.000000e+00
<ENDHMM>
~h "g"
<BEGINHMM>
<NUMSTATES> 5
<STATE> 2
<MEAN> 39
 -9.865496e+00 8.383248e-01 3.880131e+00 -4.628434e+00 3.162930e+00 -8.707244e-01 -6.919506e+00 -1.274086e+01 -5.593863e+00 -5.247717e+00 -3.138393e+00 -2.727061e+00 7.183427e+01 3.858374e-01 1.377600e-02 8.655772e-02 -2.791976e-01 6.156534e-02 -6.209008e-02 -2.129881e-01 -3.544702e-01 -2.006686e-01 -2.418762e-01 -8.230740e-02 1.633938e-02 5.313254e-01 -1.671612e-02 -2.868609e-02 -1.706067e-02 -3.284341e-02 -2.918486e-02 -4.029075e-03 4.331108e-04 1.088613e-02 2.350312e-02 2.391838e-02 -6.637612e-03 1.231450e-02 3.649212e-04
<VARIANCE> 39
 7.658246e+01 6.237614e+01 5.799360e+01 1.048243e+02 6.388678e+01 5.952728e+01 8.114048e+01 1.243870e+02 5.173214e+01 5.958744e+01 2.963306e+01 3.334409e+01 1.102797e+02 3.214285e+00 3.518995e+00 3.967506e+00 5.782726e+00 3.400477e+00 3.125700e+00 4.547494e+00 6.303880e+00 3.641957e+00 3.415698e+00 2.377540e+00 2.529924e+00 4.132196e+00 4.430550e-01 5.425578e-01 7.169138e-01 9.481436e-01 5.580814e-01 5.142201e-01 7.562205e-01 9.890956e-01 6.453801e-01 5.551129e-01 4.349934e-01 4.608242e-01 5.450999e-01
<GCONST> 1.363782e+02
<STATE> 3
<MEAN> 39
 -8.794375e+00 6.874375e-01 4.028026e+00 -5.666536e+00 3.123235e+00 -1.106274e+00 -7.612058e+00 -1.374203e+01 -6.009310e+00 -5.809691e+00 -3.424038e+00 -2.607903e+00 7.343088e+01 2.970549e-01 -8.196929e-02 3.095959e-02 -3.335077e-01 -3.936991e-02 -7.341435e-02 -1.882835e-01 -2.778744e-01 -8.786552e-02 -1.279467e-01 -9.771157e-02 4.722036e-02 4.759740e-01 -3.206485e-02 -2.567171e-02 -1.471794e-02 -6.545815e-03 -3.015624e-02 -3.256318e-04 1.371324e-02 2.853975e-02 3.673342e-02 3.826711e-02 -3.749813e-03 5.605870e-03 -2.701490e-02
<VARIANCE> 39
 7.422204e+01 6.601695e+01 5.845944e+01 1.121199e+02 6.854414e+01 6.392547e+01 8.415611e+01 1.203709e+02 5.408648e+01 6.147274e+01 3.210060e+01 3.510862e+01 9.595748e+01 3.274365e+00 3.531100e+00 3.895421e+00 5.754664e+00 3.599030e+00 3.229425e+00 4.718633e+00 6.597201e+00 3.780173e+00 3.561780e+00 2.539420e+00 2.598975e+00 3.948866e+00 4.437393e-01 5.426639e-01 7.020956e-01 9.350129e-01 5.802406e-01 5.243985e-01 7.719260e-01 1.022356e+00 6.602257e-01 5.680454e-01 4.528317e-01 4.681152e-01 5.158012e-01
<GCONST> 1.371148e+02
<STATE> 4
<MEAN> 39
 -8.050779e+00 5.079317e-02 4.027457e+00 -7.002185e+00 2.476788e+00 -1.502889e+00 -8.312778e+00 -1.433388e+01 -5.851782e+00 -5.838935e+00 -3.759217e+00 -2.436046e+00 7.488815e+01 1.315012e-01 -1.458895e-01 9.081986e-03 -2.616880e-01 -1.424034e-01 -8.362585e-02 -1.038250e-01 -1.043148e-01 5.754559e-02 1.237798e-02 -9.708731e-02 4.414530e-02 2.898406e-01 -3.827374e-02 -7.894248e-03 -7.196389e-04 2.567998e-02 -1.535431e-02 3.153672e-03 2.521632e-02 3.797874e-02 2.680506e-02 2.772037e-02 5.623376e-04 -5.011084e-03 -4.673040e-02
<VARIANCE> 39
 7.628827e+01 6.675388e+01 5.909598e+01 1.149257e+02 7.656704e+01 6.910359e+01 8.730293e+01 1.152244e+02 5.752766e+01 6.145336e+01 3.514735e+01 3.559605e+01 8.751729e+01 3.124741e+00 3.233080e+00 3.504767e+00 5.270419e+00 3.647213e+00 3.213525e+00 4.649675e+00 6.389085e+00 3.776819e+00 3.472162e+00 2.597107e+00 2.483910e+00 3.410708e+00 4.122058e-01 4.918050e-01 6.169950e-01 8.316962e-01 5.748089e-01 5.160788e-01 7.365875e-01 9.760385e-01 6.439663e-01 5.466030e-01 4.516153e-01 4.376779e-01 4.393797e-01
<GCONST> 1.360509e+02
<TRANSP> 5
 0.000000e+00 1.000000e+00 0.000000e+00 0.000000e+00 0.000000e+00
 0.000000e+00 6.870305e-01 3.129695e-01 0.000000e+00 0.000000e+00
 0.000000e+00 0.000000e+00 6.870308e-01 3.129692e-01 0.000000e+00
 0.000000e+00 0.000000e+00 0.000000e+00 8.034142e-01 1.965859e-01
 0.000000e+00 0.000000e+00 0.000000e+00 0.000000e+00 0.000000e+00
<ENDHMM>
~h "h"
<BEGINHMM>
<NUMSTATES> 5
<STATE> 2
<MEAN> 39
 -1.177666e+01 -3.543190e+00 7.877731e-02 -7.014812e+00 -2.314411e+00 -3.465999e+00 -7.293856e+00 -1.022579e+01 2.196474e-01 -1.122118e+00 -4.109248e+00 -2.064669e+00 7.030759e+01 7.276794e-01 -2.057209e-01 2.272648e-01 -3.120265e-01 -5.762516e-02 -1.989889e-01 -3.148186e-01 -5.919922e-01 1.069351e-01 2.967099e-03 -2.849590e-01 -1.352241e-01 1.036397e+00 -4.050494e-03 4.430091e-02 5.445681e-02 2.816524e-02 3.635567e-02 3.249732e-02 4.386527e-02 1.019068e-02 -1.359257e-02 -1.249040e-02 6.108593e-03 -6.299912e-03 7.660614e-03
<VARIANCE> 39
 6.795876e+01 4.850728e+01 5.853050e+01 6.365755e+01 6.891838e+01 4.642808e+01 7.638094e+01 8.235158e+01 3.878780e+01 4.937762e+01 3.579688e+01 2.461429e+01 1.194723e+02 1.927002e+00 3.165142e+00 2.620449e+00 2.590950e+00 2.501121e+00 2.658260e+00 3.686246e+00 3.183732e+00 2.446848e+00 2.263898e+00 2.000827e+00 1.557340e+00 2.205053e+00 2.709221e-01 5.368209e-01 4.112274e-01 4.281646e-01 3.828947e-01 4.493054e-01 5.708422e-01 5.093211e-01 4.152209e-01 3.569579e-01 3.416278e-01 2.706300e-01 1.956983e-01
<GCONST> 1.230786e+02
<STATE> 3
<MEAN> 39
 -9.656692e+00 -3.817026e+00 1.157747e+00 -7.763641e+00 -2.263900e+00 -3.840074e+00 -7.919850e+00 -1.188189e+01 3.995895e-01 -1.178919e+00 -4.879381e+00 -2.533480e+00 7.338280e+01 6.269622e-01 -3.378967e-02 3.666048e-01 -1.804731e-01 5.548945e-02 -8.015846e-02 -1.477992e-01 -4.896893e-01 1.386000e-02 -5.275643e-02 -2.265138e-01 -1.441276e-01 9.093108e-01 -4.360842e-02 5.620895e-02 3.840129e-02 4.608124e-02 3.303150e-02 3.827663e-02 5.542864e-02 4.125130e-02 -3.661129e-02 -2.258246e-02 2.171259e-02 -6.444138e-05 -5.936912e-02
<VARIANCE> 39
 6.400763e+01 5.200626e+01 6.790450e+01 6.952717e+01 8.358273e+01 5.285029e+01 8.549477e+01 8.515629e+01 4.540192e+01 5.687691e+01 3.770251e+01 2.739699e+01 1.004391e+02 2.183228e+00 3.227033e+00 2.655105e+00 2.835009e+00 2.577024e+00 2.783528e+00 3.687827e+00 3.372350e+00 2.633804e+00 2.439145e+00 2.087654e+00 1.654648e+00 2.420886e+00 2.899448e-01 5.463831e-01 4.246025e-01 4.538032e-01 3.883244e-01 4.639183e-01 5.647652e-01 5.401338e-01 4.339744e-01 3.816340e-01 3.541386e-01 2.832339e-01 2.038056e-01
<GCONST> 1.253069e+02
<STATE> 4
<MEAN> 39
 -7.751283e+00 -3.410928e+00 3.075218e+00 -8.075210e+00 -1.829135e+00 -3.896859e+00 -7.981378e+00 -1.328672e+01 -3.429413e-02 -1.598863e+00 -5.467958e+00 -3.197085e+00 7.618639e+01 3.384852e-01 1.147038e-01 3.998776e-01 8.997767e-03 1.476105e-01 1.860229e-02 4.760912e-03 -2.926450e-01 -1.617705e-01 -1.506897e-01 -1.030913e-01 -1.151380e-01 5.076936e-01 -6.999052e-02 2.845568e-02 2.007718e-03 3.933391e-02 1.614596e-02 1.973638e-02 3.402825e-02 4.767342e-02 -3.900495e-02 -2.463718e-02 2.587777e-02 9.407320e-03 -9.450530e-02
<VARIANCE> 39
 6.025965e+01 5.451283e+01 7.449957e+01 8.001675e+01 1.026047e+02 5.952694e+01 9.754106e+01 8.921503e+01 5.230511e+01 6.194246e+01 3.791857e+01 3.018431e+01 7.604924e+01 2.498889e+00 2.946404e+00 2.636618e+00 3.172318e+00 2.643793e+00 2.757695e+00 3.573206e+00 3.595428e+00 2.666157e+00 2.563954e+00 2.183182e+00 1.767612e+00 2.505776e+00 3.004816e-01 4.944231e-01 4.226143e-01 4.995038e-01 3.877716e-01 4.551355e-01 5.352754e-01 5.787751e-01 4.321680e-01 4.001812e-01 3.678221e-01 2.978177e-01 2.186018e-01
<GCONST> 1.267096e+02
<TRANSP> 5
 0.000000e+00 1.000000e+00 0.000000e+00 0.000000e+00 0.000000e+00
 0.000000e+00 6.870169e-01 3.129831e-01 0.000000e+00 0.000000e+00
 0.000000e+00 0.000000e+00 6.870183e-01 3.129817e-01 0.000000e+00
 0.000000e+00 0.000000e+00 0.000000e+00 8.032936e-01 1.967064e-01
 0.000000e+00 0.000000e+00 0.000000e+00 0.000000e+00 0.000000e+00
<ENDHMM>
~h "i"
<BEGINHMM>
<NUMSTATES> 5
<STATE> 2
<MEAN> 39
 -1.105296e+01 -3.492113e+00 1.086778e+01 2.427094e+00 1.034886e+01 -8.818690e-01 -1.146732e+01 -1.681009e+01 -5.794975e+00 -4.013625e+00 -5.362562e+00 -6.120345e+00 7.523543e+01 5.456943e-03 -1.213288e-01 1.875457e-01 1.732425e-01 3.523058e-02 -1.303369e-01 -1.032710e-01 -1.973868e-02 3.125888e-02 6.994899e-02 3.469053e-02 -7.503228e-02 1.163038e-01 -3.266292e-02 1.238932e-02 -4.672221e-02 -5.797743e-02 -6.899598e-02 5.575613e-03 6.066686e-02 5.380854e-02 6.363279e-03 -1.532428e-02 1.298507e-02 3.471597e-02 -4.398552e-02
<VARIANCE> 39
 8.530254e+01 6.245016e+01 6.977713e+01 1.150205e+02 8.150117e+01 5.239714e+01 8.648922e+01 8.572815e+01 3.429768e+01 3.741697e+01 3.240729e+01 3.567567e+01 6.232449e+01 3.500222e+00 2.881282e+00 3.320418e+00 4.976110e+00 4.186554e+00 3.286956e+00 4.738803e+00 6.031497e+00 2.783928e+00 2.510742e+00 2.135430e+00 2.086018e+00 2.618850e+00 4.224014e-01 4.257222e-01 4.869314e-01 6.306554e-01 6.031128e-01 5.405286e-01 6.894202e-01 9.666134e-01 5.162777e-01 4.312950e-01 3.687472e-01 3.563780e-01 3.371203e-01
<GCONST> 1.313109e+02
<STATE> 3
<MEAN> 39
 -1.120499e+01 -3.756999e+00 1.118843e+01 2.651148e+00 1.010002e+01 -1.252986e+00 -1.149517e+01 -1.658031e+01 -5.669074e+00 -3.881191e+00 -5.212512e+00 -6.160614e+00 7.532199e+01 -8.242051e-02 -6.823392e-02 2.120966e-02 -4.583835e-02 -1.761098e-01 -9.650218e-02 8.467161e-02 1.227152e-01 3.799682e-02 4.765704e-03 6.392843e-02 4.729024e-02 -9.037831e-03 -1.819753e-02 1.499408e-02 -5.105987e-02 -6.579644e-02 -5.815308e-02 9.319694e-03 4.890825e-02 3.423664e-02 7.337297e-05 -2.048806e-02 6.042825e-03 3.673372e-02 -3.165243e-02
<VARIANCE> 39
 8.510667e+01 5.874789e+01 6.890032e+01 1.147026e+02 8.106537e+01 5.025931e+01 8.740550e+01 8.361620e+01 3.506381e+01 3.555974e+01 3.345799e+01 3.559752e+01 5.892981e+01 3.382056e+00 2.890945e+00 3.289561e+00 4.803569e+00 3.895583e+00 3.162562e+00 4.745533e+00 5.805271e+00 2.801003e+00 2.451863e+00 2.133718e+00 2.040220e+00 2.560046e+00 4.055410e-01 4.275464e-01 4.764495e-01 6.123844e-01 5.652122e-01 5.165502e-01 6.862061e-01 9.457635e-01 5.134461e-01 4.202310e-01 3.647086e-01 3.442204e-01 3.496834e-01
<GCONST> 1.305642e+02
<STATE> 4
<MEAN> 39
 -1.180023e+01 -3.802101e+00 1.092440e+01 1.897682e+00 8.907271e+00 -1.558931e+00 -1.091619e+01 -1.581922e+01 -5.461071e+00 -3.981612e+00 -4.949116e+00 -5.653967e+00 7.481781e+01 -1.471101e-01 4.136037e-04 -1.690461e-01 -2.907331e-01 -3.500173e-01 -4.919515e-02 2.402693e-01 2.089996e-01 2.510710e-02 -7.098308e-02 8.039615e-02 1.767382e-01 -1.264805e-01 -4.538515e-03 1.014707e-02 -3.733028e-02 -4.470431e-02 -3.093968e-02 5.149074e-03 2.254829e-02 1.155417e-02 -2.690450e-03 -1.371046e-02 1.398744e-03 2.440273e-02 -1.828269e-02
<VARIANCE> 39
 9.042669e+01 5.755573e+01 7.078008e+01 1.146888e+02 8.493013e+01 4.955220e+01 9.301439e+01 8.353529e+01 3.649203e+01 3.500148e+01 3.533168e+01 3.559708e+01 6.091908e+01 3.321244e+00 2.863283e+00 3.057701e+00 4.313202e+00 3.408641e+00 3.013343e+00 4.623262e+00 5.383241e+00 2.850454e+00 2.367853e+00 2.153580e+00 1.887343e+00 2.389528e+00 3.979579e-01 4.224994e-01 4.501914e-01 5.745640e-01 5.046363e-01 4.842239e-01 6.675292e-01 8.863168e-01 5.154088e-01 4.065091e-01 3.624597e-01 3.189917e-01 3.474513e-01
<GCONST> 1.296498e+02
<TRANSP> 5
 0.000000e+00 1.000000e+00 0.000000e+00 0.000000e+00 0.000000e+00
 0.000000e+00 6.999858e-01 3.000142e-01 0.000000e+00 0.000000e+00
 0.000000e+00 0.000000e+00 6.999862e-01 3.000138e-01 0.000000e+00
 0.000000e+00 0.000000e+00 0.000000e+00 8.181226e-01 1.818775e-01
 0.000000e+00 0.000000e+00 0.000000e+00 0.000000e+00 0.000000e+00
<ENDHMM>
~h "j"
<BEGINHMM>
<NUMSTATES> 5
<STATE> 2
<MEAN> 39
 -1.149437e+01 -3.539035e+00 7.349105e+00 -7.798827e-01 9.598417e+00 7.750375e-01 -8.996272e+00 -1.660942e+01 -6.003176e+00 -6.109234e+00 -4.358598e+00 -3.391012e+00 7.468923e+01 4.950099e-01 9.299330e-02 -2.840752e-02 -3.832453e-02 2.340629e-01 1.054232e-01 -2.752032e-01 -3.420817e-01 -2.896121e-01 -2.847411e-01 -1.849399e-01 4.438795e-02 2.809446e-01 5.410080e-03 1.808403e-02 -3.531962e-02 -3.574860e-02 -5.741214e-02 -3.243506e-03 2.888194e-02 3.428467e-02 1.374302e-02 -3.483919e-03 8.996002e-04 2.124468e-02 -2.083985e-02
<VARIANCE> 39
 1.031389e+02 5.959484e+01 5.859769e+01 6.805315e+01 7.313083e+01 5.428328e+01 6.330798e+01 1.083823e+02 5.569809e+01 5.321456e+01 2.938867e+01 3.328242e+01 7.293958e+01 4.171547e+00 3.319378e+00 3.550227e+00 4.789454e+00 3.899069e+00 3.162026e+00 3.965693e+00 6.647896e+00 3.835302e+00 2.924195e+00 2.058228e+00 2.102655e+00 2.925362e+00 5.340188e-01 5.000581e-01 5.925745e-01 8.090756e-01 5.762866e-01 5.124522e-01 6.361790e-01 1.054966e+00 6.680082e-01 5.149254e-01 3.540552e-01 3.695411e-01 4.093200e-01
<GCONST> 1.335145e+02
<STATE> 3
<MEAN> 39
 -1.003453e+01 -3.224740e+00 7.112768e+00 -1.088079e+00 9.971642e+00 1.054954e+00 -9.643877e+00 -1.746743e+01 -6.740662e+00 -6.933173e+00 -4.859471e+00 -3.169260e+00 7.546976e+01 4.549536e-01 1.259518e-01 -1.270013e-01 -1.393571e-01 5.449367e-02 7.123990e-02 -1.595436e-01 -2.083809e-01 -2.244210e-01 -2.651915e-01 -1.694699e-01 1.014505e-01 2.008775e-01 -2.517790e-02 6.161647e-03 -2.660734e-02 -2.893040e-02 -5.873777e-02 -1.650576e-02 4.027423e-02 4.896457e-02 2.797747e-02 1.381290e-02 8.832892e-03 1.705395e-02 -2.929755e-02
<VARIANCE> 39
 9.451257e+01 5.549954e+01 5.753666e+01 6.964894e+01 7.454293e+01 5.604860e+01 6.084328e+01 1.026252e+02 5.851848e+01 5.638130e+01 3.200975e+01 3.477553e+01 6.066500e+01 3.918023e+00 3.118070e+00 3.278227e+00 4.611906e+00 3.824353e+00 3.115003e+00 3.876088e+00 6.621863e+00 3.934466e+00 3.095416e+00 2.190046e+00 2.150908e+00 2.609081e+00 4.915509e-01 4.630125e-01 5.451666e-01 7.711642e-01 5.476093e-01 4.913409e-01 6.076267e-01 1.030840e+00 6.699795e-01 5.313307e-01 3.669258e-01 3.760880e-01 3.622541e-01
<GCONST> 1.326309e+02
<STATE> 4
<MEAN> 39
 -8.624634e+00 -2.663536e+00 6.596360e+00 -1.894041e+00 9.424153e+00 1.091273e+00 -9.997255e+00 -1.772527e+01 -7.109230e+00 -7.613490e+00 -5.272815e+00 -2.710575e+00 7.593924e+01 2.872485e-01 1.220557e-01 -1.838371e-01 -2.048696e-01 -1.505594e-01 -3.739804e-02 -3.323415e-03 7.344082e-03 -9.789238e-02 -1.729562e-01 -1.170082e-01 1.414418e-01 7.041021e-02 -5.038289e-02 -6.311878e-03 -8.425338e-03 -7.485609e-03 -4.251206e-02 -2.884418e-02 3.510660e-02 5.260910e-02 3.294244e-02 2.843515e-02 1.521338e-02 7.941117e-03 -3.499752e-02
<VARIANCE> 39
 8.407471e+01 5.187723e+01 5.676011e+01 7.104173e+01 8.444205e+01 6.287194e+01 6.188462e+01 9.923380e+01 6.175455e+01 5.994041e+01 3.512121e+01 3.586021e+01 5.412548e+01 3.511877e+00 2.784649e+00 2.929176e+00 4.317829e+00 3.633853e+00 3.100797e+00 3.695035e+00 6.314577e+00 3.919298e+00 3.235612e+00 2.314772e+00 2.177453e+00 2.263285e+00 4.167135e-01 4.045391e-01 4.765376e-01 7.074187e-01 5.061737e-01 4.635301e-01 5.655472e-01 9.556207e-01 6.523146e-01 5.392327e-01 3.798682e-01 3.794918e-01 3.073467e-01
<GCONST> 1.312757e+02
<TRANSP> 5
 0.000000e+00 1.000000e+00 0.000000e+00 0.000000e+00 0.000000e+00
 0.000000e+00 6.625141e-01 3.374858e-01 0.000000e+00 0.000000e+00
 0.000000e+00 0.000000e+00 6.625132e-01 3.374868e-01 0.000000e+00
 0.000000e+00 0.000000e+00 0.000000e+00 7.764841e-01 2.235159e-01
 0.000000e+00 0.000000e+00 0.000000e+00 0.000000e+00 0.000000e+00
<ENDHMM>
~h "k"
<BEGINHMM>
<NUMSTATES> 5
<STATE> 2
<MEAN> 39
 -1.519447e+01 -3.519599e+00 2.698731e+00 -6.500576e+00 1.188435e+00 -1.939626e+00 -4.495553e+00 -1.143832e+01 -4.501970e+00 -4.743083e+00 -2.300599e+00 -1.841600e+00 7.062134e+01 1.869589e-01 -1.124210e-01 2.936971e-02 -2.528097e-01 3.158059e-03 -6.655566e-02 -1.072536e-01 -2.118781e-01 -1.585132e-01 -2.025943e-01 -5.180008e-02 5.327750e-04 3.655902e-01 3.624701e-02 9.697592e-03 1.391324e-02 1.365156e-02 -5.703910e-03 9.063736e-03 -1.097313e-02 2.811139e-04 1.160566e-02 1.600119e-02 -1.492170e-02 5.112021e-03 1.009936e-02
<VARIANCE> 39
 8.962241e+01 6.157097e+01 6.630592e+01 9.402955e+01 5.936723e+01 5.061330e+01 7.574342e+01 1.079850e+02 4.646015e+01 5.256749e+01 3.263176e+01 3.220809e+01 1.131495e+02 3.991872e+00 3.518816e+00 4.359993e+00 6.833954e+00 3.299972e+00 3.707423e+00 4.787265e+00 7.079511e+00 3.645039e+00 3.606376e+00 2.476366e+00 2.214976e+00 5.778143e+00 5.116410e-01 5.695598e-01 7.777942e-01 1.163976e+00 5.732392e-01 6.632541e-01 7.859201e-01 1.145778e+00 6.569804e-01 6.487018e-01 4.422623e-01 3.974941e-01 7.853322e-01
<GCONST> 1.383941e+02
<STATE> 3
<MEAN> 39
 -1.442935e+01 -3.725516e+00 2.886827e+00 -7.085125e+00 1.177344e+00 -2.048851e+00 -4.867280e+00 -1.200031e+01 -4.871376e+00 -5.194121e+00 -2.545214e+00 -1.831187e+00 7.164805e+01 2.693783e-01 -6.051479e-02 7.960455e-02 -1.589216e-01 -1.475133e-02 -3.160905e-02 -1.189048e-01 -1.650332e-01 -1.054785e-01 -1.251030e-01 -8.697465e-02 1.341110e-02 3.291130e-01 2.084236e-02 2.226197e-02 1.852383e-02 3.856026e-02 -4.476418e-03 1.369990e-02 6.144842e-04 2.124690e-02 2.053561e-02 2.845900e-02 -1.022764e-02 3.730994e-03 -2.234201e-02
<VARIANCE> 39
 9.480737e+01 6.418028e+01 6.724177e+01 9.379242e+01 6.120086e+01 5.368932e+01 7.817247e+01 1.038159e+02 4.796445e+01 5.336759e+01 3.392537e+01 3.230870e+01 1.040783e+02 4.225929e+00 3.689473e+00 4.367886e+00 6.461204e+00 3.353117e+00 3.751384e+00 4.817871e+00 6.827396e+00 3.659129e+00 3.567982e+00 2.525228e+00 2.215587e+00 5.231799e+00 5.507311e-01 6.004249e-01 7.822314e-01 1.114915e+00 5.808428e-01 6.686611e-01 7.827830e-01 1.114468e+00 6.572798e-01 6.364024e-01 4.456926e-01 3.952050e-01 7.248491e-01
<GCONST> 1.385337e+02
<STATE> 4
<MEAN> 39
 -1.322442e+01 -3.602597e+00 3.418021e+00 -7.333338e+00 1.015058e+00 -2.017169e+00 -5.362557e+00 -1.239465e+01 -5.062159e+00 -5.373166e+00 -2.994040e+00 -1.788522e+00 7.251700e+01 2.486186e-01 2.027383e-02 1.225838e-01 3.308816e-03 -2.580187e-02 2.488842e-03 -8.916944e-02 -6.147327e-02 -4.442515e-02 -3.458288e-02 -9.235736e-02 1.814402e-02 1.674725e-01 -1.188697e-02 2.024681e-02 1.022939e-02 3.833254e-02 -1.571207e-03 9.679683e-03 1.216442e-02 2.722242e-02 1.614731e-02 1.995439e-02 -9.134950e-04 7.215011e-04 -4.161222e-02
<VARIANCE> 39
 1.043746e+02 6.626749e+01 6.711443e+01 9.128890e+01 6.553073e+01 5.644971e+01 8.161122e+01 1.009021e+02 4.880021e+01 5.319981e+01 3.563411e+01 3.252709e+01 1.006746e+02 4.298592e+00 3.607186e+00 4.049654e+00 5.666425e+00 3.291140e+00 3.548846e+00 4.585402e+00 6.150567e+00 3.528167e+00 3.299506e+00 2.480130e+00 2.123106e+00 4.277389e+00 5.586349e-01 5.827707e-01 7.239240e-01 9.843280e-01 5.598759e-01 6.271225e-01 7.296404e-01 1.005805e+00 6.279890e-01 5.838650e-01 4.345703e-01 3.751732e-01 6.006789e-01
<GCONST> 1.370972e+02
<TRANSP> 5
 0.000000e+00 1.000000e+00 0.000000e+00 0.000000e+00 0.000000e+00
 0.000000e+00 6.833865e-01 3.166135e-01 0.000000e+00 0.000000e+00
 0.000000e+00 0.000000e+00 6.833854e-01 3.166147e-01 0.000000e+00
 0.000000e+00 0.000000e+00 0.000000e+00 7.988860e-01 2.011140e-01
 0.000000e+00 0.000000e+00 0.000000e+00 0.000000e+00 0.000000e+00
<ENDHMM>
~h "l"
<BEGINHMM>
<NUMSTATES> 5
<STATE> 2
<MEAN> 39
 -7.646395e+00 -1.144633e+00 6.593512e+00 -5.624451e+00 -1.692847e+00 -5.529420e+00 -8.920636e+00 -1.274942e+01 -4.869286e+00 -6.313009e+00 -6.699414e+00 -3.300786e+00 7.517902e+01 1.379058e-01 3.489422e-02 9.041094e-02 1.137681e-01 8.444831e-02 -3.594967e-02 -4.256040e-02 -1.454484e-01 -5.072430e-02 6.833448e-02 -4.717766e-02 -2.597048e-02 8.532189e-02 -5.342304e-02 -1.618644e-02 -1.915824e-02 4.335328e-03 2.578356e-02 3.136562e-02 2.594984e-02 7.142007e-03 1.821952e-02 2.177125e-02 2.348929e-02 6.264050e-03 -3.208868e-02
<VARIANCE> 39
 9.437406e+01 5.856318e+01 5.396429e+01 6.418368e+01 9.658681e+01 7.620167e+01 9.740651e+01 9.600878e+01 4.904034e+01 5.492889e+01 4.630164e+01 3.229613e+01 7.391475e+01 3.641115e+00 2.379917e+00 2.825063e+00 3.298842e+00 3.019845e+00 2.919874e+00 3.655056e+00 4.544891e+00 3.058713e+00 3.188361e+00 3.358655e+00 2.127788e+00 2.089991e+00 4.181463e-01 3.645511e-01 4.535897e-01 5.337066e-01 4.247496e-01 4.297322e-01 5.470889e-01 7.080596e-01 5.034292e-01 5.003298e-01 5.754840e-01 3.602260e-01 2.423512e-01
<GCONST> 1.300447e+02
<STATE> 3
<MEAN> 39
 -7.505623e+00 -1.120311e+00 6.761132e+00 -5.237216e+00 -1.279254e+00 -5.515991e+00 -8.959780e+00 -1.316400e+01 -4.943553e+00 -6.012733e+00 -6.697220e+00 -3.331996e+00 7.526555e+01 -4.665437e-02 -2.917070e-02 2.909624e-02 1.215412e-01 1.608034e-01 5.986847e-02 3.803021e-02 -1.100080e-01 1.144538e-02 1.283629e-01 3.035329e-02 -4.844911e-03 -1.966281e-02 -5.747364e-02 -1.936553e-02 -1.857650e-02 6.489502e-04 1.800510e-02 2.881335e-02 2.545107e-02 1.667816e-02 1.742547e-02 1.212787e-02 2.146074e-02 6.049289e-03 -3.489434e-02
<VARIANCE> 39
 8.664120e+01 5.915319e+01 5.519265e+01 6.758577e+01 1.016639e+02 7.448611e+01 9.856931e+01 9.963282e+01 4.898797e+01 5.705683e+01 4.640895e+01 3.356698e+01 7.190469e+01 3.448315e+00 2.404647e+00 2.820293e+00 3.344833e+00 3.029866e+00 2.887784e+00 3.749080e+00 4.532655e+00 2.998013e+00 3.122836e+00 3.256124e+00 2.105792e+00 2.023718e+00 3.895954e-01 3.541255e-01 4.490041e-01 5.373780e-01 4.257912e-01 4.280410e-01 5.455934e-01 7.005312e-01 4.919346e-01 4.895512e-01 5.602491e-01 3.515533e-01 2.337788e-01
<GCONST> 1.297896e+02
<STATE> 4
<MEAN> 39
 -8.232865e+00 -1.297615e+00 6.846055e+00 -4.735998e+00 -6.225752e-01 -5.131065e+00 -8.773767e+00 -1.339136e+01 -4.747499e+00 -5.509255e+00 -6.298919e+00 -3.279253e+00 7.476518e+01 -2.645994e-01 -9.894615e-02 -2.733032e-02 1.264289e-01 2.071309e-01 1.519149e-01 1.329498e-01 -1.529776e-02 6.012955e-02 1.421457e-01 1.004628e-01 1.806602e-02 -1.650451e-01 -4.458877e-02 -1.209405e-02 -1.182957e-02 -1.576663e-03 1.313280e-03 1.896890e-02 2.172529e-02 2.619293e-02 6.337523e-03 -3.634018e-03 1.192233e-02 5.091318e-03 -3.417957e-02
<VARIANCE> 39
 8.602838e+01 6.027185e+01 5.771409e+01 7.098320e+01 1.052535e+02 7.068128e+01 9.973609e+01 1.042402e+02 4.782593e+01 5.741585e+01 4.577832e+01 3.483759e+01 7.816502e+01 3.126961e+00 2.474869e+00 2.781125e+00 3.385177e+00 2.999584e+00 2.796254e+00 3.836761e+00 4.447751e+00 2.853790e+00 2.923923e+00 2.975165e+00 2.019948e+00 1.969380e+00 3.612806e-01 3.467643e-01 4.372095e-01 5.414467e-01 4.235649e-01 4.215472e-01 5.431417e-01 6.844283e-01 4.708532e-01 4.629631e-01 5.144923e-01 3.326542e-01 2.358086e-01
<GCONST> 1.292449e+02
<TRANSP> 5
 0.000000e+00 1.000000e+00 0.000000e+00 0.000000e+00 0.000000e+00
 0.000000e+00 6.868418e-01 3.131581e-01 0.000000e+00 0.000000e+00
 0.000000e+00 0.000000e+00 6.868421e-01 3.131579e-01 0.000000e+00
 0.000000e+00 0.000000e+00 0.000000e+00 8.030917e-01 1.969083e-01
 0.000000e+00 0.000000e+00 0.000000e+00 0.000000e+00 0.000000e+00
<ENDHMM>
~h "m"
<BEGINHMM>
<NUMSTATES> 5
<STATE> 2
<MEAN> 39
 -9.055639e+00 1.766105e+00 4.720808e+00 -3.289962e+00 3.457934e+00 1.146049e+00 -3.203863e+00 -1.106571e+01 -3.998559e+00 -3.627003e+00 -5.758697e+00 -4.121488e+00 7.142401e+01 3.347107e-01 1.336903e-01 1.376619e-01 4.586136e-02 1.597698e-01 5.278978e-02 -1.081365e-01 -2.191772e-01 -9.605334e-02 -4.770292e-02 -8.518866e-02 -1.027057e-01 2.623805e-01 -3.487334e-02 -4.093363e-02 -1.945432e-02 -2.654518e-02 -3.528621e-02 -3.035269e-02 -1.649596e-02 9.454809e-03 1.780223e-02 3.133494e-03 2.166068e-02 1.673632e-02 -2.840102e-03
<VARIANCE> 39
 8.293797e+01 6.014584e+01 4.340749e+01 6.110978e+01 6.586938e+01 5.518736e+01 5.528004e+01 8.420013e+01 3.766573e+01 3.170570e+01 3.171467e+01 2.832743e+01 9.696384e+01 2.952651e+00 2.566785e+00 2.465891e+00 3.116931e+00 2.800535e+00 2.623585e+00 2.852026e+00 3.880841e+00 2.499579e+00 2.031981e+00 1.872052e+00 1.806808e+00 2.609047e+00 3.314098e-01 3.577003e-01 4.106689e-01 4.920021e-01 4.108694e-01 4.090628e-01 4.624955e-01 6.049516e-01 4.280490e-01 3.562774e-01 3.150748e-01 3.044021e-01 2.979596e-01
<GCONST> 1.232210e+02
<STATE> 3
<MEAN> 39
 -8.245786e+00 1.907318e+00 5.042393e+00 -3.335263e+00 3.681362e+00 1.110403e+00 -3.617953e+00 -1.165194e+01 -4.128004e+00 -3.758190e+00 -5.895490e+00 -4.324955e+00 7.223799e+01 1.811515e-01 -2.453175e-02 8.515635e-02 -3.942017e-02 2.409720e-02 -5.517023e-02 -1.413294e-01 -1.603380e-01 -2.092100e-02 -3.812810e-02 -9.811794e-03 -3.608453e-02 2.423686e-01 -5.071305e-02 -4.955646e-02 -1.475438e-02 -2.481292e-02 -4.222852e-02 -3.508698e-02 -8.162806e-03 2.171728e-02 2.384850e-02 2.242691e-03 2.225205e-02 2.126616e-02 -8.092771e-03
<VARIANCE> 39
 7.615788e+01 6.030558e+01 4.305781e+01 6.237045e+01 6.799290e+01 5.923571e+01 5.895269e+01 8.455956e+01 3.800558e+01 3.284412e+01 3.191463e+01 2.913773e+01 8.591283e+01 2.849062e+00 2.680649e+00 2.451458e+00 3.210861e+00 2.895390e+00 2.697257e+00 2.942580e+00 3.851620e+00 2.504850e+00 2.059156e+00 1.920353e+00 1.877795e+00 2.598253e+00 3.118348e-01 3.654333e-01 4.033103e-01 5.034329e-01 4.226023e-01 4.175854e-01 4.739144e-01 6.037944e-01 4.282349e-01 3.592556e-01 3.210390e-01 3.134739e-01 3.009439e-01
<GCONST> 1.235745e+02
<STATE> 4
<MEAN> 39
 -8.049775e+00 1.338460e+00 5.349455e+00 -3.803384e+00 3.213214e+00 5.439658e-01 -4.325573e+00 -1.203043e+01 -3.854095e+00 -3.917147e+00 -5.747549e+00 -4.266804e+00 7.310343e+01 -4.680871e-02 -1.923433e-01 6.160686e-02 -9.603299e-02 -1.242720e-01 -1.628622e-01 -1.344206e-01 -5.304635e-02 4.950245e-02 -4.652966e-02 6.406468e-02 4.929006e-02 1.656226e-01 -4.758999e-02 -3.155375e-02 -3.787312e-03 -7.709646e-03 -2.586879e-02 -2.092654e-02 2.926371e-03 2.245104e-02 1.014428e-02 -2.938122e-03 1.354624e-02 1.665526e-02 -1.921316e-02
<VARIANCE> 39
 7.653651e+01 6.146385e+01 4.592937e+01 6.722144e+01 7.398874e+01 6.486249e+01 6.710678e+01 8.593330e+01 3.876971e+01 3.647525e+01 3.361206e+01 3.022001e+01 8.225204e+01 2.609878e+00 2.718504e+00 2.419439e+00 3.226327e+00 2.916828e+00 2.707461e+00 3.064933e+00 3.718698e+00 2.459030e+00 2.115300e+00 1.968348e+00 1.892512e+00 2.490435e+00 2.847266e-01 3.692129e-01 3.867857e-01 5.017766e-01 4.289470e-01 4.207141e-01 4.837779e-01 5.937886e-01 4.180664e-01 3.627279e-01 3.275001e-01 3.175675e-01 2.983631e-01
<GCONST> 1.240720e+02
<TRANSP> 5
 0.000000e+00 1.000000e+00 0.000000e+00 0.000000e+00 0.000000e+00
 0.000000e+00 6.896493e-01 3.103507e-01 0.000000e+00 0.000000e+00
 0.000000e+00 0.000000e+00 6.896482e-01 3.103518e-01 0.000000e+00
 0.000000e+00 0.000000e+00 0.000000e+00 8.070285e-01 1.929715e-01
 0.000000e+00 0.000000e+00 0.000000e+00 0.000000e+00 0.000000e+00
<ENDHMM>
~h "n"
<BEGINHMM>
<NUMSTATES> 5
<STATE> 2
<MEAN> 39
 -9.259661e+00 9.390354e-03 6.760820e+00 -3.021635e+00 4.093818e+00 8.010149e-02 -5.095196e+00 -1.285373e+01 -3.675632e+00 -4.053131e+00 -5.713422e+00 -4.737844e+00 7.382217e+01 -1.872094e-01 -1.702511e-02 1.450838e-01 1.623320e-01 5.781116e-02 -3.505825e-03 3.940391e-02 1.071505e-01 -5.243441e-02 -1.328889e-01 3.015314e-02 1.765328e-02 -1.308389e-01 -4.212248e-02 -4.567502e-02 -2.336983e-02 -3.107920e-02 -2.596356e-02 -1.427730e-02 3.909440e-03 1.652071e-03 -2.485712e-03 4.429759e-03 2.254102e-02 2.654851e-02 -5.726499e-03
<VARIANCE> 39
