~o
<STREAMINFO> 1 39
<VECSIZE> 39<NULLD><MFCC_D_A_0><DIAGC>
~h "#"
<BEGINHMM>
<NUMSTATES> 5
<STATE> 2
<MEAN> 39
 -1.466300e+00 -2.959292e+00 -7.879958e-01 -1.537118e+01 -9.704743e+00 -7.912183e+00 -5.146151e+00 -6.758638e+00 5.637100e+00 7.963657e-02 -7.851104e+00 -2.781604e+00 8.117888e+01 6.238571e-01 -3.812352e-01 -1.017055e-01 -4.746831e-01 -1.232182e+00 -7.483632e-01 6.662716e-01 7.002264e-01 1.318229e+00 1.088771e+00 -4.242470e-01 -1.657184e-01 7.955791e-01 -2.811848e-01 -8.774265e-03 1.858444e-01 2.493012e-01 2.320070e-01 1.785982e-01 2.014193e-01 -8.423544e-02 -3.929663e-01 -1.786186e-01 4.601268e-02 3.281957e-03 -2.376303e-01
<VARIANCE> 39
 2.386722e+01 2.970986e+01 3.226274e+01 2.389413e+01 3.590289e+01 5.158149e+01 5.445411e+01 4.981668e+01 3.789854e+01 3.522479e+01 2.847494e+01 2.101723e+01 2.791431e+01 2.559210e+00 2.456346e+00 2.041533e+00 2.344208e+00 2.283072e+00 2.887925e+00 2.397528e+00 3.649018e+00 3.775185e+00 2.381805e+00 2.248106e+00 2.162598e+00 1.949757e+00 3.967182e-01 4.571186e-01 3.266455e-01 4.018658e-01 3.148988e-01 4.283483e-01 4.081956e-01 5.594948e-01 5.043917e-01 4.385993e-01 4.033524e-01 3.556897e-01 1.872718e-01
<GCONST> 1.167997e+02
<STATE> 3
<MEAN> 39
 -8.934078e-01 -3.943559e+00 1.367824e+00 -1.582608e+01 -1.360516e+01 -8.936469e+00 7.658792e-02 -5.281540e+00 6.369137e+00 2.944790e+00 -9.412878e+00 -3.380878e+00 8.197190e+01 -1.800808e-01 2.477877e-03 2.974865e-01 2.383131e-02 6.708115e-02 3.362747e-01 3.949332e-01 -1.349725e-02 -1.740735e-01 5.480620e-02 -9.050230e-03 -2.893507e-02 -1.737184e-01 -9.241995e-02 1.012016e-01 4.181247e-02 8.195745e-02 2.217029e-01 1.191891e-01 -1.324798e-01 -5.614080e-02 -1.385905e-01 -1.464637e-01 7.311056e-02 2.052578e-02 -1.168914e-01
<VARIANCE> 39
 5.823217e+00 2.317939e+01 3.670798e+01 1.747676e+01 3.092902e+01 4.033408e+01 5.643513e+01 3.563403e+01 2.376547e+01 2.807475e+01 2.443130e+01 1.984098e+01 1.649833e+01 4.544502e-01 1.070210e+00 1.288764e+00 1.060310e+00 1.536509e+00 1.741956e+00 1.960658e+00 1.610332e+00 1.541509e+00 1.521275e+00 1.361482e+00 1.171386e+00 4.525303e-01 9.130075e-02 1.720829e-01 1.983645e-01 2.467822e-01 2.023665e-01 2.431011e-01 2.503964e-01 2.777612e-01 2.783421e-01 2.588804e-01 2.411829e-01 2.150495e-01 7.122269e-02
<GCONST> 9.444405e+01
<STATE> 4
<MEAN> 39
 -3.611842e+00 -2.703757e+00 4.561271e+00 -1.405365e+01 -8.945572e+00 -4.364461e+00 -2.938383e-01 -6.431757e+00 3.424423e+00 7.897326e-01 -7.632340e+00 -3.135623e+00 7.946903e+01 -1.366156e+00 5.189674e-01 7.658010e-01 1.403802e+00 1.892574e+00 8.600574e-01 -3.019099e-01 -6.702544e-02 -1.230262e+00 -1.259722e+00 6.786166e-01 1.615193e-01 -1.147091e+00 -4.023587e-01 -4.758773e-02 1.102396e-01 3.533270e-01 2.185521e-01 1.533234e-02 6.734194e-02 -3.732665e-02 -2.009216e-01 -1.643553e-01 8.505116e-02 -3.556674e-02 -1.673108e-01
<VARIANCE> 39
 1.833094e+01 2.760600e+01 3.759389e+01 3.256464e+01 5.045128e+01 3.723064e+01 4.798893e+01 4.024393e+01 3.313478e+01 3.467192e+01 2.505047e+01 2.552131e+01 2.851925e+01 2.617164e+00 2.484032e+00 2.151814e+00 4.315279e+00 2.943118e+00 2.310982e+00 2.783686e+00 2.768841e+00 2.357718e+00 2.431183e+00 2.689706e+00 2.142532e+00 1.560669e+00 2.558691e-01 3.951004e-01 3.400743e-01 7.305680e-01 4.217228e-01 3.790781e-01 3.995169e-01 4.952557e-01 3.940449e-01 3.946066e-01 4.097037e-01 3.591681e-01 2.685900e-01
<GCONST> 1.167480e+02
<TRANSP> 5
 0.000000e+00 1.000000e+00 0.000000e+00 0.000000e+00 0.000000e+00
 0.000000e+00 7.963415e-01 2.036584e-01 0.000000e+00 0.000000e+00
 0.000000e+00 0.000000e+00 8.888916e-01 1.111083e-01 0.000000e+00
 0.000000e+00 0.000000e+00 0.000000e+00 7.673716e-01 2.326284e-01
 0.000000e+00 0.000000e+00 0.000000e+00 0.000000e+00 0.000000e+00
<ENDHMM>
~h "$"
<BEGINHMM>
<NUMSTATES> 5
<STATE> 2
<MEAN> 39
 -2.359832e+00 6.114869e+00 1.050382e+01 -7.984799e+00 -5.287278e+00 -9.734975e+00 -1.729230e+01 -1.265399e+01 -1.564300e-01 -4.631405e+00 -6.893709e+00 -3.617716e+00 7.643172e+01 1.820338e+00 7.526444e-01 9.608134e-01 2.664154e-01 -1.053560e+00 -1.614360e+00 -2.720765e+00 -3.806615e-01 6.282737e-01 4.089023e-01 -3.565798e-01 2.430945e-01 6.260334e-01 -3.996751e-01 -2.913817e-01 -2.700232e-01 9.452683e-03 5.222509e-02 8.816271e-02 1.827464e-01 1.290284e-01 -1.547131e-01 -1.578488e-01 1.313221e-01 9.638842e-02 -9.481518e-02
<VARIANCE> 39
 3.737502e+01 2.839750e+01 2.757845e+01 3.211667e+01 2.236130e+01 4.662187e+01 6.644292e+01 3.573518e+01 3.522617e+01 2.419659e+01 3.645097e+01 2.039827e+01 3.677105e+01 5.678151e+00 2.455148e+00 2.418089e+00 1.838894e+00 1.962997e+00 3.389360e+00 5.129179e+00 2.681361e+00 3.336712e+00 2.916738e+00 2.069032e+00 1.387866e+00 2.073300e+00 6.861194e-01 3.675479e-01 3.871543e-01 3.076226e-01 2.916743e-01 4.970780e-01 7.535174e-01 4.711630e-01 4.736870e-01 4.164637e-01 4.083982e-01 2.631425e-01 1.859806e-01
<GCONST> 1.178118e+02
<STATE> 3
<MEAN> 39
 5.532985e-01 6.601795e+00 1.157528e+01 -6.569401e+00 -8.656066e+00 -1.504244e+01 -2.454178e+01 -1.263475e+01 3.347181e-01 -5.317715e+00 -7.309453e+00 -2.062629e+00 7.715507e+01 1.602436e-01 -6.487393e-02 -1.189445e-01 9.409821e-02 -3.992342e-01 -5.293311e-01 -4.936953e-01 2.429890e-01 -4.312519e-02 -2.060432e-01 1.071303e-01 1.527563e-01 -4.965905e-02 -1.692454e-01 -6.521066e-02 -1.260371e-01 -4.734926e-02 1.251966e-01 2.279795e-01 3.611763e-01 5.994268e-02 -5.353153e-02 -6.118736e-02 4.159937e-02 -6.325944e-02 -6.500468e-02
<VARIANCE> 39
 5.422668e+00 1.570222e+01 2.385450e+01 2.655866e+01 2.298189e+01 3.678622e+01 4.256262e+01 3.154461e+01 2.948163e+01 2.513929e+01 2.288033e+01 2.108346e+01 9.490714e+00 7.541939e-01 7.025937e-01 9.686768e-01 1.303268e+00 1.253097e+00 2.034993e+00 2.884142e+00 1.715759e+00 1.703252e+00 1.637362e+00 1.269498e+00 1.207452e+00 5.504480e-01 1.935865e-01 1.256597e-01 1.654216e-01 2.136674e-01 2.315177e-01 3.386548e-01 3.988877e-01 3.387521e-01 3.172387e-01 2.944593e-01 2.527884e-01 2.231819e-01 6.769737e-02
<GCONST> 9.499670e+01
<STATE> 4
<MEAN> 39
 -1.089316e+00 5.933981e+00 9.225928e+00 -5.910927e+00 -8.835085e+00 -1.450664e+01 -2.032112e+01 -9.106988e+00 -1.119053e+00 -7.771824e+00 -5.937193e+00 -1.584827e+00 7.501246e+01 -7.556030e-01 -2.294456e-01 -4.485519e-01 6.404456e-02 7.365294e-01 1.264555e+00 1.683306e+00 3.554520e-01 -1.383449e-01 -2.080153e-01 -5.208429e-03 -7.093047e-02 -4.389489e-01 -2.485422e-01 -5.477718e-02 1.523709e-02 1.207117e-01 2.445187e-01 2.182259e-01 2.376422e-01 -1.349650e-02 -9.666096e-02 4.204027e-04 -9.645722e-03 4.540310e-02 -1.057852e-01
<VARIANCE> 39
 1.628818e+01 2.114090e+01 3.601859e+01 5.023835e+01 2.797553e+01 6.418349e+01 6.901640e+01 4.639417e+01 3.855120e+01 3.663682e+01 2.269200e+01 2.804321e+01 2.485170e+01 2.152503e+00 1.076677e+00 1.411694e+00 2.493724e+00 2.841259e+00 3.588170e+00 3.888202e+00 2.478806e+00 2.032316e+00 1.979517e+00 1.926818e+00 1.802051e+00 9.275022e-01 2.510044e-01 1.894418e-01 2.486371e-01 4.619599e-01 3.810500e-01 4.148541e-01 4.910115e-01 4.594060e-01 3.874458e-01 3.457970e-01 3.388427e-01 3.282898e-01 1.170669e-01
<GCONST> 1.118593e+02
<TRANSP> 5
 0.000000e+00 1.000000e+00 0.000000e+00 0.000000e+00 0.000000e+00
 0.000000e+00 7.473108e-01 2.526892e-01 0.000000e+00 0.000000e+00
 0.000000e+00 0.000000e+00 8.646411e-01 1.353589e-01 0.000000e+00
 0.000000e+00 0.000000e+00 0.000000e+00 8.791360e-01 1.208640e-01
 0.000000e+00 0.000000e+00 0.000000e+00 0.000000e+00 0.000000e+00
<ENDHMM>
~h "@"
<BEGINHMM>
<NUMSTATES> 5
<STATE> 2
<MEAN> 39
 -5.169778e+00 -1.317203e+00 2.889771e+00 -1.178147e+01 5.119547e-01 -1.830885e-01 -6.002620e+00 -1.725602e+01 -8.002279e+00 -7.411647e+00 -8.583485e+00 -8.526056e-01 7.778098e+01 1.455244e+00 3.491589e-01 -3.123647e-01 -4.056853e-01 -2.944716e-01 -2.120802e-01 -5.801075e-01 -4.105359e-01 -1.425105e-01 -3.135438e-01 -9.475856e-01 3.002526e-01 5.633258e-01 -5.788338e-01 -7.073598e-02 1.358768e-01 4.228074e-01 4.856506e-02 -9.290945e-02 1.470434e-01 4.257087e-01 2.627714e-01 5.002148e-02 2.585284e-01 -2.249781e-02 -3.472611e-01
<VARIANCE> 39
 4.331458e+01 2.349690e+01 3.682044e+01 4.207142e+01 5.073701e+01 4.334336e+01 4.410765e+01 5.454704e+01 7.695011e+01 5.666797e+01 3.313506e+01 3.010792e+01 2.932583e+01 6.844329e+00 2.867715e+00 3.217557e+00 5.346044e+00 2.619653e+00 3.159687e+00 3.543295e+00 5.423470e+00 3.680250e+00 2.971792e+00 3.486803e+00 2.241625e+00 4.016093e+00 1.086660e+00 4.792272e-01 4.713962e-01 7.592663e-01 4.450869e-01 5.295243e-01 6.070192e-01 7.648202e-01 6.766419e-01 5.102123e-01 5.396510e-01 3.605866e-01 4.075274e-01
<GCONST> 1.293331e+02
<STATE> 3
<MEAN> 39
 -3.536068e+00 -1.308134e+00 2.798588e+00 -1.127882e+01 4.745724e-01 -1.328585e+00 -7.253680e+00 -1.707069e+01 -8.707313e+00 -8.679206e+00 -9.661155e+00 9.845793e-03 7.803101e+01 -2.471086e-01 3.479401e-01 3.527623e-01 8.208769e-01 -1.941914e-02 -1.708633e-01 1.744059e-01 8.153452e-01 3.694979e-01 -5.783066e-02 -5.905574e-02 2.009222e-01 -6.335155e-01 -5.727456e-01 1.356613e-02 2.790901e-01 4.281427e-01 1.146964e-01 6.003150e-02 2.831487e-01 3.839338e-01 2.003213e-01 1.283991e-01 3.102711e-01 -9.234240e-02 -3.499072e-01
<VARIANCE> 39
 2.277556e+01 2.182045e+01 3.394175e+01 4.179706e+01 4.943843e+01 4.684760e+01 3.869702e+01 5.282686e+01 6.614919e+01 4.838580e+01 3.104181e+01 3.365739e+01 1.748545e+01 3.683018e+00 2.263352e+00 3.147019e+00 4.966870e+00 2.389911e+00 2.686460e+00 2.892173e+00 4.151670e+00 3.072902e+00 2.661552e+00 2.777007e+00 2.189158e+00 2.552036e+00 5.949858e-01 4.006844e-01 3.771746e-01 6.071841e-01 3.771008e-01 4.738066e-01 5.193801e-01 6.954918e-01 5.830247e-01 4.580713e-01 5.070422e-01 3.539841e-01 3.018087e-01
<GCONST> 1.225717e+02
<STATE> 4
<MEAN> 39
 -5.056503e+00 -7.000663e-01 3.947526e+00 -8.723070e+00 5.452340e-01 -1.706719e+00 -6.178594e+00 -1.448067e+01 -7.951296e+00 -8.660748e+00 -8.997552e+00 8.400910e-01 7.579024e+01 -1.026040e+00 3.971701e-01 8.359153e-01 1.484987e+00 1.920777e-01 8.839537e-02 6.087115e-01 1.304054e+00 4.808082e-01 8.057787e-02 4.400836e-01 -1.128990e-01 -1.150538e+00 -3.330401e-01 -8.110464e-02 1.232213e-01 1.125543e-01 6.445990e-02 7.316015e-02 1.724134e-01 1.126678e-01 9.597112e-02 1.025075e-01 2.002330e-01 -7.802492e-02 -1.037631e-01
<VARIANCE> 39
 2.791139e+01 2.587384e+01 4.379382e+01 5.417334e+01 4.576267e+01 4.482553e+01 3.984048e+01 5.609744e+01 5.711841e+01 5.094838e+01 3.334124e+01 3.384753e+01 2.565766e+01 3.035484e+00 2.589690e+00 2.866316e+00 4.673687e+00 2.251494e+00 2.553585e+00 2.664395e+00 3.819260e+00 2.918282e+00 2.517033e+00 2.747130e+00 2.166300e+00 2.184261e+00 3.650929e-01 4.064025e-01 4.007525e-01 6.792080e-01 3.537933e-01 4.145233e-01 5.142545e-01 6.774881e-01 5.039395e-01 4.235370e-01 4.440809e-01 3.031339e-01 2.772793e-01
<GCONST> 1.218880e+02
<TRANSP> 5
 0.000000e+00 1.000000e+00 0.000000e+00 0.000000e+00 0.000000e+00
 0.000000e+00 5.181420e-01 4.818580e-01 0.000000e+00 0.000000e+00
 0.000000e+00 0.000000e+00 4.185663e-01 5.814337e-01 0.000000e+00
 0.000000e+00 0.000000e+00 0.000000e+00 4.834681e-01 5.165319e-01
 0.000000e+00 0.000000e+00 0.000000e+00 0.000000e+00 0.000000e+00
<ENDHMM>
~h "D"
<BEGINHMM>
<NUMSTATES> 5
<STATE> 2
<MEAN> 39
 -1.399224e+01 1.882300e+00 8.604231e+00 -7.094658e+00 3.301288e+00 4.289185e+00 -3.836499e+00 -1.776603e+01 -4.347879e+00 -7.365721e+00 -7.472290e+00 -5.487469e+00 7.667958e+01 -6.105626e-01 -1.520707e-01 -2.750670e-01 -9.131332e-01 -3.409299e-01 -2.294626e-01 4.386013e-01 2.724473e-01 -1.466889e-01 -4.830661e-01 -9.487891e-02 6.773971e-03 1.780900e-02 2.628058e-01 -2.452447e-01 -9.031022e-02 -1.254209e-01 -1.708465e-01 -2.622602e-01 -2.080059e-01 -9.297086e-02 -1.147481e-02 1.649543e-01 -1.078667e-03 1.313384e-01 1.219772e-01
<VARIANCE> 39
 8.081139e+01 2.519017e+01 3.270016e+01 5.003926e+01 5.417434e+01 4.518797e+01 5.097940e+01 7.046478e+01 3.678080e+01 4.133103e+01 4.661378e+01 3.070094e+01 2.676913e+01 9.812756e+00 3.426072e+00 2.041893e+00 5.160706e+00 3.673222e+00 3.200958e+00 4.803277e+00 6.495100e+00 3.092215e+00 2.286185e+00 3.531884e+00 2.108494e+00 2.444752e+00 1.343660e+00 4.163898e-01 3.489633e-01 8.895501e-01 5.241135e-01 4.646111e-01 7.111957e-01 1.015142e+00 5.643817e-01 4.478823e-01 5.970495e-01 3.859871e-01 2.663791e-01
<GCONST> 1.295433e+02
<STATE> 3
<MEAN> 39
 -1.391098e+01 8.183528e-01 7.422951e+00 -9.492961e+00 1.790365e+00 2.250580e+00 -3.456523e+00 -1.695897e+01 -5.006502e+00 -8.631204e+00 -8.379179e+00 -5.069058e+00 7.706013e+01 1.972290e-01 -7.142460e-01 -3.948688e-01 -9.103834e-01 -6.310294e-01 -8.578726e-01 -9.559558e-02 3.784594e-02 -2.841496e-01 -1.563671e-01 -1.325488e-01 3.552825e-01 2.147749e-01 2.251339e-01 -1.226768e-01 -1.255114e-02 1.129052e-01 -4.256072e-02 -1.541790e-01 -1.650915e-01 -4.116816e-02 -2.402112e-02 1.264396e-01 2.229350e-02 1.160811e-01 -3.866429e-03
<VARIANCE> 39
 1.128621e+02 2.579019e+01 3.090013e+01 5.003044e+01 4.927887e+01 4.792939e+01 4.377328e+01 5.383215e+01 3.722414e+01 3.047479e+01 5.571155e+01 2.828010e+01 2.120880e+01 9.335279e+00 2.994911e+00 1.825922e+00 4.292131e+00 2.920841e+00 2.890387e+00 3.899002e+00 5.438181e+00 3.105699e+00 2.124539e+00 3.599617e+00 2.014164e+00 1.713131e+00 1.469655e+00 4.368688e-01 3.258418e-01 8.728237e-01 5.726347e-01 4.943514e-01 6.892350e-01 1.007460e+00 5.224497e-01 3.907441e-01 6.984063e-01 3.752929e-01 2.816732e-01
<GCONST> 1.274405e+02
<STATE> 4
<MEAN> 39
 -1.731264e+01 -3.370495e+00 7.465120e+00 -1.135958e+01 5.922079e-01 -8.167502e-01 -2.201917e+00 -1.577711e+01 -5.635834e+00 -7.465382e+00 -5.900805e+00 -2.123145e+00 7.531760e+01 2.109371e-01 -3.973220e-01 -1.694379e-01 9.205017e-03 -4.253534e-01 -4.780673e-01 -9.049444e-02 5.148495e-01 -2.724889e-01 5.262991e-02 3.970262e-02 3.941392e-01 -5.067035e-01 1.757510e-01 1.630775e-01 3.113598e-02 2.575514e-01 7.553930e-02 1.161506e-01 -5.623414e-02 7.875271e-02 1.688437e-02 5.990961e-02 -4.149500e-02 -2.503598e-02 -1.674325e-01
<VARIANCE> 39
 1.518968e+02 2.652317e+01 3.266511e+01 3.178048e+01 3.764813e+01 4.257565e+01 4.398799e+01 4.382610e+01 3.745375e+01 3.096272e+01 5.351865e+01 2.304089e+01 3.019519e+01 4.021619e+00 2.296009e+00 1.566434e+00 3.218861e+00 2.048880e+00 2.402414e+00 2.397545e+00 3.346686e+00 2.220800e+00 1.727908e+00 2.251456e+00 1.564413e+00 1.503936e+00 6.829911e-01 3.360814e-01 2.953093e-01 4.523624e-01 3.717045e-01 4.163005e-01 4.845273e-01 6.889396e-01 4.258047e-01 3.082087e-01 4.301701e-01 2.952331e-01 2.071478e-01
<GCONST> 1.178605e+02
<TRANSP> 5
 0.000000e+00 1.000000e+00 0.000000e+00 0.000000e+00 0.000000e+00
 0.000000e+00 5.253478e-01 4.746523e-01 0.000000e+00 0.000000e+00
 0.000000e+00 0.000000e+00 5.801942e-01 4.198058e-01 0.000000e+00
 0.000000e+00 0.000000e+00 0.000000e+00 7.080325e-01 2.919675e-01
 0.000000e+00 0.000000e+00 0.000000e+00 0.000000e+00 0.000000e+00
<ENDHMM>
~h "E"
<BEGINHMM>
<NUMSTATES> 5
<STATE> 2
<MEAN> 39
 -6.504039e+00 -5.775146e+00 5.121517e-01 -1.032607e+01 3.145571e+00 -3.926542e-01 -9.340794e+00 -2.522893e+01 -4.053077e+00 2.573591e+00 4.028552e-01 1.000628e+00 8.325326e+01 8.396197e-01 -2.786876e-01 -1.808268e-01 -3.048390e-02 3.577153e-01 -2.264224e-01 -4.732944e-01 -1.221756e+00 4.238801e-01 1.100417e+00 3.850545e-01 1.616296e-01 1.206887e+00 -4.081790e-01 1.285782e-01 3.359685e-01 2.937435e-01 8.817283e-03 3.242157e-02 2.828900e-01 5.462208e-01 1.284321e-03 -2.916534e-01 -2.231197e-01 -1.924531e-01 -4.619882e-01
<VARIANCE> 39
 3.726371e+01 2.160336e+01 3.693369e+01 3.279811e+01 3.666878e+01 3.236838e+01 4.510359e+01 6.686981e+01 4.177804e+01 3.950642e+01 2.159095e+01 2.645005e+01 5.032471e+01 5.541217e+00 3.046383e+00 4.089467e+00 4.074169e+00 2.744589e+00 3.001346e+00 3.859741e+00 8.118748e+00 3.928827e+00 3.996732e+00 2.455863e+00 2.056558e+00 5.462960e+00 6.645256e-01 5.799444e-01 5.765849e-01 5.638102e-01 4.366229e-01 5.103047e-01 6.516500e-01 9.985492e-01 7.121941e-01 6.226303e-01 4.483790e-01 3.428541e-01 5.569390e-01
<GCONST> 1.282179e+02
<STATE> 3
<MEAN> 39
 -6.202313e+00 -5.609029e+00 1.984256e+00 -8.810318e+00 5.060817e+00 -5.702635e-01 -9.673332e+00 -2.568082e+01 -3.314305e+00 3.703514e+00 3.648758e-01 2.092938e-01 8.404147e+01 -6.589481e-01 4.556749e-01 1.195455e+00 1.345731e+00 5.608682e-01 1.494090e-01 5.835428e-01 9.589274e-01 -4.937550e-02 -4.548025e-01 -3.759379e-01 -6.342270e-01 -9.340966e-01 -3.626117e-01 1.945957e-01 2.555103e-01 3.205777e-01 -8.307505e-02 8.043613e-02 3.268065e-01 5.957515e-01 -9.984789e-02 -4.011094e-01 -2.575224e-01 -1.682923e-01 -5.474654e-01
<VARIANCE> 39
 1.661388e+01 1.995314e+01 3.434210e+01 4.028532e+01 4.468020e+01 3.691942e+01 4.703192e+01 5.497805e+01 3.748121e+01 3.251228e+01 2.675039e+01 3.612614e+01 2.344510e+01 2.830469e+00 2.301346e+00 3.248294e+00 4.430591e+00 2.510173e+00 2.254394e+00 3.293880e+00 5.244267e+00 3.043247e+00 3.146198e+00 2.476446e+00 2.227048e+00 3.085537e+00 3.438120e-01 4.074202e-01 4.953458e-01 6.555663e-01 4.516934e-01 4.220988e-01 5.146253e-01 7.635342e-01 5.866310e-01 4.856632e-01 4.627102e-01 3.961511e-01 2.825546e-01
<GCONST> 1.214315e+02
<STATE> 4
<MEAN> 39
 -9.983631e+00 -2.818729e+00 6.827249e+00 -2.456134e+00 6.728923e+00 1.962250e-01 -7.052695e+00 -2.022279e+01 -4.260860e+00 5.150337e-01 -2.205924e+00 -2.739565e+00 7.853716e+01 -1.307382e+00 8.319604e-01 1.210708e+00 1.653987e+00 -9.864784e-02 2.676836e-01 1.381336e+00 2.511660e+00 -5.215799e-02 -1.083294e+00 -8.596162e-01 -6.260186e-01 -2.026199e+00 -1.396616e-02 -6.290536e-02 -2.577088e-01 -3.749077e-01 -3.275107e-01 -3.270780e-02 7.569483e-02 1.193740e-01 4.609733e-02 -3.698765e-02 -3.900115e-02 1.077335e-01 -4.385654e-03
<VARIANCE> 39
 4.463637e+01 2.982192e+01 4.995947e+01 7.994719e+01 5.777303e+01 3.794749e+01 6.028513e+01 7.332427e+01 4.075669e+01 3.479576e+01 3.652918e+01 4.057054e+01 5.344141e+01 4.400094e+00 2.750357e+00 3.724808e+00 6.367993e+00 3.257047e+00 2.353864e+00 3.687956e+00 6.219196e+00 3.228974e+00 2.579444e+00 3.128729e+00 2.542819e+00 3.459703e+00 6.105602e-01 4.379075e-01 6.771525e-01 1.185393e+00 6.033443e-01 4.191999e-01 7.155185e-01 1.188441e+00 6.081071e-01 5.061126e-01 5.554962e-01 4.805417e-01 5.051858e-01
<GCONST> 1.317935e+02
<TRANSP> 5
 0.000000e+00 1.000000e+00 0.000000e+00 0.000000e+00 0.000000e+00
 0.000000e+00 7.184371e-01 2.815629e-01 0.000000e+00 0.000000e+00
 0.000000e+00 0.000000e+00 6.105835e-01 3.894165e-01 0.000000e+00
 0.000000e+00 0.000000e+00 0.000000e+00 6.189308e-01 3.810692e-01
 0.000000e+00 0.000000e+00 0.000000e+00 0.000000e+00 0.000000e+00
<ENDHMM>
~h "H"
<BEGINHMM>
<NUMSTATES> 5
<STATE> 2
<MEAN> 39
 -4.052602e+00 8.105922e-02 5.164640e+00 -6.492567e+00 4.619255e+00 -1.168743e+00 -4.728291e+00 -1.357927e+01 -1.181933e+01 -9.923891e+00 -1.075233e+01 -4.529196e+00 7.617578e+01 1.834852e-01 1.366887e+00 -2.286026e-01 1.830412e+00 6.811963e-01 3.656838e-01 -9.579785e-02 7.514567e-01 1.001314e+00 4.716477e-01 -1.776606e-01 -3.727461e-01 -1.321295e+00 -5.153121e-01 -3.635067e-02 2.666381e-01 2.861789e-01 7.423474e-02 1.182335e-02 4.337705e-02 5.971761e-02 3.254918e-01 1.641087e-01 3.440818e-01 8.998656e-02 -1.554186e-01
<VARIANCE> 39
 8.914429e+00 1.659183e+01 2.559341e+01 4.557940e+01 3.021532e+01 2.174010e+01 3.077124e+01 3.537956e+01 3.631548e+01 2.441971e+01 2.032509e+01 2.188004e+01 1.846002e+01 3.506671e+00 1.218633e+00 3.092841e+00 4.177320e+00 1.835410e+00 1.380018e+00 2.794180e+00 3.750499e+00 4.016197e+00 1.938927e+00 3.278047e+00 1.697170e+00 9.892089e-01 6.333300e-01 2.388811e-01 4.059604e-01 7.126762e-01 3.103698e-01 2.580027e-01 5.972131e-01 7.355280e-01 7.826874e-01 3.483066e-01 5.734496e-01 2.944337e-01 1.604904e-01
<GCONST> 1.126801e+02
<STATE> 3
<MEAN> 39
 -6.090545e+00 6.188817e+00 6.843412e+00 3.094684e+00 8.623386e+00 1.227939e+00 -5.945635e+00 -1.127236e+01 -5.768068e+00 -6.779127e+00 -9.703653e+00 -4.891323e+00 6.936328e+01 -4.445386e-01 1.054324e+00 4.674832e-01 1.075773e+00 4.862700e-01 4.575996e-01 -3.759454e-01 -4.941684e-02 6.717996e-01 4.732138e-01 2.070826e-01 -1.709058e-01 -1.008917e+00 -9.460077e-04 -2.063377e-01 -4.058045e-02 -4.854833e-01 -1.862982e-01 -6.877907e-02 1.082597e-03 -1.228038e-01 -2.666744e-01 -1.031154e-01 1.633041e-02 1.003734e-01 2.019718e-01
<VARIANCE> 39
 6.483873e+00 1.394214e+01 1.788947e+01 2.093677e+01 1.648421e+01 1.756643e+01 2.244174e+01 2.042037e+01 1.792065e+01 2.137539e+01 1.758582e+01 1.590091e+01 9.408569e+00 3.028476e-01 9.637693e-01 1.325080e+00 2.706590e+00 1.453628e+00 1.038817e+00 1.650094e+00 1.712924e+00 1.573341e+00 1.011191e+00 1.179706e+00 1.136584e+00 5.328804e-01 6.191713e-02 1.522083e-01 2.298217e-01 4.142577e-01 2.401123e-01 1.921558e-01 2.915420e-01 3.876474e-01 2.622235e-01 1.838039e-01 2.375354e-01 1.934731e-01 7.758950e-02
<GCONST> 8.841004e+01
<STATE> 4
<MEAN> 39
 -9.626293e+00 9.007623e+00 8.390129e+00 4.818235e+00 8.184192e+00 2.964911e+00 -6.498280e+00 -9.555422e+00 -4.705945e+00 -5.311371e+00 -7.654005e+00 -4.875696e+00 6.438792e+01 -6.793467e-01 -2.270977e-01 -6.879899e-02 -7.909302e-02 -3.992880e-01 3.095719e-02 1.961098e-01 5.580570e-01 2.579813e-02 7.744889e-02 5.302447e-01 1.148681e-01 -5.561218e-01 -1.198899e-01 -3.276849e-01 -6.568424e-02 -1.485996e-01 -1.401196e-01 -8.195578e-02 1.729043e-01 9.679580e-02 -1.607703e-02 -2.651559e-02 9.904470e-02 1.006531e-01 1.002744e-01
<VARIANCE> 39
 1.341156e+01 1.611786e+01 1.980613e+01 1.308484e+01 1.352176e+01 1.974462e+01 2.715878e+01 2.269198e+01 1.250207e+01 1.697259e+01 1.720496e+01 1.350395e+01 1.374819e+01 5.747992e-01 2.363179e+00 1.969349e+00 1.255603e+00 1.368948e+00 1.713357e+00 2.210067e+00 1.653684e+00 1.119276e+00 9.986302e-01 1.128458e+00 9.919965e-01 5.518581e-01 1.398703e-01 4.081300e-01 3.222834e-01 2.696934e-01 2.331458e-01 3.312566e-01 4.723348e-01 3.063770e-01 2.390321e-01 2.046711e-01 1.992475e-01 1.746685e-01 1.137782e-01
<GCONST> 9.268889e+01
<TRANSP> 5
 0.000000e+00 1.000000e+00 0.000000e+00 0.000000e+00 0.000000e+00
 0.000000e+00 7.884817e-01 2.115183e-01 0.000000e+00 0.000000e+00
 0.000000e+00 0.000000e+00 7.060658e-01 2.939342e-01 0.000000e+00
 0.000000e+00 0.000000e+00 0.000000e+00 8.937582e-01 1.062418e-01
 0.000000e+00 0.000000e+00 0.000000e+00 0.000000e+00 0.000000e+00
<ENDHMM>
~h "I"
<BEGINHMM>
<NUMSTATES> 5
<STATE> 2
<MEAN> 39
 -7.540405e+00 -4.165032e+00 7.296990e+00 -2.342456e+00 1.044494e+01 -5.076895e-01 -1.297141e+01 -2.587883e+01 -1.006680e+01 -3.904032e+00 -5.720480e+00 -3.918746e+00 7.812715e+01 9.856914e-01 1.348876e-01 2.277196e-01 8.429128e-01 9.475563e-01 -2.057117e-01 -1.247429e+00 -1.409760e+00 -1.438009e-01 4.318833e-01 -6.013337e-01 -3.952954e-01 5.447084e-01 -6.278250e-01 -2.625954e-02 6.925786e-03 4.074989e-02 -3.462418e-01 -6.620027e-02 4.936661e-01 8.687869e-01 4.144188e-01 -6.316989e-02 1.114504e-01 7.515882e-02 -3.660830e-01
<VARIANCE> 39
 4.055555e+01 2.122372e+01 4.048176e+01 4.473406e+01 4.463059e+01 3.159185e+01 5.329721e+01 7.890009e+01 4.764219e+01 4.867876e+01 2.684731e+01 3.008846e+01 4.380486e+01 7.471694e+00 2.672697e+00 4.822274e+00 3.733999e+00 3.414830e+00 2.821497e+00 5.359927e+00 1.115891e+01 3.639820e+00 2.900526e+00 3.154873e+00 2.371180e+00 4.391416e+00 9.008566e-01 4.880664e-01 6.851754e-01 5.549018e-01 4.981037e-01 4.858304e-01 7.391782e-01 1.331740e+00 6.220698e-01 5.200233e-01 5.052239e-01 3.770156e-01 4.433923e-01
<GCONST> 1.310219e+02
<STATE> 3
<MEAN> 39
 -7.683246e+00 -3.686290e+00 8.385554e+00 6.951265e-01 1.182384e+01 -1.705133e+00 -1.416349e+01 -2.514708e+01 -8.820778e+00 -3.382868e+00 -6.990593e+00 -4.300827e+00 7.745420e+01 -9.566368e-01 3.821331e-01 5.359683e-01 8.683559e-01 -2.643244e-01 -3.864304e-02 8.437911e-01 1.756432e+00 7.793735e-01 1.602032e-01 3.339046e-02 1.751996e-02 -9.679871e-01 -3.816696e-01 4.607628e-02 -2.913326e-02 -1.382928e-01 -3.278159e-01 1.171001e-01 5.129620e-01 6.482090e-01 2.150498e-01 -1.013676e-01 1.414853e-01 7.940701e-02 -2.776475e-01
<VARIANCE> 39
 2.687596e+01 2.267150e+01 4.129246e+01 5.927357e+01 4.208733e+01 3.312772e+01 5.190538e+01 6.374167e+01 4.780775e+01 4.767263e+01 2.963522e+01 3.962085e+01 3.255130e+01 3.572113e+00 1.965110e+00 3.223720e+00 3.420071e+00 2.510082e+00 2.087672e+00 4.077523e+00 6.328818e+00 2.696483e+00 2.409493e+00 2.379369e+00 2.136614e+00 2.436304e+00 4.680277e-01 4.101511e-01 5.781338e-01 5.968090e-01 3.659725e-01 3.946854e-01 5.593687e-01 8.813573e-01 5.233715e-01 4.470657e-01 4.363663e-01 3.703569e-01 2.952233e-01
<GCONST> 1.233114e+02
<STATE> 4
<MEAN> 39
 -1.116944e+01 -1.684065e+00 9.888458e+00 3.008037e+00 1.030313e+01 -1.302909e+00 -1.178056e+01 -1.872081e+01 -5.995423e+00 -2.697741e+00 -7.306659e+00 -4.664610e+00 7.276948e+01 -1.208768e+00 3.349575e-01 -9.643166e-02 1.591969e-01 -9.761552e-01 2.586406e-01 1.592022e+00 2.409458e+00 7.941451e-01 -1.098117e-01 4.063899e-01 1.475121e-01 -1.230466e+00 -5.655381e-02 -1.077783e-01 -2.048865e-01 -2.906072e-01 -1.579032e-01 3.322631e-02 1.190912e-01 -2.109267e-02 -9.968938e-03 -1.032623e-01 9.130803e-02 3.982431e-02 5.000949e-02
<VARIANCE> 39
 4.278790e+01 2.691110e+01 4.461304e+01 6.490842e+01 4.236074e+01 3.255140e+01 6.330139e+01 7.282410e+01 4.821304e+01 4.787564e+01 3.327886e+01 3.997361e+01 5.778937e+01 2.818298e+00 2.707500e+00 3.604041e+00 3.752843e+00 2.525176e+00 1.963776e+00 3.417796e+00 4.465277e+00 2.880001e+00 2.515387e+00 2.550183e+00 1.944749e+00 1.836081e+00 3.228901e-01 3.733012e-01 5.376924e-01 6.683289e-01 3.611087e-01 4.085019e-01 5.913683e-01 8.653637e-01 4.827214e-01 4.172267e-01 3.917698e-01 3.402915e-01 2.961479e-01
<GCONST> 1.239512e+02
<TRANSP> 5
 0.000000e+00 1.000000e+00 0.000000e+00 0.000000e+00 0.000000e+00
 0.000000e+00 6.701796e-01 3.298204e-01 0.000000e+00 0.000000e+00
 0.000000e+00 0.000000e+00 5.457218e-01 4.542782e-01 0.000000e+00
 0.000000e+00 0.000000e+00 0.000000e+00 5.800135e-01 4.199865e-01
 0.000000e+00 0.000000e+00 0.000000e+00 0.000000e+00 0.000000e+00
<ENDHMM>
~h "J"
<BEGINHMM>
<NUMSTATES> 5
<STATE> 2
<MEAN> 39
 -2.182347e+01 -9.941166e+00 7.170114e+00 -1.139004e+00 2.809662e+00 7.595232e-01 -4.242553e+00 -8.861772e+00 -7.556931e-01 -3.778760e+00 -4.430221e+00 -1.396045e+00 6.688323e+01 -1.794376e+00 -3.183235e+00 1.211697e+00 -9.351577e-01 4.712426e-01 -5.583198e-01 -1.644252e-01 -7.924075e-01 8.178620e-01 -8.647040e-03 6.460775e-02 1.735049e-01 2.178550e+00 -6.255446e-02 -2.731638e-02 8.191568e-02 -7.111613e-02 1.063971e-01 -2.588614e-01 -6.301656e-02 -2.287652e-01 -4.548750e-02 6.783544e-02 6.294002e-02 -3.309694e-02 3.350720e-01
<VARIANCE> 39
 4.137772e+01 1.081031e+02 7.232816e+01 4.498219e+01 3.507326e+01 3.293520e+01 3.065262e+01 4.149709e+01 2.506338e+01 1.907059e+01 1.710518e+01 1.486305e+01 6.403027e+01 4.079462e+00 7.300048e+00 7.937075e+00 5.490288e+00 3.356538e+00 3.128832e+00 3.506348e+00 5.689597e+00 2.967504e+00 2.679987e+00 2.272408e+00 1.790608e+00 5.930038e+00 8.974997e-01 1.566387e+00 1.730041e+00 1.145267e+00 6.306893e-01 5.629556e-01 7.157571e-01 9.503253e-01 5.736344e-01 4.847938e-01 4.310610e-01 3.106456e-01 1.002472e+00
<GCONST> 1.323238e+02
<STATE> 3
<MEAN> 39
 -2.939068e+01 -2.217243e+01 1.120690e+01 -4.486270e+00 5.925075e+00 -4.056659e+00 -5.415147e+00 -1.410862e+01 1.751431e+00 -2.944019e+00 -3.431752e+00 -1.134779e+00 7.827575e+01 1.461686e-01 -4.625746e-01 -4.698220e-01 -9.908105e-02 5.438794e-01 -7.404176e-01 -6.518572e-01 -1.170691e+00 -6.007897e-01 9.706418e-02 5.641871e-02 -2.650707e-02 1.162394e+00 7.915127e-01 7.476737e-01 -3.595970e-01 1.140826e-01 -9.177502e-02 2.194316e-01 -1.319725e-01 -2.440214e-02 -4.385301e-01 -1.275560e-01 -9.702983e-02 2.075219e-03 -4.456952e-01
<VARIANCE> 39
 1.474717e+01 1.382500e+01 2.588498e+01 1.938795e+01 2.458533e+01 2.609772e+01 2.734698e+01 3.418896e+01 2.318571e+01 1.495098e+01 1.230763e+01 1.390982e+01 1.482442e+01 5.293517e+00 3.813694e+00 4.295414e+00 1.778383e+00 1.612639e+00 1.804866e+00 2.074584e+00 2.099569e+00 2.975016e+00 1.496379e+00 1.232158e+00 9.638373e-01 1.659238e+00 4.503102e-01 3.516549e-01 1.056578e+00 3.715113e-01 3.269318e-01 3.075431e-01 3.760594e-01 4.284175e-01 3.706976e-01 2.944034e-01 2.366239e-01 2.073263e-01 1.313169e-01
<GCONST> 1.057938e+02
<STATE> 4
<MEAN> 39
 -2.348547e+01 -1.899559e+01 8.721224e+00 -4.111526e+00 7.229010e+00 -4.433391e+00 -8.149850e+00 -1.748487e+01 -3.683469e+00 -3.472236e+00 -4.030735e+00 -2.269804e-01 7.758446e+01 2.113365e+00 1.708218e+00 -2.762064e-01 2.950130e-01 -1.470629e-01 5.824941e-01 -2.562880e-01 -1.218411e-01 -1.169866e+00 -2.032512e-01 -2.278956e-01 3.005235e-01 -5.776254e-01 1.481727e-01 2.307223e-01 -5.659129e-02 -1.185388e-02 -2.080572e-01 1.435500e-01 9.788589e-02 2.265545e-01 1.233837e-01 2.532396e-02 -1.909124e-02 8.170018e-04 -1.670723e-01
<VARIANCE> 39
 7.518832e+01 4.763492e+01 2.583735e+01 2.700937e+01 2.258307e+01 2.643298e+01 3.284540e+01 5.417960e+01 5.361985e+01 1.758402e+01 1.393155e+01 1.630462e+01 2.935200e+01 5.738526e+00 3.691164e+00 2.446225e+00 2.009451e+00 2.201345e+00 2.166884e+00 2.462850e+00 5.350326e+00 4.328160e+00 1.699728e+00 1.345555e+00 1.269941e+00 1.811241e+00 6.691877e-01 5.969555e-01 5.320143e-01 3.626904e-01 2.779743e-01 3.837293e-01 4.021858e-01 5.751845e-01 6.769855e-01 2.849986e-01 2.231845e-01 2.450086e-01 1.736576e-01
<GCONST> 1.152832e+02
<TRANSP> 5
 0.000000e+00 1.000000e+00 0.000000e+00 0.000000e+00 0.000000e+00
 0.000000e+00 8.198932e-01 1.801068e-01 0.000000e+00 0.000000e+00
 0.000000e+00 0.000000e+00 7.389168e-01 2.610832e-01 0.000000e+00
 0.000000e+00 0.000000e+00 0.000000e+00 8.520620e-01 1.479380e-01
 0.000000e+00 0.000000e+00 0.000000e+00 0.000000e+00 0.000000e+00
<ENDHMM>
~h "N"
<BEGINHMM>
<NUMSTATES> 5
<STATE> 2
<MEAN> 39
 -7.204521e+00 -9.309459e-02 7.464460e+00 3.581179e+00 9.946380e+00 -2.146347e+00 -1.194952e+01 -1.771692e+01 1.369863e-01 5.973675e-01 -9.893232e+00 -9.084010e+00 7.325531e+01 -5.226731e-04 1.535828e+00 3.577048e-02 -5.077595e-02 -5.683843e-01 9.599764e-01 9.506534e-01 1.290898e+00 -2.508799e-01 -9.892287e-01 -3.618007e-01 2.665996e-02 -1.245045e+00 2.777974e-02 4.396146e-02 -1.875117e-01 -1.525270e-01 -2.360265e-02 8.167434e-02 2.474665e-02 -1.257594e-01 -2.647650e-01 -1.468887e-01 2.149083e-01 1.952192e-01 6.929631e-04
<VARIANCE> 39
 1.048392e+01 3.949632e+01 2.679431e+01 2.169734e+01 2.651699e+01 3.946294e+01 4.887601e+01 5.183403e+01 3.157174e+01 4.246869e+01 2.089701e+01 2.394598e+01 2.207074e+01 6.842227e-01 1.406139e+00 2.452612e+00 1.603133e+00 1.646719e+00 2.005764e+00 2.476969e+00 2.535077e+00 3.901988e+00 3.244792e+00 2.344155e+00 2.596738e+00 4.190665e-01 1.298263e-01 2.168598e-01 4.079919e-01 2.821242e-01 2.793625e-01 3.521354e-01 4.033236e-01 3.864396e-01 6.428372e-01 5.622019e-01 4.224235e-01 4.984053e-01 5.495651e-02
<GCONST> 1.078205e+02
<STATE> 3
<MEAN> 39
 -7.357335e+00 8.560827e+00 5.769961e+00 2.170495e+00 7.100260e+00 3.684276e+00 -6.570629e+00 -1.216121e+01 -3.842678e+00 -5.848266e+00 -8.679279e+00 -6.879013e+00 6.650065e+01 -7.109761e-01 6.328669e-01 1.554783e-01 3.835687e-02 5.182888e-02 4.856929e-01 4.669385e-01 7.052231e-01 -4.599786e-01 -3.477158e-01 6.367032e-01 2.497208e-01 -9.015042e-01 -3.113879e-01 -4.022624e-01 1.353767e-01 1.015928e-03 1.597713e-01 -1.721424e-01 -2.711258e-02 8.544904e-02 1.380552e-01 2.422944e-01 5.751455e-02 -4.630867e-02 1.146579e-01
<VARIANCE> 39
 1.151665e+01 1.360359e+01 2.096637e+01 1.494288e+01 1.589252e+01 1.661039e+01 1.787004e+01 1.612082e+01 1.473077e+01 1.622071e+01 1.257092e+01 1.633069e+01 1.662447e+01 1.345101e+00 1.591510e+00 2.150740e+00 1.640782e+00 1.525624e+00 1.697209e+00 1.847449e+00 1.518887e+00 1.498576e+00 1.587725e+00 1.181043e+00 1.251428e+00 6.350194e-01 1.458820e-01 1.983771e-01 4.011001e-01 3.600447e-01 3.122682e-01 3.174700e-01 4.146264e-01 3.117167e-01 3.141521e-01 2.732948e-01 2.527565e-01 2.671587e-01 8.944862e-02
<GCONST> 9.473853e+01
<STATE> 4
<MEAN> 39
 -1.564725e+01 6.307142e+00 6.706502e+00 -4.248379e-01 8.911337e+00 4.355817e+00 -3.755929e+00 -7.174400e+00 -5.384691e+00 -5.469966e+00 -4.122057e+00 -4.655714e+00 6.280764e+01 -1.177408e+00 -9.212613e-01 -4.213278e-01 -4.909380e-01 -2.223735e-01 -1.393277e-01 4.833778e-01 7.445366e-01 -5.312936e-02 2.730125e-01 7.501510e-01 5.234020e-01 -5.375507e-01 8.543602e-02 -1.041915e-01 -1.887808e-01 1.804056e-02 -2.292899e-01 -1.117252e-01 -3.265285e-02 -1.869746e-02 1.260243e-01 6.610712e-02 -5.454949e-02 5.564778e-02 -2.000629e-02
<VARIANCE> 39
 4.573059e+01 2.985380e+01 3.368378e+01 4.002468e+01 3.622194e+01 2.384908e+01 2.363513e+01 3.181079e+01 1.549921e+01 1.719906e+01 2.521760e+01 1.887171e+01 1.651117e+01 2.936176e+00 2.007510e+00 3.999100e+00 4.178323e+00 4.636834e+00 2.570895e+00 2.114088e+00 3.097577e+00 1.867481e+00 1.768771e+00 2.090914e+00 1.491048e+00 1.663561e+00 5.920693e-01 4.430377e-01 8.056768e-01 9.372272e-01 8.029805e-01 5.558442e-01 4.049278e-01 6.795990e-01 3.664072e-01 3.461600e-01 4.264407e-01 2.934690e-01 3.739147e-01
<GCONST> 1.169871e+02
<TRANSP> 5
 0.000000e+00 1.000000e+00 0.000000e+00 0.000000e+00 0.000000e+00
 0.000000e+00 8.689153e-01 1.310848e-01 0.000000e+00 0.000000e+00
 0.000000e+00 0.000000e+00 7.476778e-01 2.523222e-01 0.000000e+00
 0.000000e+00 0.000000e+00 0.000000e+00 8.505830e-01 1.494171e-01
 0.000000e+00 0.000000e+00 0.000000e+00 0.000000e+00 0.000000e+00
<ENDHMM>
~h "P"
<BEGINHMM>
<NUMSTATES> 5
<STATE> 2
<MEAN> 39
 -1.866254e+00 5.963070e+00 1.130359e+01 -3.755553e+00 -9.687106e+00 -1.871191e+01 -2.050858e+01 -7.681352e+00 -5.796651e+00 -1.035332e+01 -6.544914e+00 -2.814126e+00 7.371483e+01 5.506605e-02 6.311367e-01 2.640967e-01 9.920989e-01 -3.386491e-01 -9.711083e-01 -1.016968e+00 4.351394e-01 -6.226361e-01 -2.009347e-03 5.189254e-01 5.473598e-01 -7.516283e-01 -2.868488e-01 -3.255713e-02 -3.149784e-02 -5.704967e-03 1.980340e-01 3.400164e-01 4.420860e-01 -4.086767e-02 -7.828404e-02 4.743196e-02 1.335301e-01 3.390576e-02 -8.210124e-02
<VARIANCE> 39
 4.884842e+00 1.820171e+01 2.192606e+01 3.177669e+01 1.867403e+01 3.322714e+01 4.163056e+01 3.004115e+01 2.855158e+01 2.828282e+01 2.624526e+01 2.716219e+01 1.365107e+01 1.300705e+00 9.379587e-01 1.055393e+00 1.200993e+00 1.274022e+00 2.483299e+00 4.219597e+00 1.597672e+00 1.504281e+00 1.696486e+00 1.812924e+00 1.312394e+00 3.696437e-01 2.693838e-01 1.871760e-01 1.849936e-01 2.434961e-01 2.226047e-01 2.772738e-01 3.661193e-01 2.880670e-01 2.586672e-01 2.867924e-01 3.819492e-01 2.679683e-01 6.250107e-02
<GCONST> 9.767970e+01
<STATE> 3
<MEAN> 39
 -4.110190e+00 1.041381e+01 1.257520e+01 1.976372e+00 -9.247202e+00 -1.954112e+01 -1.912592e+01 -6.257527e+00 -1.058892e+01 -9.680738e+00 -2.636940e+00 -1.917732e-01 6.813098e+01 -6.767978e-01 2.045182e-01 1.130333e-01 3.976249e-01 4.857283e-01 8.535084e-01 1.041522e+00 2.960627e-02 3.737488e-02 3.888332e-01 2.673029e-01 -1.227409e-02 -6.388970e-01 -2.485283e-01 -2.824842e-01 -8.055050e-02 -1.082665e-01 2.424294e-01 3.145278e-01 2.862594e-01 6.017394e-02 2.870263e-01 1.259056e-01 -2.617082e-02 -4.738563e-02 1.901063e-02
<VARIANCE> 39
 5.187170e+00 1.467405e+01 1.855149e+01 2.022603e+01 1.808737e+01 2.536364e+01 2.713500e+01 3.043151e+01 2.202902e+01 3.071012e+01 1.311327e+01 1.580713e+01 6.997181e+00 8.118117e-01 1.285058e+00 9.168953e-01 9.101224e-01 1.658180e+00 1.827039e+00 1.887017e+00 1.577313e+00 1.520855e+00 1.314863e+00 8.903523e-01 8.046594e-01 3.422313e-01 1.683086e-01 2.267624e-01 1.926434e-01 1.666027e-01 2.945135e-01 2.735594e-01 2.902800e-01 2.649048e-01 2.105088e-01 2.246672e-01 1.637795e-01 1.454726e-01 5.541549e-02
<GCONST> 8.845609e+01
<STATE> 4
<MEAN> 39
 -1.079913e+01 8.378814e+00 9.991169e+00 2.547849e+00 -4.598504e+00 -1.115193e+01 -1.204075e+01 -5.608536e+00 -6.101649e+00 -5.079195e+00 -1.701826e+00 -6.896101e-01 6.334777e+01 -1.923608e+00 -1.485029e+00 -9.696872e-01 -1.870288e-01 1.291354e+00 1.980575e+00 2.223299e+00 7.044528e-01 1.197387e+00 9.018164e-01 1.984008e-01 -8.578128e-02 -8.056766e-01 -9.899491e-02 -2.617708e-01 -2.266628e-01 -1.719536e-01 -7.015494e-02 -7.071619e-02 4.854851e-02 -5.504831e-03 -2.793175e-02 -8.442562e-02 -1.556434e-02 3.341503e-02 6.886873e-02
<VARIANCE> 39
 2.213383e+01 3.615061e+01 2.856697e+01 1.485858e+01 2.276548e+01 3.211797e+01 4.411045e+01 2.652474e+01 2.958778e+01 2.497192e+01 1.273799e+01 1.152941e+01 1.607747e+01 1.763173e+00 2.427450e+00 2.090478e+00 1.376813e+00 3.122927e+00 2.946810e+00 3.187333e+00 2.355942e+00 2.649234e+00 2.112873e+00 1.141649e+00 9.966723e-01 7.808216e-01 3.356764e-01 4.532239e-01 3.374533e-01 2.251601e-01 4.808271e-01 5.751809e-01 5.842518e-01 4.867571e-01 5.187684e-01 3.850471e-01 2.249257e-01 1.763886e-01 8.633167e-02
<GCONST> 1.065048e+02
<TRANSP> 5
 0.000000e+00 1.000000e+00 0.000000e+00 0.000000e+00 0.000000e+00
 0.000000e+00 8.924973e-01 1.075027e-01 0.000000e+00 0.000000e+00
 0.000000e+00 0.000000e+00 8.288755e-01 1.711245e-01 0.000000e+00
 0.000000e+00 0.000000e+00 0.000000e+00 7.344488e-01 2.655512e-01
 0.000000e+00 0.000000e+00 0.000000e+00 0.000000e+00 0.000000e+00
<ENDHMM>
~h "Q"
<BEGINHMM>
<NUMSTATES> 5
<STATE> 2
<MEAN> 39
 -2.591328e+00 -2.903404e-01 7.144559e+00 -1.081276e+01 -1.048200e+01 -1.331732e+01 -1.333935e+01 -8.207262e+00 3.264435e+00 -2.289490e+00 -5.763878e+00 -2.223049e+00 7.962717e+01 1.481262e+00 1.452316e-01 4.367323e-01 -2.489819e-01 -1.591876e+00 -1.788151e+00 -1.350070e+00 5.266230e-01 9.824527e-01 7.739889e-01 -2.423130e-01 1.458784e-01 7.526868e-01 -3.997880e-01 -1.291465e-02 -3.628443e-02 2.300965e-01 3.412745e-01 3.769622e-01 3.691246e-01 3.144279e-02 -2.806982e-01 -1.081835e-01 1.521825e-01 -3.679150e-03 -3.044578e-01
<VARIANCE> 39
 4.657853e+01 2.516494e+01 2.733698e+01 3.321904e+01 5.020500e+01 5.961062e+01 7.284650e+01 4.485632e+01 4.080249e+01 3.946722e+01 2.795585e+01 2.337549e+01 3.453855e+01 5.997430e+00 2.712525e+00 2.182765e+00 3.041476e+00 4.038391e+00 5.272073e+00 5.595061e+00 3.740399e+00 4.412054e+00 3.277203e+00 2.824826e+00 2.118581e+00 3.117785e+00 8.240646e-01 4.772887e-01 3.495693e-01 4.476490e-01 6.579719e-01 7.463975e-01 8.544230e-01 6.508008e-01 7.751580e-01 6.629393e-01 5.427713e-01 4.018953e-01 3.606450e-01
<GCONST> 1.281445e+02
<STATE> 3
<MEAN> 39
 -1.157406e+00 2.854254e-01 8.660062e+00 -1.002894e+01 -1.293639e+01 -1.589510e+01 -1.439433e+01 -6.643383e+00 3.891111e+00 -1.097414e+00 -5.205097e+00 -1.592328e+00 7.972119e+01 -8.062173e-01 2.642581e-01 3.931806e-01 9.299472e-01 7.511165e-01 7.680424e-01 1.083008e+00 5.132843e-01 -2.559773e-01 -2.264189e-01 2.861096e-01 -4.185658e-02 -6.732064e-01 -5.918323e-01 3.057086e-02 -7.992524e-02 3.210626e-01 6.646571e-01 6.545284e-01 5.757138e-01 2.439033e-02 -2.665560e-01 -2.560302e-01 6.097364e-02 -3.815678e-02 -3.600498e-01
<VARIANCE> 39
 1.652885e+01 1.741732e+01 2.794293e+01 3.379371e+01 4.200357e+01 5.822828e+01 5.006312e+01 4.681115e+01 3.087525e+01 3.216055e+01 2.485706e+01 2.599185e+01 2.139827e+01 4.080705e+00 1.620059e+00 1.753122e+00 2.952378e+00 4.585513e+00 4.806960e+00 5.017625e+00 3.251000e+00 3.311586e+00 2.852447e+00 2.555934e+00 1.872056e+00 2.331602e+00 4.476941e-01 2.776960e-01 3.487475e-01 4.905180e-01 5.462022e-01 5.462247e-01 6.162719e-01 6.108738e-01 6.253143e-01 4.909985e-01 4.989340e-01 3.606642e-01 2.309537e-01
<GCONST> 1.198635e+02
<STATE> 4
<MEAN> 39
 -8.211718e+00 1.654424e+00 9.408270e+00 -4.773634e+00 -5.466003e+00 -8.302587e+00 -6.796580e+00 -4.881432e+00 1.116351e+00 -3.531290e+00 -4.229643e+00 -2.109401e+00 7.489658e+01 -2.424407e+00 -5.295853e-02 -2.886030e-01 1.473490e+00 2.587175e+00 2.526020e+00 2.267115e+00 4.792544e-01 -9.527056e-01 -7.537876e-01 2.210243e-01 -7.584877e-02 -1.526914e+00 -3.265873e-03 -2.641348e-01 -2.828801e-01 -3.719791e-01 -1.037616e-01 -3.081129e-02 -2.112378e-01 -2.456109e-01 -8.744156e-02 3.865297e-02 -4.361564e-02 5.758031e-03 9.679361e-02
<VARIANCE> 39
 7.388353e+01 2.962240e+01 3.114597e+01 4.962406e+01 7.252901e+01 7.025089e+01 6.820952e+01 4.648186e+01 4.582171e+01 3.463070e+01 2.783884e+01 2.345590e+01 6.445036e+01 4.815349e+00 2.236766e+00 3.088725e+00 4.659229e+00 4.617660e+00 4.078018e+00 4.542303e+00 4.786811e+00 3.945206e+00 2.778610e+00 3.033242e+00 2.125758e+00 2.637653e+00 6.722733e-01 3.749925e-01 5.273961e-01 9.424721e-01 1.051828e+00 8.729826e-01 9.651736e-01 8.963406e-01 8.223245e-01 5.324548e-01 5.376580e-01 3.585902e-01 4.510511e-01
<GCONST> 1.320370e+02
<TRANSP> 5
 0.000000e+00 1.000000e+00 0.000000e+00 0.000000e+00 0.000000e+00
 0.000000e+00 7.734478e-01 2.265522e-01 0.000000e+00 0.000000e+00
 0.000000e+00 0.000000e+00 7.135977e-01 2.864024e-01 0.000000e+00
 0.000000e+00 0.000000e+00 0.000000e+00 6.802439e-01 3.197561e-01
 0.000000e+00 0.000000e+00 0.000000e+00 0.000000e+00 0.000000e+00
<ENDHMM>
~h "R"
<BEGINHMM>
<NUMSTATES> 5
<STATE> 2
<MEAN> 39
 -3.010072e+00 -2.118539e+00 -1.104559e+00 -1.368942e+01 -2.692805e+00 -5.597075e+00 -6.484196e+00 -1.681094e+01 -4.478422e+00 -3.665952e+00 -7.794415e+00 7.535649e+00 7.764254e+01 -5.227403e-01 5.038028e-01 2.526050e-01 2.464071e-02 -9.895030e-02 4.620982e-01 5.253550e-01 7.893564e-01 6.177003e-01 6.951710e-01 1.611550e-01 6.012274e-01 -8.063623e-01 -1.267913e-01 5.493131e-02 1.082217e-01 1.761695e-01 1.517011e-01 2.402698e-01 -6.816683e-02 1.159281e-01 -3.508662e-02 -3.789522e-02 1.055905e-01 -2.296340e-01 -1.799992e-01
<VARIANCE> 39
 7.938982e+00 1.973243e+01 2.438863e+01 2.156140e+01 4.612514e+01 3.421017e+01 3.444163e+01 6.374906e+01 4.860599e+01 2.951567e+01 2.907581e+01 3.159346e+01 1.070062e+01 4.081828e-01 1.168799e+00 1.379375e+00 1.252616e+00 1.528914e+00 1.986156e+00 1.433718e+00 2.001848e+00 1.325662e+00 1.297430e+00 1.352667e+00 1.468609e+00 4.999421e-01 6.624847e-02 2.340126e-01 2.840584e-01 1.926499e-01 2.146478e-01 2.859867e-01 2.559229e-01 3.544482e-01 2.243280e-01 2.254856e-01 2.481280e-01 1.999286e-01 5.693653e-02
<GCONST> 9.590715e+01
<STATE> 3
<MEAN> 39
 -6.708387e+00 4.935753e-02 9.606308e-02 -1.196000e+01 -1.424570e+00 -1.344827e+00 -5.049928e+00 -1.183169e+01 -2.060061e+00 -7.812093e-01 -5.308353e+00 8.158734e+00 7.212691e+01 -1.043500e+00 -2.700812e-02 -2.011134e-01 1.036443e+00 2.830632e-01 8.849193e-01 2.922615e-01 2.006810e+00 4.134011e-01 1.443581e-01 1.191280e+00 -1.101805e-01 -1.581231e+00 -7.334891e-02 -1.860900e-01 -2.575634e-01 2.643023e-01 -2.915247e-02 -1.788962e-01 7.511102e-02 2.709409e-01 -1.406454e-01 -2.412298e-01 2.213670e-01 -1.388582e-01 -1.034566e-01
<VARIANCE> 39
 9.651438e+00 1.686998e+01 2.021603e+01 2.507643e+01 2.344028e+01 3.525293e+01 2.508578e+01 5.517282e+01 3.519157e+01 2.638042e+01 2.393908e+01 1.935950e+01 1.612333e+01 4.648107e-01 1.476340e+00 1.995125e+00 1.599925e+00 1.358100e+00 2.567126e+00 1.826126e+00 3.001913e+00 2.174633e+00 2.133011e+00 1.857493e+00 1.203416e+00 4.777241e-01 7.675076e-02 2.504169e-01 3.581583e-01 2.463007e-01 2.307331e-01 5.184832e-01 2.994189e-01 4.630958e-01 3.499842e-01 3.516947e-01 2.870378e-01 2.140405e-01 6.665701e-02
<GCONST> 9.996325e+01
<STATE> 4
<MEAN> 39
 -1.237561e+01 -8.460076e-01 -2.638527e+00 -4.750365e+00 -8.110499e-01 5.369350e-01 -2.530561e+00 -1.365195e+00 -2.439529e+00 -2.934680e+00 1.498338e+00 6.283202e+00 6.374002e+01 -1.568640e+00 3.567010e-03 -3.893808e-01 1.654970e+00 2.004173e-02 -1.761993e-01 7.349411e-01 1.542824e+00 -2.330578e-01 -4.899227e-01 7.900884e-01 -8.152077e-01 -1.891569e+00 -1.121472e-01 1.580941e-01 2.334613e-01 -1.288206e-01 -5.050954e-03 -8.892792e-02 -2.005479e-02 -4.236979e-01 6.260714e-02 1.647821e-01 -3.864000e-01 -1.168738e-01 2.015024e-02
<VARIANCE> 39
 1.155789e+01 1.078418e+01 1.233160e+01 2.437539e+01 1.326024e+01 2.268696e+01 1.956938e+01 2.996136e+01 1.838310e+01 2.009574e+01 2.009459e+01 1.411283e+01 1.601354e+01 4.660476e-01 9.752753e-01 1.341529e+00 1.211829e+00 1.139090e+00 1.864903e+00 1.696101e+00 2.813541e+00 2.129150e+00 2.271528e+00 2.406169e+00 1.263551e+00 2.609312e-01 7.845946e-02 1.593623e-01 2.460201e-01 2.329704e-01 2.080457e-01 4.245913e-01 3.255986e-01 3.657950e-01 4.509814e-01 4.829378e-01 3.432392e-01 2.225866e-01 5.283421e-02
<GCONST> 9.314814e+01
<TRANSP> 5
 0.000000e+00 1.000000e+00 0.000000e+00 0.000000e+00 0.000000e+00
 0.000000e+00 8.364531e-01 1.635469e-01 0.000000e+00 0.000000e+00
 0.000000e+00 0.000000e+00 7.277206e-01 2.722794e-01 0.000000e+00
 0.000000e+00 0.000000e+00 0.000000e+00 8.124081e-01 1.875919e-01
 0.000000e+00 0.000000e+00 0.000000e+00 0.000000e+00 0.000000e+00
<ENDHMM>
~h "S"
<BEGINHMM>
<NUMSTATES> 5
<STATE> 2
<MEAN> 39
 -2.596959e+01 -1.983454e+01 7.380114e+00 -3.349574e+00 8.716166e+00 -2.105053e+00 -5.271239e+00 -1.643682e+01 -1.308031e-01 -2.617913e+00 -2.594215e+00 -1.551531e+00 7.841645e+01 -1.382387e+00 -1.642912e+00 4.178625e-01 -4.062829e-01 -2.420996e-01 -1.161465e+00 -3.111082e-01 -4.751505e-01 2.325261e-01 -2.680495e-03 -1.484085e-02 -5.719088e-02 9.421355e-01 3.613178e-01 5.097207e-01 -6.383958e-02 5.207929e-03 -9.352420e-02 -3.512874e-02 -4.679114e-02 2.770280e-02 -1.341432e-01 -2.001636e-02 -5.206955e-02 -1.568647e-02 -1.864188e-01
<VARIANCE> 39
 2.545433e+01 2.575742e+01 3.266190e+01 2.482172e+01 3.307281e+01 5.079362e+01 3.798163e+01 3.370366e+01 2.541721e+01 1.633247e+01 1.376274e+01 1.375550e+01 4.460082e+01 3.080884e+00 3.906209e+00 2.651721e+00 1.366802e+00 1.968495e+00 2.147157e+00 2.567769e+00 3.095147e+00 2.327447e+00 1.658244e+00 1.276699e+00 1.102194e+00 1.921617e+00 4.021096e-01 3.393173e-01 3.809718e-01 2.383482e-01 2.995356e-01 5.301866e-01 5.987532e-01 6.455419e-01 4.634432e-01 3.089550e-01 2.670992e-01 2.136673e-01 1.113811e-01
<GCONST> 1.099633e+02
<STATE> 3
<MEAN> 39
 -2.754087e+01 -2.202295e+01 7.757729e+00 -4.561892e+00 7.553146e+00 -5.717124e+00 -7.041794e+00 -1.802114e+01 -1.549064e+00 -3.409568e+00 -2.862732e+00 -1.724640e+00 8.034406e+01 1.093094e+00 7.407424e-01 4.473936e-03 -3.856647e-02 4.244708e-02 1.351765e-01 -2.543826e-01 -2.703071e-01 -9.605924e-01 -4.257564e-01 -1.801927e-01 2.079588e-01 -1.927234e-01 5.456151e-01 4.064777e-01 -6.753167e-03 5.613408e-02 5.386581e-02 2.684966e-01 -9.720173e-03 3.880008e-02 -2.586012e-01 -8.409759e-02 -1.041718e-01 4.134465e-02 -1.158040e-01
<VARIANCE> 39
 2.016564e+01 1.417716e+01 1.784459e+01 1.859220e+01 2.004685e+01 2.260174e+01 2.548378e+01 3.016085e+01 2.561685e+01 1.630668e+01 1.289687e+01 1.756491e+01 1.038131e+01 4.940259e+00 2.806837e+00 1.351848e+00 1.236034e+00 1.120844e+00 1.935752e+00 1.497786e+00 2.062026e+00 2.986186e+00 1.531253e+00 1.271038e+00 9.458681e-01 7.543555e-01 4.791659e-01 2.984670e-01 2.947543e-01 2.239946e-01 2.148367e-01 2.723739e-01 2.783370e-01 3.840529e-01 4.337959e-01 2.832834e-01 2.454181e-01 1.980418e-01 6.407510e-02
<GCONST> 9.855799e+01
<STATE> 4
<MEAN> 39
 -1.383986e+01 -1.178504e+01 6.436605e+00 -5.176962e+00 8.182008e+00 -1.386596e+00 -8.805664e+00 -1.925937e+01 -1.078933e+01 -7.413115e+00 -5.573972e+00 4.082510e-01 7.759982e+01 2.860379e+00 2.399312e+00 -6.745963e-01 -8.188423e-02 -3.687336e-01 9.846283e-01 -2.973004e-01 4.491987e-01 -1.035633e+00 -3.461154e-01 -7.631833e-01 1.817607e-01 -7.288493e-01 -4.156481e-01 -1.139165e-01 -1.508948e-01 4.479626e-02 -1.995664e-01 -1.334642e-01 9.177090e-02 2.915705e-01 7.098235e-01 2.995783e-01 6.781027e-02 -1.220388e-01 -7.841329e-02
<VARIANCE> 39
 1.250202e+02 6.079126e+01 3.632055e+01 2.767113e+01 2.235217e+01 2.704773e+01 3.611623e+01 4.874102e+01 6.092797e+01 2.878686e+01 2.658238e+01 1.777685e+01 3.443346e+01 8.570174e+00 3.035892e+00 3.591642e+00 2.584838e+00 2.139650e+00 2.342005e+00 3.429721e+00 5.398415e+00 8.094135e+00 2.738109e+00 2.371665e+00 1.686011e+00 1.338781e+00 1.349335e+00 6.264840e-01 7.455683e-01 5.007203e-01 3.285805e-01 4.513974e-01 5.821230e-01 6.336739e-01 1.303916e+00 4.120903e-01 4.035465e-01 2.632225e-01 1.398966e-01
<GCONST> 1.244746e+02
<TRANSP> 5
 0.000000e+00 1.000000e+00 0.000000e+00 0.000000e+00 0.000000e+00
 0.000000e+00 8.576199e-01 1.423800e-01 0.000000e+00 0.000000e+00
 0.000000e+00 0.000000e+00 8.443736e-01 1.556264e-01 0.000000e+00
 0.000000e+00 0.000000e+00 0.000000e+00 7.531414e-01 2.468586e-01
 0.000000e+00 0.000000e+00 0.000000e+00 0.000000e+00 0.000000e+00
<ENDHMM>
~h "T"
<BEGINHMM>
<NUMSTATES> 5
<STATE> 2
<MEAN> 39
 -2.901620e+01 -2.803962e+00 2.515222e+00 -1.110765e+01 2.846702e+00 1.848732e+00 -3.049431e+00 -1.017585e+01 -9.872624e-01 -5.905585e+00 -6.286097e-01 -1.350469e+00 7.239302e+01 -1.435233e+00 -3.145662e-01 -3.058888e-01 -7.628392e-01 -1.217424e-01 -1.738258e-01 -1.328060e-01 -1.086262e-01 -5.901583e-02 -1.536080e-01 6.804900e-02 -9.385641e-02 4.802442e-01 3.761800e-01 1.531677e-02 7.688313e-02 1.138166e-01 -9.397622e-02 -1.211263e-01 -1.119938e-01 -7.891762e-02 -8.429337e-02 6.637106e-02 -9.963774e-02 -1.664497e-02 -8.908223e-02
<VARIANCE> 39
 3.287609e+01 1.268077e+01 3.864553e+01 3.006540e+01 2.542830e+01 2.948312e+01 3.208584e+01 3.708618e+01 2.375072e+01 1.864016e+01 1.389038e+01 1.335571e+01 3.482243e+01 3.456708e+00 1.161005e+00 2.135309e+00 2.661263e+00 2.380911e+00 2.383678e+00 2.466380e+00 3.269201e+00 1.995575e+00 1.713727e+00 1.445575e+00 1.156537e+00 1.971691e+00 4.483581e-01 2.176338e-01 3.963631e-01 4.917773e-01 4.264558e-01 4.508930e-01 5.431364e-01 6.773253e-01 3.653950e-01 3.323092e-01 3.000628e-01 2.126238e-01 2.147851e-01
<GCONST> 1.096988e+02
<STATE> 3
<MEAN> 39
 -3.101553e+01 -4.441256e+00 2.656588e+00 -1.364057e+01 1.866769e+00 2.067110e-01 -3.884285e+00 -1.134560e+01 -2.238688e+00 -6.452278e+00 -1.180432e+00 -1.647820e+00 7.429913e+01 5.779026e-01 -2.973174e-01 1.850598e-01 -2.837460e-01 -1.948470e-01 -4.292015e-01 -2.400730e-01 -3.388357e-01 -4.524494e-01 -1.304451e-01 -1.911215e-01 -2.951727e-02 1.008224e-01 6.390424e-01 1.142366e-01 1.779257e-01 2.170973e-01 8.256512e-02 7.971222e-02 1.084053e-02 -4.436718e-02 -5.510148e-02 4.673164e-02 -8.184131e-02 -3.651686e-02 -7.604385e-02
<VARIANCE> 39
 1.667464e+01 1.354392e+01 3.354812e+01 2.538256e+01 1.803149e+01 2.346366e+01 2.869345e+01 3.340916e+01 2.325957e+01 1.795200e+01 1.182286e+01 1.306878e+01 2.203029e+01 3.875745e+00 1.026479e+00 1.819748e+00 1.949461e+00 1.702713e+00 1.791562e+00 1.952157e+00 2.707460e+00 1.863284e+00 1.376704e+00 1.290932e+00 1.020872e+00 1.708094e+00 5.262772e-01 2.382462e-01 3.411545e-01 3.813119e-01 3.696302e-01 3.698074e-01 3.967705e-01 5.339683e-01 3.692880e-01 2.998711e-01 2.816220e-01 2.092322e-01 2.004400e-01
<GCONST> 1.038080e+02
<STATE> 4
<MEAN> 39
 -2.304623e+01 -4.202359e+00 4.110597e+00 -1.348947e+01 1.600097e+00 -9.146578e-01 -4.634763e+00 -1.236755e+01 -4.092954e+00 -6.325993e+00 -2.570646e+00 -2.372043e+00 7.444534e+01 3.025588e+00 6.972743e-01 5.340992e-01 6.144143e-01 7.395171e-02 1.511313e-01 -1.107142e-01 -2.145348e-01 -5.258887e-01 1.091733e-01 -6.179625e-01 -2.778065e-01 -2.074019e-01 4.403176e-01 2.285457e-01 -7.411654e-02 1.339636e-01 -4.380922e-02 1.665620e-01 -4.329113e-02 4.044787e-02 5.881619e-02 7.216153e-02 -1.700632e-01 -7.836881e-02 2.038635e-02
<VARIANCE> 39
 9.847666e+01 3.075755e+01 3.977908e+01 2.559041e+01 1.892604e+01 1.906599e+01 2.852893e+01 3.332608e+01 2.252507e+01 2.237992e+01 1.731030e+01 1.660082e+01 3.174982e+01 8.178318e+00 2.844453e+00 2.796664e+00 2.655566e+00 2.644257e+00 2.052797e+00 2.433339e+00 4.702131e+00 2.589969e+00 2.236022e+00 2.172762e+00 1.374121e+00 2.000185e+00 1.013951e+00 5.280952e-01 5.015507e-01 4.788850e-01 5.074519e-01 3.488246e-01 5.065435e-01 6.041412e-01 4.915634e-01 4.316456e-01 4.339522e-01 2.819493e-01 1.907540e-01
<GCONST> 1.172555e+02
<TRANSP> 5
 0.000000e+00 1.000000e+00 0.000000e+00 0.000000e+00 0.000000e+00
 0.000000e+00 8.281007e-01 1.718993e-01 0.000000e+00 0.000000e+00
 0.000000e+00 0.000000e+00 7.560464e-01 2.439536e-01 0.000000e+00
 0.000000e+00 0.000000e+00 0.000000e+00 6.951922e-01 3.048078e-01
 0.000000e+00 0.000000e+00 0.000000e+00 0.000000e+00 0.000000e+00
<ENDHMM>
~h "U"
<BEGINHMM>
<NUMSTATES> 5
<STATE> 2
<MEAN> 39
 -2.355635e+00 1.384393e+00 6.754780e+00 -1.102669e+01 4.959731e-01 -1.212080e+00 -1.218604e+01 -1.474607e+01 -4.777430e+00 -1.208233e+01 -1.257889e+01 -5.195187e+00 7.907339e+01 1.565589e+00 6.304541e-01 2.467963e-01 -1.959467e-01 -7.364333e-01 -2.493083e-01 -1.159487e+00 1.172401e-01 4.125485e-01 -1.241311e-01 -1.101966e+00 4.129277e-02 -6.076264e-02 -6.648947e-01 -2.503006e-01 -2.437236e-01 1.357143e-01 1.415236e-01 8.366551e-02 2.408128e-01 -4.407125e-03 -8.738001e-02 1.447928e-01 4.744126e-01 2.669673e-01 -2.136976e-01
<VARIANCE> 39
 2.406580e+01 2.952286e+01 2.940312e+01 4.620909e+01 5.302093e+01 5.101286e+01 5.129324e+01 4.720443e+01 7.147367e+01 4.010100e+01 4.145150e+01 2.720169e+01 1.863428e+01 6.780400e+00 2.886778e+00 2.646841e+00 2.769130e+00 3.543375e+00 3.949138e+00 5.346053e+00 4.600128e+00 4.301957e+00 2.769035e+00 4.127753e+00 2.430846e+00 1.731235e+00 5.349802e-01 4.209371e-01 4.207128e-01 5.456963e-01 5.367274e-01 6.374875e-01 8.558841e-01 8.528366e-01 8.126225e-01 5.967308e-01 5.976068e-01 4.703940e-01 3.296906e-01
<GCONST> 1.277533e+02
<STATE> 3
<MEAN> 39
 -1.402089e+00 1.661260e+00 5.679327e+00 -1.096116e+01 1.309633e-02 -8.989582e-01 -1.359096e+01 -1.502021e+01 -4.890430e+00 -1.284606e+01 -1.340016e+01 -3.602087e+00 7.802760e+01 -3.982540e-01 1.069309e-01 -2.394594e-01 5.586742e-01 1.887230e-01 -7.720532e-02 2.733386e-01 2.099439e-01 -1.229319e-01 2.321650e-01 5.845684e-01 8.356417e-01 -6.678032e-01 -5.898893e-01 -1.618117e-01 -3.073922e-02 3.269470e-01 2.740527e-01 6.435455e-02 3.771243e-01 5.568670e-02 1.426919e-02 3.414713e-01 5.134237e-01 1.825947e-01 -1.970419e-01
<VARIANCE> 39
 1.324983e+01 2.516493e+01 3.802322e+01 5.905378e+01 5.732306e+01 6.766026e+01 4.902779e+01 4.689468e+01 6.087250e+01 4.579934e+01 4.474212e+01 3.353080e+01 2.051027e+01 3.493046e+00 2.243038e+00 2.372390e+00 5.360956e+00 4.073333e+00 4.648831e+00 5.433506e+00 4.811188e+00 3.754894e+00 3.254409e+00 4.221483e+00 3.289723e+00 3.002058e+00 3.661644e-01 3.770147e-01 4.213836e-01 7.667099e-01 4.641574e-01 6.377993e-01 7.039135e-01 8.782298e-01 6.906751e-01 6.430935e-01 6.481945e-01 5.249343e-01 3.224015e-01
<GCONST> 1.286840e+02
<STATE> 4
<MEAN> 39
 -4.914365e+00 1.764973e+00 5.385224e+00 -7.467657e+00 1.764087e+00 -6.806011e-01 -1.125751e+01 -1.412936e+01 -5.132426e+00 -1.090219e+01 -9.955775e+00 -8.068159e-01 7.472336e+01 -1.637687e+00 -2.231930e-01 -9.351801e-02 1.568381e+00 7.289875e-01 6.481424e-03 1.090491e+00 6.653292e-01 2.067331e-01 1.206191e+00 1.398269e+00 7.888936e-01 -1.242223e+00 -2.530728e-01 -2.539317e-01 -8.717695e-02 -3.946760e-02 6.552529e-02 -2.527688e-02 9.578514e-02 4.317201e-02 1.141288e-01 2.058521e-01 1.189614e-01 -1.531090e-01 4.737799e-02
<VARIANCE> 39
 3.815156e+01 3.359182e+01 5.726469e+01 7.550472e+01 6.473013e+01 8.024580e+01 6.446249e+01 5.800352e+01 5.153930e+01 4.177076e+01 4.825972e+01 3.881045e+01 4.893960e+01 3.204768e+00 2.918539e+00 3.005544e+00 7.963946e+00 3.532767e+00 4.233204e+00 4.967007e+00 6.075780e+00 3.858563e+00 3.706234e+00 4.119527e+00 3.443925e+00 4.731112e+00 3.657181e-01 4.193158e-01 5.800364e-01 1.135499e+00 5.328788e-01 7.770557e-01 8.244566e-01 8.019093e-01 6.589860e-01 5.950723e-01 7.201799e-01 5.469631e-01 4.600616e-01
<GCONST> 1.352451e+02
<TRANSP> 5
 0.000000e+00 1.000000e+00 0.000000e+00 0.000000e+00 0.000000e+00
 0.000000e+00 5.631222e-01 4.368779e-01 0.000000e+00 0.000000e+00
 0.000000e+00 0.000000e+00 5.373726e-01 4.626274e-01 0.000000e+00
 0.000000e+00 0.000000e+00 0.000000e+00 5.618124e-01 4.381876e-01
 0.000000e+00 0.000000e+00 0.000000e+00 0.000000e+00 0.000000e+00
<ENDHMM>
~h "V"
<BEGINHMM>
<NUMSTATES> 5
<STATE> 2
<MEAN> 39
 -3.968177e+00 -3.331796e+00 1.246348e+00 -1.526590e+01 -8.801891e+00 -2.772773e+00 -2.196251e+00 -9.414136e+00 3.247083e+00 -1.224536e+00 -7.662215e+00 -2.808413e+00 8.053325e+01 1.583444e+00 -4.469504e-01 2.738596e-02 -1.056470e+00 -1.710651e+00 -6.268076e-01 2.825581e-01 5.247836e-01 1.424812e+00 6.463679e-01 -7.684510e-01 -2.467457e-01 1.715218e+00 -4.080109e-01 8.264545e-02 2.082348e-01 4.003539e-01 3.819741e-01 9.239687e-02 -1.261211e-02 9.025538e-02 -3.297477e-01 -2.253902e-01 1.474007e-01 2.222418e-03 -3.794008e-01
<VARIANCE> 39
 5.088060e+01 2.623057e+01 3.178225e+01 4.045262e+01 4.853292e+01 3.674213e+01 3.669366e+01 4.368830e+01 4.924480e+01 3.500718e+01 2.862191e+01 2.082664e+01 6.869467e+01 5.605607e+00 3.241138e+00 2.529115e+00 4.289003e+00 4.181879e+00 3.006448e+00 2.868812e+00 5.506761e+00 4.022472e+00 2.896443e+00 3.003346e+00 2.199419e+00 5.108446e+00 7.585562e-01 6.059729e-01 4.101349e-01 5.736364e-01 7.033919e-01 4.987261e-01 5.252867e-01 7.881447e-01 7.663589e-01 5.695837e-01 4.964012e-01 3.887855e-01 6.683502e-01
<GCONST> 1.284895e+02
<STATE> 3
<MEAN> 39
 -1.624841e+00 -4.140094e+00 2.838493e+00 -1.598009e+01 -1.104338e+01 -4.386706e+00 -2.228945e+00 -7.494864e+00 5.184655e+00 -8.240585e-01 -8.447582e+00 -3.668261e+00 8.334627e+01 -3.823965e-01 4.159813e-01 1.005201e+00 1.089413e+00 6.287354e-01 -1.097836e-01 4.685783e-02 5.402783e-01 -2.966675e-01 -3.887569e-01 5.661374e-02 -8.194271e-02 -6.195466e-01 -4.426088e-01 2.988503e-01 2.298750e-01 6.041386e-01 6.529885e-01 1.843300e-01 -4.421439e-02 -1.406595e-01 -4.522913e-01 -2.981489e-01 1.099014e-01 4.255861e-02 -5.398548e-01
<VARIANCE> 39
 1.472882e+01 1.983829e+01 3.493698e+01 3.291541e+01 4.499320e+01 4.034824e+01 3.080258e+01 4.072673e+01 3.396765e+01 2.894261e+01 2.094943e+01 2.114336e+01 1.823066e+01 2.784587e+00 2.332165e+00 2.113693e+00 4.571184e+00 4.514479e+00 2.701822e+00 2.612419e+00 3.265616e+00 3.269978e+00 2.605109e+00 1.970951e+00 1.763914e+00 2.648982e+00 3.970307e-01 3.623523e-01 3.730946e-01 6.332814e-01 5.460322e-01 4.603328e-01 4.565572e-01 6.213413e-01 4.863233e-01 4.415043e-01 3.846725e-01 3.549246e-01 2.699237e-01
<GCONST> 1.172127e+02
<STATE> 4
<MEAN> 39
 -5.408990e+00 -8.850387e-01 7.192146e+00 -9.436039e+00 -5.699602e+00 -4.166839e+00 -2.649837e+00 -6.115405e+00 2.159100e+00 -3.847814e+00 -8.022648e+00 -3.940874e+00 7.841560e+01 -1.464944e+00 9.151188e-01 1.069787e+00 2.332094e+00 2.040544e+00 6.175860e-01 2.015934e-01 1.233208e-01 -1.170238e+00 -9.004112e-01 1.552826e-01 -6.303902e-02 -1.686481e+00 -1.241970e-01 -8.671467e-02 -2.065804e-01 -1.068094e-01 3.722566e-02 1.650688e-01 2.049242e-02 -1.833229e-01 -8.994442e-02 1.410567e-02 2.588701e-02 -9.853009e-03 6.005011e-03
<VARIANCE> 39
 4.381423e+01 3.275259e+01 3.827699e+01 6.041496e+01 6.294809e+01 4.398065e+01 3.778140e+01 4.431710e+01 3.673058e+01 3.413125e+01 2.516478e+01 2.397907e+01 4.114199e+01 4.602075e+00 2.446871e+00 2.894285e+00 6.428115e+00 4.392462e+00 3.174024e+00 3.578347e+00 3.655100e+00 2.399069e+00 2.362240e+00 2.514806e+00 1.896916e+00 2.865924e+00 6.350727e-01 3.647466e-01 4.841737e-01 1.187339e+00 8.966740e-01 5.840911e-01 6.151816e-01 6.899831e-01 4.795462e-01 4.362836e-01 4.133185e-01 3.399351e-01 4.481944e-01
<GCONST> 1.263463e+02
<TRANSP> 5
 0.000000e+00 1.000000e+00 0.000000e+00 0.000000e+00 0.000000e+00
 0.000000e+00 7.199496e-01 2.800505e-01 0.000000e+00 0.000000e+00
 0.000000e+00 0.000000e+00 6.739075e-01 3.260925e-01 0.000000e+00
 0.000000e+00 0.000000e+00 0.000000e+00 6.996174e-01 3.003826e-01
 0.000000e+00 0.000000e+00 0.000000e+00 0.000000e+00 0.000000e+00
<ENDHMM>
~h "_"
<BEGINHMM>
<NUMSTATES> 5
<STATE> 2
<MEAN> 39
 -1.815395e+01 -6.140172e+00 1.101532e+01 3.504304e+00 5.457636e+00 6.321350e-01 -4.534580e+00 -9.042995e+00 -1.786214e+00 -4.733394e+00 -4.417529e+00 -6.061646e-01 6.864925e+01 -2.330848e+00 -3.130110e+00 8.573861e-01 -9.691531e-01 -3.500868e-02 -2.786500e-01 6.843408e-01 -1.539386e-01 9.552880e-01 -1.587846e-01 -4.051310e-02 8.024962e-02 1.403114e+00 -9.662572e-02 -3.358143e-01 -4.651621e-02 -2.750577e-01 1.693427e-01 -1.533792e-01 -1.105940e-01 -3.317899e-01 -1.135943e-02 7.589146e-02 3.460122e-02 -4.299466e-02 4.329583e-01
<VARIANCE> 39
 6.891881e+01 1.465864e+02 4.976532e+01 5.845470e+01 2.958309e+01 3.129163e+01 4.386301e+01 4.472018e+01 2.743994e+01 1.973491e+01 1.766726e+01 1.696127e+01 4.849502e+01 4.069318e+00 1.009082e+01 5.741876e+00 6.203567e+00 3.026465e+00 3.766706e+00 4.386874e+00 5.945413e+00 2.752763e+00 2.649240e+00 1.945478e+00 1.682979e+00 6.210105e+00 1.060102e+00 2.445856e+00 1.223672e+00 1.333264e+00 6.035375e-01 7.696750e-01 8.066749e-01 8.171954e-01 5.860319e-01 4.600702e-01 3.986307e-01 3.091188e-01 9.256023e-01
<GCONST> 1.339229e+02
<STATE> 3
<MEAN> 39
 -2.639877e+01 -1.878939e+01 1.398813e+01 -1.069742e+00 7.454705e+00 -2.427310e+00 -3.929132e+00 -1.336208e+01 5.380833e-01 -4.073276e+00 -4.236529e+00 -5.751923e-01 7.730573e+01 8.263586e-01 -1.071499e-01 7.624708e-02 7.862343e-02 8.088806e-01 -3.658063e-01 -7.432170e-01 -1.500764e+00 -1.007276e+00 3.401692e-02 -3.799171e-02 -6.517840e-02 1.060796e+00 1.151323e+00 9.956877e-01 -3.953620e-01 2.077397e-01 9.987507e-03 2.528032e-01 -3.232206e-01 -2.143457e-01 -6.224614e-01 -1.249753e-01 -1.093228e-01 -2.198961e-02 -3.460403e-01
<VARIANCE> 39
 4.718652e+01 3.826891e+01 3.201337e+01 3.188538e+01 3.506320e+01 2.693016e+01 3.352705e+01 4.205472e+01 3.552583e+01 1.945639e+01 1.435336e+01 1.700065e+01 1.660653e+01 1.335092e+01 9.273198e+00 3.832991e+00 3.117488e+00 2.909385e+00 2.987447e+00 3.380339e+00 3.908763e+00 5.790165e+00 1.968324e+00 1.624836e+00 1.242631e+00 1.819978e+00 1.242630e+00 8.509170e-01 7.566403e-01 6.469409e-01 6.107420e-01 5.430543e-01 5.483639e-01 6.896462e-01 8.308739e-01 4.274916e-01 3.717856e-01 2.646701e-01 2.360230e-01
<GCONST> 1.232970e+02
<STATE> 4
<MEAN> 39
 -1.769199e+01 -1.392083e+01 1.043806e+01 -1.313397e+00 7.862304e+00 -2.335832e+00 -8.304634e+00 -1.815827e+01 -6.593401e+00 -5.447972e+00 -5.157472e+00 8.878157e-01 7.642148e+01 2.391004e+00 1.690755e+00 -1.378659e+00 -2.901420e-01 -6.101629e-01 3.674218e-01 -8.041013e-01 -3.764542e-01 -1.270516e+00 -3.571167e-01 -2.022721e-01 2.506612e-01 -3.656504e-01 -2.723923e-01 -6.056662e-02 -2.071324e-01 -1.848274e-01 -3.493883e-01 -6.465980e-02 1.629791e-01 4.445438e-01 4.943587e-01 8.884178e-02 7.262541e-02 8.533493e-03 -1.455557e-01
<VARIANCE> 39
 1.257910e+02 6.270783e+01 4.705556e+01 2.802892e+01 4.157259e+01 2.784452e+01 4.351649e+01 8.199745e+01 7.913535e+01 2.228545e+01 1.562539e+01 2.227978e+01 4.228236e+01 6.410121e+00 3.461186e+00 4.076056e+00 3.246371e+00 4.446322e+00 2.463100e+00 3.815517e+00 7.520140e+00 7.311090e+00 2.225667e+00 1.998767e+00 1.933318e+00 2.096565e+00 1.037948e+00 6.882526e-01 7.105102e-01 4.827017e-01 6.180332e-01 4.901485e-01 6.269814e-01 8.407016e-01 1.318411e+00 3.643982e-01 3.221125e-01 3.488600e-01 1.985939e-01
<GCONST> 1.286780e+02
<TRANSP> 5
 0.000000e+00 1.000000e+00 0.000000e+00 0.000000e+00 0.000000e+00
 0.000000e+00 8.152524e-01 1.847476e-01 0.000000e+00 0.000000e+00
 0.000000e+00 0.000000e+00 7.526802e-01 2.473198e-01 0.000000e+00
 0.000000e+00 0.000000e+00 0.000000e+00 8.120282e-01 1.879718e-01
 0.000000e+00 0.000000e+00 0.000000e+00 0.000000e+00 0.000000e+00
<ENDHMM>
~h "b"
<BEGINHMM>
<NUMSTATES> 5
<STATE> 2
<MEAN> 39
 -1.221984e+01 7.224154e+00 6.649601e+00 2.224092e+00 1.004975e+00 4.409006e-01 -1.927290e+00 -4.849929e+00 -2.668322e+00 -3.872244e+00 -3.787561e+00 -3.325949e+00 6.301331e+01 7.198498e-01 -2.215552e-01 -1.844949e-01 -1.501380e+00 2.298108e-01 8.581778e-02 -6.707357e-01 -1.648248e+00 -3.634922e-01 -8.084942e-01 -1.191971e-01 -1.725184e-01 1.797442e+00 4.848045e-01 -4.694775e-01 -3.539355e-01 -7.516019e-01 -8.741946e-02 -2.029340e-01 -4.830993e-01 -6.400468e-01 -9.331992e-02 -1.752116e-01 -2.050783e-01 -1.380889e-03 9.100135e-01
<VARIANCE> 39
 4.040083e+01 3.971970e+01 3.146980e+01 5.086502e+01 2.854972e+01 2.687242e+01 2.569397e+01 4.796422e+01 2.346284e+01 1.812209e+01 2.214413e+01 1.656640e+01 3.987607e+01 6.344049e+00 3.755475e+00 3.388013e+00 7.011357e+00 3.430846e+00 3.924909e+00 4.474730e+00 8.027193e+00 2.783230e+00 2.500508e+00 2.719301e+00 2.021680e+00 9.395319e+00 8.003113e-01 5.845453e-01 5.729750e-01 1.091800e+00 7.539955e-01 8.046719e-01 7.630924e-01 1.396600e+00 5.502462e-01 4.674161e-01 5.042064e-01 3.630795e-01 1.119964e+00
<GCONST> 1.296361e+02
<STATE> 3
<MEAN> 39
 -8.797475e+00 3.931339e+00 4.454209e+00 -5.512430e+00 1.488159e+00 2.188270e-01 -5.381422e+00 -1.196810e+01 -3.855219e+00 -6.566648e+00 -4.893105e+00 -4.045917e+00 7.190875e+01 2.215846e+00 -1.138524e+00 -8.537191e-01 -2.512587e+00 -3.346530e-01 -9.136903e-01 -2.024375e+00 -2.478734e+00 -3.696170e-01 -9.618223e-01 -9.124403e-01 -3.370146e-02 3.592594e+00 1.724877e-01 -1.300141e-01 -5.640451e-03 2.966037e-01 -3.263986e-01 -3.902713e-01 -1.707065e-01 3.443292e-01 1.585324e-01 1.780556e-01 -2.055044e-01 1.245549e-01 -1.202794e-01
<VARIANCE> 39
 4.232104e+01 3.151127e+01 3.275751e+01 6.052613e+01 4.239248e+01 4.952961e+01 5.110556e+01 6.416980e+01 3.459877e+01 2.458802e+01 2.956318e+01 2.152306e+01 4.808507e+01 6.266799e+00 4.277919e+00 4.055151e+00 5.980874e+00 5.704165e+00 6.150598e+00 5.517124e+00 8.461126e+00 4.229756e+00 3.327557e+00 4.244324e+00 2.822351e+00 6.573228e+00 1.015061e+00 6.317858e-01 6.052299e-01 1.160589e+00 7.453730e-01 8.783798e-01 1.176905e+00 1.478927e+00 6.043385e-01 5.664062e-01 6.302764e-01 4.258985e-01 1.366947e+00
<GCONST> 1.374322e+02
<STATE> 4
<MEAN> 39
 -4.706264e+00 7.668023e-01 3.679304e+00 -7.786140e+00 1.408764e+00 -2.990669e+00 -1.185718e+01 -1.670815e+01 -3.538130e+00 -7.154482e+00 -7.469281e+00 -4.535106e+00 7.791867e+01 1.391467e+00 -8.286694e-01 -2.707594e-01 -8.608867e-01 -7.002571e-01 -1.117667e+00 -1.370161e+00 -9.510340e-01 3.640254e-02 -3.144200e-01 -8.038833e-01 2.081746e-01 1.787706e+00 -4.523627e-01 1.324658e-01 2.348112e-01 5.793158e-01 -7.461266e-02 3.693610e-02 3.932903e-01 6.198561e-01 1.357728e-01 2.358393e-01 1.543581e-01 9.746990e-02 -7.214871e-01
<VARIANCE> 39
 3.878704e+01 3.174463e+01 5.236948e+01 5.898984e+01 9.264716e+01 7.818992e+01 9.077053e+01 9.509604e+01 5.149041e+01 3.248386e+01 3.709163e+01 3.911740e+01 3.083326e+01 4.407257e+00 3.184661e+00 3.157964e+00 4.580937e+00 4.425964e+00 4.902421e+00 6.135457e+00 6.519241e+00 3.326090e+00 3.478113e+00 3.548914e+00 2.437894e+00 4.699872e+00 7.574504e-01 3.796179e-01 4.660795e-01 6.471304e-01 6.102911e-01 7.360259e-01 8.375029e-01 9.632829e-01 5.499624e-01 4.673939e-01 5.529458e-01 3.840730e-01 5.695724e-01
<GCONST> 1.342128e+02
<TRANSP> 5
 0.000000e+00 1.000000e+00 0.000000e+00 0.000000e+00 0.000000e+00
 0.000000e+00 6.652979e-01 3.347021e-01 0.000000e+00 0.000000e+00
 0.000000e+00 0.000000e+00 4.150410e-01 5.849590e-01 0.000000e+00
 0.000000e+00 0.000000e+00 0.000000e+00 3.754805e-01 6.245195e-01
 0.000000e+00 0.000000e+00 0.000000e+00 0.000000e+00 0.000000e+00
<ENDHMM>
~h "d"
<BEGINHMM>
<NUMSTATES> 5
<STATE> 2
<MEAN> 39
 -1.191851e+01 2.190100e+00 7.830940e+00 3.141675e+00 5.294300e+00 -1.552221e+00 -5.154601e+00 -7.977864e+00 -7.717174e+00 -6.504532e+00 -5.498389e+00 -1.607952e+00 6.671190e+01 -1.077602e+00 -9.775209e-01 -5.133841e-02 4.619184e-01 -7.050005e-02 3.587887e-01 1.059472e+00 1.114810e+00 3.144631e-01 1.171902e-01 6.234897e-01 -6.046943e-02 -4.358978e-01 4.726562e-02 -6.447862e-01 -2.508129e-01 -7.308379e-01 -2.844318e-01 -2.458131e-01 -1.740661e-01 -4.564589e-01 -9.191871e-02 -1.242527e-01 7.493048e-02 1.366177e-02 6.094958e-01
<VARIANCE> 39
 4.538522e+01 5.317546e+01 4.304947e+01 6.762322e+01 4.554769e+01 3.711431e+01 4.249358e+01 6.403104e+01 4.498583e+01 3.239972e+01 3.095470e+01 2.141261e+01 4.881557e+01 3.487289e+00 7.399549e+00 5.409758e+00 1.144932e+01 4.685532e+00 4.471661e+00 4.845210e+00 9.471105e+00 5.316270e+00 3.515548e+00 2.726516e+00 2.055999e+00 8.793435e+00 4.627627e-01 1.082451e+00 1.014494e+00 1.893942e+00 8.270308e-01 8.449195e-01 8.367563e-01 1.459035e+00 9.927385e-01 6.857048e-01 4.574599e-01 3.560509e-01 1.191970e+00
<GCONST> 1.393029e+02
<STATE> 3
<MEAN> 39
 -1.547734e+01 -4.403784e+00 5.880421e+00 -4.130197e-02 2.959271e+00 -2.252340e+00 -3.141352e+00 -6.935688e+00 -7.272378e+00 -6.765991e+00 -3.036978e+00 -1.749932e+00 6.805591e+01 -5.998296e-01 -2.451774e+00 -4.140965e-01 -1.549760e+00 -1.042979e+00 -7.414211e-01 7.738462e-02 -6.671361e-01 -6.786068e-01 -6.525188e-01 4.398678e-01 2.007248e-01 1.300425e+00 1.917768e-01 2.559777e-01 9.681759e-02 1.826789e-02 -1.365515e-01 -1.040656e-01 -2.358675e-01 -2.059442e-01 -1.949179e-01 -7.066820e-02 -1.144139e-01 1.278141e-01 -3.177333e-02
<VARIANCE> 39
 3.346026e+01 7.089687e+01 4.359972e+01 7.036656e+01 3.930819e+01 4.213821e+01 3.676954e+01 5.876111e+01 3.498724e+01 3.088366e+01 2.209953e+01 1.618183e+01 5.062613e+01 3.306300e+00 7.002341e+00 5.494787e+00 7.991502e+00 4.216098e+00 4.622755e+00 4.595226e+00 7.810275e+00 5.119514e+00 3.668972e+00 2.426746e+00 2.034750e+00 7.292170e+00 4.681601e-01 1.744718e+00 1.147659e+00 2.137601e+00 7.857705e-01 1.088212e+00 9.682361e-01 1.825709e+00 1.025500e+00 7.881847e-01 4.392190e-01 3.581374e-01 1.871883e+00
<GCONST> 1.390212e+02
<STATE> 4
<MEAN> 39
 -1.780247e+01 -9.028633e+00 5.632119e+00 -2.743369e+00 -1.702096e+00 -4.229508e+00 -3.040094e+00 -7.392073e+00 -9.913340e+00 -8.377989e+00 -1.637654e+00 -4.890072e-02 6.820682e+01 2.768907e-02 2.624018e-01 -5.106358e-01 1.475106e-01 -7.399556e-01 6.657682e-02 -6.327672e-02 6.083475e-02 -4.747227e-01 -1.066937e-02 1.946520e-01 4.599651e-01 -7.333043e-01 1.770605e-01 7.441132e-01 -2.311292e-01 2.945785e-01 2.387834e-01 2.417576e-01 -3.834248e-02 1.250852e-01 3.197880e-01 2.916833e-01 -4.782731e-02 -7.935531e-02 -4.281849e-01
<VARIANCE> 39
 3.475368e+01 3.553092e+01 3.004284e+01 2.930660e+01 3.854068e+01 2.739332e+01 3.085422e+01 4.531158e+01 3.196616e+01 2.689371e+01 1.986495e+01 1.783294e+01 3.941478e+01 2.427613e+00 4.697520e+00 3.848213e+00 4.072762e+00 3.159136e+00 2.858566e+00 3.091773e+00 5.090935e+00 3.414374e+00 2.660105e+00 1.786871e+00 1.765254e+00 5.283394e+00 4.044109e-01 7.700210e-01 7.109526e-01 7.433898e-01 4.492028e-01 5.370090e-01 6.832461e-01 9.536636e-01 6.684530e-01 4.884057e-01 3.539816e-01 3.287093e-01 7.106248e-01
<GCONST> 1.239775e+02
<TRANSP> 5
 0.000000e+00 1.000000e+00 0.000000e+00 0.000000e+00 0.000000e+00
 0.000000e+00 5.949544e-01 4.050456e-01 0.000000e+00 0.000000e+00
 0.000000e+00 0.000000e+00 6.384249e-01 3.615751e-01 0.000000e+00
 0.000000e+00 0.000000e+00 0.000000e+00 6.140502e-01 3.859497e-01
 0.000000e+00 0.000000e+00 0.000000e+00 0.000000e+00 0.000000e+00
<ENDHMM>
~h "f"
<BEGINHMM>
<NUMSTATES> 5
<STATE> 2
<MEAN> 39
 -3.010749e+01 -4.707770e+00 -3.150041e-01 -1.277410e+01 6.655945e+00 -5.040381e-01 -3.518772e+00 -9.088796e+00 -3.586709e+00 -5.184888e+00 -9.642584e-01 -1.271642e+00 7.211769e+01 -1.141810e+00 -4.279223e-01 -1.189333e-01 -7.750899e-01 1.495216e-02 -1.829447e-01 -1.349383e-01 -2.822298e-01 -4.573828e-02 -2.249416e-01 -2.487721e-02 -1.071640e-01 1.006130e+00 3.687753e-01 9.533903e-02 5.727994e-02 2.059250e-01 -1.783052e-01 -5.301837e-02 -5.007449e-02 -2.785625e-02 -2.882884e-03 3.143080e-02 -5.712993e-02 -3.479136e-03 -9.721339e-02
<VARIANCE> 39
 2.337061e+01 1.436746e+01 2.032252e+01 2.612750e+01 2.652502e+01 3.047333e+01 2.256407e+01 3.262717e+01 2.085935e+01 1.778343e+01 1.181951e+01 1.102819e+01 3.606092e+01 2.387112e+00 1.145378e+00 1.467288e+00 2.542187e+00 2.316036e+00 2.022513e+00 1.961649e+00 2.920572e+00 2.062979e+00 1.616396e+00 1.131877e+00 1.091298e+00 1.746360e+00 4.340612e-01 1.996039e-01 2.614896e-01 4.456038e-01 3.953245e-01 4.273516e-01 4.853744e-01 6.343231e-01 4.244775e-01 3.412214e-01 2.347220e-01 2.155630e-01 1.852259e-01
<GCONST> 1.048674e+02
<STATE> 3
<MEAN> 39
 -3.132420e+01 -5.733448e+00 -5.205268e-01 -1.435194e+01 5.409957e+00 -1.696159e+00 -4.576818e+00 -1.094243e+01 -4.633516e+00 -6.387288e+00 -1.334115e+00 -1.752364e+00 7.698028e+01 1.350239e+00 -2.273342e-02 1.197028e-01 -2.734023e-01 -4.111583e-01 -6.798618e-01 -3.140365e-01 -7.193757e-01 -4.040235e-01 -2.428285e-01 -3.018993e-01 -1.222225e-01 6.176659e-01 9.917944e-01 2.854071e-01 3.231819e-01 1.853819e-01 -1.942455e-02 -8.422215e-03 3.447721e-04 -3.011273e-03 7.367592e-02 1.058102e-01 -1.432619e-01 -4.283558e-02 -7.326140e-02
<VARIANCE> 39
 1.732613e+01 1.131906e+01 1.703668e+01 1.980069e+01 2.235793e+01 2.859478e+01 2.070186e+01 3.340825e+01 1.973872e+01 1.790789e+01 1.281666e+01 1.060834e+01 1.574118e+01 6.017159e+00 1.580698e+00 1.628947e+00 1.643219e+00 1.641711e+00 1.947304e+00 1.710158e+00 2.658828e+00 1.855068e+00 1.529270e+00 1.178016e+00 9.614370e-01 1.511475e+00 6.223662e-01 3.304245e-01 3.175578e-01 3.196675e-01 3.366680e-01 4.371136e-01 3.965265e-01 4.987307e-01 4.117222e-01 3.569040e-01 2.578005e-01 2.073569e-01 1.421604e-01
<GCONST> 1.026035e+02
<STATE> 4
<MEAN> 39
 -1.896109e+01 -3.408967e+00 1.620550e+00 -1.462076e+01 3.617464e+00 -4.231443e+00 -5.507082e+00 -1.287060e+01 -4.997108e+00 -5.678805e+00 -3.310849e+00 -2.537270e+00 7.885735e+01 5.032506e+00 1.110072e+00 1.047901e+00 2.042221e-01 -9.143147e-01 -3.730407e-01 -5.390603e-01 -4.298322e-01 1.852042e-01 4.587994e-01 -1.156764e+00 -3.541173e-01 4.104473e-01 2.121430e-01 1.663185e-02 1.464769e-02 1.408067e-01 -1.960451e-01 1.782148e-01 -9.090570e-02 1.223713e-01 1.878191e-01 1.367775e-01 -1.947078e-01 2.236601e-03 -7.435985e-02
<VARIANCE> 39
 1.426807e+02 2.992540e+01 2.702776e+01 2.975742e+01 3.235734e+01 3.028782e+01 2.476508e+01 4.427467e+01 2.431828e+01 2.972940e+01 2.189831e+01 1.262540e+01 1.716473e+01 8.575956e+00 4.003032e+00 3.688908e+00 2.828297e+00 3.139699e+00 3.350319e+00 3.089590e+00 4.466829e+00 3.233403e+00 3.275736e+00 2.486490e+00 1.427975e+00 1.395714e+00 2.255327e+00 7.828815e-01 5.906521e-01 4.824331e-01 4.472070e-01 5.196513e-01 6.842637e-01 5.773054e-01 4.777720e-01 4.831515e-01 4.486091e-01 2.679907e-01 1.867075e-01
<GCONST> 1.221440e+02
<TRANSP> 5
 0.000000e+00 1.000000e+00 0.000000e+00 0.000000e+00 0.000000e+00
 0.000000e+00 8.551123e-01 1.448877e-01 0.000000e+00 0.000000e+00
 0.000000e+00 0.000000e+00 6.894194e-01 3.105807e-01 0.000000e+00
 0.000000e+00 0.000000e+00 0.000000e+00 6.697825e-01 3.302176e-01
 0.000000e+00 0.000000e+00 0.000000e+00 0.000000e+00 0.000000e+00
<ENDHMM>
~h "g"
<BEGINHMM>
<NUMSTATES> 5
<STATE> 2
<MEAN> 39
 -1.234033e+01 4.662532e+00 6.018567e+00 1.335813e+00 5.668653e+00 5.502610e-01 -4.914838e+00 -1.000929e+01 -6.641426e+00 -5.821776e+00 -1.952658e+00 -3.186970e+00 6.654095e+01 3.036101e-01 -4.344681e-01 -5.885299e-01 -1.444651e+00 4.240785e-01 2.420790e-02 2.242462e-02 -1.078343e+00 -1.006508e+00 -1.118047e+00 1.998221e-01 -2.379090e-01 1.493472e+00 1.997344e-01 -3.660309e-01 -2.032100e-01 -4.901134e-01 -9.693744e-03 -3.342913e-02 -1.988539e-01 -3.878524e-01 -7.236823e-02 -3.141572e-02 -1.299007e-02 4.152830e-02 5.010120e-01
<VARIANCE> 39
 3.428685e+01 6.796124e+01 6.295100e+01 7.971204e+01 3.322219e+01 3.301095e+01 5.372130e+01 8.119504e+01 3.396827e+01 4.485676e+01 2.234021e+01 2.484755e+01 5.538079e+01 3.683904e+00 6.760686e+00 6.438909e+00 9.185730e+00 3.880778e+00 3.551093e+00 5.858431e+00 8.060498e+00 3.867658e+00 3.760253e+00 2.320528e+00 3.041775e+00 7.953839e+00 6.046794e-01 1.105305e+00 1.354486e+00 1.628437e+00 7.638650e-01 6.847972e-01 1.099291e+00 1.207139e+00 7.369185e-01 7.483942e-01 5.180971e-01 5.842973e-01 1.043236e+00
<GCONST> 1.397483e+02
<STATE> 3
<MEAN> 39
 -1.026435e+01 1.060356e+00 3.570167e+00 -5.552386e+00 7.346438e+00 9.083973e-01 -5.881426e+00 -1.621367e+01 -1.022655e+01 -8.989378e+00 -1.221601e+00 -3.783183e+00 7.408804e+01 1.222793e+00 -7.875229e-01 -4.564406e-01 -1.676350e+00 9.021573e-03 4.164527e-02 -8.032960e-01 -1.680857e+00 -8.062094e-01 -6.686165e-01 -2.034397e-01 4.418037e-01 1.898245e+00 2.402131e-01 3.247671e-02 1.357374e-01 2.491601e-01 -3.893774e-01 -1.179812e-01 -2.444187e-01 2.591304e-01 3.933969e-01 3.685256e-01 -2.592641e-01 1.801523e-01 -1.835657e-01
<VARIANCE> 39
 3.304924e+01 5.008194e+01 5.175216e+01 9.536736e+01 4.436325e+01 5.039157e+01 7.934761e+01 1.017214e+02 4.416880e+01 4.520741e+01 2.762143e+01 3.153794e+01 4.269874e+01 4.562294e+00 5.294775e+00 6.356538e+00 7.567430e+00 5.452998e+00 3.809651e+00 6.794261e+00 8.249980e+00 4.165159e+00 4.758351e+00 3.660841e+00 3.828351e+00 4.297906e+00 6.813992e-01 8.856131e-01 1.417444e+00 1.598192e+00 9.889098e-01 9.003994e-01 1.411949e+00 1.631036e+00 1.005824e+00 7.650803e-01 6.142719e-01 7.500151e-01 8.587937e-01
<GCONST> 1.434690e+02
<STATE> 4
<MEAN> 39
 -5.313180e+00 -5.657830e-01 2.422902e+00 -9.952942e+00 4.250284e+00 4.597883e-01 -9.382119e+00 -1.952952e+01 -1.024714e+01 -9.163461e+00 -2.965294e+00 -1.653588e+00 7.845166e+01 1.077778e+00 -4.556196e-01 -3.291423e-01 -9.271260e-01 -1.465086e+00 -8.793249e-01 -7.550370e-01 4.136350e-01 1.033834e+00 5.595106e-01 -7.274878e-01 4.168287e-01 8.368719e-01 -2.858619e-01 1.355388e-01 1.307650e-01 3.323536e-01 -1.366836e-01 -1.716871e-01 2.381763e-01 6.761508e-01 4.882093e-01 2.967823e-01 -1.820685e-02 -1.605987e-01 -3.792982e-01
<VARIANCE> 39
 4.361746e+01 4.244680e+01 3.611930e+01 7.002190e+01 5.892053e+01 4.913637e+01 6.523281e+01 9.060298e+01 5.532051e+01 4.254950e+01 3.711360e+01 3.792081e+01 3.908662e+01 3.152703e+00 2.520221e+00 4.450945e+00 4.822355e+00 5.079498e+00 4.852739e+00 5.818050e+00 8.347036e+00 6.152638e+00 4.347161e+00 3.840858e+00 3.758248e+00 2.050740e+00 4.672389e-01 3.414075e-01 7.501204e-01 7.976428e-01 7.491196e-01 7.275494e-01 1.038988e+00 1.173931e+00 8.737180e-01 6.092067e-01 6.456926e-01 6.094717e-01 2.303962e-01
<GCONST> 1.354831e+02
<TRANSP> 5
 0.000000e+00 1.000000e+00 0.000000e+00 0.000000e+00 0.000000e+00
 0.000000e+00 7.079667e-01 2.920333e-01 0.000000e+00 0.000000e+00
 0.000000e+00 0.000000e+00 6.012817e-01 3.987183e-01 0.000000e+00
 0.000000e+00 0.000000e+00 0.000000e+00 5.317062e-01 4.682938e-01
 0.000000e+00 0.000000e+00 0.000000e+00 0.000000e+00 0.000000e+00
<ENDHMM>
~h "h"
<BEGINHMM>
<NUMSTATES> 5
<STATE> 2
<MEAN> 39
 -1.402445e+01 -6.353270e+00 -4.487642e+00 -7.038307e+00 -3.962983e+00 -4.966676e+00 -9.621414e+00 -8.467190e+00 6.807887e-01 -7.214642e-01 -2.486704e+00 -9.762682e-01 6.660714e+01 1.207260e+00 -1.546814e+00 -7.647352e-02 -9.511265e-01 -5.556948e-01 -7.138376e-01 -1.089796e+00 -1.205669e+00 6.997692e-01 1.072819e-01 -7.411706e-01 -7.603161e-02 2.119414e+00 -1.622294e-01 2.197136e-01 4.118612e-01 2.871695e-02 2.324422e-01 2.247545e-01 4.077195e-01 1.274001e-01 1.313166e-01 -2.620433e-03 -7.003823e-02 -2.666981e-02 1.022910e-01
<VARIANCE> 39
 1.727243e+01 3.042129e+01 3.781574e+01 4.675884e+01 5.607885e+01 3.286404e+01 5.002695e+01 4.119637e+01 3.383385e+01 3.844978e+01 3.781865e+01 1.935795e+01 5.250165e+01 1.335889e+00 2.994962e+00 3.083303e+00 2.283380e+00 2.358918e+00 2.934200e+00 4.506812e+00 2.973096e+00 2.336640e+00 2.309917e+00 2.116349e+00 1.641099e+00 1.408037e+00 1.945724e-01 5.503853e-01 4.069310e-01 4.339457e-01 4.327329e-01 4.161670e-01 5.743194e-01 4.545639e-01 3.923624e-01 3.209560e-01 4.010695e-01 2.442634e-01 1.298523e-01
<GCONST> 1.159762e+02
<STATE> 3
<MEAN> 39
 -1.113952e+01 -8.624661e+00 -2.048367e+00 -1.002460e+01 -3.702353e+00 -5.289958e+00 -9.361290e+00 -1.198982e+01 3.673335e+00 3.755870e-01 -4.345662e+00 -7.604992e-01 7.441982e+01 9.234325e-01 4.557756e-01 1.033345e+00 -5.674898e-01 3.622141e-01 4.412995e-01 4.339395e-01 -7.655760e-01 5.998642e-01 3.617049e-01 -5.051249e-01 -2.600824e-01 1.822264e+00 8.194099e-02 4.760377e-01 1.289573e-01 1.584900e-01 1.092630e-01 2.273626e-01 2.523759e-01 3.157657e-03 -2.560046e-01 4.351474e-04 5.558997e-02 -9.523243e-02 -1.281245e-01
<VARIANCE> 39
 2.179185e+01 4.133846e+01 5.006520e+01 3.974676e+01 6.298951e+01 5.362157e+01 7.160839e+01 4.804121e+01 4.794605e+01 6.372971e+01 4.509685e+01 2.907942e+01 3.194668e+01 1.512898e+00 4.079318e+00 2.635806e+00 2.171458e+00 2.507201e+00 3.336348e+00 3.362308e+00 2.794953e+00 2.611548e+00 2.467411e+00 1.943150e+00 1.512978e+00 1.395309e+00 2.397941e-01 7.547323e-01 4.649089e-01 4.583642e-01 4.469939e-01 5.944949e-01 6.530910e-01 4.820614e-01 5.245842e-01 4.383471e-01 3.602688e-01 3.022393e-01 9.867428e-02
<GCONST> 1.204763e+02
<STATE> 4
<MEAN> 39
 -6.306117e+00 -3.897918e+00 2.589762e+00 -1.232422e+01 -4.554006e+00 -3.076855e+00 -7.328068e+00 -1.492547e+01 3.360212e+00 1.107281e+00 -5.669521e+00 -3.102384e+00 7.974166e+01 8.609525e-01 5.951694e-01 5.834236e-01 -1.992693e-01 9.424097e-02 1.959462e-01 2.888121e-01 -6.636474e-01 -4.052070e-01 -2.261540e-02 -2.944049e-01 -4.176960e-01 9.097688e-01 -2.516590e-02 -1.774397e-02 -1.187027e-01 1.609112e-01 3.106222e-02 -6.129059e-02 -3.738135e-02 1.002767e-01 -1.836592e-01 -1.245674e-01 5.207484e-02 1.901636e-02 -2.190288e-01
<VARIANCE> 39
 3.437177e+01 4.683667e+01 5.220496e+01 4.394792e+01 8.513599e+01 5.565682e+01 9.178909e+01 6.771367e+01 4.857413e+01 6.397972e+01 3.908061e+01 3.214302e+01 2.327784e+01 1.559844e+00 2.616380e+00 2.127126e+00 2.044461e+00 2.347234e+00 2.600748e+00 3.077752e+00 2.761019e+00 2.660049e+00 2.238045e+00 1.829514e+00 1.532175e+00 1.539154e+00 2.673336e-01 6.627104e-01 3.852922e-01 3.897946e-01 3.660884e-01 4.807745e-01 4.292883e-01 4.420804e-01 4.393834e-01 4.159720e-01 2.935389e-01 2.790510e-01 1.082193e-01
<GCONST> 1.189426e+02
<TRANSP> 5
 0.000000e+00 1.000000e+00 0.000000e+00 0.000000e+00 0.000000e+00
 0.000000e+00 7.107226e-01 2.892774e-01 0.000000e+00 0.000000e+00
 0.000000e+00 0.000000e+00 6.288688e-01 3.711312e-01 0.000000e+00
 0.000000e+00 0.000000e+00 0.000000e+00 6.585507e-01 3.414493e-01
 0.000000e+00 0.000000e+00 0.000000e+00 0.000000e+00 0.000000e+00
<ENDHMM>
~h "i"
<BEGINHMM>
<NUMSTATES> 5
<STATE> 2
<MEAN> 39
 -6.991538e+00 -5.007249e+00 1.307850e+01 5.613428e+00 1.655747e+01 -3.972268e-01 -1.620913e+01 -2.378400e+01 -8.192588e+00 -2.393531e+00 -6.176149e+00 -8.703213e+00 7.934377e+01 7.572911e-01 -2.901437e-01 1.468485e+00 2.301826e+00 7.417595e-01 -7.828276e-01 -1.375363e+00 -3.156870e-01 1.543845e-01 8.338439e-01 -4.680030e-01 -1.077571e+00 3.721846e-01 -3.558761e-01 5.070376e-02 -2.141609e-01 -3.476158e-01 -5.985011e-01 1.057359e-02 4.553777e-01 6.098578e-01 2.034272e-01 -2.435462e-01 2.725806e-02 2.694326e-01 -2.722220e-01
<VARIANCE> 39
 2.091330e+01 2.257991e+01 4.100546e+01 3.955684e+01 4.332450e+01 3.723523e+01 3.831170e+01 4.858114e+01 2.566799e+01 2.599788e+01 2.045700e+01 2.645490e+01 1.639602e+01 5.229900e+00 2.370806e+00 3.564470e+00 3.304766e+00 4.449509e+00 4.368178e+00 4.885271e+00 7.439095e+00 2.848867e+00 2.461874e+00 2.588122e+00 2.072464e+00 1.719457e+00 5.329080e-01 3.790942e-01 5.099759e-01 4.549623e-01 6.420857e-01 5.703644e-01 6.532620e-01 9.429110e-01 6.272438e-01 3.980169e-01 4.423146e-01 3.815641e-01 2.004264e-01
<GCONST> 1.221252e+02
<STATE> 3
<MEAN> 39
 -7.089794e+00 -5.635358e+00 1.645906e+01 1.077508e+01 1.611109e+01 -3.246749e+00 -1.809560e+01 -2.083440e+01 -6.386044e+00 -1.298390e+00 -6.865706e+00 -1.026673e+01 7.842746e+01 -3.408673e-01 2.122371e-01 2.234571e-01 3.242671e-01 -3.437650e-01 -2.405258e-01 2.934653e-01 8.224800e-01 2.777121e-01 1.677784e-02 7.990587e-02 9.288640e-02 -4.840590e-01 -1.230898e-01 1.443463e-01 -2.818608e-01 -3.765264e-01 -1.583581e-01 1.953135e-01 3.063567e-01 1.112349e-01 -5.609875e-03 -1.269695e-01 4.755569e-02 1.882319e-01 -1.297965e-01
<VARIANCE> 39
 8.959625e+00 1.948448e+01 3.137097e+01 3.569786e+01 3.030223e+01 3.423410e+01 3.248140e+01 4.387964e+01 2.610792e+01 2.329467e+01 2.448494e+01 2.344733e+01 1.237966e+01 1.162974e+00 1.199013e+00 2.156284e+00 2.722272e+00 2.190503e+00 2.232892e+00 3.052951e+00 3.520016e+00 1.888838e+00 1.605521e+00 1.509928e+00 1.457216e+00 1.041508e+00 1.930170e-01 1.798928e-01 2.980823e-01 3.710101e-01 4.262167e-01 3.846028e-01 5.009015e-01 6.315892e-01 3.704516e-01 3.187165e-01 2.787681e-01 2.748439e-01 1.327823e-01
<GCONST> 1.061035e+02
<STATE> 4
<MEAN> 39
 -9.748459e+00 -3.220083e+00 1.602902e+01 9.624133e+00 1.430637e+01 -3.240601e+00 -1.676134e+01 -1.760405e+01 -5.408849e+00 -2.466252e+00 -7.033467e+00 -8.392970e+00 7.477163e+01 -7.502108e-01 4.629916e-01 -6.037967e-01 -7.434291e-01 -6.992761e-01 4.646671e-01 1.245117e+00 8.749251e-01 1.922295e-01 -2.539255e-01 2.566009e-01 5.133510e-01 -6.792120e-01 -1.031669e-01 -5.302730e-02 -1.316674e-01 -1.967182e-01 -1.359371e-01 6.187246e-02 1.515908e-01 4.489906e-02 2.313783e-02 -4.458003e-02 4.723356e-02 7.470620e-02 6.980477e-03
<VARIANCE> 39
 2.619530e+01 2.566613e+01 3.538308e+01 4.591227e+01 3.071633e+01 4.314094e+01 6.046232e+01 6.137816e+01 2.803642e+01 2.252599e+01 2.758150e+01 2.447107e+01 2.929972e+01 1.897784e+00 1.713351e+00 2.039782e+00 2.248630e+00 2.610004e+00 2.487902e+00 4.400850e+00 4.555107e+00 2.400329e+00 1.873501e+00 1.859898e+00 1.587712e+00 1.396106e+00 1.621485e-01 2.496727e-01 3.085804e-01 3.691864e-01 3.589100e-01 4.070178e-01 5.643780e-01 6.813322e-01 4.314918e-01 3.135099e-01 2.784062e-01 2.667088e-01 1.488063e-01
<GCONST> 1.130565e+02
<TRANSP> 5
 0.000000e+00 1.000000e+00 0.000000e+00 0.000000e+00 0.000000e+00
 0.000000e+00 7.462253e-01 2.537747e-01 0.000000e+00 0.000000e+00
 0.000000e+00 0.000000e+00 7.881380e-01 2.118620e-01 0.000000e+00
 0.000000e+00 0.000000e+00 0.000000e+00 8.551324e-01 1.448676e-01
 0.000000e+00 0.000000e+00 0.000000e+00 0.000000e+00 0.000000e+00
<ENDHMM>
~h "j"
<BEGINHMM>
<NUMSTATES> 5
<STATE> 2
<MEAN> 39
 -1.515606e+01 -6.104207e+00 1.159533e+01 2.455688e+00 1.255506e+01 -8.232528e-01 -9.390585e+00 -1.599213e+01 -3.821719e+00 -4.547957e+00 -3.368619e+00 -5.317037e+00 7.547264e+01 2.771743e+00 1.028694e+00 9.617550e-01 1.663140e+00 2.130508e+00 8.449675e-01 -1.583675e+00 -2.407572e+00 -1.474648e+00 -9.976655e-03 -1.136688e-01 8.873384e-02 9.900596e-01 2.887557e-01 1.515714e-01 -4.640796e-01 -2.105771e-01 -2.891073e-01 1.832995e-01 -9.473280e-02 -2.250069e-01 -3.042814e-01 -1.409088e-01 -4.638102e-02 1.843429e-01 -7.268730e-02
<VARIANCE> 39
 7.029113e+01 7.245296e+01 5.287369e+01 4.883843e+01 4.144703e+01 3.591350e+01 4.816716e+01 6.640675e+01 4.587672e+01 3.074595e+01 1.779389e+01 2.524409e+01 4.100740e+01 5.904272e+00 5.576529e+00 4.809783e+00 4.195088e+00 3.587539e+00 4.615754e+00 3.185333e+00 5.440558e+00 5.065432e+00 2.524526e+00 1.593962e+00 1.719164e+00 1.589144e+00 1.003788e+00 8.569601e-01 7.757618e-01 1.028431e+00 7.591769e-01 6.267974e-01 6.972175e-01 1.174664e+00 8.528458e-01 4.787624e-01 3.058020e-01 3.506372e-01 2.374640e-01
<GCONST> 1.308110e+02
<STATE> 3
<MEAN> 39
 -6.322660e+00 -3.800390e+00 1.032110e+01 4.776296e+00 1.648308e+01 2.049807e+00 -1.441146e+01 -2.416829e+01 -9.190073e+00 -5.344337e+00 -3.528021e+00 -4.988585e+00 7.870491e+01 1.650005e+00 2.270228e-01 -9.583782e-01 -5.344706e-01 2.524138e-01 8.036915e-01 -8.382916e-01 -1.694306e+00 -1.378645e+00 -6.848367e-01 -3.451373e-01 3.806865e-01 6.082771e-01 -5.071959e-01 -1.444475e-01 -3.154108e-01 -6.212910e-01 -6.267745e-01 -1.466293e-01 4.331528e-01 6.518093e-01 3.183821e-01 -2.546447e-01 -1.618349e-01 6.924392e-02 -1.840134e-01
<VARIANCE> 39
 1.443100e+01 2.144168e+01 3.786165e+01 4.395374e+01 3.204476e+01 3.532157e+01 3.359280e+01 5.011718e+01 3.889061e+01 3.121176e+01 1.627072e+01 3.217000e+01 1.625777e+01 3.500972e+00 3.105660e+00 2.600560e+00 3.547027e+00 2.884726e+00 3.143901e+00 3.086365e+00 5.228958e+00 4.197258e+00 3.097252e+00 1.996408e+00 2.058747e+00 1.024376e+00 4.783202e-01 3.978189e-01 4.510254e-01 5.380718e-01 5.423158e-01 5.593388e-01 5.020509e-01 9.555700e-01 8.177547e-01 5.614771e-01 3.405143e-01 3.732093e-01 1.163153e-01
<GCONST> 1.190411e+02
<STATE> 4
<MEAN> 39
 -4.008268e+00 -3.517595e+00 6.156460e+00 -4.410791e-02 1.461238e+01 3.161586e+00 -1.436230e+01 -2.558443e+01 -1.170403e+01 -8.987305e+00 -5.621098e+00 -3.115658e+00 7.947726e+01 5.033293e-01 3.893200e-01 -8.205562e-01 -1.287701e+00 -9.406364e-01 3.057573e-01 5.248924e-01 6.579184e-01 -1.813194e-01 -1.015522e+00 -7.128102e-01 4.509937e-01 -6.759654e-02 -1.971101e-01 7.770162e-02 1.277783e-01 4.371145e-02 -2.030302e-01 -1.535245e-01 2.478404e-01 5.298514e-01 3.488935e-01 9.650347e-02 -6.133144e-02 -6.684587e-02 -1.679361e-01
<VARIANCE> 39
 9.089922e+00 1.512396e+01 3.948292e+01 5.453197e+01 4.182068e+01 4.629810e+01 3.400494e+01 6.774509e+01 4.015992e+01 5.094819e+01 3.076395e+01 3.215469e+01 1.187044e+01 7.156711e-01 1.296461e+00 1.397633e+00 2.683420e+00 2.635171e+00 2.453422e+00 2.620505e+00 5.537540e+00 3.912685e+00 3.257790e+00 2.855279e+00 2.306638e+00 9.559899e-01 1.980995e-01 1.771352e-01 2.401014e-01 4.816466e-01 3.414257e-01 4.190498e-01 4.347889e-01 7.905355e-01 7.326907e-01 5.886753e-01 4.071268e-01 3.995556e-01 1.110806e-01
<GCONST> 1.133804e+02
<TRANSP> 5
 0.000000e+00 1.000000e+00 0.000000e+00 0.000000e+00 0.000000e+00
 0.000000e+00 6.534473e-01 3.465526e-01 0.000000e+00 0.000000e+00
 0.000000e+00 0.000000e+00 5.661118e-01 4.338881e-01 0.000000e+00
 0.000000e+00 0.000000e+00 0.000000e+00 7.744157e-01 2.255844e-01
 0.000000e+00 0.000000e+00 0.000000e+00 0.000000e+00 0.000000e+00
<ENDHMM>
~h "k"
<BEGINHMM>
<NUMSTATES> 5
<STATE> 2
<MEAN> 39
 -1.961233e+01 -1.689511e+00 2.383472e+00 -2.586915e+00 2.571748e+00 2.691052e-01 -1.054284e+00 -6.049058e+00 -3.894079e+00 -4.186709e+00 -1.727044e+00 -2.447559e+00 6.344315e+01 -1.098493e-01 -1.009535e+00 -1.527031e+00 -2.313863e+00 -1.114491e-01 -4.935738e-01 -2.262001e-01 -9.277752e-01 -7.651148e-01 -9.629915e-01 3.685159e-01 -1.204712e-01 1.354656e+00 3.188303e-01 -2.224078e-01 2.137214e-02 -3.902289e-01 -3.012739e-02 -2.374629e-01 -4.529341e-01 -6.761487e-01 -1.765188e-01 -1.428057e-01 9.791874e-03 2.135257e-02 7.146931e-01
<VARIANCE> 39
 2.189254e+01 4.539133e+01 6.965202e+01 1.051557e+02 4.520181e+01 3.562218e+01 4.681594e+01 7.247837e+01 3.982471e+01 4.156498e+01 2.589574e+01 2.721266e+01 6.132983e+01 2.946364e+00 3.858743e+00 5.977307e+00 1.150975e+01 4.857060e+00 4.663457e+00 6.617776e+00 1.178733e+01 4.917199e+00 4.693932e+00 2.688011e+00 2.783707e+00 1.095905e+01 3.812242e-01 6.217152e-01 1.365948e+00 2.310727e+00 8.452258e-01 7.887554e-01 1.018360e+00 1.679653e+00 8.812644e-01 8.737711e-01 5.300281e-01 4.878964e-01 1.369772e+00
<GCONST> 1.413037e+02
<STATE> 3
<MEAN> 39
 -1.788449e+01 -6.155561e+00 -2.002054e+00 -1.211445e+01 2.139697e+00 -3.735489e+00 -4.676455e+00 -1.341835e+01 -7.675901e+00 -8.779701e+00 -7.973338e-01 -2.809539e+00 7.281565e+01 7.330910e-01 -8.715112e-01 2.882847e-01 -8.925701e-01 1.540727e-02 -4.910173e-01 -1.022988e+00 -1.728030e+00 -6.406392e-01 -6.253995e-01 -4.907073e-02 2.878516e-01 1.905779e+00 1.377760e-01 3.279339e-01 6.289761e-01 9.386212e-01 4.463330e-02 4.067394e-01 2.098492e-01 5.052334e-01 3.825005e-01 5.167913e-01 -1.158988e-01 1.464904e-01 -5.585341e-01
<VARIANCE> 39
 1.885479e+01 3.920314e+01 4.439848e+01 7.757155e+01 5.497654e+01 5.137225e+01 6.349134e+01 6.829010e+01 4.270325e+01 3.686101e+01 2.709931e+01 2.891096e+01 4.451328e+01 3.597707e+00 5.027064e+00 5.386664e+00 8.017937e+00 4.052580e+00 4.774047e+00 4.589932e+00 6.661593e+00 4.194088e+00 4.325400e+00 3.001816e+00 2.821991e+00 5.812900e+00 6.587240e-01 7.332871e-01 1.066386e+00 1.412329e+00 9.510190e-01 1.035921e+00 1.055009e+00 1.315462e+00 8.088049e-01 8.024437e-01 5.878696e-01 5.293112e-01 9.375097e-01
<GCONST> 1.387376e+02
<STATE> 4
<MEAN> 39
 -1.526492e+01 -6.731687e+00 -8.013892e-02 -1.116041e+01 2.162890e+00 -3.013039e+00 -6.186207e+00 -1.521638e+01 -7.805515e+00 -8.113260e+00 -1.196704e+00 -1.648261e+00 7.464210e+01 1.417038e+00 5.159819e-01 1.142255e+00 7.783917e-01 -5.966317e-03 5.983998e-01 -1.678905e-01 4.633506e-02 4.536782e-01 6.965860e-01 -3.401172e-01 3.655611e-01 4.012668e-01 2.051729e-01 4.049145e-01 6.905852e-02 2.087361e-01 -1.088661e-01 1.317287e-01 1.598026e-01 3.719644e-01 2.478071e-01 2.594418e-01 -1.066004e-01 -9.990989e-02 -2.548712e-01
<VARIANCE> 39
 4.098306e+01 4.390120e+01 4.930465e+01 6.095425e+01 4.466124e+01 4.765072e+01 4.933530e+01 5.846947e+01 4.788047e+01 3.707914e+01 2.456212e+01 2.567373e+01 4.203794e+01 6.036854e+00 5.222245e+00 4.442226e+00 3.923371e+00 3.797405e+00 4.533659e+00 4.711776e+00 5.434654e+00 3.680522e+00 3.374548e+00 3.030494e+00 2.480505e+00 2.555975e+00 7.754450e-01 8.339165e-01 8.311852e-01 8.962213e-01 6.683514e-01 9.018233e-01 8.482233e-01 1.028929e+00 6.978378e-01 6.032438e-01 4.805228e-01 4.545448e-01 4.836057e-01
<GCONST> 1.338643e+02
<TRANSP> 5
 0.000000e+00 1.000000e+00 0.000000e+00 0.000000e+00 0.000000e+00
 0.000000e+00 7.673993e-01 2.326007e-01 0.000000e+00 0.000000e+00
 0.000000e+00 0.000000e+00 5.847318e-01 4.152681e-01 0.000000e+00
 0.000000e+00 0.000000e+00 0.000000e+00 5.983644e-01 4.016356e-01
 0.000000e+00 0.000000e+00 0.000000e+00 0.000000e+00 0.000000e+00
<ENDHMM>
~h "l"
<BEGINHMM>
<NUMSTATES> 5
<STATE> 2
<MEAN> 39
 -2.391679e+00 4.989413e-01 8.052773e+00 -5.678463e+00 -5.059299e+00 -7.243204e+00 -1.000677e+01 -9.872676e+00 -5.239327e+00 -1.028599e+01 -1.130296e+01 -5.250380e+00 7.643800e+01 8.403828e-01 4.205465e-01 2.683452e-01 3.126451e-01 -5.279779e-01 -8.022126e-01 -4.706783e-01 2.481217e-01 -3.574877e-01 -4.375992e-01 -4.395058e-01 -8.433551e-02 1.996454e-01 -3.446977e-01 -2.217816e-01 -2.418294e-01 -1.555277e-01 2.210847e-01 1.134711e-01 2.466226e-02 -3.177249e-01 -1.175134e-02 2.806716e-01 4.469676e-01 1.922074e-01 1.340317e-02
<VARIANCE> 39
 2.517010e+01 3.342234e+01 3.688967e+01 3.833290e+01 6.715648e+01 8.103013e+01 6.971375e+01 5.557536e+01 5.446582e+01 4.499530e+01 4.414059e+01 2.861380e+01 3.379990e+01 3.668541e+00 1.945891e+00 2.750716e+00 3.025456e+00 3.218088e+00 3.005182e+00 3.197663e+00 4.973282e+00 3.526132e+00 3.773503e+00 5.830530e+00 2.719299e+00 1.976601e+00 4.027891e-01 3.562643e-01 4.824174e-01 5.124522e-01 4.170788e-01 4.242664e-01 5.750841e-01 6.626611e-01 5.742328e-01 5.883663e-01 9.008027e-01 4.587065e-01 1.651193e-01
<GCONST> 1.263438e+02
<STATE> 3
<MEAN> 39
 -1.740616e+00 1.157193e+00 8.008236e+00 -4.929519e+00 -5.222493e+00 -1.019910e+01 -1.251438e+01 -1.102613e+01 -6.628871e+00 -9.826495e+00 -9.374019e+00 -3.974623e+00 7.664252e+01 -1.945582e-01 -9.667468e-02 -2.385141e-01 -4.271939e-02 3.593587e-01 -2.153830e-01 -2.535706e-01 -7.174876e-01 -2.612360e-01 6.001959e-01 8.308001e-01 3.645594e-01 1.260596e-01 -2.196233e-01 -9.994823e-02 -8.101775e-02 -7.049149e-02 1.853925e-01 1.971740e-01 9.818501e-02 -1.668928e-01 1.551274e-01 2.419321e-01 1.526017e-01 1.870542e-02 -9.014789e-03
<VARIANCE> 39
 1.028200e+01 3.946653e+01 4.386762e+01 3.912919e+01 8.869174e+01 8.575639e+01 8.549013e+01 6.735139e+01 5.812913e+01 4.540335e+01 5.042621e+01 3.331794e+01 2.432758e+01 9.651665e-01 1.504360e+00 2.479825e+00 3.228758e+00 2.677368e+00 2.544512e+00 3.060306e+00 4.197174e+00 3.127257e+00 3.553994e+00 4.054697e+00 2.352833e+00 1.378845e+00 2.119922e-01 2.293535e-01 4.223503e-01 5.196494e-01 3.400925e-01 3.759045e-01 4.975266e-01 6.132025e-01 5.673587e-01 5.651734e-01 8.321941e-01 4.311113e-01 1.355041e-01
<GCONST> 1.211868e+02
<STATE> 4
<MEAN> 39
 -4.389395e+00 3.045831e+00 8.943795e+00 -2.069572e+00 -2.018972e+00 -1.072234e+01 -1.485977e+01 -1.338814e+01 -6.842165e+00 -6.955100e+00 -6.491816e+00 -3.142222e+00 7.383410e+01 -6.996536e-01 -8.157264e-02 -8.845431e-02 1.849634e-01 6.841680e-01 6.465594e-01 4.696406e-01 -2.059548e-01 3.252773e-01 7.298763e-01 4.023943e-01 4.713774e-02 -3.418119e-01 -1.463578e-01 -9.182662e-02 -4.126570e-02 -2.228052e-02 5.088086e-02 1.865471e-01 1.811349e-01 8.995242e-02 1.264412e-01 4.262631e-02 -4.629949e-02 -2.864168e-02 -5.904271e-02
<VARIANCE> 39
 1.879603e+01 6.729695e+01 4.951402e+01 5.950318e+01 1.402814e+02 6.408076e+01 8.120155e+01 9.306113e+01 4.446690e+01 4.898702e+01 3.932170e+01 3.539850e+01 4.685922e+01 1.027376e+00 1.651920e+00 2.391698e+00 2.611480e+00 2.229337e+00 2.691184e+00 3.452896e+00 3.325403e+00 2.761387e+00 2.605436e+00 2.346199e+00 1.743578e+00 1.296527e+00 1.491289e-01 2.398977e-01 3.404678e-01 3.564704e-01 3.107257e-01 3.298134e-01 4.078195e-01 4.407711e-01 3.857677e-01 3.840176e-01 4.057598e-01 2.917078e-01 1.018995e-01
<GCONST> 1.180882e+02
<TRANSP> 5
 0.000000e+00 1.000000e+00 0.000000e+00 0.000000e+00 0.000000e+00
 0.000000e+00 7.070521e-01 2.929480e-01 0.000000e+00 0.000000e+00
 0.000000e+00 0.000000e+00 6.740018e-01 3.259983e-01 0.000000e+00
 0.000000e+00 0.000000e+00 0.000000e+00 7.505175e-01 2.494825e-01
 0.000000e+00 0.000000e+00 0.000000e+00 0.000000e+00 0.000000e+00
<ENDHMM>
~h "m"
<BEGINHMM>
<NUMSTATES> 5
<STATE> 2
<MEAN> 39
 -6.184190e+00 6.854799e+00 6.021668e+00 2.698054e-01 6.818315e+00 4.412004e+00 -1.361846e+00 -1.042689e+01 -6.025699e+00 -4.300689e+00 -8.054211e+00 -5.408250e+00 6.903820e+01 1.013902e+00 9.177941e-01 1.061359e-01 3.314545e-01 8.743995e-01 8.509222e-01 -2.732613e-01 -9.256682e-01 -6.073468e-01 -2.756562e-01 -5.029212e-01 -5.589733e-01 2.236822e-01 -1.750970e-01 -3.425530e-01 -2.717984e-01 -3.444248e-01 -2.681592e-01 -2.742958e-01 -1.964009e-01 -5.794819e-02 1.361616e-01 6.892599e-02 1.227717e-01 1.698527e-02 1.025034e-01
<VARIANCE> 39
 2.463807e+01 2.580409e+01 2.072634e+01 2.690796e+01 2.768287e+01 2.886614e+01 2.469879e+01 5.187138e+01 2.530833e+01 1.865208e+01 2.069910e+01 2.163554e+01 4.051074e+01 3.771983e+00 1.734497e+00 2.347511e+00 2.497525e+00 2.186277e+00 2.034956e+00 1.929378e+00 3.728601e+00 2.166146e+00 1.448561e+00 1.536160e+00 1.446053e+00 2.754518e+00 2.983127e-01 2.648858e-01 3.755174e-01 3.549917e-01 3.306983e-01 2.815709e-01 3.462300e-01 4.882462e-01 3.396339e-01 2.713762e-01 2.552564e-01 2.498064e-01 1.437013e-01
<GCONST> 1.085443e+02
<STATE> 3
<MEAN> 39
 -4.494442e+00 7.309687e+00 5.333910e+00 -2.570508e-01 8.210349e+00 5.687781e+00 -2.767980e+00 -1.321229e+01 -6.986120e+00 -4.792526e+00 -8.666248e+00 -6.758548e+00 7.022687e+01 9.765333e-02 -5.211254e-02 -2.576842e-01 -3.568240e-01 -3.034338e-02 -3.159870e-02 -2.186763e-01 -2.232168e-01 9.183216e-02 -1.331724e-02 8.391456e-02 -2.176327e-01 2.045109e-01 -2.086253e-01 -2.679455e-01 -2.647818e-02 -1.780613e-01 -2.743683e-01 -2.881592e-01 -2.464931e-04 1.771098e-01 2.285874e-01 9.688242e-02 1.718905e-01 1.565439e-01 8.294345e-02
<VARIANCE> 39
 1.234984e+01 2.047876e+01 1.823809e+01 2.430402e+01 2.583782e+01 3.060196e+01 2.546995e+01 5.205353e+01 2.771719e+01 1.742538e+01 1.879425e+01 2.295120e+01 2.392850e+01 1.220096e+00 1.126582e+00 1.397657e+00 1.950847e+00 1.625661e+00 1.616858e+00 1.491784e+00 2.291887e+00 1.434790e+00 1.167095e+00 1.145200e+00 1.292277e+00 1.441911e+00 1.737560e-01 2.191921e-01 2.541640e-01 3.354556e-01 3.425743e-01 3.130276e-01 2.983708e-01 3.508914e-01 2.968190e-01 2.489909e-01 2.112330e-01 2.656677e-01 1.463045e-01
<GCONST> 9.975274e+01
<STATE> 4
<MEAN> 39
 -4.605916e+00 5.502575e+00 4.832602e+00 -2.449759e+00 6.191657e+00 3.556400e+00 -3.371496e+00 -1.256465e+01 -5.347860e+00 -4.772824e+00 -7.607872e+00 -6.705614e+00 7.214484e+01 -3.221447e-01 -6.996915e-01 -1.429582e-01 -6.448162e-01 -8.192688e-01 -8.191864e-01 -2.737779e-01 1.292936e-01 5.676013e-01 2.160694e-01 5.032876e-01 4.060703e-01 4.656983e-01 -1.318468e-01 -2.526648e-01 6.200491e-02 -2.254103e-02 -1.634367e-01 -1.739554e-01 -3.928853e-02 3.458792e-02 1.277335e-01 7.168900e-02 7.762648e-02 1.969394e-01 1.000811e-01
<VARIANCE> 39
 2.108721e+01 2.827967e+01 2.642018e+01 4.357576e+01 4.125723e+01 4.502720e+01 3.404140e+01 6.247369e+01 2.880817e+01 1.985686e+01 2.064302e+01 2.437767e+01 4.184442e+01 1.007495e+00 1.948188e+00 1.769635e+00 3.235380e+00 3.045200e+00 2.326399e+00 2.337317e+00 3.054836e+00 2.113006e+00 1.765186e+00 1.426789e+00 2.129486e+00 2.649737e+00 1.103475e-01 2.786289e-01 2.933328e-01 4.420347e-01 4.641655e-01 4.072896e-01 3.799202e-01 4.062777e-01 3.200005e-01 3.243456e-01 2.495351e-01 3.224641e-01 2.122166e-01
<GCONST> 1.109608e+02
<TRANSP> 5
 0.000000e+00 1.000000e+00 0.000000e+00 0.000000e+00 0.000000e+00
 0.000000e+00 6.977289e-01 3.022711e-01 0.000000e+00 0.000000e+00
 0.000000e+00 0.000000e+00 7.110526e-01 2.889474e-01 0.000000e+00
 0.000000e+00 0.000000e+00 0.000000e+00 7.060658e-01 2.939342e-01
 0.000000e+00 0.000000e+00 0.000000e+00 0.000000e+00 0.000000e+00
<ENDHMM>
~h "n"
<BEGINHMM>
<NUMSTATES> 5
<STATE> 2
<MEAN> 39
 -4.965755e+00 4.735701e+00 7.360662e+00 1.141330e+00 7.607321e+00 2.023105e+00 -6.224049e+00 -1.389410e+01 -4.511796e+00 -4.557997e+00 -8.777913e+00 -7.322014e+00 7.244511e+01 -1.302986e-02 8.897667e-01 2.217065e-01 7.854887e-01 3.898453e-01 4.020128e-01 -1.511502e-01 -6.289280e-02 1.249615e-02 -4.383489e-01 -4.219027e-01 -3.015531e-01 -7.202941e-01 -1.467840e-01 -2.158861e-01 -9.019697e-02 -3.133337e-01 -1.280647e-01 -1.300126e-01 -5.654862e-02 -5.600224e-02 4.507810e-02 1.093310e-01 2.065375e-01 1.200670e-01 1.350598e-01
<VARIANCE> 39
