~o
<STREAMINFO> 1 39
<VECSIZE> 39<NULLD><MFCC_D_A_0><DIAGC>
~h "#"
<BEGINHMM>
<NUMSTATES> 5
<STATE> 2
<MEAN> 39
 -1.775844e-01 -1.881691e+00 -8.164995e-01 -1.577993e+01 -8.455929e+00 -6.714219e+00 -6.379204e+00 -9.466873e+00 3.867897e+00 -2.708029e-01 -7.668074e+00 -2.506691e+00 8.212714e+01 8.907450e-01 -8.046829e-01 -6.213506e-01 -7.116696e-01 -1.677096e+00 -1.152593e+00 4.381201e-01 1.121113e+00 1.908574e+00 1.154934e+00 -4.503031e-01 -4.067867e-01 1.081880e+00 -6.354070e-01 -1.888365e-01 2.735865e-01 4.543537e-01 3.000353e-01 1.971745e-01 3.923209e-01 1.009309e-01 -3.965387e-01 -2.212001e-01 1.411106e-01 5.338620e-05 -4.356729e-01
<VARIANCE> 39
 1.267468e+01 2.124589e+01 3.298116e+01 2.119274e+01 4.202901e+01 6.057632e+01 5.797599e+01 5.834433e+01 5.058345e+01 4.093239e+01 2.893706e+01 2.347801e+01 1.655966e+01 2.753234e+00 1.982371e+00 2.209271e+00 2.640103e+00 2.288561e+00 3.218824e+00 3.045271e+00 4.628456e+00 4.016113e+00 2.428313e+00 2.367894e+00 2.452041e+00 1.758081e+00 4.055797e-01 4.856113e-01 3.970927e-01 3.986355e-01 3.478770e-01 5.602441e-01 4.652207e-01 7.006243e-01 6.671326e-01 5.532002e-01 4.692731e-01 4.456396e-01 1.691026e-01
<GCONST> 1.188956e+02
<STATE> 3
<MEAN> 39
 -7.345564e-01 -4.167829e+00 1.374927e+00 -1.597799e+01 -1.375429e+01 -9.287765e+00 -1.229090e-01 -4.790877e+00 6.433541e+00 2.586958e+00 -9.245795e+00 -3.295280e+00 8.227555e+01 -1.679709e-01 4.120069e-03 2.939709e-01 -5.612683e-02 6.436292e-03 3.210441e-01 4.312955e-01 -2.443657e-02 -1.595342e-01 1.413042e-01 -6.093648e-02 -3.354745e-02 -1.561042e-01 -3.930092e-02 1.427523e-01 2.542710e-02 4.441594e-02 2.183933e-01 1.430959e-01 -1.593217e-01 -9.945023e-02 -1.223173e-01 -1.222413e-01 4.523518e-02 1.032458e-02 -1.008297e-01
<VARIANCE> 39
 4.328967e+00 2.293089e+01 3.865154e+01 1.727392e+01 3.046289e+01 3.839621e+01 6.106198e+01 3.810084e+01 2.310879e+01 2.796829e+01 2.441683e+01 2.023313e+01 1.528515e+01 2.245135e-01 8.634672e-01 1.166991e+00 7.797200e-01 1.242902e+00 1.560345e+00 1.849830e+00 1.424418e+00 1.316566e+00 1.338139e+00 1.233564e+00 1.077063e+00 2.783941e-01 4.419179e-02 1.311188e-01 1.711931e-01 1.924194e-01 1.884566e-01 2.104852e-01 2.205364e-01 2.624964e-01 2.565875e-01 2.294017e-01 2.117894e-01 2.045008e-01 4.761736e-02
<GCONST> 8.880730e+01
<STATE> 4
<MEAN> 39
 -4.081859e+00 -1.944464e+00 4.117754e+00 -1.356875e+01 -7.162232e+00 -3.393070e+00 -1.837375e+00 -7.462717e+00 3.179517e+00 6.227670e-01 -7.520651e+00 -2.827995e+00 7.857051e+01 -1.750527e+00 6.678892e-01 1.199754e+00 2.160342e+00 2.221002e+00 9.385813e-01 -2.282192e-01 2.512173e-02 -1.425507e+00 -1.460990e+00 7.128714e-01 1.609579e-01 -1.606564e+00 -5.203964e-01 -1.282689e-01 1.347187e-01 4.439442e-01 1.956806e-01 -9.918847e-03 2.212882e-01 7.842084e-02 -2.057478e-01 -1.768361e-01 1.301029e-01 -6.426746e-02 -1.980305e-01
<VARIANCE> 39
 1.722107e+01 2.601662e+01 3.707204e+01 3.599178e+01 4.452935e+01 3.556555e+01 4.440735e+01 5.105847e+01 3.756080e+01 3.831639e+01 2.559374e+01 2.670154e+01 3.040647e+01 2.613122e+00 2.810213e+00 2.414994e+00 4.920095e+00 2.648331e+00 2.384375e+00 3.237170e+00 3.308851e+00 2.399726e+00 2.313388e+00 3.214524e+00 2.404936e+00 1.779070e+00 2.502649e-01 4.479460e-01 4.193564e-01 8.582997e-01 5.092101e-01 4.258760e-01 4.439390e-01 6.260121e-01 4.826296e-01 4.867593e-01 4.992449e-01 4.064192e-01 3.274808e-01
<GCONST> 1.201251e+02
<TRANSP> 5
 0.000000e+00 1.000000e+00 0.000000e+00 0.000000e+00 0.000000e+00
 0.000000e+00 7.246153e-01 2.753847e-01 0.000000e+00 0.000000e+00
 0.000000e+00 0.000000e+00 9.049813e-01 9.501871e-02 0.000000e+00
 0.000000e+00 0.000000e+00 0.000000e+00 7.623152e-01 2.376848e-01
 0.000000e+00 0.000000e+00 0.000000e+00 0.000000e+00 0.000000e+00
<ENDHMM>
~h "$"
<BEGINHMM>
<NUMSTATES> 5
<STATE> 2
<MEAN> 39
 -1.313482e+00 6.060530e+00 1.093004e+01 -9.012407e+00 -5.312593e+00 -9.722651e+00 -1.717358e+01 -1.293058e+01 -5.122552e-01 -5.633110e+00 -7.969850e+00 -3.858047e+00 7.775276e+01 2.320575e+00 7.135064e-01 8.163657e-01 1.447604e-01 -1.380402e+00 -1.795995e+00 -3.358308e+00 -3.705302e-01 1.243313e+00 6.573202e-01 -6.463000e-01 2.050441e-01 7.916560e-01 -8.826851e-01 -5.173463e-01 -3.889908e-01 9.587893e-02 1.657688e-01 2.473610e-01 4.445879e-01 2.787418e-01 -1.694405e-01 -1.222683e-01 3.571464e-01 1.782463e-01 -2.939807e-01
<VARIANCE> 39
 1.302769e+01 2.710827e+01 2.072380e+01 2.565080e+01 2.228613e+01 6.114166e+01 6.912518e+01 3.503144e+01 4.010453e+01 2.842389e+01 3.589568e+01 2.300823e+01 2.344026e+01 5.006568e+00 2.282075e+00 2.510944e+00 2.098357e+00 2.148844e+00 3.514971e+00 4.277723e+00 3.270306e+00 3.931602e+00 3.214209e+00 2.394798e+00 1.621831e+00 2.257839e+00 4.771403e-01 3.418510e-01 4.535626e-01 3.592930e-01 3.471059e-01 6.985605e-01 9.094366e-01 5.737115e-01 6.622003e-01 6.055211e-01 4.494211e-01 3.008761e-01 1.716613e-01
<GCONST> 1.188328e+02
<STATE> 3
<MEAN> 39
 7.531114e-01 6.657074e+00 1.131330e+01 -5.914955e+00 -8.978618e+00 -1.595840e+01 -2.485281e+01 -1.220743e+01 -3.489913e-01 -5.930893e+00 -6.981765e+00 -1.614203e+00 7.684156e+01 -3.212237e-03 -9.316338e-02 -1.958856e-01 8.376656e-02 -3.100797e-01 -3.858382e-01 -1.504271e-01 3.455742e-01 -1.187082e-01 -2.185699e-01 2.056626e-01 1.181466e-01 -1.303186e-01 -6.922469e-02 -2.070588e-02 -1.053578e-01 -9.105889e-02 8.689165e-02 2.143661e-01 3.037700e-01 1.830696e-02 -9.508271e-03 -3.200445e-02 -1.889776e-02 -9.604283e-02 -2.451489e-02
<VARIANCE> 39
 3.160015e+00 1.375456e+01 2.685938e+01 2.911234e+01 2.193623e+01 3.771368e+01 3.712292e+01 3.326672e+01 2.953795e+01 2.875343e+01 2.294482e+01 2.208092e+01 8.264969e+00 1.654202e-01 5.428798e-01 8.198990e-01 1.204467e+00 1.036536e+00 1.531672e+00 1.927781e+00 1.490241e+00 1.429046e+00 1.503246e+00 1.152313e+00 1.151669e+00 2.507233e-01 4.971597e-02 8.203128e-02 1.186135e-01 1.925332e-01 2.035703e-01 2.502018e-01 2.751521e-01 2.769775e-01 2.613553e-01 2.571242e-01 2.185383e-01 2.029093e-01 3.158166e-02
<GCONST> 8.568726e+01
<STATE> 4
<MEAN> 39
 -1.549342e+00 4.317268e+00 6.129619e+00 -9.291340e+00 -7.167257e+00 -9.301184e+00 -1.586872e+01 -8.701182e+00 8.923787e-01 -6.542889e+00 -6.224183e+00 -3.100594e+00 7.571878e+01 -1.325649e+00 -2.561351e-01 -3.654951e-01 4.661807e-01 1.615848e+00 2.311573e+00 2.675499e+00 3.953896e-01 -3.539468e-01 -4.411707e-01 -3.211446e-01 -6.339695e-02 -7.923132e-01 -4.458159e-01 -4.065038e-02 1.990246e-01 4.453966e-01 3.231833e-01 6.650995e-02 1.821225e-01 8.102816e-02 -2.219916e-01 -1.677536e-02 1.018657e-01 1.926349e-01 -2.349261e-01
<VARIANCE> 39
 1.857545e+01 2.151877e+01 3.196287e+01 4.785743e+01 3.747179e+01 7.699356e+01 6.690123e+01 6.686038e+01 3.462114e+01 3.644283e+01 3.161146e+01 2.988831e+01 3.184762e+01 2.948579e+00 1.439549e+00 2.078944e+00 4.967886e+00 3.009559e+00 2.936185e+00 3.334207e+00 3.737746e+00 2.922197e+00 2.457383e+00 2.563249e+00 2.490701e+00 1.596415e+00 3.251043e-01 2.652529e-01 3.492036e-01 6.303993e-01 4.730996e-01 5.799856e-01 6.536825e-01 7.859213e-01 5.204634e-01 5.108863e-01 5.638696e-01 4.046224e-01 1.799418e-01
<GCONST> 1.211603e+02
<TRANSP> 5
 0.000000e+00 1.000000e+00 0.000000e+00 0.000000e+00 0.000000e+00
 0.000000e+00 6.829903e-01 3.170097e-01 0.000000e+00 0.000000e+00
 0.000000e+00 0.000000e+00 9.070253e-01 9.297477e-02 0.000000e+00
 0.000000e+00 0.000000e+00 0.000000e+00 7.945941e-01 2.054059e-01
 0.000000e+00 0.000000e+00 0.000000e+00 0.000000e+00 0.000000e+00
<ENDHMM>
~h "@"
<BEGINHMM>
<NUMSTATES> 5
<STATE> 2
<MEAN> 39
 -4.008259e+00 -9.225750e-01 2.515480e+00 -1.338818e+01 -3.500904e-02 5.179768e-01 -5.988798e+00 -1.790090e+01 -6.764422e+00 -6.292377e+00 -8.428508e+00 -9.172062e-01 7.858907e+01 2.408061e+00 2.632399e-01 -8.338399e-01 -8.539789e-01 -4.091051e-01 -2.579745e-01 -1.229698e+00 -1.041413e+00 -4.002212e-01 -4.406300e-01 -1.204694e+00 3.400299e-01 1.241247e+00 -9.190688e-01 -1.811524e-01 4.777313e-02 5.487500e-01 7.316145e-02 -1.948216e-01 1.707628e-01 5.982155e-01 2.450569e-01 -2.224115e-02 3.243462e-01 -9.422341e-03 -5.273890e-01
<VARIANCE> 39
 3.074615e+01 2.180949e+01 4.409935e+01 4.180074e+01 5.781724e+01 4.874855e+01 4.959276e+01 5.595191e+01 9.024496e+01 6.477108e+01 2.920009e+01 2.965120e+01 2.453197e+01 5.263759e+00 3.116380e+00 3.110870e+00 3.587794e+00 2.690074e+00 3.237625e+00 3.570236e+00 4.240359e+00 3.694402e+00 3.015204e+00 3.601386e+00 2.348616e+00 3.342697e+00 8.580649e-01 5.050862e-01 4.906461e-01 5.881344e-01 4.743673e-01 5.556683e-01 6.511095e-01 6.722065e-01 8.539568e-01 5.687369e-01 4.607469e-01 3.680877e-01 3.277785e-01
<GCONST> 1.282076e+02
<STATE> 3
<MEAN> 39
 -2.087261e+00 -2.729809e+00 1.808111e+00 -1.283919e+01 -4.769836e-01 -2.660048e+00 -8.180274e+00 -1.813522e+01 -9.209752e+00 -9.194555e+00 -9.925071e+00 4.593376e-01 7.985500e+01 -3.064089e-01 2.903289e-01 2.521918e-01 5.270937e-01 4.334082e-02 -1.697020e-01 2.476576e-01 5.304629e-01 3.566292e-02 -1.637393e-01 -1.304764e-01 2.464404e-01 -5.847378e-01 -4.324129e-01 2.151586e-01 3.867000e-01 5.026709e-01 1.578151e-01 1.491327e-01 2.929977e-01 3.789737e-01 1.187745e-01 4.137190e-02 1.379128e-01 -1.700344e-01 -3.987939e-01
<VARIANCE> 39
 7.693770e+00 1.804831e+01 2.731263e+01 3.708661e+01 5.124304e+01 5.055700e+01 3.886041e+01 5.119874e+01 5.719137e+01 4.216183e+01 2.663463e+01 3.339444e+01 7.884033e+00 6.708006e-01 1.351859e+00 1.830090e+00 2.661154e+00 1.835528e+00 2.166368e+00 1.635617e+00 2.486001e+00 2.555093e+00 2.156584e+00 1.970489e+00 2.041490e+00 7.000096e-01 3.784718e-01 2.280551e-01 2.439301e-01 3.681770e-01 2.873767e-01 3.386112e-01 3.882076e-01 5.404927e-01 4.397376e-01 3.515631e-01 4.276102e-01 2.895720e-01 1.757418e-01
<GCONST> 1.081946e+02
<STATE> 4
<MEAN> 39
 -5.343269e+00 8.320949e-01 4.800046e+00 -8.245638e+00 4.960761e-01 -8.357602e-01 -5.670223e+00 -1.403769e+01 -7.666066e+00 -8.478752e+00 -8.899274e+00 -1.049958e-02 7.460332e+01 -1.522825e+00 6.707383e-01 1.292552e+00 2.414041e+00 3.787805e-01 1.860639e-01 9.343903e-01 2.001210e+00 5.144720e-01 8.095795e-02 5.311195e-01 -2.758480e-01 -1.878523e+00 -4.202932e-01 -1.990627e-01 9.445961e-02 1.094193e-01 1.696785e-02 4.633514e-02 2.233831e-01 2.016866e-01 2.448788e-01 2.389906e-01 3.019529e-01 3.457205e-03 -9.411412e-02
<VARIANCE> 39
 1.901351e+01 2.080176e+01 4.077952e+01 5.619871e+01 4.934669e+01 4.669590e+01 4.096393e+01 5.785382e+01 5.549919e+01 5.438440e+01 3.581961e+01 3.463076e+01 2.161631e+01 2.365236e+00 2.563552e+00 2.973405e+00 4.664819e+00 2.373607e+00 2.774315e+00 2.559988e+00 3.629079e+00 3.186535e+00 2.912025e+00 2.717079e+00 2.276585e+00 2.088738e+00 3.069072e-01 3.816877e-01 4.187481e-01 5.267591e-01 3.927748e-01 4.626542e-01 5.537306e-01 6.632583e-01 5.157409e-01 4.680576e-01 5.005459e-01 3.093104e-01 2.093758e-01
<GCONST> 1.212359e+02
<TRANSP> 5
 0.000000e+00 1.000000e+00 0.000000e+00 0.000000e+00 0.000000e+00
 0.000000e+00 4.387012e-01 5.612988e-01 0.000000e+00 0.000000e+00
 0.000000e+00 0.000000e+00 6.898741e-01 3.101259e-01 0.000000e+00
 0.000000e+00 0.000000e+00 0.000000e+00 5.279727e-01 4.720273e-01
 0.000000e+00 0.000000e+00 0.000000e+00 0.000000e+00 0.000000e+00
<ENDHMM>
~h "D"
<BEGINHMM>
<NUMSTATES> 5
<STATE> 2
<MEAN> 39
 -2.059663e+01 4.693672e+00 9.381001e+00 -1.638263e+00 6.147018e+00 5.652525e+00 -1.022157e-01 -1.259377e+01 -2.093978e+00 -7.210371e+00 -4.797683e+00 -4.264553e+00 7.270927e+01 -1.849246e+00 6.812487e-02 -8.354929e-01 -8.553824e-01 1.357091e-01 2.657763e-01 9.050962e-01 1.508489e+00 5.472912e-01 -5.282169e-01 3.943714e-01 1.278677e-01 -3.063114e-01 1.210896e+00 -6.017136e-01 -2.169120e-01 -1.033081e+00 -6.074312e-01 -4.484796e-01 -8.254399e-01 -8.325614e-01 -3.403512e-01 2.656320e-01 -3.968337e-01 1.353236e-02 6.183010e-01
<VARIANCE> 39
 3.614595e+01 2.092837e+01 3.378379e+01 3.399903e+01 4.035846e+01 3.650268e+01 3.239895e+01 4.534541e+01 3.241578e+01 2.489782e+01 3.726515e+01 2.538269e+01 1.838591e+01 6.748254e+00 2.455626e+00 2.164208e+00 5.327657e+00 3.421780e+00 3.200177e+00 4.389178e+00 6.185723e+00 3.201670e+00 2.560970e+00 2.926347e+00 1.709115e+00 1.946673e+00 1.152831e+00 3.277496e-01 4.587316e-01 9.490657e-01 6.219261e-01 5.395288e-01 5.779459e-01 9.748701e-01 5.546399e-01 4.498168e-01 5.243844e-01 3.295804e-01 3.137099e-01
<GCONST> 1.239506e+02
<STATE> 3
<MEAN> 39
 -1.659410e+01 3.481073e+00 6.252734e+00 -1.030422e+01 2.039788e+00 3.739736e+00 -2.593681e+00 -1.447739e+01 -3.197091e+00 -9.046212e+00 -8.281604e+00 -5.418167e+00 7.585365e+01 2.787077e+00 -1.548450e+00 -6.936883e-01 -2.908491e+00 -1.747739e+00 -1.473071e+00 -1.692707e+00 -1.836669e+00 -1.017294e+00 -1.502619e-01 -1.409868e+00 -7.155959e-02 1.413845e+00 5.547053e-01 -4.247295e-01 1.302388e-01 3.137458e-01 -2.137334e-01 -4.776782e-01 -2.341377e-01 -3.182893e-01 -2.274664e-01 2.063999e-01 -2.579673e-02 1.433084e-01 1.524919e-01
<VARIANCE> 39
 9.025552e+01 2.636792e+01 3.470636e+01 2.839794e+01 3.566754e+01 3.570679e+01 3.620459e+01 3.405619e+01 2.591209e+01 2.124603e+01 5.386985e+01 2.947503e+01 1.101275e+01 9.540714e+00 1.760963e+00 1.937701e+00 3.497759e+00 2.980194e+00 2.345747e+00 3.013587e+00 4.810039e+00 3.448745e+00 2.233043e+00 3.381691e+00 1.615104e+00 1.250385e+00 1.187412e+00 3.894363e-01 4.228582e-01 5.193803e-01 6.118848e-01 4.286215e-01 6.201047e-01 8.192652e-01 4.564000e-01 4.241752e-01 6.409452e-01 3.651519e-01 2.080279e-01
<GCONST> 1.210411e+02
<STATE> 4
<MEAN> 39
 -2.339191e+01 -4.765971e+00 8.106431e+00 -1.068715e+01 9.795872e-01 4.177858e-01 -5.826330e-01 -1.183162e+01 -4.462537e+00 -4.625969e+00 -3.219626e+00 -1.665171e+00 7.039005e+01 9.333935e-01 -4.240309e-01 -5.178281e-01 7.264859e-02 -8.228433e-01 -5.443438e-01 -4.294381e-01 2.945462e-01 -3.404317e-01 2.820326e-01 -1.859676e-01 1.225491e-01 -6.420873e-01 6.243467e-02 1.734864e-01 -2.331210e-02 3.602153e-01 1.279907e-01 7.274169e-02 8.284283e-02 1.154630e-01 1.132575e-01 5.036670e-02 9.888587e-02 3.668322e-02 -1.271513e-01
<VARIANCE> 39
 9.320970e+01 2.460611e+01 3.537474e+01 3.574821e+01 3.083550e+01 2.811142e+01 4.310977e+01 5.783826e+01 2.474187e+01 2.715483e+01 4.683910e+01 1.874893e+01 5.646641e+01 3.557181e+00 2.783588e+00 1.930151e+00 2.798678e+00 1.908013e+00 2.521211e+00 2.108985e+00 3.623301e+00 2.348116e+00 1.652006e+00 1.811723e+00 1.158985e+00 2.307338e+00 6.118070e-01 2.619137e-01 2.961160e-01 4.004610e-01 3.422789e-01 3.633007e-01 4.340300e-01 6.462517e-01 4.335031e-01 2.961819e-01 3.880019e-01 2.506205e-01 2.156652e-01
<GCONST> 1.157464e+02
<TRANSP> 5
 0.000000e+00 1.000000e+00 0.000000e+00 0.000000e+00 0.000000e+00
 0.000000e+00 6.661000e-01 3.339000e-01 0.000000e+00 0.000000e+00
 0.000000e+00 0.000000e+00 4.697281e-01 5.302718e-01 0.000000e+00
 0.000000e+00 0.000000e+00 0.000000e+00 7.356969e-01 2.643032e-01
 0.000000e+00 0.000000e+00 0.000000e+00 0.000000e+00 0.000000e+00
<ENDHMM>
~h "E"
<BEGINHMM>
<NUMSTATES> 5
<STATE> 2
<MEAN> 39
 -5.062005e+00 -4.907206e+00 8.006403e-01 -1.073239e+01 3.833112e+00 -2.628376e-01 -1.047680e+01 -2.658491e+01 -4.749318e+00 1.997504e+00 -2.984729e-01 7.882339e-01 8.418440e+01 1.578955e+00 -5.703724e-01 -1.057467e+00 -3.595539e-01 -5.773204e-02 -3.792712e-01 -6.797414e-01 -1.492494e+00 5.694163e-01 1.507355e+00 7.459871e-01 5.404212e-01 1.784474e+00 -8.332186e-01 -1.255010e-01 3.500730e-01 2.772017e-01 -1.167355e-01 2.325694e-03 5.276739e-01 9.906450e-01 1.178629e-01 -2.848348e-01 -1.308488e-01 -2.217514e-01 -6.174131e-01
<VARIANCE> 39
 2.277283e+01 1.976842e+01 3.820207e+01 3.912492e+01 3.957844e+01 3.991944e+01 4.326317e+01 3.959879e+01 4.893703e+01 4.098243e+01 2.218373e+01 2.445294e+01 2.088471e+01 5.808146e+00 3.234455e+00 3.480182e+00 4.058768e+00 3.141749e+00 3.571235e+00 3.639560e+00 6.053417e+00 4.225365e+00 3.995292e+00 2.554389e+00 1.945561e+00 3.531846e+00 6.388283e-01 6.508092e-01 6.450754e-01 6.136823e-01 4.661044e-01 5.828456e-01 6.765425e-01 7.536085e-01 8.078946e-01 6.289845e-01 4.699477e-01 3.507135e-01 4.140018e-01
<GCONST> 1.264863e+02
<STATE> 3
<MEAN> 39
 -4.598890e+00 -6.419645e+00 2.793616e-02 -1.149141e+01 3.299856e+00 -2.845336e-01 -9.454508e+00 -2.589146e+01 -3.596769e+00 3.678544e+00 5.348420e-01 8.737716e-01 8.565839e+01 -4.789900e-01 3.923337e-01 1.074849e+00 8.394802e-01 5.068398e-01 4.885739e-02 3.908606e-01 6.096601e-01 -1.387244e-01 -3.641747e-01 -4.212630e-01 -5.215683e-01 -7.496648e-01 -2.134390e-01 3.823741e-01 3.953784e-01 4.535035e-01 9.958497e-02 7.706923e-02 1.525914e-01 4.015208e-01 -1.253053e-01 -4.428563e-01 -3.573108e-01 -2.075915e-01 -5.518736e-01
<VARIANCE> 39
 8.303543e+00 1.745133e+01 2.629123e+01 3.149753e+01 4.349492e+01 3.704607e+01 4.067206e+01 4.243687e+01 2.832900e+01 2.801904e+01 2.502203e+01 3.410018e+01 9.665479e+00 7.883643e-01 1.442935e+00 1.890158e+00 2.770942e+00 2.182302e+00 2.153467e+00 2.436323e+00 2.864457e+00 2.788419e+00 2.884519e+00 2.094147e+00 1.765994e+00 1.154609e+00 1.792603e-01 2.454479e-01 2.992080e-01 3.903690e-01 3.045072e-01 3.526920e-01 3.660784e-01 4.953283e-01 4.490736e-01 3.833786e-01 3.748285e-01 3.050784e-01 1.379831e-01
<GCONST> 1.075988e+02
<STATE> 4
<MEAN> 39
 -9.779759e+00 -2.188350e+00 8.335482e+00 -9.547000e-01 7.760819e+00 -1.309309e-01 -8.386199e+00 -2.118277e+01 -4.326884e+00 1.102921e+00 -3.096057e+00 -2.847620e+00 7.709675e+01 -1.909650e+00 1.071770e+00 1.750794e+00 2.792927e+00 -2.156133e-02 2.749203e-01 1.707992e+00 3.461098e+00 3.581068e-01 -9.920552e-01 -8.017612e-01 -7.535788e-01 -2.829747e+00 -1.810363e-01 -1.631679e-01 -4.971046e-01 -4.894764e-01 -4.317650e-01 5.201672e-02 2.908030e-01 3.168293e-01 1.198094e-01 -2.610814e-02 1.416089e-01 1.695303e-01 4.413519e-02
<VARIANCE> 39
 2.940608e+01 2.045413e+01 4.149015e+01 8.077260e+01 6.491801e+01 3.842373e+01 6.111297e+01 7.120073e+01 4.488638e+01 3.673678e+01 3.787389e+01 4.795466e+01 4.723106e+01 2.916301e+00 2.770761e+00 3.230299e+00 4.503844e+00 3.422116e+00 2.470149e+00 3.360057e+00 4.601827e+00 2.811252e+00 2.785555e+00 3.805879e+00 2.944051e+00 2.366320e+00 3.665871e-01 3.647069e-01 5.764484e-01 8.908939e-01 6.163806e-01 4.164740e-01 6.833293e-01 1.127251e+00 6.095661e-01 5.441851e-01 5.219746e-01 5.442403e-01 3.876392e-01
<GCONST> 1.285278e+02
<TRANSP> 5
 0.000000e+00 1.000000e+00 0.000000e+00 0.000000e+00 0.000000e+00
 0.000000e+00 5.841763e-01 4.158237e-01 0.000000e+00 0.000000e+00
 0.000000e+00 0.000000e+00 7.834587e-01 2.165414e-01 0.000000e+00
 0.000000e+00 0.000000e+00 0.000000e+00 5.961195e-01 4.038805e-01
 0.000000e+00 0.000000e+00 0.000000e+00 0.000000e+00 0.000000e+00
<ENDHMM>
~h "H"
<BEGINHMM>
<NUMSTATES> 5
<STATE> 2
<MEAN> 39
 -3.035440e+00 -1.952337e+00 4.233377e+00 -9.850915e+00 3.497057e+00 -2.308394e+00 -5.924065e+00 -1.519186e+01 -1.341488e+01 -1.038426e+01 -1.120846e+01 -3.909774e+00 7.838927e+01 3.860922e-01 1.152931e+00 -6.108023e-01 1.292283e+00 3.870762e-01 1.917615e-01 1.443678e-01 1.059818e+00 8.034207e-01 3.136722e-01 -3.090526e-01 -1.821113e-01 -1.135568e+00 -7.994961e-01 6.806105e-02 3.947665e-01 6.698835e-01 1.653226e-01 5.618583e-02 2.619870e-01 3.167859e-01 6.534221e-01 2.562441e-01 4.507005e-01 4.893699e-02 -3.669363e-01
<VARIANCE> 39
 6.917480e+00 1.008576e+01 2.627052e+01 2.225156e+01 3.752553e+01 2.685799e+01 3.789499e+01 4.228679e+01 3.481611e+01 2.577506e+01 2.034478e+01 2.492486e+01 9.880319e+00 4.053185e+00 1.298524e+00 3.284716e+00 3.985426e+00 1.583509e+00 1.553110e+00 3.285679e+00 3.457912e+00 4.527972e+00 2.071636e+00 3.520368e+00 2.018184e+00 9.774278e-01 6.536641e-01 3.007631e-01 3.845014e-01 3.100461e-01 3.347183e-01 3.080721e-01 6.275815e-01 7.111239e-01 8.276075e-01 4.008587e-01 5.173283e-01 3.500741e-01 7.460527e-02
<GCONST> 1.114065e+02
<STATE> 3
<MEAN> 39
 -6.132976e+00 6.686056e+00 6.883149e+00 3.767678e+00 8.757697e+00 1.268031e+00 -6.474351e+00 -1.076192e+01 -5.291588e+00 -6.769774e+00 -9.372274e+00 -4.925784e+00 6.870229e+01 -4.147430e-01 1.007051e+00 5.543259e-01 9.560964e-01 4.131694e-01 3.880750e-01 -4.770719e-01 -9.892346e-02 5.782939e-01 4.705359e-01 1.703611e-01 -2.364218e-01 -9.409337e-01 -7.100885e-03 -1.312531e-01 -6.186809e-03 -3.835797e-01 -1.676276e-01 -7.191908e-02 -1.520995e-02 -1.148053e-01 -2.425718e-01 -7.010817e-02 2.701540e-03 5.305298e-02 1.453592e-01
<VARIANCE> 39
 4.648947e+00 1.157919e+01 1.373541e+01 1.426306e+01 1.547201e+01 1.618391e+01 2.379287e+01 1.892079e+01 1.593930e+01 2.065538e+01 1.629702e+01 1.564136e+01 5.838854e+00 2.120476e-01 8.452633e-01 1.082033e+00 2.697629e+00 1.571987e+00 9.593973e-01 1.284949e+00 1.516521e+00 1.419175e+00 9.246163e-01 1.001018e+00 9.702491e-01 4.789326e-01 3.877506e-02 1.099943e-01 1.676024e-01 3.505575e-01 2.049693e-01 1.530935e-01 2.520660e-01 3.381470e-01 2.184181e-01 1.597779e-01 1.904629e-01 1.618441e-01 6.432723e-02
<GCONST> 8.181797e+01
<STATE> 4
<MEAN> 39
 -1.176851e+01 9.069708e+00 8.302023e+00 4.854188e+00 7.359385e+00 3.494365e+00 -5.377569e+00 -8.494177e+00 -4.677157e+00 -4.715786e+00 -6.866890e+00 -4.445995e+00 6.233398e+01 -7.771086e-01 -4.579115e-01 -4.442420e-01 -1.661923e-01 -5.781035e-01 -1.492344e-01 3.350247e-01 8.291571e-01 -4.999722e-02 1.769977e-02 6.794003e-01 2.154162e-01 -6.498803e-01 -1.015971e-01 -3.900752e-01 -1.314192e-01 -1.428899e-01 -1.137134e-01 -5.840763e-02 1.921553e-01 1.086595e-01 3.245157e-02 8.279577e-03 1.015370e-01 1.370497e-01 1.174668e-01
<VARIANCE> 39
 1.349012e+01 1.849909e+01 2.681267e+01 1.288462e+01 1.385014e+01 2.101935e+01 2.954446e+01 2.821586e+01 1.254287e+01 1.426568e+01 1.784491e+01 1.469950e+01 1.264701e+01 5.648630e-01 1.567805e+00 1.990265e+00 1.314768e+00 1.503485e+00 2.069226e+00 2.380003e+00 1.712185e+00 1.354762e+00 1.152965e+00 1.178339e+00 1.037136e+00 4.991647e-01 1.440642e-01 4.462824e-01 3.748376e-01 3.079441e-01 2.607766e-01 4.245413e-01 5.795979e-01 3.718289e-01 2.795176e-01 2.577748e-01 2.427556e-01 2.077437e-01 1.326343e-01
<GCONST> 9.579063e+01
<TRANSP> 5
 0.000000e+00 1.000000e+00 0.000000e+00 0.000000e+00 0.000000e+00
 0.000000e+00 8.152994e-01 1.847006e-01 0.000000e+00 0.000000e+00
 0.000000e+00 0.000000e+00 8.609002e-01 1.390998e-01 0.000000e+00
 0.000000e+00 0.000000e+00 0.000000e+00 8.582765e-01 1.417235e-01
 0.000000e+00 0.000000e+00 0.000000e+00 0.000000e+00 0.000000e+00
<ENDHMM>
~h "I"
<BEGINHMM>
<NUMSTATES> 5
<STATE> 2
<MEAN> 39
 -5.948526e+00 -3.768746e+00 6.844037e+00 -4.389251e+00 1.002758e+01 6.427581e-01 -1.258051e+01 -2.624584e+01 -1.152247e+01 -5.070220e+00 -5.431961e+00 -3.779758e+00 7.945056e+01 1.874804e+00 -6.187417e-02 -4.725003e-01 7.154377e-01 1.229545e+00 -3.586476e-01 -2.055234e+00 -2.204370e+00 -5.567956e-01 4.664066e-01 -6.465718e-01 -3.734402e-01 1.054256e+00 -9.326173e-01 -1.533415e-01 5.614583e-03 1.506452e-01 -4.854271e-01 -2.549869e-01 6.085767e-01 1.128922e+00 6.229034e-01 -1.949208e-02 9.196018e-02 6.773341e-02 -5.271625e-01
<VARIANCE> 39
 2.984621e+01 1.825044e+01 4.490300e+01 4.032318e+01 4.191210e+01 3.016116e+01 4.344880e+01 5.183880e+01 4.920754e+01 5.512251e+01 2.428295e+01 2.728175e+01 2.511438e+01 6.553880e+00 3.029628e+00 4.611180e+00 3.648679e+00 3.194896e+00 3.238327e+00 3.774355e+00 7.658917e+00 3.290944e+00 3.548977e+00 3.688976e+00 2.335876e+00 3.163419e+00 8.498199e-01 5.125595e-01 7.328486e-01 5.773033e-01 4.608772e-01 4.477699e-01 6.391851e-01 1.023577e+00 6.391610e-01 5.413200e-01 6.143074e-01 3.948137e-01 3.461004e-01
<GCONST> 1.280085e+02
<STATE> 3
<MEAN> 39
 -5.431925e+00 -5.178668e+00 5.302595e+00 -1.086649e+00 1.185056e+01 -3.320825e+00 -1.537250e+01 -2.676727e+01 -1.002154e+01 -4.413972e+00 -7.236812e+00 -3.202404e+00 7.917707e+01 -7.796605e-01 3.912839e-01 8.583304e-01 1.090461e+00 6.338614e-02 -2.412829e-01 3.698878e-01 9.729665e-01 7.407210e-01 3.871878e-01 -1.498805e-01 -1.097288e-01 -8.584675e-01 -3.151133e-01 2.665695e-01 2.767847e-01 1.153856e-01 -2.171566e-01 2.278025e-01 4.506647e-01 6.595504e-01 1.969106e-01 -8.004086e-02 3.883379e-02 -3.588084e-02 -3.723055e-01
<VARIANCE> 39
 9.828615e+00 1.857789e+01 3.222729e+01 5.521486e+01 4.774808e+01 3.703056e+01 4.778245e+01 5.598728e+01 4.369232e+01 4.899107e+01 2.887811e+01 4.560908e+01 1.581384e+01 9.593148e-01 1.307498e+00 2.079997e+00 2.944187e+00 1.649638e+00 1.924187e+00 2.157831e+00 3.557053e+00 2.178240e+00 2.087203e+00 1.811319e+00 2.088016e+00 1.107008e+00 2.364331e-01 2.438772e-01 3.200238e-01 3.889591e-01 3.123092e-01 3.022724e-01 4.010223e-01 5.346439e-01 4.335548e-01 3.824965e-01 4.081133e-01 3.495518e-01 1.422643e-01
<GCONST> 1.109980e+02
<STATE> 4
<MEAN> 39
 -1.197831e+01 -2.204836e-01 1.136587e+01 5.037332e+00 1.124494e+01 -1.417585e+00 -1.353388e+01 -1.854365e+01 -4.580104e+00 -1.032306e+00 -8.029436e+00 -6.187875e+00 7.059884e+01 -1.406988e+00 5.844573e-01 1.970522e-01 5.260305e-01 -1.078080e+00 4.243961e-01 1.803459e+00 2.816351e+00 8.231186e-01 -5.315205e-02 4.922813e-01 7.191664e-02 -1.637846e+00 -1.091513e-01 -2.085532e-01 -3.607756e-01 -3.867444e-01 -1.931123e-01 6.289744e-02 2.712927e-01 9.020722e-02 2.376051e-02 -1.465307e-01 1.348324e-01 1.160038e-01 8.051798e-02
<VARIANCE> 39
 2.305660e+01 1.753621e+01 3.984692e+01 5.015457e+01 4.482298e+01 2.998650e+01 5.533197e+01 6.361953e+01 3.817962e+01 4.329806e+01 3.025497e+01 3.545288e+01 5.107684e+01 2.714033e+00 2.317081e+00 4.175607e+00 4.253342e+00 2.402683e+00 2.051205e+00 3.223571e+00 4.709421e+00 2.983146e+00 2.627050e+00 2.606975e+00 2.120290e+00 1.861445e+00 2.021422e-01 2.993156e-01 4.617845e-01 4.297327e-01 3.469795e-01 3.880382e-01 4.408688e-01 5.456119e-01 4.120853e-01 4.280908e-01 3.616338e-01 3.063201e-01 1.323344e-01
<GCONST> 1.185817e+02
<TRANSP> 5
 0.000000e+00 1.000000e+00 0.000000e+00 0.000000e+00 0.000000e+00
 0.000000e+00 5.894286e-01 4.105713e-01 0.000000e+00 0.000000e+00
 0.000000e+00 0.000000e+00 7.581576e-01 2.418424e-01 0.000000e+00
 0.000000e+00 0.000000e+00 0.000000e+00 6.307510e-01 3.692490e-01
 0.000000e+00 0.000000e+00 0.000000e+00 0.000000e+00 0.000000e+00
<ENDHMM>
~h "J"
<BEGINHMM>
<NUMSTATES> 5
<STATE> 2
<MEAN> 39
 -1.995485e+01 -7.794863e+00 6.034621e+00 -4.924865e-01 2.566041e+00 1.592963e+00 -4.451806e+00 -8.383616e+00 -1.664380e+00 -4.126726e+00 -5.189900e+00 -1.773248e+00 6.521039e+01 -2.030936e+00 -3.390399e+00 1.360714e+00 -1.229938e+00 3.830397e-01 -4.555205e-01 3.552160e-02 -4.813013e-01 1.011795e+00 -1.258943e-01 8.848996e-02 2.706304e-01 2.066065e+00 -2.500612e-01 -1.747159e-01 2.966462e-01 -1.526287e-01 1.617947e-01 -3.834412e-01 -6.561757e-02 -2.978625e-01 4.533014e-02 1.188320e-01 1.557021e-01 7.931390e-03 5.113021e-01
<VARIANCE> 39
 2.463978e+01 9.054019e+01 6.916414e+01 5.481166e+01 3.935931e+01 3.468092e+01 3.239902e+01 3.870646e+01 2.267336e+01 2.048083e+01 1.749624e+01 1.526161e+01 4.876438e+01 3.761519e+00 7.679471e+00 8.528459e+00 5.184479e+00 4.041139e+00 3.738790e+00 3.865616e+00 6.812298e+00 2.909068e+00 2.855765e+00 2.296840e+00 1.915152e+00 7.317878e+00 7.218766e-01 1.507799e+00 1.409025e+00 1.455149e+00 7.033728e-01 6.170790e-01 8.416033e-01 1.119568e+00 5.564684e-01 5.524084e-01 4.846217e-01 3.281050e-01 1.018730e+00
<GCONST> 1.332320e+02
<STATE> 3
<MEAN> 39
 -3.012063e+01 -2.294524e+01 1.118664e+01 -4.303170e+00 6.184394e+00 -4.915225e+00 -5.455781e+00 -1.432578e+01 2.023952e+00 -2.474297e+00 -3.355572e+00 -9.778418e-01 7.831111e+01 -1.601451e-02 -4.100841e-01 -5.262238e-01 -9.467777e-02 3.259259e-01 -6.403061e-01 -5.347394e-01 -8.328088e-01 -3.579656e-01 1.299141e-01 5.446040e-02 4.313016e-03 7.159756e-01 6.696377e-01 6.266287e-01 -2.899695e-01 1.097798e-01 -7.948184e-02 2.287557e-01 -1.036714e-01 6.875353e-02 -3.888225e-01 -1.334552e-01 -8.915868e-02 2.022227e-02 -4.606396e-01
<VARIANCE> 39
 5.771291e+00 8.295150e+00 2.225909e+01 1.684079e+01 2.139759e+01 2.581189e+01 2.778288e+01 3.358582e+01 1.845296e+01 1.396794e+01 1.081316e+01 1.420541e+01 1.212766e+01 2.553285e+00 1.441425e+00 2.903964e+00 1.138237e+00 1.204123e+00 1.403938e+00 1.806427e+00 2.195074e+00 2.086424e+00 1.324717e+00 1.129422e+00 8.806840e-01 1.669753e+00 3.622903e-01 3.180156e-01 9.510298e-01 2.679667e-01 2.549346e-01 2.238745e-01 3.201424e-01 3.463590e-01 3.240657e-01 2.330461e-01 1.965441e-01 1.855673e-01 7.821829e-02
<GCONST> 9.659843e+01
<STATE> 4
<MEAN> 39
 -2.124051e+01 -1.646828e+01 8.008933e+00 -3.284472e+00 6.688813e+00 -2.984101e+00 -8.384957e+00 -1.734323e+01 -5.732117e+00 -3.902024e+00 -3.815236e+00 1.188340e-01 7.523500e+01 3.035377e+00 3.018467e+00 1.280151e-01 7.416005e-01 -2.389905e-01 1.126404e+00 2.096715e-01 4.111567e-01 -1.585059e+00 -2.383105e-01 -1.749436e-01 4.396749e-01 -1.080367e+00 2.428702e-01 2.783498e-01 -1.988103e-01 -1.154512e-01 -2.724976e-01 1.283555e-01 8.421886e-02 1.119568e-01 1.787802e-01 8.349475e-02 -4.679675e-02 -4.095642e-02 4.283620e-02
<VARIANCE> 39
 5.222296e+01 4.542231e+01 3.334431e+01 3.322357e+01 2.818713e+01 2.583461e+01 3.145110e+01 6.727679e+01 4.170274e+01 1.736877e+01 1.618888e+01 1.587330e+01 5.800684e+01 6.819366e+00 2.663535e+00 2.463899e+00 2.509574e+00 3.582229e+00 2.105565e+00 3.304573e+00 7.043055e+00 5.697095e+00 2.173294e+00 1.703250e+00 1.565040e+00 1.976804e+00 7.158141e-01 7.039207e-01 5.765046e-01 4.676785e-01 3.707071e-01 4.999142e-01 4.998020e-01 7.887213e-01 6.885389e-01 3.217573e-01 2.613886e-01 2.780286e-01 1.945928e-01
<GCONST> 1.205903e+02
<TRANSP> 5
 0.000000e+00 1.000000e+00 0.000000e+00 0.000000e+00 0.000000e+00
 0.000000e+00 7.896179e-01 2.103821e-01 0.000000e+00 0.000000e+00
 0.000000e+00 0.000000e+00 8.623521e-01 1.376480e-01 0.000000e+00
 0.000000e+00 0.000000e+00 0.000000e+00 7.600802e-01 2.399199e-01
 0.000000e+00 0.000000e+00 0.000000e+00 0.000000e+00 0.000000e+00
<ENDHMM>
~h "N"
<BEGINHMM>
<NUMSTATES> 5
<STATE> 2
<MEAN> 39
 -8.730956e+00 -2.227609e+00 9.850529e+00 5.029652e+00 1.081494e+01 -4.199594e+00 -1.324521e+01 -1.744843e+01 3.642704e+00 3.664291e+00 -1.105371e+01 -1.110490e+01 7.435284e+01 2.324937e-01 2.087705e+00 6.916633e-02 -3.865381e-01 -1.149923e+00 1.577321e+00 1.884125e+00 2.169573e+00 -7.128449e-01 -1.851391e+00 -1.202059e+00 -1.148638e-01 -1.576974e+00 2.832867e-01 2.619343e-01 -6.487578e-01 -4.215379e-01 -1.323452e-01 3.458489e-01 2.183116e-01 -3.725792e-01 -8.257686e-01 -5.448174e-01 4.809353e-01 6.856785e-01 -5.128575e-02
<VARIANCE> 39
 6.941219e+00 2.566906e+01 2.030549e+01 2.254350e+01 2.603447e+01 3.368040e+01 3.908609e+01 3.607650e+01 2.308577e+01 2.522857e+01 2.209248e+01 2.034599e+01 1.688489e+01 5.388600e-01 8.921467e-01 2.439758e+00 1.425478e+00 1.492277e+00 1.665282e+00 1.853762e+00 2.411688e+00 4.115652e+00 2.555498e+00 2.179210e+00 3.201457e+00 2.556340e-01 6.051819e-02 1.556381e-01 2.123530e-01 2.443261e-01 2.408371e-01 3.181930e-01 3.434942e-01 3.778202e-01 5.210787e-01 5.114035e-01 4.609605e-01 3.426827e-01 4.440715e-02
<GCONST> 9.965256e+01
<STATE> 3
<MEAN> 39
 -6.913692e+00 8.049107e+00 5.268707e+00 2.209088e+00 6.543805e+00 3.606735e+00 -6.402465e+00 -1.232943e+01 -3.966661e+00 -5.717019e+00 -9.034267e+00 -6.684486e+00 6.671656e+01 -3.795402e-01 8.010449e-01 -1.478819e-01 9.136920e-02 -2.344087e-02 5.669251e-01 3.663133e-01 5.555680e-01 -4.466740e-01 -4.986618e-01 5.694620e-01 3.105325e-01 -9.575965e-01 -3.068286e-01 -3.449923e-01 1.851506e-01 7.138139e-02 2.048736e-01 -1.992887e-01 -1.191058e-01 3.971335e-02 2.191075e-01 3.085011e-01 5.627368e-02 -1.270239e-01 1.017945e-01
<VARIANCE> 39
 1.184019e+01 1.589296e+01 1.940563e+01 1.294798e+01 1.375743e+01 1.535257e+01 1.512670e+01 1.644621e+01 1.292832e+01 1.503724e+01 1.143383e+01 1.600953e+01 1.908364e+01 8.189154e-01 1.344594e+00 1.893850e+00 1.146577e+00 1.138194e+00 1.472743e+00 1.465209e+00 1.117326e+00 1.343732e+00 1.560212e+00 9.407567e-01 1.263335e+00 3.281581e-01 1.011440e-01 1.397299e-01 3.116087e-01 2.529697e-01 2.503744e-01 2.726451e-01 3.706748e-01 2.651578e-01 2.465203e-01 2.289806e-01 2.058097e-01 2.265241e-01 5.719672e-02
<GCONST> 8.781355e+01
<STATE> 4
<MEAN> 39
 -1.807921e+01 4.397154e+00 6.182448e+00 -1.479206e+00 9.000569e+00 3.824306e+00 -2.967904e+00 -5.967167e+00 -5.294309e+00 -4.926828e+00 -2.702713e+00 -3.971344e+00 6.218747e+01 -1.198419e+00 -9.982637e-01 -5.510376e-01 -5.312114e-01 -4.100750e-01 -3.494180e-01 4.318901e-01 7.595925e-01 4.288302e-02 3.892446e-01 7.847302e-01 5.302299e-01 -5.506799e-01 1.341725e-01 -2.670452e-02 -1.751240e-01 2.779721e-02 -2.543944e-01 -9.284841e-02 -2.021720e-02 -3.017095e-03 1.131818e-01 2.860030e-02 -7.460055e-02 6.009259e-02 -2.793415e-02
<VARIANCE> 39
 3.793757e+01 3.050506e+01 3.908908e+01 4.030432e+01 3.934319e+01 2.700928e+01 2.354403e+01 3.329066e+01 1.723777e+01 1.893997e+01 2.380371e+01 2.157347e+01 2.197831e+01 3.530605e+00 2.097548e+00 4.310629e+00 4.615002e+00 5.324844e+00 2.744218e+00 2.346234e+00 3.840738e+00 2.264279e+00 1.962980e+00 2.406770e+00 1.624540e+00 2.052440e+00 6.225225e-01 5.098870e-01 8.408396e-01 9.635136e-01 8.552608e-01 6.051019e-01 4.300207e-01 7.619264e-01 4.481802e-01 3.930807e-01 4.688536e-01 3.255580e-01 3.993062e-01
<GCONST> 1.206264e+02
<TRANSP> 5
 0.000000e+00 1.000000e+00 0.000000e+00 0.000000e+00 0.000000e+00
 0.000000e+00 7.342091e-01 2.657909e-01 0.000000e+00 0.000000e+00
 0.000000e+00 0.000000e+00 8.723407e-01 1.276593e-01 0.000000e+00
 0.000000e+00 0.000000e+00 0.000000e+00 8.427079e-01 1.572921e-01
 0.000000e+00 0.000000e+00 0.000000e+00 0.000000e+00 0.000000e+00
<ENDHMM>
~h "P"
<BEGINHMM>
<NUMSTATES> 5
<STATE> 2
<MEAN> 39
 -1.081976e+00 3.971365e+00 1.002861e+01 -6.560712e+00 -9.239782e+00 -1.669433e+01 -1.909412e+01 -8.657386e+00 -3.381474e+00 -1.016836e+01 -8.580551e+00 -4.695071e+00 7.605710e+01 3.055959e-01 5.441148e-01 3.386533e-01 1.167046e+00 -6.675867e-01 -1.748688e+00 -2.051225e+00 7.745818e-01 -3.771892e-01 4.431885e-02 5.697233e-01 6.619803e-01 -7.106068e-01 -4.701733e-01 -4.238867e-03 -2.534514e-02 1.070097e-01 3.161532e-01 3.857744e-01 5.674581e-01 2.103746e-04 -2.660017e-01 3.463268e-02 3.448001e-01 1.613691e-01 -1.856271e-01
<VARIANCE> 39
 4.504719e+00 1.471488e+01 2.104815e+01 3.088514e+01 2.045978e+01 4.282705e+01 5.426305e+01 3.317752e+01 2.258213e+01 2.454903e+01 3.072304e+01 2.613103e+01 9.137032e+00 1.662442e+00 9.991453e-01 1.260352e+00 1.504053e+00 1.544099e+00 2.171073e+00 3.551203e+00 1.772924e+00 2.014438e+00 2.184548e+00 2.544002e+00 1.555744e+00 4.450496e-01 3.458397e-01 2.208901e-01 2.163939e-01 3.402250e-01 2.380998e-01 3.356953e-01 4.390414e-01 3.451954e-01 2.677018e-01 3.640828e-01 5.067520e-01 3.123142e-01 6.293576e-02
<GCONST> 1.015509e+02
<STATE> 3
<MEAN> 39
 -3.467319e+00 9.872070e+00 1.267188e+01 9.991730e-01 -9.772430e+00 -2.022902e+01 -2.064269e+01 -6.633999e+00 -1.004438e+01 -1.001947e+01 -3.253049e+00 -2.206773e-01 6.913833e+01 -4.038649e-01 5.502601e-01 1.654865e-01 5.432521e-01 1.541018e-01 4.269477e-01 6.652692e-01 -5.488617e-02 -4.163731e-01 1.652731e-01 3.093765e-01 1.293206e-01 -7.060887e-01 -1.262329e-01 -1.646661e-01 -5.835791e-02 -9.228170e-02 1.481456e-01 2.651369e-01 2.235205e-01 2.552783e-03 2.302421e-01 9.024070e-02 -5.908559e-02 -9.447541e-02 2.746087e-02
<VARIANCE> 39
 3.553313e+00 1.479455e+01 1.788486e+01 1.997271e+01 1.671459e+01 2.280000e+01 2.338698e+01 2.879119e+01 2.207535e+01 3.358240e+01 1.440205e+01 1.754211e+01 7.198681e+00 2.721314e-01 7.787224e-01 7.967387e-01 8.014356e-01 9.386942e-01 1.198655e+00 1.078574e+00 1.188726e+00 1.205295e+00 1.048961e+00 7.942537e-01 8.261469e-01 2.467851e-01 8.904102e-02 1.679398e-01 1.500254e-01 1.472588e-01 2.293000e-01 2.184329e-01 2.164531e-01 2.453398e-01 1.832696e-01 2.027161e-01 1.686331e-01 1.468855e-01 4.011890e-02
<GCONST> 8.071597e+01
<STATE> 4
<MEAN> 39
 -1.180270e+01 7.881299e+00 8.287360e+00 2.270465e+00 -4.751650e+00 -1.014917e+01 -1.133585e+01 -5.010065e+00 -5.352289e+00 -4.392968e+00 -1.520383e+00 -7.601626e-01 6.200284e+01 -1.790450e+00 -1.359174e+00 -1.037113e+00 -2.280505e-01 1.135083e+00 1.809033e+00 2.134402e+00 6.951116e-01 1.021537e+00 7.972904e-01 2.165767e-01 -8.405709e-02 -8.370873e-01 -1.374633e-01 -2.115321e-01 -1.083086e-01 -1.386817e-01 5.203644e-02 2.478940e-02 1.184877e-01 5.377545e-04 2.822658e-02 -2.472030e-02 -1.256542e-02 4.850626e-02 6.342074e-02
<VARIANCE> 39
 2.197797e+01 2.228206e+01 3.487296e+01 1.506945e+01 1.939529e+01 3.237458e+01 3.016317e+01 2.464014e+01 3.088313e+01 2.801076e+01 1.354586e+01 1.186678e+01 1.771507e+01 1.152825e+00 1.652094e+00 1.702591e+00 1.176164e+00 3.103877e+00 2.919974e+00 2.703294e+00 2.581266e+00 2.641642e+00 2.213238e+00 1.310553e+00 1.030307e+00 5.930609e-01 3.178768e-01 4.516866e-01 3.438236e-01 2.452111e-01 4.479119e-01 5.548047e-01 5.571474e-01 4.874909e-01 5.335648e-01 3.919275e-01 2.230518e-01 1.870229e-01 8.172771e-02
<GCONST> 1.045792e+02
<TRANSP> 5
 0.000000e+00 1.000000e+00 0.000000e+00 0.000000e+00 0.000000e+00
 0.000000e+00 8.354982e-01 1.645018e-01 0.000000e+00 0.000000e+00
 0.000000e+00 0.000000e+00 8.902606e-01 1.097394e-01 0.000000e+00
 0.000000e+00 0.000000e+00 0.000000e+00 8.050069e-01 1.949931e-01
 0.000000e+00 0.000000e+00 0.000000e+00 0.000000e+00 0.000000e+00
<ENDHMM>
~h "Q"
<BEGINHMM>
<NUMSTATES> 5
<STATE> 2
<MEAN> 39
 -1.012934e+00 4.699100e-01 7.212371e+00 -1.172550e+01 -9.436563e+00 -1.227172e+01 -1.214668e+01 -9.701389e+00 1.350872e+00 -3.998512e+00 -7.582150e+00 -2.126773e+00 8.072277e+01 2.339743e+00 3.520272e-02 1.643114e-01 -6.715773e-01 -2.326470e+00 -2.585898e+00 -2.330840e+00 7.508830e-01 1.897204e+00 1.312270e+00 -5.039574e-01 1.612145e-01 1.204189e+00 -9.010134e-01 -3.235114e-01 -8.731641e-02 4.533059e-01 4.704100e-01 4.602683e-01 5.352555e-01 1.743466e-01 -2.440007e-01 2.416218e-02 3.929463e-01 2.377597e-02 -4.641813e-01
<VARIANCE> 39
 1.663284e+01 2.126191e+01 2.580205e+01 3.325487e+01 3.915457e+01 6.457545e+01 6.034084e+01 5.253694e+01 4.383738e+01 4.960791e+01 3.357576e+01 2.606737e+01 2.065074e+01 5.484973e+00 2.670189e+00 2.463047e+00 2.959958e+00 4.012755e+00 4.770627e+00 4.710653e+00 4.531384e+00 5.066741e+00 3.226117e+00 3.062421e+00 2.349382e+00 3.184634e+00 6.450552e-01 4.451952e-01 4.093678e-01 4.537592e-01 6.197138e-01 9.013211e-01 9.217395e-01 7.641363e-01 8.936881e-01 8.253083e-01 6.741692e-01 5.009044e-01 2.939913e-01
<GCONST> 1.278150e+02
<STATE> 3
<MEAN> 39
 2.974330e-01 -1.163212e-01 8.459729e+00 -1.079640e+01 -1.384094e+01 -1.617547e+01 -1.637885e+01 -7.448988e+00 4.297691e+00 -6.059045e-01 -5.198067e+00 -2.071182e+00 8.076584e+01 -4.637718e-01 1.260931e-01 3.792638e-01 6.726290e-01 2.493933e-01 3.109465e-01 6.567671e-01 4.424186e-01 -2.719266e-01 -1.310846e-01 2.145304e-01 -6.652110e-02 -5.044131e-01 -4.488176e-01 1.692195e-01 1.205706e-02 3.100975e-01 6.198711e-01 5.765128e-01 5.601911e-01 3.133899e-02 -2.949311e-01 -3.354075e-01 1.639257e-03 -8.014771e-02 -3.513430e-01
<VARIANCE> 39
 4.273354e+00 1.275381e+01 2.838220e+01 2.926535e+01 3.164942e+01 5.213043e+01 4.655296e+01 4.807833e+01 2.695634e+01 2.891119e+01 2.204499e+01 2.705863e+01 9.897163e+00 1.042212e+00 1.251673e+00 1.338087e+00 2.240632e+00 2.936153e+00 3.551885e+00 3.127223e+00 2.515679e+00 2.480203e+00 2.473261e+00 2.013637e+00 1.705462e+00 1.184205e+00 2.943816e-01 1.616098e-01 2.600534e-01 3.574057e-01 4.329827e-01 4.152862e-01 4.891972e-01 5.040358e-01 5.125037e-01 4.047013e-01 4.219910e-01 3.478643e-01 1.399256e-01
<GCONST> 1.078536e+02
<STATE> 4
<MEAN> 39
 -8.353858e+00 2.384693e+00 9.828761e+00 -4.086901e+00 -5.104509e+00 -8.420140e+00 -6.824472e+00 -4.646019e+00 1.297545e+00 -3.440582e+00 -3.893349e+00 -2.234884e+00 7.396285e+01 -3.015683e+00 5.738314e-02 -1.214911e-01 2.001757e+00 3.054716e+00 2.876233e+00 2.753852e+00 8.569743e-01 -9.191803e-01 -8.592142e-01 2.981077e-01 -1.597945e-03 -1.926154e+00 -8.566250e-02 -3.608229e-01 -3.818374e-01 -4.567877e-01 -1.074727e-01 7.978364e-02 -1.377472e-01 -2.301262e-01 -9.999602e-02 6.386816e-02 -4.617552e-02 3.751774e-02 1.229356e-01
<VARIANCE> 39
 5.181701e+01 2.779699e+01 2.847512e+01 4.672012e+01 6.826667e+01 6.093130e+01 5.471460e+01 4.405691e+01 5.090883e+01 3.620027e+01 2.706984e+01 2.256524e+01 5.833641e+01 3.811707e+00 2.150503e+00 3.015361e+00 4.020740e+00 3.716439e+00 3.281790e+00 3.903888e+00 4.288180e+00 3.936969e+00 2.886357e+00 3.340865e+00 2.346415e+00 2.415370e+00 4.802030e-01 3.406906e-01 4.679703e-01 7.878296e-01 8.300033e-01 7.007043e-01 7.816483e-01 8.372452e-01 9.020692e-01 5.223281e-01 5.012797e-01 3.269271e-01 3.356300e-01
<GCONST> 1.281263e+02
<TRANSP> 5
 0.000000e+00 1.000000e+00 0.000000e+00 0.000000e+00 0.000000e+00
 0.000000e+00 5.772496e-01 4.227504e-01 0.000000e+00 0.000000e+00
 0.000000e+00 0.000000e+00 8.204960e-01 1.795040e-01 0.000000e+00
 0.000000e+00 0.000000e+00 0.000000e+00 6.638253e-01 3.361747e-01
 0.000000e+00 0.000000e+00 0.000000e+00 0.000000e+00 0.000000e+00
<ENDHMM>
~h "R"
<BEGINHMM>
<NUMSTATES> 5
<STATE> 2
<MEAN> 39
 -2.765496e+00 -2.073481e+00 -1.588909e+00 -1.366668e+01 -3.291353e+00 -6.766755e+00 -5.338988e+00 -1.516448e+01 -4.107955e+00 -3.897799e+00 -8.614342e+00 7.762240e+00 7.762491e+01 -5.684423e-01 6.923506e-01 5.263514e-01 6.472174e-02 3.955066e-04 6.267056e-01 4.131072e-01 4.945394e-01 5.521049e-01 7.232594e-01 1.447381e-01 4.362552e-01 -8.639274e-01 -1.700400e-01 1.032366e-01 1.759763e-01 1.412715e-01 1.577541e-01 3.561845e-01 -1.217515e-01 4.126189e-02 -1.196691e-02 1.144178e-02 1.264914e-01 -2.261500e-01 -2.289663e-01
<VARIANCE> 39
 5.162826e+00 1.666660e+01 2.002534e+01 1.936955e+01 4.531486e+01 2.823263e+01 3.157667e+01 3.502771e+01 4.537537e+01 2.670057e+01 1.980789e+01 2.918679e+01 6.909401e+00 3.346227e-01 9.929913e-01 1.250591e+00 9.482054e-01 1.153334e+00 1.581088e+00 1.247207e+00 1.551592e+00 1.233287e+00 1.202278e+00 1.032795e+00 1.326276e+00 4.409074e-01 5.914474e-02 2.096186e-01 2.103342e-01 1.838123e-01 1.976544e-01 2.012064e-01 2.163078e-01 2.893094e-01 1.973044e-01 2.091112e-01 2.184324e-01 1.780136e-01 5.807361e-02
<GCONST> 8.894682e+01
<STATE> 3
<MEAN> 39
 -8.043422e+00 1.463420e+00 1.855526e+00 -1.165471e+01 -1.198965e+00 1.112754e+00 -4.679211e+00 -1.130850e+01 -1.013338e+00 3.240274e-01 -5.028713e+00 7.883453e+00 7.031425e+01 -1.174892e+00 -3.818557e-01 -6.328273e-01 1.310403e+00 3.696468e-01 9.790601e-01 4.820090e-01 2.687316e+00 6.231000e-01 9.453990e-02 1.554512e+00 -3.282332e-02 -1.779977e+00 3.375605e-02 -3.734693e-01 -5.213810e-01 3.219153e-01 -1.160942e-01 -5.100949e-01 4.767260e-02 3.889822e-01 -2.885868e-01 -4.390521e-01 3.008989e-01 -9.000977e-02 2.027861e-03
<VARIANCE> 39
 5.435007e+00 1.082385e+01 1.483056e+01 1.902187e+01 2.495583e+01 2.691636e+01 2.670890e+01 4.833498e+01 3.210386e+01 2.215402e+01 2.030231e+01 1.912836e+01 9.479162e+00 4.424665e-01 1.172371e+00 1.931167e+00 1.340210e+00 1.586025e+00 2.940195e+00 2.134932e+00 2.307403e+00 1.843860e+00 2.143035e+00 1.699156e+00 1.221328e+00 3.821815e-01 6.019167e-02 1.373215e-01 2.301284e-01 2.142513e-01 2.312348e-01 4.255833e-01 2.869960e-01 4.411114e-01 3.499843e-01 2.869244e-01 2.380643e-01 2.160341e-01 4.953703e-02
<GCONST> 9.395455e+01
<STATE> 4
<MEAN> 39
 -1.382723e+01 -1.566550e+00 -3.431298e+00 -2.886921e+00 -1.192816e+00 -5.663271e-01 -2.074892e+00 3.559455e-01 -2.866118e+00 -3.895144e+00 2.330330e+00 5.643125e+00 6.212334e+01 -1.716755e+00 1.924324e-01 -7.720499e-02 1.573004e+00 7.011658e-02 -2.741027e-01 6.390480e-01 9.904737e-01 -3.089130e-01 -3.571775e-01 4.264584e-01 -9.470533e-01 -1.877122e+00 -9.936200e-02 2.341658e-01 3.408561e-01 -2.594921e-01 3.568129e-02 9.318851e-02 -1.919195e-02 -4.950502e-01 2.019342e-01 3.442582e-01 -4.542986e-01 -1.020173e-01 4.298917e-02
<VARIANCE> 39
 1.333785e+01 1.212674e+01 1.102139e+01 1.903027e+01 1.281841e+01 2.131396e+01 1.953577e+01 1.770324e+01 1.722135e+01 1.782448e+01 1.424913e+01 1.463797e+01 1.530869e+01 3.878944e-01 1.097122e+00 1.279745e+00 1.295992e+00 1.123203e+00 1.606485e+00 1.709791e+00 2.314076e+00 2.313674e+00 2.614139e+00 2.274263e+00 1.139340e+00 2.430328e-01 9.656804e-02 1.689618e-01 1.713369e-01 2.295558e-01 2.060970e-01 3.292041e-01 3.623375e-01 3.183594e-01 4.099371e-01 3.813515e-01 2.934299e-01 2.372845e-01 7.386994e-02
<GCONST> 9.098791e+01
<TRANSP> 5
 0.000000e+00 1.000000e+00 0.000000e+00 0.000000e+00 0.000000e+00
 0.000000e+00 8.026997e-01 1.973003e-01 0.000000e+00 0.000000e+00
 0.000000e+00 0.000000e+00 7.544433e-01 2.455567e-01 0.000000e+00
 0.000000e+00 0.000000e+00 0.000000e+00 8.158350e-01 1.841650e-01
 0.000000e+00 0.000000e+00 0.000000e+00 0.000000e+00 0.000000e+00
<ENDHMM>
~h "S"
<BEGINHMM>
<NUMSTATES> 5
<STATE> 2
<MEAN> 39
 -2.274568e+01 -1.729464e+01 7.665184e+00 -2.030451e+00 1.087194e+01 1.961806e+00 -4.024737e+00 -1.560316e+01 -6.768705e-01 -3.205480e+00 -2.828104e+00 -1.503382e+00 7.727779e+01 -2.858112e+00 -3.111318e+00 7.976090e-01 -6.644124e-01 -2.462334e-01 -1.599751e+00 1.790615e-01 -1.008893e-01 1.037127e+00 6.837320e-02 2.059014e-01 -1.010435e-01 1.610358e+00 3.138442e-01 6.700494e-01 -1.712021e-01 -1.281866e-01 -4.379513e-01 -4.244491e-01 -2.815320e-01 -3.604016e-02 -4.825008e-02 1.068984e-01 -8.400229e-02 -3.456789e-02 -2.306326e-01
<VARIANCE> 39
 2.250398e+01 2.405687e+01 4.337263e+01 3.316959e+01 4.699640e+01 5.018384e+01 5.795678e+01 4.245033e+01 3.030315e+01 2.102612e+01 1.701255e+01 1.418722e+01 5.613965e+01 2.343657e+00 2.581939e+00 4.067688e+00 1.907320e+00 2.749899e+00 2.364630e+00 4.048186e+00 4.967734e+00 2.621519e+00 2.273995e+00 1.872443e+00 1.489072e+00 1.877284e+00 5.032553e-01 3.872694e-01 5.048124e-01 4.146141e-01 3.582453e-01 6.160946e-01 1.102224e+00 1.144943e+00 6.305559e-01 4.020196e-01 3.872084e-01 2.589735e-01 1.652460e-01
<GCONST> 1.190007e+02
<STATE> 3
<MEAN> 39
 -2.886173e+01 -2.271706e+01 7.895267e+00 -4.608674e+00 7.292519e+00 -5.843347e+00 -6.553982e+00 -1.748928e+01 -3.248165e-01 -2.882254e+00 -2.698341e+00 -1.922733e+00 8.063197e+01 1.829193e-01 8.268967e-02 -1.219167e-01 -1.565482e-01 -1.886198e-01 -3.355437e-01 -3.129200e-01 -3.019459e-01 -4.910571e-01 -2.275077e-01 -2.815986e-02 1.364375e-01 -5.993495e-02 5.141920e-01 3.987199e-01 3.736584e-02 1.125593e-01 1.344308e-01 2.764287e-01 3.580517e-02 3.058246e-02 -2.672331e-01 -9.221040e-02 -5.544407e-02 5.096554e-02 -1.701228e-01
<VARIANCE> 39
 5.379515e+00 6.335609e+00 1.656911e+01 1.755158e+01 2.049065e+01 2.369024e+01 2.646641e+01 3.096797e+01 1.931618e+01 1.476678e+01 1.209312e+01 1.634117e+01 9.707319e+00 1.271804e+00 9.277245e-01 1.015834e+00 1.031070e+00 9.946031e-01 1.433025e+00 1.348777e+00 1.750906e+00 1.495979e+00 1.340470e+00 9.255546e-01 8.678406e-01 7.441397e-01 3.230528e-01 2.272891e-01 2.068897e-01 1.724503e-01 1.733536e-01 2.210072e-01 2.424926e-01 3.254355e-01 3.144773e-01 2.609934e-01 1.974683e-01 1.848104e-01 3.952071e-02
<GCONST> 8.780400e+01
<STATE> 4
<MEAN> 39
 -1.635836e+01 -1.280827e+01 7.609794e+00 -4.237522e+00 8.375273e+00 -1.466886e+00 -7.205304e+00 -1.827238e+01 -9.394279e+00 -7.095639e+00 -3.921167e+00 6.893114e-01 7.693085e+01 4.334995e+00 3.326998e+00 -1.763308e-01 7.063355e-02 -3.147128e-01 1.415833e+00 -2.912051e-01 2.609482e-01 -2.115686e+00 -6.937753e-01 -1.065262e+00 2.874839e-01 -6.494684e-01 -1.188204e-01 -6.674132e-02 -4.644895e-01 -2.285244e-01 -3.075406e-01 -8.251914e-02 -1.436986e-01 1.282266e-01 4.940405e-01 2.277407e-01 -1.249404e-01 -1.942914e-01 8.566148e-02
<VARIANCE> 39
 9.144550e+01 4.846472e+01 3.716048e+01 2.795864e+01 2.575747e+01 3.073425e+01 3.262397e+01 5.153652e+01 5.323698e+01 2.624873e+01 2.093771e+01 1.551825e+01 4.580781e+01 7.637657e+00 2.514662e+00 3.940697e+00 2.895976e+00 2.994169e+00 2.516747e+00 3.844600e+00 6.584889e+00 7.492506e+00 2.769043e+00 2.644240e+00 1.729285e+00 1.520455e+00 1.457174e+00 7.667587e-01 6.285865e-01 4.150615e-01 3.873341e-01 5.651164e-01 5.330178e-01 6.978179e-01 1.289386e+00 3.930211e-01 4.108742e-01 2.682297e-01 1.355864e-01
<GCONST> 1.249599e+02
<TRANSP> 5
 0.000000e+00 1.000000e+00 0.000000e+00 0.000000e+00 0.000000e+00
 0.000000e+00 7.345293e-01 2.654707e-01 0.000000e+00 0.000000e+00
 0.000000e+00 0.000000e+00 8.955573e-01 1.044426e-01 0.000000e+00
 0.000000e+00 0.000000e+00 0.000000e+00 7.421922e-01 2.578079e-01
 0.000000e+00 0.000000e+00 0.000000e+00 0.000000e+00 0.000000e+00
<ENDHMM>
~h "T"
<BEGINHMM>
<NUMSTATES> 5
<STATE> 2
<MEAN> 39
 -2.716604e+01 -2.091426e+00 3.241931e+00 -9.138495e+00 3.398374e+00 2.806617e+00 -2.844336e+00 -1.000926e+01 -8.284429e-01 -5.698844e+00 -5.868577e-01 -1.809809e+00 7.121049e+01 -2.026411e+00 -3.589721e-01 -4.953324e-01 -1.082857e+00 -1.077122e-01 1.021453e-02 5.840737e-02 -8.264033e-02 5.878266e-04 -2.709729e-01 2.062206e-01 -1.201495e-01 8.253476e-01 3.626599e-01 2.038169e-02 -5.799208e-03 6.905656e-02 -2.052965e-01 -2.463761e-01 -2.516432e-01 -1.013818e-01 -1.306929e-01 1.250758e-01 -1.441141e-01 -1.868488e-02 -8.863830e-02
<VARIANCE> 39
 3.323867e+01 1.313410e+01 4.869691e+01 3.467593e+01 3.481807e+01 3.386917e+01 4.049882e+01 4.811057e+01 2.637034e+01 1.877618e+01 1.563430e+01 1.503361e+01 4.824123e+01 3.823803e+00 1.554642e+00 2.946828e+00 3.347944e+00 2.991626e+00 2.830039e+00 3.370969e+00 4.687678e+00 2.463589e+00 2.088904e+00 1.789039e+00 1.450785e+00 2.429771e+00 5.472826e-01 2.832597e-01 5.396391e-01 6.420915e-01 5.032073e-01 5.371936e-01 7.180783e-01 9.310613e-01 4.405387e-01 4.037333e-01 3.606830e-01 2.420926e-01 2.951725e-01
<GCONST> 1.178037e+02
<STATE> 3
<MEAN> 39
 -3.173735e+01 -4.744486e+00 2.483258e+00 -1.401215e+01 1.808236e+00 1.479023e-01 -3.711039e+00 -1.126182e+01 -2.190348e+00 -6.589542e+00 -1.072209e+00 -1.357857e+00 7.421042e+01 1.319932e-01 -3.986667e-01 1.237956e-02 -3.170558e-01 -2.766578e-01 -4.579009e-01 -2.631769e-01 -1.759371e-01 -2.987864e-01 -7.337442e-02 -1.198062e-01 4.660649e-02 -3.664182e-02 4.816737e-01 7.548285e-02 1.924708e-01 2.312791e-01 1.088234e-01 7.013956e-02 8.330037e-02 1.858371e-02 -1.131676e-02 4.045301e-02 -2.905053e-02 -1.438623e-02 -1.348270e-01
<VARIANCE> 39
 8.854881e+00 1.375095e+01 3.055610e+01 2.107114e+01 1.743569e+01 2.260097e+01 2.578879e+01 3.104258e+01 2.174845e+01 1.805035e+01 1.109950e+01 1.191613e+01 1.832720e+01 1.387990e+00 7.130852e-01 1.088385e+00 1.402960e+00 1.277509e+00 1.448467e+00 1.551704e+00 1.931467e+00 1.430175e+00 1.172987e+00 1.022615e+00 8.573726e-01 1.197495e+00 2.967639e-01 1.772358e-01 2.206507e-01 2.851586e-01 2.783830e-01 2.784153e-01 3.003739e-01 3.768044e-01 2.944858e-01 2.687967e-01 2.178985e-01 1.793503e-01 1.298098e-01
<GCONST> 9.379925e+01
<STATE> 4
<MEAN> 39
 -2.490272e+01 -4.804186e+00 4.328378e+00 -1.132200e+01 1.678721e+00 -1.132124e+00 -4.305387e+00 -1.153527e+01 -4.334968e+00 -6.250472e+00 -2.068090e+00 -1.556767e+00 7.196990e+01 3.746336e+00 1.300488e+00 9.187750e-01 1.132859e+00 2.480115e-01 3.670644e-01 2.566626e-02 -1.185866e-01 -3.794510e-01 3.035100e-01 -7.668011e-01 -4.404871e-01 -3.830968e-01 6.765532e-01 3.578892e-01 -1.069152e-01 4.847006e-02 -7.583538e-02 2.067556e-01 -1.026077e-01 -8.657403e-02 8.522615e-02 6.434844e-02 -2.607673e-01 -1.702343e-01 1.986329e-01
<VARIANCE> 39
 3.226567e+01 2.105927e+01 3.628631e+01 2.458953e+01 1.918013e+01 1.871052e+01 2.509259e+01 3.065650e+01 2.041265e+01 1.679821e+01 1.382555e+01 1.571168e+01 5.114777e+01 7.711447e+00 2.696725e+00 3.215021e+00 2.873889e+00 3.253412e+00 2.143308e+00 2.929431e+00 6.011987e+00 3.440035e+00 2.531674e+00 2.300044e+00 1.482055e+00 2.620404e+00 1.003742e+00 5.519183e-01 5.360354e-01 5.174067e-01 5.559515e-01 3.928986e-01 5.856220e-01 6.683719e-01 6.101869e-01 4.793907e-01 4.832885e-01 2.983339e-01 1.862951e-01
<GCONST> 1.179180e+02
<TRANSP> 5
 0.000000e+00 1.000000e+00 0.000000e+00 0.000000e+00 0.000000e+00
 0.000000e+00 8.051929e-01 1.948071e-01 0.000000e+00 0.000000e+00
 0.000000e+00 0.000000e+00 8.419848e-01 1.580152e-01 0.000000e+00
 0.000000e+00 0.000000e+00 0.000000e+00 6.805496e-01 3.194505e-01
 0.000000e+00 0.000000e+00 0.000000e+00 0.000000e+00 0.000000e+00
<ENDHMM>
~h "U"
<BEGINHMM>
<NUMSTATES> 5
<STATE> 2
<MEAN> 39
 -9.041885e-01 2.198735e+00 6.657456e+00 -1.159319e+01 4.047001e-01 -1.262779e+00 -1.307703e+01 -1.538255e+01 -4.634444e+00 -1.076631e+01 -1.209266e+01 -6.174654e+00 7.943976e+01 1.629371e+00 5.052682e-01 5.456908e-02 -4.712903e-01 -1.422628e+00 -5.639982e-01 -1.912436e+00 4.308858e-01 1.207636e+00 -1.568128e-02 -1.493634e+00 -1.655919e-01 2.744307e-02 -8.609935e-01 -3.794276e-01 -2.412373e-01 2.007760e-01 1.685383e-01 1.162507e-01 3.361292e-01 1.798581e-01 -1.650396e-01 -3.202020e-02 4.886421e-01 3.157496e-01 -2.717303e-01
<VARIANCE> 39
 6.885095e+00 2.749006e+01 2.290637e+01 3.792891e+01 5.278039e+01 5.535527e+01 3.995448e+01 4.435955e+01 8.035174e+01 3.560064e+01 2.642172e+01 2.900050e+01 1.720605e+01 3.921518e+00 2.143030e+00 2.014191e+00 2.117252e+00 2.352769e+00 2.885132e+00 4.178664e+00 4.353223e+00 3.282744e+00 2.506028e+00 3.275708e+00 2.015716e+00 1.395544e+00 5.437821e-01 4.101818e-01 3.654574e-01 3.513051e-01 4.391568e-01 5.533291e-01 7.285593e-01 7.723265e-01 8.072610e-01 5.344940e-01 4.225258e-01 4.774653e-01 2.500477e-01
<GCONST> 1.199461e+02
<STATE> 3
<MEAN> 39
 -3.265398e-01 2.064383e+00 5.791284e+00 -1.353644e+01 -2.546235e+00 -1.104851e+00 -1.549728e+01 -1.592512e+01 -2.075962e+00 -1.181437e+01 -1.404179e+01 -3.659940e+00 7.905870e+01 -4.240701e-01 4.417402e-02 -3.151292e-01 4.881301e-01 3.762680e-01 3.104871e-01 4.643814e-01 2.969867e-01 -5.912513e-01 -3.814388e-01 2.800235e-01 6.574771e-01 -7.102852e-01 -4.675006e-01 7.824912e-02 8.823481e-02 4.859933e-01 3.900097e-01 1.690058e-01 4.887625e-01 8.243673e-02 -2.084841e-01 2.174937e-01 4.534013e-01 8.981117e-02 -3.308120e-01
<VARIANCE> 39
 5.089333e+00 2.071535e+01 3.974811e+01 4.371685e+01 5.266819e+01 6.199512e+01 4.320472e+01 4.752849e+01 6.013002e+01 4.055468e+01 3.305820e+01 3.288674e+01 1.490065e+01 8.028554e-01 1.538706e+00 1.939452e+00 2.694614e+00 3.098802e+00 3.066049e+00 2.684067e+00 4.373349e+00 3.063034e+00 2.298433e+00 2.404917e+00 2.591181e+00 1.607503e+00 2.313798e-01 2.506305e-01 2.856654e-01 5.489612e-01 3.113299e-01 4.483834e-01 5.782964e-01 5.743694e-01 4.898391e-01 4.465132e-01 5.159531e-01 3.446196e-01 1.986928e-01
<GCONST> 1.152067e+02
<STATE> 4
<MEAN> 39
 -5.920298e+00 3.097738e+00 7.657643e+00 -5.435095e+00 2.317693e+00 1.525694e+00 -1.031491e+01 -1.326275e+01 -6.164949e+00 -1.056860e+01 -1.068874e+01 -1.598104e+00 7.259067e+01 -2.229089e+00 2.468900e-01 4.932767e-01 3.019485e+00 8.499135e-01 5.793113e-01 1.750423e+00 1.619047e+00 2.166307e-01 9.579261e-01 1.248565e+00 3.563734e-01 -2.298768e+00 -2.710766e-01 -4.152168e-01 -2.313382e-01 -2.234261e-01 -2.067876e-02 -2.082743e-01 1.801127e-01 -1.160839e-02 2.693730e-01 2.163632e-01 2.635704e-01 -1.908424e-01 2.336451e-01
<VARIANCE> 39
 2.737987e+01 2.836083e+01 4.775824e+01 7.220708e+01 6.216512e+01 8.688553e+01 5.916048e+01 5.617580e+01 5.069845e+01 4.986823e+01 5.113446e+01 3.161009e+01 3.837347e+01 2.955403e+00 2.802188e+00 2.583042e+00 4.712913e+00 3.784943e+00 3.701135e+00 4.203664e+00 5.843256e+00 3.554831e+00 2.933280e+00 4.759250e+00 2.597809e+00 3.782004e+00 2.978646e-01 3.808571e-01 6.587013e-01 1.042072e+00 5.180596e-01 9.042438e-01 6.755841e-01 8.767152e-01 7.423417e-01 5.806653e-01 6.658133e-01 4.480100e-01 4.027954e-01
<GCONST> 1.318998e+02
<TRANSP> 5
 0.000000e+00 1.000000e+00 0.000000e+00 0.000000e+00 0.000000e+00
 0.000000e+00 5.478279e-01 4.521721e-01 0.000000e+00 0.000000e+00
 0.000000e+00 0.000000e+00 6.764381e-01 3.235619e-01 0.000000e+00
 0.000000e+00 0.000000e+00 0.000000e+00 4.927152e-01 5.072848e-01
 0.000000e+00 0.000000e+00 0.000000e+00 0.000000e+00 0.000000e+00
<ENDHMM>
~h "V"
<BEGINHMM>
<NUMSTATES> 5
<STATE> 2
<MEAN> 39
 -2.277499e+00 -2.260135e+00 1.317139e+00 -1.639520e+01 -8.331832e+00 -2.449798e+00 -3.309127e+00 -1.169211e+01 1.604183e+00 -1.694550e+00 -8.226641e+00 -2.154945e+00 8.167526e+01 2.121308e+00 -7.758679e-01 -6.312633e-01 -1.484056e+00 -2.260085e+00 -1.004665e+00 8.969966e-02 9.883974e-01 2.020172e+00 9.362411e-01 -9.019619e-01 -3.544747e-01 2.165932e+00 -8.329250e-01 -2.144618e-01 1.800240e-01 5.647917e-01 4.696332e-01 8.200471e-02 1.218849e-01 4.655040e-01 -2.547578e-01 -2.317798e-01 3.210928e-01 -7.585510e-02 -5.668573e-01
<VARIANCE> 39
 2.758412e+01 1.920873e+01 3.240921e+01 3.245599e+01 4.209993e+01 3.943607e+01 5.306402e+01 4.531359e+01 6.357039e+01 3.833238e+01 3.192600e+01 2.182740e+01 3.508817e+01 5.186286e+00 2.775900e+00 2.474265e+00 3.378037e+00 3.036375e+00 3.196883e+00 3.432528e+00 5.720172e+00 3.827817e+00 2.772612e+00 2.813865e+00 2.510364e+00 4.281490e+00 6.607495e-01 4.997082e-01 4.802323e-01 4.179518e-01 5.433639e-01 5.482575e-01 7.003167e-01 7.105798e-01 8.263637e-01 6.249008e-01 5.263404e-01 4.168217e-01 4.100539e-01
<GCONST> 1.261305e+02
<STATE> 3
<MEAN> 39
 -4.288140e-01 -4.682061e+00 1.934632e+00 -1.714165e+01 -1.207311e+01 -5.069892e+00 -2.825427e+00 -7.311202e+00 5.617004e+00 -7.802115e-01 -8.412720e+00 -3.707797e+00 8.446900e+01 -3.121513e-01 3.161774e-01 9.143795e-01 7.820131e-01 3.930413e-01 -1.884641e-01 3.071043e-02 4.429329e-01 -3.149041e-01 -3.117822e-01 3.625547e-02 -7.736623e-02 -5.336958e-01 -3.495433e-01 4.458147e-01 3.327328e-01 6.574818e-01 7.035401e-01 2.042190e-01 -6.579468e-02 -2.316783e-01 -5.225129e-01 -3.292632e-01 4.271968e-02 5.330992e-02 -5.920945e-01
<VARIANCE> 39
 4.563076e+00 1.676338e+01 3.572546e+01 2.493975e+01 3.623103e+01 4.785493e+01 3.593155e+01 4.342122e+01 2.717260e+01 2.896945e+01 1.931058e+01 2.070279e+01 8.770198e+00 6.059887e-01 1.613383e+00 1.550121e+00 2.563416e+00 2.863877e+00 2.430265e+00 2.302843e+00 3.122630e+00 2.908201e+00 2.286094e+00 1.613053e+00 1.581010e+00 1.244163e+00 2.056747e-01 2.015756e-01 2.649815e-01 4.317941e-01 3.539798e-01 4.081697e-01 4.096630e-01 5.289790e-01 4.216099e-01 4.066639e-01 3.344006e-01 3.298757e-01 1.489542e-01
<GCONST> 1.060805e+02
<STATE> 4
<MEAN> 39
 -5.385121e+00 -4.018512e-01 7.703607e+00 -8.562884e+00 -4.829269e+00 -3.978111e+00 -2.888258e+00 -6.680712e+00 1.387914e+00 -3.780361e+00 -7.698241e+00 -3.265271e+00 7.737912e+01 -2.276053e+00 1.100762e+00 1.561796e+00 3.528315e+00 2.815159e+00 8.858773e-01 6.134046e-01 5.859979e-01 -1.186323e+00 -9.815231e-01 3.156787e-01 -4.682708e-02 -2.438186e+00 -2.668580e-01 -2.079122e-01 -3.841772e-01 -2.063530e-01 1.184728e-03 2.705345e-01 1.434684e-01 -7.010160e-02 5.575167e-03 5.020815e-02 8.575531e-02 -3.033291e-02 7.701936e-02
<VARIANCE> 39
 2.723450e+01 2.509564e+01 3.557748e+01 4.959525e+01 5.253978e+01 4.156959e+01 3.841157e+01 4.745681e+01 4.082662e+01 4.055293e+01 2.522073e+01 2.995887e+01 3.337469e+01 3.178452e+00 2.544771e+00 2.676284e+00 4.288248e+00 2.804128e+00 2.847817e+00 3.559832e+00 3.414286e+00 2.506155e+00 2.624062e+00 2.882029e+00 1.842236e+00 2.088155e+00 3.501062e-01 2.700624e-01 4.420913e-01 9.148179e-01 6.622257e-01 4.931095e-01 5.511737e-01 6.743076e-01 5.541962e-01 5.180795e-01 4.251886e-01 3.659732e-01 2.505259e-01
<GCONST> 1.219544e+02
<TRANSP> 5
 0.000000e+00 1.000000e+00 0.000000e+00 0.000000e+00 0.000000e+00
 0.000000e+00 5.805366e-01 4.194634e-01 0.000000e+00 0.000000e+00
 0.000000e+00 0.000000e+00 7.872915e-01 2.127085e-01 0.000000e+00
 0.000000e+00 0.000000e+00 0.000000e+00 6.223391e-01 3.776610e-01
 0.000000e+00 0.000000e+00 0.000000e+00 0.000000e+00 0.000000e+00
<ENDHMM>
~h "_"
<BEGINHMM>
<NUMSTATES> 5
<STATE> 2
<MEAN> 39
 -1.523705e+01 -2.396736e+00 1.054665e+01 5.513589e+00 5.720959e+00 1.597793e+00 -4.898658e+00 -8.381484e+00 -2.634939e+00 -5.112468e+00 -4.759458e+00 -6.327865e-01 6.660719e+01 -2.618213e+00 -3.631262e+00 7.765276e-01 -1.378690e+00 -2.420303e-01 2.583561e-02 1.192377e+00 1.499113e-01 1.260806e+00 -4.155609e-01 -1.210929e-01 8.612052e-02 1.447629e+00 -4.604329e-01 -7.529377e-01 3.705902e-02 -5.736324e-01 1.994936e-01 -2.642588e-01 -6.589826e-02 -4.404700e-01 1.286027e-01 1.206196e-01 8.926633e-02 -2.435960e-02 7.255828e-01
<VARIANCE> 39
 2.884697e+01 1.104975e+02 5.233276e+01 5.681363e+01 2.872068e+01 3.162134e+01 4.590965e+01 4.253986e+01 2.277735e+01 2.031035e+01 1.894651e+01 1.683397e+01 3.583880e+01 3.592345e+00 1.030067e+01 5.913524e+00 6.101635e+00 3.180601e+00 3.953736e+00 4.951954e+00 6.440913e+00 2.652792e+00 2.863020e+00 2.081042e+00 1.876693e+00 6.330060e+00 4.393083e-01 1.909202e+00 1.237376e+00 1.302468e+00 6.135533e-01 8.290582e-01 9.198040e-01 8.596314e-01 4.980734e-01 5.324450e-01 4.307458e-01 3.221160e-01 7.146283e-01
<GCONST> 1.317896e+02
<STATE> 3
<MEAN> 39
 -2.915603e+01 -2.131376e+01 1.358655e+01 -2.471892e+00 6.367675e+00 -3.920928e+00 -3.732318e+00 -1.268762e+01 2.044923e+00 -3.576238e+00 -3.849998e+00 2.898249e-01 7.694489e+01 2.478979e-01 -2.883862e-01 1.160446e-01 1.532269e-01 5.981928e-01 -6.080424e-01 -6.889388e-01 -1.064229e+00 -6.972544e-01 1.515383e-01 -1.752027e-02 -1.647043e-02 7.215049e-01 1.198762e+00 1.107297e+00 -2.875292e-01 4.101539e-01 8.165490e-02 3.555925e-01 -2.813141e-01 -1.316733e-01 -6.745420e-01 -1.480652e-01 -1.438619e-01 -4.927163e-02 -4.781092e-01
<VARIANCE> 39
 1.158437e+01 1.429821e+01 2.694685e+01 2.531299e+01 2.671868e+01 2.502464e+01 3.023954e+01 3.954959e+01 1.907013e+01 1.645199e+01 1.317459e+01 1.773814e+01 1.004385e+01 8.313505e+00 5.144781e+00 3.031484e+00 2.229184e+00 2.453552e+00 2.355834e+00 2.159365e+00 3.312944e+00 3.730136e+00 1.431161e+00 1.314829e+00 1.019781e+00 2.255556e+00 8.614498e-01 5.334740e-01 5.764028e-01 3.919823e-01 3.913998e-01 4.138987e-01 4.785905e-01 5.650558e-01 5.389751e-01 3.443247e-01 2.970636e-01 2.390264e-01 1.076149e-01
<GCONST> 1.106326e+02
<STATE> 4
<MEAN> 39
 -1.359628e+01 -1.001216e+01 1.078582e+01 9.574777e-01 9.612182e+00 -1.229855e-02 -9.091823e+00 -2.001234e+01 -1.024979e+01 -6.218594e+00 -5.491600e+00 -2.729928e-01 7.598965e+01 3.469128e+00 2.821805e+00 -1.572933e+00 -2.955163e-01 -7.331436e-01 9.433056e-01 -7.898517e-01 -6.073647e-01 -1.885058e+00 -4.143262e-01 -2.095495e-01 2.763090e-01 -5.125683e-01 -5.942342e-01 -3.520381e-01 -5.400754e-01 -5.503477e-01 -6.499286e-01 -2.584236e-01 1.806691e-01 5.592095e-01 8.816975e-01 2.232342e-01 1.753034e-01 7.286531e-02 -5.028573e-02
<VARIANCE> 39
 7.672958e+01 3.202479e+01 4.835735e+01 2.369690e+01 4.511194e+01 1.982056e+01 3.688922e+01 7.289629e+01 5.099815e+01 2.055124e+01 1.333333e+01 2.080344e+01 6.671014e+01 7.531283e+00 2.525095e+00 4.233015e+00 3.663412e+00 5.038242e+00 2.137587e+00 4.886286e+00 9.457853e+00 8.503159e+00 2.696791e+00 2.441210e+00 2.105984e+00 2.050286e+00 7.250313e-01 5.079104e-01 6.603562e-01 3.953316e-01 6.409258e-01 4.169721e-01 6.217737e-01 8.604916e-01 1.126156e+00 2.977377e-01 2.950630e-01 3.488463e-01 1.051540e-01
<GCONST> 1.254799e+02
<TRANSP> 5
 0.000000e+00 1.000000e+00 0.000000e+00 0.000000e+00 0.000000e+00
 0.000000e+00 7.770929e-01 2.229071e-01 0.000000e+00 0.000000e+00
 0.000000e+00 0.000000e+00 8.394041e-01 1.605958e-01 0.000000e+00
 0.000000e+00 0.000000e+00 0.000000e+00 7.232154e-01 2.767846e-01
 0.000000e+00 0.000000e+00 0.000000e+00 0.000000e+00 0.000000e+00
<ENDHMM>
~h "b"
<BEGINHMM>
<NUMSTATES> 5
<STATE> 2
<MEAN> 39
 -1.167507e+01 9.155271e+00 8.392054e+00 4.941800e+00 7.761326e-01 3.839104e-01 -1.213350e+00 -3.289466e+00 -2.695889e+00 -3.282763e+00 -4.149220e+00 -3.275000e+00 6.146616e+01 -7.225746e-02 -2.000986e-01 -3.037651e-01 -1.086825e+00 3.579449e-01 2.942605e-01 -1.693911e-01 -1.154308e+00 -1.920499e-01 -5.975102e-01 2.939552e-01 -1.406120e-02 9.673314e-01 3.815515e-01 -6.540508e-01 -5.062742e-01 -1.005271e+00 3.762040e-02 -1.410607e-01 -5.076091e-01 -8.373114e-01 -1.448482e-01 -2.461495e-01 -1.067865e-01 -1.555245e-02 1.055188e+00
<VARIANCE> 39
 3.604565e+01 3.323676e+01 2.336855e+01 2.740185e+01 2.600310e+01 2.098856e+01 1.952186e+01 3.016045e+01 2.167675e+01 1.466001e+01 2.034631e+01 1.520216e+01 1.935643e+01 4.489794e+00 3.987023e+00 3.138387e+00 6.423972e+00 3.184637e+00 3.307446e+00 3.607572e+00 6.659567e+00 2.515132e+00 2.275398e+00 2.244842e+00 1.786279e+00 6.955349e+00 7.502095e-01 4.593098e-01 5.149776e-01 8.161821e-01 7.195452e-01 7.397817e-01 6.483974e-01 9.925526e-01 5.011541e-01 3.985291e-01 4.480159e-01 3.316841e-01 8.470407e-01
<GCONST> 1.221748e+02
<STATE> 3
<MEAN> 39
 -1.273677e+01 1.813412e+00 3.637372e+00 -6.864233e+00 3.820924e+00 2.972522e+00 -3.518729e+00 -1.344148e+01 -4.575071e+00 -7.570059e+00 -2.453461e+00 -3.742205e+00 7.167952e+01 3.078571e+00 -1.191639e+00 -8.658194e-01 -3.434226e+00 -8.347362e-03 -8.461388e-01 -2.566810e+00 -3.645277e+00 -9.226971e-01 -1.514215e+00 -1.111407e+00 -1.720047e-01 4.858215e+00 7.616553e-01 1.977950e-01 1.402787e-01 4.544833e-01 -6.560110e-01 -7.214359e-01 -5.144721e-01 5.352516e-01 1.792166e-01 1.953848e-01 -6.089362e-01 7.582250e-02 -9.671484e-02
<VARIANCE> 39
 2.512113e+01 2.056499e+01 2.033152e+01 2.911871e+01 3.104722e+01 3.876134e+01 3.959869e+01 3.746962e+01 2.502766e+01 2.048232e+01 2.157941e+01 2.088207e+01 2.510275e+01 4.573761e+00 4.279834e+00 4.404309e+00 4.469941e+00 5.066511e+00 5.339640e+00 3.862812e+00 6.697007e+00 4.008057e+00 2.827258e+00 3.391464e+00 2.667782e+00 3.740066e+00 4.952742e-01 6.502915e-01 5.452777e-01 6.216978e-01 6.079955e-01 7.593024e-01 9.664499e-01 9.516991e-01 6.450848e-01 5.678489e-01 5.349538e-01 4.626702e-01 5.845839e-01
<GCONST> 1.267220e+02
<STATE> 4
<MEAN> 39
 -4.362984e+00 1.128285e+00 2.591204e+00 -8.467080e+00 1.693049e+00 -2.583200e+00 -1.157213e+01 -1.679036e+01 -4.552073e+00 -7.237244e+00 -7.059107e+00 -4.463312e+00 7.771387e+01 2.396535e+00 -7.302315e-01 -3.831153e-01 -1.081233e+00 -1.088467e+00 -1.736639e+00 -2.216980e+00 -1.153173e+00 1.321421e-01 -2.856835e-01 -1.325147e+00 1.051264e-01 2.449141e+00 -5.822746e-01 1.102463e-01 2.784294e-01 8.268650e-01 -2.083421e-01 -2.198037e-02 4.470076e-01 8.675584e-01 3.194640e-01 3.630832e-01 1.515768e-01 1.142814e-01 -9.538283e-01
<VARIANCE> 39
 3.112627e+01 2.839585e+01 4.541177e+01 4.775193e+01 7.981675e+01 6.446301e+01 7.883560e+01 8.366597e+01 4.612220e+01 2.650259e+01 3.245495e+01 3.391638e+01 2.849215e+01 4.849059e+00 3.807832e+00 3.631424e+00 4.575078e+00 5.233720e+00 5.880457e+00 5.690685e+00 6.909119e+00 4.076605e+00 3.827796e+00 3.649132e+00 2.888574e+00 5.063517e+00 5.018554e-01 3.358667e-01 4.808388e-01 5.439036e-01 5.379205e-01 5.797759e-01 6.628605e-01 8.657111e-01 5.125620e-01 4.048357e-01 4.458694e-01 3.525248e-01 4.042534e-01
<GCONST> 1.313237e+02
<TRANSP> 5
 0.000000e+00 1.000000e+00 0.000000e+00 0.000000e+00 0.000000e+00
 0.000000e+00 7.085119e-01 2.914881e-01 0.000000e+00 0.000000e+00
 0.000000e+00 0.000000e+00 3.190866e-01 6.809134e-01 0.000000e+00
 0.000000e+00 0.000000e+00 0.000000e+00 3.952590e-01 6.047411e-01
 0.000000e+00 0.000000e+00 0.000000e+00 0.000000e+00 0.000000e+00
<ENDHMM>
~h "d"
<BEGINHMM>
<NUMSTATES> 5
<STATE> 2
<MEAN> 39
 -1.405851e+01 4.725682e+00 1.055879e+01 7.545965e+00 5.228501e+00 -1.676528e-01 -3.423721e+00 -4.182775e+00 -5.228207e+00 -4.806368e+00 -4.593160e+00 -1.644546e+00 6.261123e+01 -1.360915e+00 -1.726092e+00 -8.740361e-01 -5.284641e-01 -3.660794e-01 5.040568e-01 1.409195e+00 9.623463e-01 7.605677e-01 4.176809e-01 9.340508e-01 -1.364566e-01 -1.367440e-01 3.145295e-01 -1.142780e+00 -6.467492e-01 -1.451131e+00 -2.863507e-01 -5.215611e-01 -4.623138e-01 -1.101791e+00 -5.483098e-01 -4.753414e-01 -5.228354e-02 -1.407835e-02 1.303830e+00
<VARIANCE> 39
 3.193321e+01 3.819193e+01 2.781480e+01 3.602410e+01 3.170362e+01 2.728255e+01 3.293645e+01 4.091505e+01 2.552003e+01 2.207675e+01 2.087840e+01 1.826708e+01 2.273670e+01 3.053091e+00 7.409126e+00 5.333244e+00 9.262604e+00 4.371309e+00 4.550716e+00 4.630773e+00 7.909524e+00 4.858360e+00 3.372219e+00 2.632355e+00 1.994760e+00 6.978556e+00 4.175954e-01 6.406757e-01 7.938305e-01 1.186316e+00 8.679928e-01 7.850654e-01 7.908169e-01 1.092628e+00 8.592713e-01 5.495387e-01 3.841727e-01 3.322466e-01 6.174160e-01
<GCONST> 1.298719e+02
<STATE> 3
<MEAN> 39
 -1.581228e+01 -7.845950e+00 2.867607e+00 -3.877697e+00 2.608771e+00 -2.068010e+00 -2.972015e+00 -8.573656e+00 -6.765440e+00 -6.438996e+00 -1.941615e+00 -2.286186e+00 7.065179e+01 1.310691e-01 -3.116383e+00 -2.091903e-01 -2.499052e+00 -9.035330e-01 -1.496955e+00 -7.691392e-01 -2.227817e+00 -1.756488e+00 -1.645569e+00 1.061872e-02 8.979247e-02 3.103532e+00 1.932925e-01 7.477576e-01 6.332915e-01 6.117850e-01 -1.052974e-01 -7.523275e-02 -2.809760e-01 6.581330e-02 -1.837611e-01 -6.411714e-02 -2.506518e-01 1.938803e-01 -4.460659e-01
<VARIANCE> 39
 2.817519e+01 3.273484e+01 3.884072e+01 4.626927e+01 4.222033e+01 4.975887e+01 3.993018e+01 6.216037e+01 3.244831e+01 3.148036e+01 1.973733e+01 1.666865e+01 4.961467e+01 4.282683e+00 5.206283e+00 5.503573e+00 5.075967e+00 5.298953e+00 3.618269e+00 4.048290e+00 5.488793e+00 3.265801e+00 2.519488e+00 2.395925e+00 2.050065e+00 3.573062e+00 5.890332e-01 9.336296e-01 8.408700e-01 1.227721e+00 8.671774e-01 1.042005e+00 1.053986e+00 1.600940e+00 8.297032e-01 7.311429e-01 5.069442e-01 4.019295e-01 1.224874e+00
<GCONST> 1.335237e+02
<STATE> 4
<MEAN> 39
 -1.798854e+01 -7.486922e+00 3.701710e+00 -1.656232e+00 -3.392143e+00 -4.250479e+00 -3.265685e+00 -6.688798e+00 -1.068694e+01 -8.260807e+00 -8.873693e-01 8.042748e-01 6.513696e+01 -1.078337e-01 1.239399e+00 -6.203820e-01 4.486591e-01 -3.381107e-01 2.674881e-01 4.448199e-02 3.606042e-01 1.597597e-01 4.102429e-01 1.623643e-01 2.448479e-01 -1.436093e+00 1.247703e-02 4.277433e-01 -1.168726e-01 1.211389e-01 2.839532e-01 2.203029e-01 3.708449e-02 1.937180e-01 4.501295e-01 3.168356e-01 -5.801360e-02 -1.403424e-01 -2.668776e-01
<VARIANCE> 39
 1.940660e+01 2.996995e+01 2.957345e+01 1.914762e+01 2.958594e+01 1.834975e+01 2.283205e+01 3.303168e+01 2.102564e+01 1.935947e+01 1.589679e+01 1.481211e+01 3.814926e+01 1.900999e+00 2.263523e+00 2.820550e+00 2.235082e+00 2.603407e+00 1.966189e+00 2.561830e+00 3.580113e+00 3.358647e+00 2.086183e+00 1.641009e+00 1.693427e+00 1.892955e+00 2.947897e-01 7.211991e-01 5.320370e-01 5.169628e-01 3.413732e-01 4.082795e-01 5.050375e-01 6.288319e-01 4.668502e-01 3.643110e-01 2.962665e-01 3.001699e-01 4.796450e-01
<GCONST> 1.122904e+02
<TRANSP> 5
 0.000000e+00 1.000000e+00 0.000000e+00 0.000000e+00 0.000000e+00
 0.000000e+00 5.884716e-01 4.115284e-01 0.000000e+00 0.000000e+00
 0.000000e+00 0.000000e+00 5.654776e-01 4.345224e-01 0.000000e+00
 0.000000e+00 0.000000e+00 0.000000e+00 7.945214e-01 2.054786e-01
 0.000000e+00 0.000000e+00 0.000000e+00 0.000000e+00 0.000000e+00
<ENDHMM>
~h "f"
<BEGINHMM>
<NUMSTATES> 5
<STATE> 2
<MEAN> 39
 -2.970845e+01 -4.292781e+00 5.553113e-01 -1.200469e+01 7.183511e+00 -1.138111e-01 -3.285323e+00 -8.390876e+00 -3.267218e+00 -4.746888e+00 -7.328863e-01 -1.359436e+00 7.087362e+01 -1.486661e+00 -4.866677e-01 -1.498062e-01 -8.201430e-01 1.062717e-01 -2.847683e-02 -2.034826e-03 -1.189517e-01 9.373695e-02 -1.224217e-01 7.127017e-02 -9.939808e-02 1.022814e+00 3.788085e-01 6.823327e-02 -2.956817e-02 1.709660e-01 -2.771277e-01 -7.805245e-02 -1.319687e-01 -8.147464e-02 -4.445480e-02 2.472772e-02 -6.483045e-02 1.347188e-02 -7.833624e-02
<VARIANCE> 39
 2.334709e+01 1.661478e+01 2.261008e+01 2.816311e+01 2.963302e+01 3.128899e+01 2.460485e+01 3.425120e+01 2.176033e+01 1.712479e+01 1.232855e+01 1.201175e+01 3.356345e+01 2.353624e+00 1.235170e+00 1.761353e+00 2.765306e+00 2.373369e+00 2.050176e+00 2.001996e+00 3.426986e+00 2.224188e+00 1.738471e+00 1.234079e+00 1.217356e+00 1.950333e+00 4.359029e-01 2.168807e-01 2.653809e-01 5.009990e-01 4.212735e-01 4.728616e-01 5.309985e-01 7.360767e-01 4.721484e-01 3.713807e-01 2.564997e-01 2.345411e-01 2.156371e-01
<GCONST> 1.076657e+02
<STATE> 3
<MEAN> 39
 -3.200435e+01 -6.280493e+00 -1.115976e+00 -1.459466e+01 4.873364e+00 -1.675736e+00 -4.685397e+00 -1.139856e+01 -5.037767e+00 -6.872964e+00 -1.512875e+00 -1.712423e+00 7.790381e+01 8.784516e-01 -2.067881e-01 3.736814e-02 -2.201028e-01 -4.059891e-01 -7.947918e-01 -3.275740e-01 -5.944432e-01 -5.010212e-01 -3.963613e-01 -2.734444e-01 -8.643834e-02 4.596587e-01 9.146733e-01 3.329614e-01 4.325959e-01 2.510751e-01 8.768642e-02 -5.154226e-03 1.032963e-01 8.340249e-02 1.293612e-01 9.460146e-02 -1.083854e-01 -4.809642e-02 -1.526884e-01
<VARIANCE> 39
 6.712315e+00 9.036171e+00 1.563220e+01 1.886325e+01 2.082484e+01 2.596266e+01 1.835303e+01 3.017315e+01 1.786844e+01 1.744012e+01 1.195820e+01 1.002243e+01 9.382355e+00 2.314898e+00 1.126121e+00 1.294330e+00 1.434903e+00 1.405534e+00 1.611572e+00 1.608574e+00 2.140752e+00 1.555514e+00 1.235126e+00 1.005198e+00 8.715323e-01 1.258621e+00 5.728460e-01 2.966221e-01 2.515611e-01 2.741262e-01 2.667750e-01 3.559097e-01 3.252368e-01 4.435223e-01 3.558148e-01 2.891546e-01 2.398007e-01 1.907116e-01 1.062835e-01
<GCONST> 9.488940e+01
<STATE> 4
<MEAN> 39
 -1.936156e+01 -2.780111e+00 2.569245e+00 -1.391178e+01 4.104440e+00 -5.096658e+00 -4.766859e+00 -1.159331e+01 -4.905918e+00 -6.086456e+00 -3.111001e+00 -2.547606e+00 7.784590e+01 6.288466e+00 1.884964e+00 1.507499e+00 1.703843e-01 -1.114631e+00 -4.822864e-01 -7.400356e-01 -3.593245e-01 4.489438e-01 7.341825e-01 -1.388177e+00 -4.431910e-01 3.843932e-01 3.129811e-01 -6.553468e-02 -1.844237e-01 1.346059e-04 -3.684776e-01 2.595752e-01 -2.852831e-01 -1.862847e-02 1.768871e-01 2.080515e-01 -2.710475e-01 6.934784e-03 2.939904e-02
<VARIANCE> 39
 1.011677e+02 3.460118e+01 3.019153e+01 3.122918e+01 2.837111e+01 2.682158e+01 2.088489e+01 3.295689e+01 2.287029e+01 2.462568e+01 1.816915e+01 1.160163e+01 2.041244e+01 5.061253e+00 3.252459e+00 3.822838e+00 3.515852e+00 3.153706e+00 3.829522e+00 3.641662e+00 5.045739e+00 3.601311e+00 3.339805e+00 2.425831e+00 1.513217e+00 1.798818e+00 1.895172e+00 7.702605e-01 5.431190e-01 4.753235e-01 3.739030e-01 5.395065e-01 6.910588e-01 4.757591e-01 4.944255e-01 5.211999e-01 4.120934e-01 2.847478e-01 1.780992e-01
<GCONST> 1.208194e+02
<TRANSP> 5
 0.000000e+00 1.000000e+00 0.000000e+00 0.000000e+00 0.000000e+00
 0.000000e+00 8.484347e-01 1.515653e-01 0.000000e+00 0.000000e+00
 0.000000e+00 0.000000e+00 7.774117e-01 2.225883e-01 0.000000e+00
 0.000000e+00 0.000000e+00 0.000000e+00 6.077430e-01 3.922569e-01
 0.000000e+00 0.000000e+00 0.000000e+00 0.000000e+00 0.000000e+00
<ENDHMM>
~h "g"
<BEGINHMM>
<NUMSTATES> 5
<STATE> 2
<MEAN> 39
 -1.107032e+01 8.828729e+00 9.335082e+00 5.524992e+00 5.140922e+00 7.590719e-01 -5.120186e+00 -8.610790e+00 -6.888537e+00 -5.444556e+00 -2.874032e+00 -1.931274e+00 6.343357e+01 -2.060115e-01 -5.471325e-01 -1.241250e+00 -1.549696e+00 4.188019e-01 1.156795e-01 5.870377e-01 -4.209022e-01 -6.186686e-01 -9.876084e-01 4.348128e-01 -1.365628e-01 9.717179e-01 -1.649412e-02 -8.408147e-01 -5.388959e-01 -9.340725e-01 2.008801e-01 -9.116861e-02 -1.692462e-01 -5.144880e-01 -5.032564e-02 -1.164369e-01 1.029145e-01 -2.213830e-01 8.946345e-01
<VARIANCE> 39
 3.016933e+01 4.056483e+01 3.551041e+01 2.944984e+01 2.638282e+01 2.275351e+01 3.353805e+01 4.362675e+01 2.948242e+01 3.509150e+01 2.004872e+01 1.934503e+01 2.201070e+01 3.218883e+00 6.763256e+00 5.156919e+00 8.038467e+00 4.712164e+00 3.395530e+00 5.279856e+00 6.027136e+00 3.939687e+00 3.524578e+00 2.349422e+00 2.623572e+00 5.773546e+00 5.433798e-01 5.932044e-01 8.206591e-01 9.642076e-01 8.223146e-01 5.919560e-01 9.077209e-01 9.513833e-01 6.328361e-01 5.822175e-01 4.411393e-01 3.709673e-01 6.836762e-01
<GCONST> 1.292383e+02
<STATE> 3
<MEAN> 39
 -1.430370e+01 -1.616464e+00 -3.739821e-01 -9.049771e+00 6.974802e+00 -1.019594e+00 -2.912437e+00 -1.196216e+01 -8.363961e+00 -9.702323e+00 -1.540414e-01 -5.580281e+00 7.404436e+01 1.271003e+00 -9.599209e-01 2.957132e-01 -1.674185e+00 6.224579e-01 9.295952e-02 -1.071452e+00 -2.591366e+00 -1.407159e+00 -1.202245e+00 -8.581877e-04 -7.449192e-02 2.847309e+00 7.330112e-01 5.840725e-01 8.188267e-01 9.585681e-01 -3.784454e-01 2.607549e-01 -5.585555e-01 -1.574484e-01 5.644214e-02 4.071624e-01 -4.930302e-01 4.899538e-01 -5.426245e-01
<VARIANCE> 39
 1.968079e+01 4.997530e+01 4.885199e+01 7.941482e+01 4.899063e+01 5.572939e+01 7.626195e+01 7.194366e+01 4.365103e+01 3.918690e+01 2.380391e+01 2.671536e+01 2.116566e+01 3.653984e+00 5.504641e+00 6.182409e+00 8.519423e+00 3.349925e+00 4.261826e+00 5.478850e+00 6.425059e+00 3.329286e+00 4.103797e+00 2.407856e+00 2.861737e+00 4.476146e+00 4.499025e-01 7.321242e-01 1.081483e+00 1.054049e+00 8.977867e-01 9.317716e-01 1.345943e+00 1.300491e+00 8.926117e-01 7.442262e-01 5.003873e-01 6.280422e-01 5.880762e-01
<GCONST> 1.368393e+02
<STATE> 4
<MEAN> 39
 -5.729194e+00 -5.246526e-01 4.153777e+00 -7.539826e+00 6.889249e+00 3.259506e+00 -9.538176e+00 -2.182300e+01 -1.280341e+01 -1.006234e+01 -2.557197e+00 -1.817509e+00 7.773912e+01 1.916688e+00 -2.192318e-01 -3.773818e-01 -1.000779e+00 -1.555693e+00 -3.470717e-01 -1.340499e+00 -5.722390e-01 4.458939e-01 2.515358e-01 -1.220774e+00 9.427661e-01 9.356294e-01 -3.447968e-01 6.035119e-02 -2.747760e-01 -4.280389e-02 -4.906476e-01 -5.467721e-01 2.710132e-01 1.017277e+00 8.651132e-01 4.307608e-01 1.273668e-02 -1.209119e-01 -3.533263e-01
<VARIANCE> 39
 3.490631e+01 2.967200e+01 2.890622e+01 6.425889e+01 4.125843e+01 4.491506e+01 6.675692e+01 8.079356e+01 3.507727e+01 3.717159e+01 3.081829e+01 3.196848e+01 3.818225e+01 3.644262e+00 2.576932e+00 4.621470e+00 4.351063e+00 4.751444e+00 4.545613e+00 5.380542e+00 8.614374e+00 5.301565e+00 4.168889e+00 3.721704e+00 3.687489e+00 2.016932e+00 4.293489e-01 3.280329e-01 8.202122e-01 7.778912e-01 5.538040e-01 5.415430e-01 1.028132e+00 1.034446e+00 7.479755e-01 6.020342e-01 5.641604e-01 6.132566e-01 2.079683e-01
<GCONST> 1.315573e+02
<TRANSP> 5
 0.000000e+00 1.000000e+00 0.000000e+00 0.000000e+00 0.000000e+00
 0.000000e+00 6.890348e-01 3.109652e-01 0.000000e+00 0.000000e+00
 0.000000e+00 0.000000e+00 5.967096e-01 4.032904e-01 0.000000e+00
 0.000000e+00 0.000000e+00 0.000000e+00 5.614663e-01 4.385336e-01
 0.000000e+00 0.000000e+00 0.000000e+00 0.000000e+00 0.000000e+00
<ENDHMM>
~h "h"
<BEGINHMM>
<NUMSTATES> 5
<STATE> 2
<MEAN> 39
 -1.444164e+01 -5.474280e+00 -4.935163e+00 -5.680309e+00 -4.964199e+00 -5.577487e+00 -1.044561e+01 -8.459505e+00 -7.019416e-01 -1.383893e+00 -3.455479e+00 -1.614227e+00 6.418643e+01 1.258089e+00 -2.077309e+00 -7.316025e-02 -1.077060e+00 -7.497076e-01 -1.038306e+00 -1.405743e+00 -1.260331e+00 5.736093e-01 -4.587286e-02 -8.717311e-01 -1.002366e-01 2.348740e+00 -2.779903e-01 1.400722e-01 5.004050e-01 -1.011495e-02 3.299012e-01 2.848139e-01 5.463455e-01 2.672001e-01 2.742296e-01 5.844932e-04 -7.178831e-03 1.294024e-02 1.267012e-01
<VARIANCE> 39
 9.229826e+00 2.853668e+01 3.828805e+01 4.579433e+01 4.511383e+01 2.645472e+01 5.012212e+01 4.061983e+01 3.108776e+01 3.646331e+01 3.288048e+01 1.612696e+01 3.166443e+01 1.302122e+00 1.748485e+00 2.928869e+00 2.166870e+00 2.079876e+00 2.496716e+00 3.724246e+00 2.836307e+00 2.496520e+00 2.382741e+00 2.067266e+00 1.572240e+00 1.133622e+00 1.213403e-01 4.593855e-01 3.090700e-01 3.816711e-01 3.347016e-01 3.975311e-01 5.124072e-01 3.677047e-01 3.298156e-01 2.880687e-01 3.593628e-01 2.148320e-01 1.161525e-01
<GCONST> 1.101693e+02
<STATE> 3
<MEAN> 39
 -1.323100e+01 -1.137770e+01 -2.093239e+00 -1.041148e+01 -4.414638e+00 -6.926462e+00 -9.557623e+00 -1.007887e+01 3.987835e+00 -1.528234e+00 -4.143071e+00 -1.184380e+00 7.404973e+01 7.696717e-01 7.878484e-01 1.104916e+00 -1.448091e-01 7.077053e-01 7.076239e-01 9.724476e-01 -2.690685e-02 1.083679e+00 5.615487e-01 -2.341581e-01 1.369046e-01 1.465477e+00 3.678420e-01 8.883734e-01 2.854286e-01 2.194404e-01 5.623622e-02 3.911347e-01 2.346381e-01 -1.540547e-01 -2.215109e-01 1.866702e-01 -2.897597e-02 -9.474632e-02 -4.321611e-02
<VARIANCE> 39
 1.002738e+01 2.528923e+01 4.636229e+01 3.420277e+01 6.362835e+01 5.083854e+01 7.391190e+01 4.593052e+01 5.059890e+01 6.167110e+01 5.376977e+01 3.095264e+01 1.738996e+01 1.588616e+00 3.539478e+00 2.510970e+00 2.153298e+00 1.932889e+00 2.926241e+00 2.420325e+00 2.345489e+00 2.043936e+00 2.648767e+00 1.707585e+00 1.430674e+00 1.366754e+00 2.584352e-01 3.372028e-01 3.053564e-01 4.232219e-01 3.960070e-01 4.644614e-01 5.691647e-01 5.126863e-01 4.929013e-01 5.063133e-01 4.238521e-01 3.385935e-01 1.167396e-01
<GCONST> 1.160021e+02
<STATE> 4
<MEAN> 39
 -7.077638e+00 -1.837625e+00 3.568813e+00 -1.002804e+01 -1.362314e+00 -8.213059e-01 -4.285517e+00 -1.285063e+01 4.955652e+00 2.722147e+00 -4.981132e+00 -5.446823e-01 7.888024e+01 2.222713e+00 1.850469e+00 7.613170e-01 -8.325605e-01 -3.795355e-01 9.142689e-01 3.425250e-01 -1.897540e+00 -5.972755e-01 6.453386e-01 -6.678703e-01 -8.252356e-01 1.765682e+00 -4.029410e-02 -6.953174e-01 -6.445046e-01 -2.123198e-01 -2.680770e-01 -4.385725e-01 -4.061607e-01 -2.077652e-01 -5.477501e-01 -3.541575e-01 3.282537e-02 -1.881389e-01 -8.492970e-02
<VARIANCE> 39
 1.784447e+01 2.862570e+01 4.440211e+01 3.855461e+01 7.647047e+01 4.432402e+01 6.989616e+01 6.418600e+01 3.709660e+01 5.427290e+01 3.422770e+01 2.252716e+01 1.809651e+01 1.510502e+00 2.941440e+00 2.871367e+00 2.724012e+00 3.309225e+00 2.500683e+00 4.280141e+00 2.554052e+00 3.009031e+00 3.319545e+00 2.433864e+00 2.015723e+00 1.281082e+00 2.272193e-01 4.332303e-01 2.646438e-01 4.675920e-01 3.890106e-01 3.681749e-01 3.677492e-01 5.275083e-01 3.687730e-01 3.656187e-01 2.885602e-01 2.934767e-01 1.232871e-01
<GCONST> 1.166827e+02
<TRANSP> 5
 0.000000e+00 1.000000e+00 0.000000e+00 0.000000e+00 0.000000e+00
 0.000000e+00 6.836260e-01 3.163740e-01 0.000000e+00 0.000000e+00
 0.000000e+00 0.000000e+00 7.115327e-01 2.884673e-01 0.000000e+00
 0.000000e+00 0.000000e+00 0.000000e+00 5.631621e-01 4.368379e-01
 0.000000e+00 0.000000e+00 0.000000e+00 0.000000e+00 0.000000e+00
<ENDHMM>
~h "i"
<BEGINHMM>
<NUMSTATES> 5
<STATE> 2
<MEAN> 39
 -6.342858e+00 -4.755405e+00 1.231808e+01 4.220665e+00 1.708674e+01 5.718856e-01 -1.616988e+01 -2.542290e+01 -9.070287e+00 -2.642589e+00 -6.010412e+00 -8.579797e+00 8.012334e+01 1.022881e+00 -4.848371e-01 1.612945e+00 2.790499e+00 7.836666e-01 -1.018775e+00 -1.901166e+00 -5.486039e-01 1.112108e-01 1.060297e+00 -6.608975e-01 -1.391147e+00 4.907012e-01 -5.501279e-01 -1.526694e-02 -1.954310e-01 -3.534801e-01 -8.694099e-01 -1.133650e-01 5.930057e-01 9.407681e-01 3.804665e-01 -3.292812e-01 1.429014e-03 3.536522e-01 -3.947816e-01
<VARIANCE> 39
 1.555010e+01 2.081248e+01 3.632442e+01 3.092459e+01 3.659710e+01 3.276220e+01 3.241691e+01 4.184168e+01 2.501182e+01 2.584428e+01 1.947128e+01 2.531250e+01 1.022999e+01 5.919536e+00 2.592374e+00 3.959383e+00 2.939497e+00 4.593271e+00 4.898017e+00 4.531252e+00 7.975894e+00 3.149715e+00 2.938792e+00 3.045870e+00 1.888237e+00 1.472135e+00 5.615022e-01 4.520186e-01 5.332088e-01 4.653687e-01 4.576517e-01 5.933775e-01 6.165090e-01 7.887479e-01 6.831703e-01 4.367349e-01 5.716518e-01 4.014964e-01 1.700797e-01
<GCONST> 1.207849e+02
<STATE> 3
<MEAN> 39
 -7.340994e+00 -5.995090e+00 1.750149e+01 1.196240e+01 1.532484e+01 -4.961701e+00 -1.946990e+01 -1.944838e+01 -5.703278e+00 -1.924627e+00 -7.823543e+00 -9.958390e+00 7.787007e+01 -2.472200e-01 2.145008e-01 2.433847e-01 2.692472e-01 -4.951840e-02 -3.382601e-01 -1.161035e-01 4.696414e-01 2.866918e-01 8.905694e-02 -1.409838e-02 -5.692010e-02 -4.089941e-01 -2.510753e-02 1.547400e-01 -2.407135e-01 -3.000337e-01 9.711178e-03 2.392251e-01 1.898779e-01 -1.000526e-01 -9.679641e-02 -4.206248e-02 7.909475e-02 1.180848e-01 -7.106354e-02
<VARIANCE> 39
 6.163074e+00 1.525653e+01 2.736975e+01 2.626069e+01 2.667587e+01 3.060786e+01 2.863687e+01 4.328226e+01 2.283786e+01 2.048471e+01 2.374398e+01 2.149362e+01 1.061300e+01 3.479098e-01 6.813308e-01 1.588430e+00 1.679281e+00 1.288662e+00 1.474488e+00 1.087437e+00 2.283115e+00 1.230207e+00 1.155106e+00 1.136792e+00 9.749534e-01 2.929052e-01 8.564357e-02 1.135283e-01 2.143608e-01 2.514605e-01 2.488772e-01 2.737364e-01 3.162730e-01 3.345373e-01 2.523042e-01 2.334611e-01 2.153336e-01 2.175710e-01 5.672194e-02
<GCONST> 9.044160e+01
<STATE> 4
<MEAN> 39
 -9.397518e+00 -1.372582e+00 1.411648e+01 7.939191e+00 1.544984e+01 -1.049547e+00 -1.542387e+01 -1.954819e+01 -6.702719e+00 -1.495911e+00 -5.961462e+00 -8.324220e+00 7.404097e+01 -9.898521e-01 8.498176e-01 -9.151841e-01 -8.996372e-01 -1.358794e+00 9.829288e-01 2.530716e+00 1.621696e+00 -3.912724e-02 -5.890426e-01 5.171555e-01 1.007342e+00 -1.143453e+00 -3.223935e-01 -8.984131e-02 -1.244307e-01 -2.255450e-01 -3.954332e-01 5.190206e-02 4.838221e-01 5.090271e-01 2.351961e-01 -1.966346e-01 6.248626e-03 1.646507e-01 -7.793299e-02
<VARIANCE> 39
 2.248922e+01 2.196569e+01 3.891866e+01 4.524776e+01 3.786203e+01 4.037226e+01 4.054950e+01 6.753721e+01 3.356403e+01 2.825782e+01 2.650313e+01 2.707857e+01 3.530801e+01 2.519045e+00 2.299351e+00 2.470154e+00 3.191794e+00 3.133739e+00 3.024075e+00 3.267291e+00 5.697292e+00 3.606371e+00 2.399466e+00 2.275184e+00 1.777482e+00 2.280494e+00 1.950197e-01 2.959531e-01 4.595097e-01 4.841323e-01 4.935833e-01 5.150297e-01 5.949337e-01 7.952452e-01 5.591828e-01 4.139284e-01 3.621508e-01 3.305556e-01 1.874952e-01
<GCONST> 1.192361e+02
<TRANSP> 5
 0.000000e+00 1.000000e+00 0.000000e+00 0.000000e+00 0.000000e+00
 0.000000e+00 6.630198e-01 3.369801e-01 0.000000e+00 0.000000e+00
 0.000000e+00 0.000000e+00 8.704122e-01 1.295878e-01 0.000000e+00
 0.000000e+00 0.000000e+00 0.000000e+00 7.335507e-01 2.664493e-01
 0.000000e+00 0.000000e+00 0.000000e+00 0.000000e+00 0.000000e+00
<ENDHMM>
~h "j"
<BEGINHMM>
<NUMSTATES> 5
<STATE> 2
<MEAN> 39
 -1.885152e+01 -8.898345e+00 1.097829e+01 5.818578e-01 1.022050e+01 -3.159887e+00 -7.812194e+00 -1.323071e+01 -1.069671e+00 -5.002198e+00 -3.991856e+00 -4.940214e+00 7.552639e+01 2.756113e+00 1.147682e+00 1.241084e+00 2.002333e+00 2.412727e+00 7.218974e-01 -1.616055e+00 -1.936116e+00 -1.159485e+00 1.028477e-01 -1.112658e-01 -7.305256e-02 8.180739e-01 6.274077e-01 4.149377e-01 -2.376155e-01 1.024844e-01 1.282525e-02 4.273424e-01 -1.887966e-01 -5.290602e-01 -6.421608e-01 -9.033748e-02 7.338513e-02 1.997437e-01 -7.525618e-02
<VARIANCE> 39
 7.444929e+01 9.862987e+01 5.689745e+01 5.206178e+01 4.568077e+01 4.038613e+01 3.578051e+01 4.150084e+01 4.234679e+01 2.997762e+01 1.994297e+01 2.554886e+01 4.020628e+01 5.576132e+00 5.309217e+00 3.939860e+00 3.379728e+00 2.652638e+00 4.533006e+00 2.677475e+00 4.389349e+00 4.667448e+00 2.156911e+00 1.459205e+00 1.483651e+00 1.536190e+00 7.369333e-01 8.104585e-01 8.438246e-01 7.760304e-01 6.646977e-01 5.675876e-01 5.581164e-01 9.043083e-01 7.153955e-01 4.287587e-01 2.701195e-01 3.328066e-01 2.258479e-01
<GCONST> 1.272323e+02
<STATE> 3
<MEAN> 39
 -6.660116e+00 -3.749232e+00 1.174915e+01 6.069359e+00 1.724840e+01 1.006339e+00 -1.601337e+01 -2.406821e+01 -7.628778e+00 -4.050532e+00 -3.650934e+00 -6.434208e+00 7.873210e+01 1.530751e+00 -2.743323e-02 -8.636993e-01 -3.946874e-01 4.314919e-01 9.215146e-01 -9.846140e-01 -2.230489e+00 -1.364296e+00 -2.886674e-01 -3.912530e-02 2.644596e-01 7.609444e-01 -4.459859e-01 -1.312612e-01 -4.323712e-01 -7.472606e-01 -6.402901e-01 -2.311164e-02 5.211602e-01 4.867283e-01 1.317595e-01 -3.095083e-01 -7.905968e-02 2.021092e-01 -1.535141e-01
<VARIANCE> 39
 8.553200e+00 1.731210e+01 2.847887e+01 3.184081e+01 2.605307e+01 3.436543e+01 2.584017e+01 3.831194e+01 3.402204e+01 2.759132e+01 1.528785e+01 3.401254e+01 1.269009e+01 3.598120e+00 2.933177e+00 2.462272e+00 2.875057e+00 1.982789e+00 3.083494e+00 2.648313e+00 3.649197e+00 3.873078e+00 2.435634e+00 1.501569e+00 1.969893e+00 6.795298e-01 4.382446e-01 3.687390e-01 3.652125e-01 4.023541e-01 4.603420e-01 4.908325e-01 3.678529e-01 7.649089e-01 6.332427e-01 4.805120e-01 2.862473e-01 3.217368e-01 8.308519e-02
<GCONST> 1.115954e+02
<STATE> 4
<MEAN> 39
 -3.540483e+00 -4.517961e+00 5.744673e+00 -1.097093e+00 1.545452e+01 5.702428e+00 -1.420838e+01 -2.864781e+01 -1.316823e+01 -8.735212e+00 -3.935486e+00 -1.852798e+00 8.065073e+01 4.542262e-01 6.149927e-01 -9.469899e-01 -1.750695e+00 -9.893654e-01 3.722677e-01 8.620728e-01 9.125597e-01 -5.062472e-01 -1.385719e+00 -7.471059e-01 8.328390e-01 -1.911128e-01 -2.055098e-01 1.448239e-01 1.886062e-01 1.549787e-01 -2.074467e-01 -2.834569e-01 2.037997e-01 7.610557e-01 5.196827e-01 6.187028e-02 -2.555402e-01 -2.066029e-01 -2.452798e-01
<VARIANCE> 39
 5.296318e+00 1.160839e+01 2.945351e+01 4.081102e+01 2.928276e+01 5.758604e+01 2.994609e+01 3.855499e+01 3.033529e+01 3.782837e+01 2.288622e+01 3.091379e+01 6.649273e+00 4.554701e-01 8.461308e-01 1.007015e+00 1.856287e+00 2.232654e+00 1.856575e+00 2.179029e+00 3.048394e+00 2.891767e+00 2.706205e+00 2.810472e+00 1.988226e+00 3.484018e-01 1.706467e-01 1.624473e-01 1.875514e-01 3.418388e-01 2.802624e-01 3.673231e-01 3.609258e-01 5.526790e-01 6.356004e-01 4.533676e-01 3.309456e-01 3.194483e-01 6.144326e-02
<GCONST> 1.020831e+02
<TRANSP> 5
 0.000000e+00 1.000000e+00 0.000000e+00 0.000000e+00 0.000000e+00
 0.000000e+00 6.289026e-01 3.710974e-01 0.000000e+00 0.000000e+00
 0.000000e+00 0.000000e+00 7.286881e-01 2.713119e-01 0.000000e+00
 0.000000e+00 0.000000e+00 0.000000e+00 7.414303e-01 2.585696e-01
 0.000000e+00 0.000000e+00 0.000000e+00 0.000000e+00 0.000000e+00
<ENDHMM>
~h "k"
<BEGINHMM>
<NUMSTATES> 5
<STATE> 2
<MEAN> 39
 -2.038831e+01 2.081645e-01 4.624960e+00 1.947878e+00 3.145542e+00 1.693971e+00 -7.434998e-02 -3.166041e+00 -2.036593e+00 -2.348674e+00 -2.346051e+00 -2.603736e+00 5.985271e+01 -2.828132e-01 -1.161145e+00 -2.482947e+00 -2.811333e+00 -1.543845e-01 -1.888145e-01 2.214499e-01 -4.717611e-01 -5.839423e-01 -8.191442e-01 5.767922e-01 8.175735e-03 1.021535e+00 4.980350e-01 -4.151675e-01 -2.424447e-01 -9.906964e-01 -4.186682e-02 -4.757374e-01 -7.353599e-01 -1.200668e+00 -4.604420e-01 -4.173834e-01 6.552782e-02 -4.862471e-02 1.270733e+00
<VARIANCE> 39
 1.672658e+01 3.217875e+01 5.328330e+01 5.591266e+01 4.449767e+01 2.496751e+01 3.096687e+01 3.993763e+01 2.441763e+01 2.734280e+01 2.314885e+01 2.086448e+01 2.662260e+01 2.932285e+00 4.073017e+00 4.476164e+00 9.512880e+00 5.347270e+00 4.656879e+00 7.189497e+00 1.135625e+01 4.724925e+00 4.228759e+00 2.626489e+00 2.912392e+00 8.994344e+00 2.780486e-01 5.428152e-01 1.030685e+00 1.305575e+00 8.725111e-01 5.730585e-01 7.741667e-01 9.821205e-01 6.178578e-01 5.977709e-01 4.614782e-01 4.009494e-01 5.227806e-01
<GCONST> 1.312455e+02
<STATE> 3
<MEAN> 39
 -1.769167e+01 -5.524505e+00 -4.567238e+00 -1.532035e+01 9.645680e-01 -3.870619e+00 -3.740302e+00 -1.330694e+01 -8.326126e+00 -9.935901e+00 -8.386981e-01 -3.793199e+00 7.321360e+01 5.838568e-01 -1.276682e+00 5.492270e-02 -1.810996e+00 -1.059912e-01 -1.136210e+00 -1.460232e+00 -2.635823e+00 -1.160052e+00 -1.441866e+00 -1.136989e-01 1.301680e-02 2.975135e+00 -1.521454e-02 3.296046e-01 9.544363e-01 1.471440e+00 1.331111e-01 4.497825e-01 1.649164e-01 6.218396e-01 4.794834e-01 6.489846e-01 -1.088734e-01 2.713155e-01 -8.412226e-01
<VARIANCE> 39
 1.119385e+01 3.716445e+01 3.168571e+01 6.000665e+01 6.215609e+01 5.429395e+01 6.560572e+01 5.554911e+01 3.954077e+01 3.331293e+01 2.931675e+01 3.143609e+01 2.798056e+01 2.326425e+00 4.045407e+00 4.115274e+00 7.576661e+00 3.938563e+00 3.869226e+00 3.939671e+00 5.198092e+00 3.962270e+00 3.443831e+00 2.806831e+00 2.497148e+00 5.110683e+00 5.253767e-01 6.004852e-01 8.716803e-01 7.828948e-01 9.313139e-01 9.514990e-01 1.039216e+00 1.034741e+00 7.268945e-01 6.800405e-01 6.257353e-01 5.430038e-01 5.583093e-01
<GCONST> 1.325902e+02
<STATE> 4
<MEAN> 39
 -1.625680e+01 -6.624465e+00 -7.578447e-01 -1.033750e+01 2.635639e+00 -2.209613e+00 -6.050537e+00 -1.482805e+01 -8.113861e+00 -8.061116e+00 -6.952778e-01 -1.125143e+00 7.309718e+01 1.442963e+00 8.952855e-01 1.276069e+00 1.115871e+00 8.364176e-02 7.450303e-01 1.056107e-02 4.156660e-01 6.953088e-01 9.802964e-01 -2.571959e-01 3.914192e-01 -5.543163e-02 3.781195e-01 4.677604e-01 6.207294e-02 1.842941e-02 -1.642679e-01 1.005041e-01 9.990347e-02 3.243483e-01 2.349142e-01 2.426172e-01 -1.502831e-01 -1.336104e-01 -1.437249e-01
<VARIANCE> 39
 2.725014e+01 3.663099e+01 4.363519e+01 5.512463e+01 3.618668e+01 4.372170e+01 4.491169e+01 5.359008e+01 4.776703e+01 3.486234e+01 2.354819e+01 2.314481e+01 5.597523e+01 6.012821e+00 4.107636e+00 3.709157e+00 2.828002e+00 3.255059e+00 4.031091e+00 4.025675e+00 4.873450e+00 3.494765e+00 2.691173e+00 2.664152e+00 2.558944e+00 2.028374e+00 6.782188e-01 6.793441e-01 6.304207e-01 6.113687e-01 5.615285e-01 8.303613e-01 7.841945e-01 9.194359e-01 6.539087e-01 5.585433e-01 4.217464e-01 4.309395e-01 3.921606e-01
<GCONST> 1.287737e+02
<TRANSP> 5
 0.000000e+00 1.000000e+00 0.000000e+00 0.000000e+00 0.000000e+00
 0.000000e+00 6.800815e-01 3.199186e-01 0.000000e+00 0.000000e+00
 0.000000e+00 0.000000e+00 6.462423e-01 3.537577e-01 0.000000e+00
 0.000000e+00 0.000000e+00 0.000000e+00 7.097859e-01 2.902141e-01
 0.000000e+00 0.000000e+00 0.000000e+00 0.000000e+00 0.000000e+00
<ENDHMM>
~h "l"
<BEGINHMM>
<NUMSTATES> 5
<STATE> 2
<MEAN> 39
 -2.415737e+00 1.207150e+00 9.278040e+00 -4.235553e+00 -3.130945e+00 -4.500944e+00 -7.575244e+00 -9.312241e+00 -6.817834e+00 -1.161319e+01 -1.362125e+01 -6.810930e+00 7.571603e+01 1.639579e+00 6.996178e-01 2.606627e-01 3.960594e-01 -1.149932e+00 -8.350686e-01 -2.859747e-01 7.280510e-01 -2.968750e-01 -9.929673e-01 -1.321931e+00 -4.790390e-01 4.007266e-01 -6.187783e-01 -4.736919e-01 -5.208356e-01 -3.962161e-01 2.580453e-01 1.869089e-02 -3.963361e-02 -5.216815e-01 8.225606e-02 4.636065e-01 8.616310e-01 4.264358e-01 7.606202e-02
<VARIANCE> 39
 1.886801e+01 3.033272e+01 3.397311e+01 3.620792e+01 5.411246e+01 6.451204e+01 5.233644e+01 4.619756e+01 3.866590e+01 4.148922e+01 3.526113e+01 2.353539e+01 2.582385e+01 4.582588e+00 2.316119e+00 2.675185e+00 2.738181e+00 3.564069e+00 3.006742e+00 3.271344e+00 4.825972e+00 3.639117e+00 3.079744e+00 4.599193e+00 2.260351e+00 2.188601e+00 4.909214e-01 4.198969e-01 5.437087e-01 5.956719e-01 4.954298e-01 4.814728e-01 6.428980e-01 7.946546e-01 5.791838e-01 5.523542e-01 7.693282e-01 4.222340e-01 2.380820e-01
<GCONST> 1.249582e+02
<STATE> 3
<MEAN> 39
 -1.068864e+00 2.710677e-01 7.577868e+00 -5.602829e+00 -4.665367e+00 -6.497290e+00 -8.412412e+00 -1.006812e+01 -6.099380e+00 -1.162840e+01 -1.273707e+01 -5.093158e+00 7.741673e+01 -1.932143e-01 -3.916950e-01 -6.640754e-01 -7.049362e-01 2.343112e-01 -6.312479e-01 -3.619711e-01 -9.573212e-01 7.907337e-02 8.323652e-01 1.402917e+00 8.501679e-01 5.961390e-01 -1.866028e-01 -1.423463e-01 -2.114564e-01 -2.239869e-01 2.430254e-01 1.409277e-01 -9.371194e-02 -4.364302e-01 9.622412e-02 4.896908e-01 4.174474e-01 1.518112e-01 1.163677e-01
<VARIANCE> 39
 6.838099e+00 2.329020e+01 4.333035e+01 4.085800e+01 7.563639e+01 7.122963e+01 6.980822e+01 4.555119e+01 7.303126e+01 5.348396e+01 3.831404e+01 3.139732e+01 1.318768e+01 4.836128e-01 1.273189e+00 2.648260e+00 3.438046e+00 2.762667e+00 2.937529e+00 2.936696e+00 4.511018e+00 3.550602e+00 3.242465e+00 3.843586e+00 2.507320e+00 1.210653e+00 1.540237e-01 1.740897e-01 3.672774e-01 4.547769e-01 3.383738e-01 4.038438e-01 5.122823e-01 5.764005e-01 7.220997e-01 6.127134e-01 5.929967e-01 4.227959e-01 1.174933e-01
<GCONST> 1.171681e+02
<STATE> 4
<MEAN> 39
 -4.373665e+00 6.915417e+00 1.014029e+01 -1.892777e+00 -7.629411e+00 -1.440996e+01 -1.628515e+01 -8.652847e+00 -6.364315e+00 -8.685385e+00 -3.981011e+00 -1.321373e+00 7.099220e+01 -7.642057e-01 -1.069507e-01 -3.381867e-01 8.652900e-02 6.784258e-01 6.309651e-01 6.674995e-01 -1.421212e-01 -1.449818e-01 5.702243e-01 6.776134e-01 2.499776e-01 -4.500398e-01 -1.538938e-01 -1.640029e-01 -2.629253e-02 -2.238646e-02 1.136437e-01 2.611925e-01 2.304592e-01 1.618445e-02 1.320777e-01 8.564197e-02 -1.362544e-01 -1.117963e-01 -2.255274e-02
<VARIANCE> 39
 2.056520e+01 4.183076e+01 4.142786e+01 4.107452e+01 5.267495e+01 6.105827e+01 6.326917e+01 4.498229e+01 3.992992e+01 4.149317e+01 2.650344e+01 2.364644e+01 4.776363e+01 1.126276e+00 1.887713e+00 2.171300e+00 2.549855e+00 2.219543e+00 3.037386e+00 3.835319e+00 3.655510e+00 3.215331e+00 2.936074e+00 2.190132e+00 1.593344e+00 1.352325e+00 1.691709e-01 2.291977e-01 2.805442e-01 2.941089e-01 2.940054e-01 3.595298e-01 4.224293e-01 3.533024e-01 3.574334e-01 2.989372e-01 2.917419e-01 2.526994e-01 8.085821e-02
<GCONST> 1.131809e+02
<TRANSP> 5
 0.000000e+00 1.000000e+00 0.000000e+00 0.000000e+00 0.000000e+00
 0.000000e+00 5.763634e-01 4.236366e-01 0.000000e+00 0.000000e+00
 0.000000e+00 0.000000e+00 6.679399e-01 3.320601e-01 0.000000e+00
 0.000000e+00 0.000000e+00 0.000000e+00 7.618400e-01 2.381599e-01
 0.000000e+00 0.000000e+00 0.000000e+00 0.000000e+00 0.000000e+00
<ENDHMM>
~h "m"
<BEGINHMM>
<NUMSTATES> 5
<STATE> 2
<MEAN> 39
 -7.164601e+00 6.988333e+00 7.306936e+00 1.645885e+00 7.345416e+00 5.046899e+00 -9.705662e-01 -1.013691e+01 -6.671740e+00 -4.693080e+00 -7.348802e+00 -4.623087e+00 6.815178e+01 1.963728e+00 1.312395e+00 -9.465619e-02 2.621039e-01 1.084884e+00 1.182156e+00 -6.160491e-01 -1.655639e+00 -1.024849e+00 -3.979146e-01 -8.024055e-01 -7.275031e-01 6.811600e-01 -2.602809e-01 -5.781935e-01 -5.790871e-01 -5.754495e-01 -3.875254e-01 -3.799934e-01 -2.739583e-01 -1.156807e-01 2.350020e-01 1.162009e-01 1.282431e-01 -1.993290e-02 1.621118e-01
<VARIANCE> 39
 2.885073e+01 2.681814e+01 2.328026e+01 2.126202e+01 1.984435e+01 2.407340e+01 2.382576e+01 4.467157e+01 2.514178e+01 2.006986e+01 2.141426e+01 2.218158e+01 4.243403e+01 4.781082e+00 1.886003e+00 3.186375e+00 2.891865e+00 2.241159e+00 2.239044e+00 2.117744e+00 4.409848e+00 2.589229e+00 1.584893e+00 1.713128e+00 1.528671e+00 3.475406e+00 4.038398e-01 2.731702e-01 3.726552e-01 2.594135e-01 3.198076e-01 2.799292e-01 3.798705e-01 5.819641e-01 4.084566e-01 2.961824e-01 3.030825e-01 2.811981e-01 1.677080e-01
<GCONST> 1.108711e+02
<STATE> 3
<MEAN> 39
 -5.103060e+00 7.681190e+00 5.545072e+00 2.687274e-01 8.225961e+00 5.293322e+00 -2.988660e+00 -1.248246e+01 -6.539894e+00 -4.626919e+00 -8.895483e+00 -6.723069e+00 6.931033e+01 -9.431789e-02 -7.483913e-03 -1.615313e-01 -1.620011e-01 2.728102e-02 2.378063e-02 -1.219289e-01 -6.045232e-03 5.665251e-02 -4.563168e-02 1.678330e-01 -2.027736e-01 -4.746474e-02 -1.534302e-01 -1.601619e-01 1.319304e-02 -1.333910e-01 -2.357219e-01 -2.246887e-01 4.028486e-02 1.783195e-01 1.565115e-01 6.215381e-02 1.564100e-01 1.136901e-01 4.749970e-02
<VARIANCE> 39
 1.339709e+01 1.698504e+01 1.671962e+01 1.995098e+01 2.503505e+01 3.373716e+01 2.618145e+01 5.436978e+01 2.659626e+01 1.718283e+01 1.756301e+01 2.195884e+01 2.184514e+01 5.181870e-01 8.087233e-01 1.024295e+00 1.084019e+00 9.385515e-01 1.212310e+00 1.160086e+00 1.488621e+00 9.217256e-01 9.286182e-01 8.736606e-01 1.010589e+00 7.548588e-01 1.294488e-01 1.550965e-01 1.867430e-01 2.645862e-01 2.861448e-01 2.632354e-01 2.545649e-01 2.870299e-01 2.537278e-01 2.093930e-01 1.767637e-01 2.167373e-01 1.032855e-01
<GCONST> 9.084148e+01
<STATE> 4
<MEAN> 39
 -4.424535e+00 5.559781e+00 3.603052e+00 -3.222400e+00 5.906162e+00 4.064798e+00 -2.074969e+00 -1.184970e+01 -5.531335e+00 -5.054092e+00 -6.948752e+00 -6.743062e+00 7.205787e+01 -3.293486e-01 -1.103868e+00 -4.245611e-01 -1.310118e+00 -1.492199e+00 -1.372548e+00 -3.323863e-01 5.179215e-02 1.043139e+00 4.874523e-01 6.866988e-01 6.813717e-01 9.482541e-01 -1.924920e-01 -4.366588e-01 1.185497e-01 -1.785505e-02 -2.088263e-01 -2.708073e-01 -1.721148e-01 -4.225845e-02 2.314392e-01 1.887292e-01 7.445909e-02 3.014729e-01 2.045777e-01
<VARIANCE> 39
 2.804533e+01 1.965542e+01 2.765136e+01 4.344743e+01 3.533671e+01 4.048225e+01 3.040644e+01 6.438702e+01 3.159684e+01 1.830478e+01 1.978169e+01 2.395958e+01 4.257469e+01 1.120353e+00 2.250751e+00 2.074065e+00 4.193121e+00 3.799900e+00 2.495305e+00 2.828897e+00 3.974561e+00 2.716450e+00 2.372902e+00 1.630240e+00 2.457604e+00 3.679171e+00 1.183245e-01 2.524620e-01 3.573510e-01 5.484741e-01 5.171806e-01 4.529311e-01 4.396242e-01 4.610878e-01 3.589481e-01 4.113553e-01 2.881007e-01 3.522663e-01 2.323622e-01
<GCONST> 1.146617e+02
<TRANSP> 5
 0.000000e+00 1.000000e+00 0.000000e+00 0.000000e+00 0.000000e+00
 0.000000e+00 5.640973e-01 4.359026e-01 0.000000e+00 0.000000e+00
 0.000000e+00 0.000000e+00 8.034636e-01 1.965364e-01 0.000000e+00
 0.000000e+00 0.000000e+00 0.000000e+00 6.149166e-01 3.850834e-01
 0.000000e+00 0.000000e+00 0.000000e+00 0.000000e+00 0.000000e+00
<ENDHMM>
~h "n"
<BEGINHMM>
<NUMSTATES> 5
<STATE> 2
<MEAN> 39
 -4.468053e+00 4.317405e+00 8.453950e+00 1.650900e+00 7.133597e+00 1.769680e+00 -4.324879e+00 -1.242292e+01 -5.212783e+00 -5.628357e+00 -9.174694e+00 -6.996876e+00 7.315266e+01 2.263710e-01 1.468112e+00 2.546345e-01 1.460480e+00 5.139616e-01 6.924589e-01 -3.113304e-01 -2.258572e-01 4.090335e-02 -7.463459e-01 -8.848598e-01 -5.310585e-01 -1.132375e+00 -1.587344e-01 -3.410896e-01 -2.798674e-01 -6.365685e-01 -1.514407e-01 -1.663119e-01 -2.557998e-01 -2.989309e-01 1.685209e-01 2.845114e-01 3.268729e-01 1.114684e-01 3.080083e-01
<VARIANCE> 39
